{
    "h0.weight": [
        [
            -0.033046456548154926,
            -0.04988341882614826,
            -0.14943842900769266,
            0.011827450949656308,
            -0.21892473126511144,
            -0.24314501244109152,
            -0.012711866732731076,
            0.07053346252481395,
            0.03548590423827262,
            0.1945019358907768,
            0.22345950657682667,
            -0.11859621292894208,
            -0.05604552963306334,
            -0.14488802223174085,
            -0.017505324367616204,
            0.23109328021938608,
            0.04583594795864315,
            0.01217923954838897,
            0.09029468848074795,
            0.020943851311960388
        ],
        [
            -0.11189908980044856,
            0.11230066236212961,
            0.2987120760505652,
            0.21371156185027457,
            -0.15056297248020492,
            0.03012065081663342,
            0.09437470201694838,
            0.04947142425309381,
            0.18465228881907872,
            -0.28734608367419723,
            -0.10038719770286172,
            0.0015619800338448,
            0.1836759544658645,
            0.12867658852868985,
            0.20135659666310834,
            -0.0788083976810436,
            -0.04872866009502085,
            0.010375495080948668,
            -0.04019626061994619,
            0.05825846266822322
        ],
        [
            -0.12959109586361617,
            0.2881942965055877,
            -0.02883944246124881,
            0.021275635476885792,
            0.016435026727552874,
            -0.05031116973253557,
            -0.05788019536447763,
            0.1675117420016999,
            0.04297681031750543,
            -0.0023153733047397594,
            -0.00010419289305456997,
            0.006807764008962692,
            0.09607068492017212,
            -0.3208407579366691,
            0.03198846238776569,
            -0.08374016824971091,
            0.05068696702432835,
            -0.04266574676534713,
            0.024024047532347517,
            -0.006837503688624814
        ],
        [
            -0.22553917219794944,
            0.002831632334351351,
            0.2763062041229796,
            0.14437251932146,
            0.17352192534382452,
            -0.14335938179878235,
            -0.09479034123212475,
            -0.24190554991591764,
            -0.15950549098286607,
            0.1117089430697786,
            0.122619634027577,
            0.3360804914495527,
            0.04168920391030003,
            -0.1823340210774245,
            0.1348410301606481,
            -0.15899209441393286,
            0.009882500591636537,
            -0.011584402745527323,
            0.024947631624592678,
            -0.013593670542865768
        ],
        [
            0.019721096782096333,
            0.2459069861385262,
            0.31524535725278274,
            -0.2584227262273117,
            -0.00564446719872667,
            -0.16868393388251646,
            0.13909065965280584,
            -0.09720678714242807,
            0.05554921187146512,
            -0.14838356628729757,
            -0.1592597905266115,
            -0.049779755544075495,
            0.16835218304536562,
            -0.03044014491450803,
            0.04176929481136427,
            -0.14137118195087237,
            0.066089504641874,
            -0.029859301104751882,
            0.01855075786723015,
            -0.016526815672793696
        ],
        [
            -0.062082821896654164,
            0.15146445247711382,
            -0.06554897285036937,
            -0.12556015073906113,
            -0.20330702218085947,
            -0.09932577371451104,
            0.029056213845511842,
            0.2532005341846132,
            0.13242726187583737,
            -0.00014446018548780107,
            0.1477293384013642,
            -0.06756784936949602,
            -0.03160151439102724,
            0.0662228651148873,
            0.09881821074514938,
            -0.16052299111384774,
            -0.06548499602397034,
            0.029705361840000406,
            -0.04620809477734592,
            -0.03826231443889112
        ],
        [
            0.023461541967535814,
            0.20640459013966075,
            0.12970786635455375,
            -0.04944029589770111,
            -0.2512341365787157,
            0.2421479407964243,
            0.20752302553665725,
            -0.11237515183457344,
            0.09284646774253369,
            -0.1810876363740159,
            -0.09532639713170506,
            -0.22463626130463168,
            0.08466621040173536,
            -0.22708011630785507,
            0.09956543989708987,
            0.1077218038286046,
            0.0017659603381863663,
            0.003097327166419148,
            0.033124373882448384,
            -0.01774908117371025
        ],
        [
            -0.1668828561831757,
            0.2732573654296193,
            -0.18683734861682752,
            -0.04708740978191153,
            -0.3217931413631776,
            -0.09874196323091808,
            0.08987578711556132,
            0.07814767250462806,
            0.1972148484924421,
            -0.015830805606970578,
            0.060359037841320684,
            -0.21153048346224226,
            0.26353533209634517,
            -0.09918771770378944,
            0.0278953372503544,
            0.04641277984243298,
            0.00943689739573256,
            -0.011279915351489082,
            0.04905470595844936,
            -0.00014665226982609104
        ],
        [
            0.05458225061963435,
            -0.05279666546336916,
            -0.1886784374611528,
            0.37046225338369476,
            0.010332190735039245,
            -0.2528368030638568,
            0.16225233743230683,
            0.02655579859941376,
            -0.11017615945175521,
            0.236313779450794,
            -0.10265315745039405,
            -0.09851887995530344,
            0.0800515825902803,
            -0.005269892918501012,
            0.12091946314811035,
            -0.13775143586312294,
            -0.05655234869420018,
            0.007131810541877316,
            0.028358719455677122,
            -0.05559749696831636
        ],
        [
            -0.07834306867648008,
            0.1845235232427554,
            -0.03098106981866784,
            0.0058298387523763985,
            0.30417108971464424,
            -0.09453266447342272,
            -0.10893433957087045,
            -0.08000318747856269,
            -0.3130716768524357,
            -0.14642444465911375,
            -0.03424227685058784,
            -0.07333636091601363,
            0.1503347499083338,
            -0.03823311279703285,
            -0.01650399363236294,
            0.09948882215252831,
            0.009302360799950195,
            -0.00420456051890337,
            -0.021633777792564788,
            -0.02300490285302101
        ],
        [
            -0.09231054645199852,
            0.0582504520785414,
            -0.11713780487940618,
            0.10209255370015628,
            -0.09777194232843527,
            -0.171140300477391,
            0.2539868610579798,
            -0.18133681384769262,
            0.21623243560200264,
            -0.04636325264225364,
            0.3376650146184852,
            -0.07546503161758239,
            -0.07383198792269355,
            0.009086148591788613,
            -0.1216926626545609,
            0.1773937748062642,
            -0.025382860815863082,
            -0.0761312085445993,
            -0.10849488284996016,
            0.002051593523860953
        ],
        [
            -0.1996936069246894,
            -0.15934977370953773,
            0.1403206769354553,
            0.25552325822969857,
            -0.16129805051278984,
            -0.1339898333105878,
            0.04293158791752687,
            -0.09115340974603918,
            0.04113033681554704,
            0.236732101748157,
            -0.0969528329805057,
            0.03468385181044864,
            -0.018581986201529604,
            -0.02232553001495072,
            0.05690605108559602,
            0.1614614756640721,
            -0.036944106797745645,
            0.010639901425541016,
            0.02682595664525243,
            0.026021853422255155
        ],
        [
            0.07161202633176258,
            0.03589306080371157,
            0.12738953930295005,
            -0.08093736661316764,
            0.12559976514797003,
            0.030442023977376893,
            -0.14388150030354696,
            0.11717192214020938,
            -0.2596538148933552,
            0.02377505174388079,
            -0.08600327250497304,
            -0.15523134474995628,
            0.1431034980177892,
            0.06586301882697623,
            -0.11915469523054541,
            -0.012476416703387366,
            0.02189809307801596,
            0.0020298299999646457,
            0.06497610893603094,
            -0.00913609681426363
        ],
        [
            0.14048118816967786,
            -0.038269817721710675,
            -0.032139572153406314,
            -0.05767598795615821,
            -0.17084185727244883,
            -0.19176943508122588,
            0.14663203667147648,
            0.022776490618981727,
            -0.15185641551160428,
            0.11393399963658266,
            -0.030629473856256674,
            -0.08052543315954973,
            -0.3246732017089528,
            -0.1745280147658035,
            0.007382492234516789,
            0.1246970160944932,
            0.04988851054592047,
            0.01083922378092101,
            -0.03952997995677443,
            -0.06271339492886767
        ],
        [
            0.0589760723669963,
            -0.09344289147423351,
            0.13741865668252007,
            0.1845289224912847,
            -0.1754477163707207,
            0.3460310687249163,
            -0.10359553762921024,
            -0.13943130053485,
            0.08213827600912546,
            -0.05843502006734964,
            0.2517070400609832,
            0.06279393115434016,
            -0.20801483045102873,
            -0.2057040303327752,
            -0.07501859259684378,
            -0.16105831005864,
            0.01544278302886,
            -0.025711238094371865,
            -0.07571545964096377,
            0.02166112937760184
        ],
        [
            0.12084256417685034,
            -0.04724672141369552,
            0.10877262448431894,
            -0.27935613600041903,
            -0.28139629338147126,
            0.11578667689435061,
            -0.15632249804935294,
            0.017594878737543954,
            0.16117352715846883,
            -0.30326792596721636,
            0.03750203307432785,
            0.014769743835085268,
            0.2141495649895646,
            0.17453692672403567,
            -0.050541611676713914,
            -0.21554075592213884,
            0.009790047372298797,
            -0.0531763254427514,
            -0.016107655880421092,
            -0.012432144028910295
        ],
        [
            0.22682288565085926,
            0.18817261152851247,
            -0.1926091530881027,
            0.2382577056230555,
            -0.1647980833091343,
            -0.18017734701197782,
            -0.19118518726478625,
            -0.2755361688125024,
            0.3270948779889356,
            0.001030689308294928,
            0.254056104483098,
            -0.10605110828466247,
            0.06544767208430916,
            -0.19834330998604954,
            0.12077944755200262,
            0.2681792387176492,
            0.04547663594084253,
            -0.023494933759377935,
            0.06991064685021084,
            -0.06416717429234081
        ],
        [
            -0.2604857372504532,
            -0.14432939877896758,
            0.033026310710248086,
            0.18092693854607106,
            0.04609742122589677,
            -0.09326925330989265,
            0.1774251865116422,
            -0.03291724073143154,
            0.2115724225241666,
            0.0336334112979974,
            0.1538664624626529,
            0.009908194925596088,
            -0.003447653586662409,
            0.2102869632838623,
            -0.16363442794129163,
            -0.11285013078810216,
            0.057938257552641904,
            -0.03597996965669686,
            -0.008818448541274927,
            0.01610511668019681
        ],
        [
            -0.14163460792416965,
            0.28800727545975097,
            -0.0381861515273365,
            -0.19099406069160887,
            -0.2635962879248957,
            -0.05765740797569077,
            -0.10281138873863652,
            -0.1422385873285983,
            0.13966189120345895,
            0.010535413231670296,
            -0.1149312162588375,
            -0.02893727952522281,
            -0.10129841176223775,
            -0.12196130038001111,
            -0.04071561879709582,
            0.07738951231331548,
            -0.002832155164454567,
            -0.00696023036568304,
            0.034725719800100245,
            -0.06300464054279134
        ],
        [
            0.1368438335235408,
            -0.1903918902107781,
            -0.041829343842420694,
            -0.1566989550787138,
            -0.2634363263941114,
            -0.07905394386309404,
            0.05856019616535488,
            -0.07228792770519724,
            0.08883037250324058,
            0.002961175966812004,
            0.16540223125361841,
            -0.049070091908020606,
            0.07800317270525582,
            -0.198909955759072,
            0.013080790380596462,
            0.04685027484342379,
            -0.0372817041494572,
            0.016171910208539766,
            0.02268384711741853,
            0.0124642857798743
        ],
        [
            -0.12440487722424973,
            -0.10818116254750632,
            -0.11660665468534975,
            0.34033560075306224,
            0.030169871686749988,
            -0.18379873282462914,
            -0.09954054196656079,
            -0.09087525498150141,
            -0.18437717120588995,
            -0.22070464795579828,
            0.15751512525729536,
            0.10949031799485619,
            0.05143750717583059,
            0.14668659909766613,
            -0.00014385245307958975,
            -0.13539413167349476,
            0.07885468297222596,
            -0.03596122079846552,
            -0.034854822367178274,
            -0.10289511178430914
        ],
        [
            0.23706988967488507,
            0.2370945059034057,
            -0.3226329998583707,
            0.13235719724285472,
            -0.11970018727975879,
            0.05684683450463324,
            0.1334638378797759,
            0.08616954434673728,
            0.05297349023104159,
            0.16943716096283376,
            0.03970387079277756,
            -0.12427436798899369,
            -0.1300233227719259,
            -0.2741094673332601,
            -0.11019509638509434,
            -0.02299241671680956,
            0.054602769832218796,
            -0.021998225726934825,
            -0.030481581772790745,
            -0.028858198493865055
        ],
        [
            0.1123172371284355,
            0.031463333608767054,
            -0.11250846899575585,
            0.05405287595496204,
            -0.06610652405618055,
            -0.28479918662367293,
            0.012749050236481325,
            -0.15108957888198843,
            0.20492136137245973,
            -0.14534968546991403,
            0.032384060632431606,
            -0.03669149131664732,
            -0.20789860443784572,
            0.1178901758133629,
            0.2068279202748327,
            -0.17532651067797428,
            0.043133400161549734,
            -0.01698790144660309,
            -0.05645051856310002,
            0.050225900048085866
        ],
        [
            -0.2136993951397356,
            0.023739877265083708,
            -0.1777670270139107,
            0.30122906891078777,
            -0.1940343135530679,
            -0.2662033670975355,
            -0.031481000375736354,
            0.03547563324882008,
            0.25836068968916814,
            0.23368053439244255,
            -0.1268473406406495,
            -0.035788230448188775,
            0.19886606576150798,
            -0.07224676123448538,
            -0.23275813571836496,
            -0.09441063733453743,
            -0.0081954756040002,
            0.03704020982257569,
            -0.04249100359782382,
            0.0205423985097739
        ],
        [
            -0.22331184573881185,
            0.1731216969311202,
            -0.08146966536614446,
            -0.19823224144483145,
            0.0821884109601144,
            0.11765481350512917,
            0.03930950668477269,
            0.14850323438514662,
            0.17734782256669274,
            0.23509047062144361,
            -0.3616998747355409,
            0.23526810758898872,
            0.11399751494159525,
            -0.07010636760886547,
            -0.14025491691505557,
            -0.20290214441176993,
            0.029867776992552057,
            -0.032034303962015,
            0.07097563052787344,
            0.04818931244330886
        ],
        [
            -0.04764000443074492,
            -0.03279811704399767,
            -0.3479697041487498,
            0.07031712229965296,
            -0.04989864361212479,
            0.09779574872268844,
            0.26483966557868954,
            0.14368436689798025,
            -0.020036858643246468,
            -0.3216235400616041,
            -0.3200741290226665,
            0.21231414624860087,
            -0.15880488759683611,
            0.23247032898548525,
            0.01451256283297388,
            -0.20403633772412513,
            -0.0565453434108827,
            -0.017710429308334177,
            -0.020794035426149545,
            -0.005854665999160374
        ],
        [
            -0.06548771023054432,
            -0.07181996641036019,
            -0.1966598249824002,
            -0.17802218068059186,
            -0.12534173255468312,
            0.1165381300219032,
            0.1434804109831714,
            -0.08466496943016705,
            0.15820318663071076,
            -0.022357416103545087,
            -0.13412113315931115,
            -0.1719888760480697,
            -0.057487644950619296,
            0.273555818748609,
            -0.241968031895803,
            0.18652637964431767,
            0.01788651486494278,
            -0.03923560152769139,
            0.0012459513279970953,
            0.06372757196660993
        ],
        [
            -0.11264250957405218,
            -0.10302107390117303,
            -0.2610027650354039,
            -0.053817880162420305,
            -0.24187074856314608,
            0.34291859825395404,
            0.05693993981463818,
            -0.027698999150157735,
            0.18748303832756524,
            -0.15717189628273934,
            0.03104562166603108,
            0.15603925798601026,
            -0.07750063148611,
            -0.09283976284693021,
            -0.07555771100878621,
            0.1861790845681549,
            0.0493897662478057,
            -0.02419932554624191,
            0.07036508497494703,
            -0.05762580179555309
        ],
        [
            -0.1587783348650301,
            -0.041252193211511815,
            -0.14544288137901307,
            -0.13696611450244942,
            -0.12336461735713726,
            -0.32842884313534376,
            0.08119264057956076,
            -0.10477964579141588,
            0.2101402069711256,
            0.1718309093571725,
            -0.0881513674958149,
            0.18768608069003737,
            -0.010138153814556194,
            0.026644747510543867,
            0.14428270522992168,
            0.0535245722901377,
            -0.018801813513824105,
            -0.044077734850451786,
            -0.0700485260677302,
            -0.0384985433625896
        ],
        [
            0.34114730387202175,
            0.12412350349982147,
            0.1561273152421157,
            0.12783951999208418,
            -0.07129703955050729,
            -0.056958353199433716,
            -0.1751291055695302,
            -0.16921694141098548,
            -0.036022729947425544,
            -0.029712131914262137,
            0.11129125218847485,
            0.04575947815964837,
            -0.300607978713796,
            -0.15197591730583684,
            -0.0953228374352247,
            -0.05317696244102889,
            -0.038475411740990444,
            -0.019021434116530785,
            -0.021127562750132233,
            -0.0034895416143159398
        ],
        [
            0.03406964774418498,
            -0.1557899003989685,
            -0.2388128648380277,
            0.0690965033633554,
            -0.10397403316765588,
            0.20672708279455196,
            0.028397318523181683,
            -0.08092742385565369,
            -0.03494370214183567,
            0.17508895555532486,
            0.13395358817546912,
            0.2966040568285329,
            0.15481747841156013,
            -0.27319873603103234,
            0.1391057600393418,
            -0.147862851738859,
            -0.03611569528932129,
            0.010249445669489253,
            0.008456514522999158,
            -0.009803577952086508
        ],
        [
            0.20507907509198994,
            -0.002537763999085854,
            0.17335076532718685,
            -0.1590926714338528,
            -0.17248135081248703,
            0.04539972941184847,
            -0.15738425578000936,
            0.15268218652567817,
            0.20559881084023438,
            0.1128768985097199,
            -0.06435163078285842,
            0.3758249076044711,
            -0.2572683146220412,
            -0.27573897138174397,
            0.005902755891744145,
            0.21295333770951774,
            0.07637579396262495,
            -0.013061484488841443,
            0.013890644470852986,
            -0.021266876486979478
        ],
        [
            -0.12298016790445096,
            -0.11431630044650838,
            -0.06875108230722518,
            -0.0303206736273729,
            -0.013672684355381085,
            -0.07820792442736357,
            0.2172296279028801,
            -0.0021887987589264027,
            0.05698386242051746,
            0.050291444057530235,
            -0.2560014577258798,
            0.09092618100137358,
            0.2110655114867759,
            0.17147074356281417,
            0.051421460856685225,
            0.05113275256510322,
            -0.10467335110766776,
            0.09382140424769907,
            0.01543465784763887,
            -0.04943890619221126
        ],
        [
            0.01265497591277199,
            -0.20734055637248208,
            0.1175556791218115,
            0.0663572969547177,
            -0.28684011528324843,
            -0.39750040522776287,
            0.10481668182033693,
            0.11925031347624744,
            0.17947899467765646,
            0.330844377942242,
            -0.030752824068791117,
            0.08231278528345787,
            0.08934093802489851,
            0.2938830658668062,
            0.11456729507914055,
            -0.04767447527500996,
            0.010803370178864617,
            0.006660350665111568,
            -0.040275628040522954,
            -0.00228061933266587
        ],
        [
            0.16401052353305234,
            0.010172184472877092,
            -0.09345320451899895,
            -0.15936957254856976,
            -0.0011426652066945544,
            -0.18716257896354732,
            -0.01325876365954121,
            -0.12179506241935639,
            -0.15100761175974495,
            0.14647908685401298,
            0.08542807861122514,
            0.16055697860597967,
            0.22255243339850542,
            0.1475520519574633,
            -0.1521769324096625,
            0.023170579286583545,
            -0.037236583372016005,
            -0.04024263206975915,
            -0.06439050462433955,
            0.015894387307782122
        ],
        [
            0.12980390459613048,
            -0.0011634179322681081,
            -0.06577991427612297,
            -0.04479838613304952,
            0.263513627018008,
            -0.34316169735540053,
            0.04405454194659792,
            -0.14662449045503947,
            -0.3169001006859179,
            0.27938382833335007,
            0.10085079471364758,
            -0.08043900783233938,
            -0.11715418718736582,
            0.09912046885929508,
            0.011137592725700958,
            0.04010894618391128,
            0.0062194003466168575,
            0.009048169396115378,
            0.0011048821554902814,
            0.01769697436885255
        ],
        [
            -0.1174937649999447,
            -0.13396735005740482,
            -0.03282733988424094,
            -0.09145866076458739,
            -0.14330774348750475,
            -0.1615277085415993,
            0.060256304203180525,
            -0.015232048207387747,
            0.2174947724772012,
            0.0538989018436808,
            -0.08813936102923677,
            0.20648356884186445,
            -0.09130760411370181,
            0.2795011497806109,
            -0.21748978111321624,
            0.03821569309068474,
            0.007296549429675511,
            0.02912832721801694,
            0.06995071886361727,
            -0.09262633424817238
        ],
        [
            -0.11662162478208969,
            -0.031235625009458094,
            -0.10426801831080594,
            -0.062092894076697505,
            -0.23805845787528332,
            -0.16235063781948014,
            -0.08844928386800928,
            0.06836536991488774,
            0.23067479444004013,
            -0.15733891599517913,
            -0.2074145388848901,
            0.24669036953084,
            0.005380460526529516,
            -0.12558917941805334,
            -0.23638122259219932,
            -0.1955051504634819,
            0.09232540519930746,
            -0.03948321961415861,
            -0.07150818670568714,
            0.019134380022589704
        ],
        [
            -0.1598140363966473,
            -0.07042530371342205,
            -0.0040173953981570325,
            -0.1936170066603999,
            -0.05256338474648164,
            0.17032317730381458,
            -0.16306278299896876,
            0.19750921134668672,
            0.19837697231935078,
            0.07848745704221483,
            -0.1364736753762506,
            -0.1335578179774975,
            0.21733436019142252,
            -0.0007939833031077777,
            -0.019795463230415946,
            -0.11294940422592947,
            -0.0013379227351521393,
            0.010127858437713036,
            0.060682245797354914,
            0.016769461799349863
        ],
        [
            -0.04136156576867984,
            -0.22314771109384615,
            0.34000354702102853,
            0.22243748884481365,
            0.06696395018087432,
            -0.19420087219236287,
            0.17055383250243997,
            -0.006159879506833496,
            0.053609036318708496,
            0.04514404193519305,
            0.18873585251720373,
            -0.28612374244149624,
            0.056913928591418306,
            0.17340889990748254,
            -0.24540874005194477,
            0.16057474667654603,
            -0.036563207998492414,
            -0.005021100568930215,
            -0.059564672439318005,
            -0.02903636539804117
        ],
        [
            -0.06476442325158119,
            -0.3469277365645014,
            0.09462358837275417,
            0.17080495931929873,
            -0.015435542364843315,
            0.23376092138430984,
            0.055554018238675215,
            0.20083173389451597,
            0.16416634179438416,
            -0.14538578396571628,
            0.309802056173531,
            0.05112640796382271,
            -0.17877918751150135,
            0.1651696571161403,
            -0.024846154673006805,
            0.15798993824544236,
            0.0016028653406235426,
            -0.0032972898909285927,
            0.030918167382463217,
            0.004568433047280004
        ],
        [
            0.2198633004510369,
            -0.17246061082646286,
            -0.28574410435557335,
            0.02811446087322559,
            -0.012660119719181052,
            0.0034816378601784997,
            0.02450994693219609,
            0.019962064539539134,
            -0.23486396344866192,
            0.19323358220198472,
            0.2778027262568984,
            -0.018631434242274418,
            0.04277920666099844,
            -0.06390362766235153,
            -0.06339278776535716,
            -0.13243006667043622,
            0.036042943983258816,
            0.002625500957422544,
            0.053076004012665726,
            0.05757944176510914
        ],
        [
            0.045008622553826365,
            0.10675828030240815,
            0.11070052192918924,
            0.0833988154922359,
            -0.08065591541296174,
            0.12068306664640266,
            0.09929943358769837,
            -0.16104912672106428,
            -0.22980986088136,
            -0.08422412754265307,
            -0.24005547767198815,
            -0.116235560348983,
            -0.16535291972686766,
            -0.09915628269627515,
            -0.1001073754148785,
            -0.04178188482686879,
            -0.012217347175557346,
            -0.011223923540853421,
            -0.01963039145704744,
            -0.00864911450051379
        ],
        [
            -0.24390449759857616,
            -0.08929260370059654,
            -0.08143843566957909,
            0.316425762717489,
            -0.07250525080079821,
            0.07515240396026122,
            -0.1685553897598186,
            -0.16327701148994805,
            0.09975451020772606,
            -0.2289655290621134,
            0.08838129312339793,
            0.1686325773960166,
            0.30003031137848746,
            0.15021799296676536,
            0.15638782936916557,
            0.22078064460421604,
            -0.021277318772776756,
            0.04208888423595508,
            -0.02089177138465806,
            0.02185506870148281
        ],
        [
            0.011602423565148463,
            0.19095982856340438,
            -0.14552122276963564,
            -0.05441944769005649,
            0.15075816476612747,
            -0.21997710239430288,
            -0.19375900608037872,
            0.12761566753731318,
            0.14689337773021707,
            -0.03636838799937276,
            0.18056245271886057,
            -0.14897618762230033,
            -0.04558816155400035,
            0.10991791020317486,
            -0.042209683005435636,
            -0.017188872588748846,
            -0.002791987486001804,
            -0.051769318126277955,
            0.0014927461984871261,
            0.026794218924225035
        ],
        [
            -0.019304815432186793,
            -0.18372157807216968,
            -0.032266593722297995,
            -0.12445682894531514,
            0.07766825970659441,
            -0.10717905187992188,
            0.16923474977415018,
            0.007829798213650539,
            0.0890489580330119,
            -0.14880266456155852,
            -0.20250094798471527,
            0.270988565160655,
            0.2046863078048555,
            0.2830583115676671,
            -0.13190096500176537,
            0.1562393426283471,
            0.009541058964792206,
            -0.024801230503457398,
            0.03916660183613502,
            0.018476043885644996
        ],
        [
            -0.20321460330458618,
            -0.15853849049576385,
            -0.050774397159625104,
            -0.06854914353273331,
            -0.08034798953730062,
            0.013752512512867921,
            -0.07508948396645955,
            0.15389992731895247,
            -0.09610758965757013,
            0.17806272731024,
            0.14519034213182896,
            -0.3165537126076196,
            0.28971081355887107,
            -0.08789584259573935,
            0.11408695656272666,
            -0.19742347197563034,
            -0.07779436635911738,
            -0.03753000320352296,
            -0.032137917959753425,
            -0.02572918552128805
        ],
        [
            -0.11829319151846232,
            0.27454196547438486,
            0.24358161315935137,
            0.23227655437482858,
            0.01840288267376372,
            -0.17157779865571882,
            0.003802279058928151,
            -0.1784415383259325,
            0.066946701317526,
            -0.13228457004070204,
            -0.1447550460220928,
            0.11921621171565817,
            0.149201447763887,
            -0.23337114043083906,
            -0.07364703542175789,
            0.004390701685581541,
            0.021049286903680096,
            0.00391721337528746,
            -0.025521778745347497,
            0.06344947424381507
        ],
        [
            -0.20292235995428426,
            0.06881668790493177,
            -0.1186151426560199,
            0.06692704970610258,
            0.12187146157602091,
            0.12971825159920983,
            0.11565592075629236,
            -0.09575823957212151,
            -0.20176290088131402,
            0.016585782680295463,
            -0.29404757250270996,
            0.10301609517399377,
            -0.08728001542996616,
            -0.1708187630392807,
            -0.30519399499175714,
            -0.16065388162836697,
            -0.005244636834469526,
            0.010601068822820617,
            -0.08184283583413166,
            -0.0067273265928519625
        ],
        [
            0.0005282092000825701,
            0.07307700852640689,
            -0.04832706021411686,
            -0.2555928893775453,
            -0.04762174893256603,
            -0.16281880497049656,
            -0.15416273494328403,
            0.2054347921036431,
            0.1714329697554917,
            -0.053864321355566874,
            0.2146338432904086,
            -0.14306527634937097,
            -0.17803443575641353,
            0.1553373741769966,
            -0.08795782598616174,
            0.1719885617483049,
            -0.010894864194929516,
            0.013868001638884705,
            0.004015764924357626,
            0.003437818781906219
        ],
        [
            -0.2592878866393408,
            0.04570072189469234,
            0.11998432934372695,
            0.1425532207212271,
            0.04769920951319845,
            -0.20830090590840986,
            -0.03351635942988505,
            0.198413406130337,
            -0.14183398833619487,
            0.16268816311258266,
            -0.35257989762674996,
            0.21767289111306592,
            -0.1386178924000965,
            0.15237217075816753,
            0.19621459366106145,
            -0.13792513894436767,
            0.0018410121982817796,
            -0.025691523715409677,
            0.013225715088923543,
            0.024377100481670112
        ],
        [
            -0.020903414066250802,
            0.09524594882648643,
            0.32995639219519746,
            -0.28304006181733365,
            -0.028865113704573897,
            -0.26317859508095276,
            0.023007143506840078,
            -0.07030662174770144,
            0.06748648928414905,
            0.2880701467825807,
            0.16758891196398965,
            0.06336248004261531,
            0.19501515610952577,
            0.10666022412594836,
            0.1694967221123209,
            0.26789968279583415,
            -0.014286900337984878,
            -0.018417404744093577,
            -0.05067313330249486,
            0.05184222242103416
        ],
        [
            0.038836528280537706,
            0.03671908583138782,
            -0.2927161641251397,
            0.18454638225648842,
            -0.05606053964997871,
            -0.1696424532535967,
            -0.07151544630736725,
            -0.00926189591439117,
            -0.14790049415664866,
            -0.0639597779503607,
            -0.0909206647277529,
            0.2176791140234892,
            -0.07665003233240188,
            0.015263920695741643,
            -0.05818062507203537,
            -0.0018756700176595215,
            0.012915155178204869,
            0.02604910658983951,
            0.031461247297478144,
            0.004737484151062468
        ],
        [
            0.03344693730420761,
            -0.009950264241851848,
            0.02793223224988222,
            -0.07189975988002514,
            -0.351711635855848,
            -0.16164403998686847,
            -0.10252385553311083,
            -0.1342506050457626,
            0.20412974978014495,
            0.3076986072886217,
            -0.10230083735646954,
            0.19371611006989695,
            0.12043665638451956,
            -0.03690388821775866,
            0.16381519379734283,
            -0.13582232204361322,
            0.03214711437724435,
            -0.0018775527190046297,
            -0.0046576263490940885,
            -0.01417333863299671
        ],
        [
            0.13284245426291452,
            0.10767022689943324,
            0.133832076517298,
            0.012018929043865261,
            -0.04058460879293615,
            0.06729028351014817,
            0.12887708304547993,
            0.23158571783543516,
            -0.04058176850340515,
            0.0791135428606469,
            0.1695804071837358,
            -0.1535037163036172,
            0.064962798891498,
            -0.24550299040964998,
            -0.14568603527991103,
            -0.18786223110962266,
            -0.06904957447320743,
            0.03296766645323339,
            -0.06801737918260667,
            -0.005158979574877545
        ],
        [
            0.19170388693438295,
            0.1596881799282861,
            0.03587521942881542,
            -0.21034878932559908,
            -0.07348359796109762,
            -0.029203134162280937,
            0.1490691383555658,
            -0.10612824803210515,
            0.11860169020754818,
            -0.021044385317382095,
            -0.14449999632473978,
            0.16573090819460543,
            -0.17703884906188316,
            0.20273040741931522,
            0.06307988467622108,
            0.08940375882284424,
            0.001419247919825053,
            0.013178851613480869,
            -0.04369489664473231,
            0.024585345934570357
        ],
        [
            -0.015932420646915295,
            0.13019315544628446,
            0.42832799043204317,
            0.10826143266501766,
            -0.04731862736524756,
            0.11302152317750816,
            0.06283740020159627,
            -0.17494134564621577,
            -0.12000840569718463,
            -0.1616055997327177,
            0.07891038755667278,
            0.07230336478502301,
            0.19106606598198375,
            0.13862605384466786,
            -0.20932681206143838,
            -0.11158151069374359,
            0.048229451152660203,
            0.01565111923505194,
            0.0235978065860701,
            -0.10032163103734525
        ],
        [
            -0.05889117465893875,
            0.015171102233040861,
            -0.08019812561598398,
            -0.07207146313394083,
            -0.13293409436716822,
            0.30480195742190236,
            -0.0018711845686392602,
            -0.21967431048331143,
            -0.15125153496706337,
            -0.3515199268139938,
            0.052397985457423225,
            -0.10062403389967943,
            0.24937552901700044,
            -0.03011454916492639,
            0.11804371754384489,
            0.17783743865335216,
            -0.015970980850661235,
            -0.04429746268157865,
            0.005237851040558836,
            -0.001450830781380797
        ],
        [
            0.29861878657780444,
            0.009433863178812936,
            0.1593185747813414,
            -0.030811853662161923,
            0.23117002228908215,
            0.011909633460721,
            0.08320753220824106,
            0.1958142504077269,
            -0.0015953563876447202,
            0.09427245082439747,
            -0.0033327516878403525,
            0.2114511711011539,
            -0.2916832352579774,
            -0.015951527524515178,
            -0.02129781350692563,
            -0.2051428424541691,
            0.07243855299274057,
            -0.06847523939707074,
            0.030292857038262296,
            -0.037766062675591475
        ],
        [
            -0.27880370145964195,
            0.14373868607337617,
            0.13309236808779498,
            0.15422561723117462,
            -0.056308323848777674,
            0.2719481230094521,
            0.17619145274446582,
            -0.08435526667521011,
            -0.14290389418280997,
            -0.18562808487842586,
            0.05430439125425734,
            0.21098806707374043,
            0.20636778421780097,
            0.12049492145783156,
            -0.17284990845473708,
            -0.020117852086201874,
            -0.021961346534177188,
            -0.0028822600508815865,
            0.0018617323698515984,
            0.051007938122565155
        ],
        [
            -0.08708127197010665,
            0.07289160039213749,
            0.09698743218585286,
            0.08942739661189453,
            -0.0372801859623914,
            0.05069841463289624,
            -0.14319363333154414,
            -0.18930581439517744,
            0.18246458103326046,
            0.08984108804413525,
            0.028181681187026585,
            -0.10117553534338493,
            0.13760170338034314,
            -0.054351940941543976,
            0.08561390303988914,
            0.002584585358388278,
            0.041490727610429615,
            -0.028706180652008195,
            0.020598136399351735,
            -0.0721425087077517
        ],
        [
            0.2554681266236132,
            0.05101350889459502,
            -0.2411308356940369,
            -0.06461805282601742,
            0.2562090614773663,
            0.009366451274419488,
            -0.0684385703407957,
            0.04462029614881441,
            -0.2673337486877816,
            -0.08962504269158941,
            -0.169779595154765,
            -0.21099855490433114,
            -0.22573391477000038,
            0.16511843446316782,
            0.21366034008891985,
            -0.11270545989172667,
            0.0298935527270057,
            0.0027855646613950155,
            -0.01452716369665001,
            0.0097906368534555
        ],
        [
            -0.12899789904343947,
            -0.11269288457421904,
            0.21044872944785734,
            -0.39170240047234534,
            0.15007485209463653,
            -0.047238448113416626,
            0.19838822822233215,
            -0.23012765672865734,
            0.048084929272119416,
            0.22374029218493596,
            0.1147293328347392,
            -0.13792880939808902,
            0.1799210579919733,
            -0.1967518214171614,
            0.18433232058997662,
            -0.011171358731453777,
            -0.0533090472131191,
            0.017263027234907347,
            0.03080027695344116,
            0.040308337173667066
        ],
        [
            -0.2246204003911799,
            0.10970571266525395,
            -0.03591577996267406,
            0.12899840783927763,
            -0.19475523170876483,
            -0.0579446123601056,
            -0.004167106944269878,
            0.11402815273715526,
            0.2615241604571331,
            0.012593680860779478,
            0.13841269476150184,
            -0.03278551754733455,
            0.06226345432842115,
            -0.15411795332673173,
            0.13154967343850524,
            -0.06155725869368208,
            0.01469339970045188,
            -0.019924655575318695,
            -0.021556100138385003,
            0.022216312224422406
        ],
        [
            0.10231555488089338,
            -0.036338673423659,
            -0.18915210226128126,
            0.12998225360561397,
            0.22295362587667977,
            -0.07926235920585606,
            -0.10668183492530321,
            0.04401194377000434,
            -0.03016402669874841,
            -0.08527290705669628,
            0.20397764815702024,
            0.24473905198774415,
            -0.16849910885688332,
            0.050432092104644284,
            0.13873152533905617,
            -0.08704648576661185,
            0.013269864814106443,
            0.006141967001494411,
            0.026787904299159462,
            0.0029583078403314566
        ],
        [
            -0.023785946544277983,
            0.015078159256747568,
            0.18555815976525386,
            -0.29010964270176265,
            0.04612895113577591,
            -0.016545955302918268,
            -0.00901414376390159,
            0.007664823067012242,
            -0.25571629352933145,
            -0.208009932915182,
            0.17729568075122523,
            0.0997784284587834,
            0.1331386364902993,
            -0.21097470079530622,
            -0.21079012052167473,
            0.09614108776490671,
            -0.018406862437745076,
            -0.023479206240652764,
            -0.05127797827865812,
            0.010040566388520883
        ],
        [
            -0.3120440887129842,
            0.08374876779557965,
            -0.23106659473300462,
            -0.06409847954433474,
            0.0045857263425370725,
            -0.128561024142271,
            0.18575952701603615,
            0.08918284036311876,
            0.18492947679350002,
            -0.19076708388543878,
            -0.04696686879783138,
            -0.2732060827459396,
            -0.08063844492925512,
            0.09737882991643876,
            0.19232220502444478,
            0.01790482797428446,
            0.08922921689498113,
            -0.010652794064223625,
            0.007333395507238047,
            -0.03335484057039036
        ],
        [
            -0.10856410496186278,
            0.16413012254716314,
            0.44237871000762824,
            -0.12334014405505604,
            -0.3059350437957512,
            -0.08405365225629327,
            -0.0665691642852821,
            -0.02731745518814751,
            0.09243265037634399,
            -0.10115728895155728,
            0.1701938297316261,
            0.08244131798063338,
            0.08890279892740247,
            -0.20214824716896967,
            -0.17104332993667912,
            0.05596124781819152,
            0.019932482075061778,
            0.008007784039359079,
            0.0783635858376662,
            -0.02866838559092615
        ],
        [
            -0.10878707873185378,
            0.23367039369722373,
            -0.10560857526524961,
            0.061990076159579244,
            0.3135774041296199,
            0.08571814459331382,
            0.14696428340559176,
            0.1714791253334339,
            -0.22324498155501452,
            -0.2144222830182235,
            0.059454924196814155,
            0.17501916758454358,
            -0.01507053989628202,
            0.12482408861637395,
            -0.15570276524218415,
            0.23013489718190566,
            -0.004367533396271694,
            -0.013696900508308312,
            -0.04269409043683969,
            -0.0066737963860531565
        ],
        [
            0.11249873549900831,
            -0.09987797925113,
            0.1860935496121378,
            0.19994238769731762,
            0.2946641179791403,
            0.31356058053069913,
            -0.0867467339270325,
            -0.05009281844050347,
            -0.15508611907394265,
            0.09692925616354055,
            -0.20364758961175536,
            -0.2269825366476734,
            0.05555519623156635,
            -0.060573839240263556,
            -0.04698677585175949,
            0.19544911372169407,
            0.010929539468355384,
            0.010455065778389365,
            -0.04389053478800599,
            -0.01939889413999237
        ],
        [
            0.05799999118399426,
            -0.0757579641936739,
            0.2280813311819397,
            -0.2751608248424107,
            -0.2242412062542185,
            -0.0950148971377182,
            -0.15379123452523538,
            0.0005322971076207662,
            -0.07217171700609762,
            0.07473499436894294,
            -0.107673209959785,
            0.03905800787102358,
            0.22567583814989112,
            0.04535661182857592,
            -0.22880728433618575,
            -0.12217918980880235,
            0.009861907011076039,
            -0.05845035886563304,
            -0.04784532836030143,
            0.0023911361553290615
        ],
        [
            -0.0626385708063609,
            0.0061491162990323445,
            -0.1646947304962277,
            0.0033787959314638114,
            -0.14288402130563999,
            -0.030564197955398848,
            -0.16081693070637681,
            -0.1416334135136648,
            -0.024584283119042923,
            -0.07405870370473877,
            0.4009616772309988,
            0.28709048024548367,
            0.08217832944582548,
            0.11345222229299448,
            -0.14652885207156047,
            0.13160153208139166,
            0.021299568573467306,
            -0.0035769332991430936,
            0.0058513578440428015,
            -0.014176887570872055
        ],
        [
            0.04366705258901875,
            0.1805694967413865,
            -0.05377723792129445,
            0.027543575306538844,
            0.053316959660261974,
            0.0579543108891489,
            -0.1112316475512603,
            0.04949338419233716,
            -0.004117357543317461,
            -0.08662608435474944,
            0.1650570188504029,
            0.13238819287505324,
            -0.13230259045288972,
            -0.0468366553652605,
            0.11217413890150936,
            0.14687800141939752,
            0.03872203603784393,
            0.0010629129953909477,
            0.0122957798915177,
            -0.08611106516164747
        ],
        [
            0.25099567800843375,
            0.003422972086606151,
            0.011788048021276571,
            -0.02688763760532155,
            -0.22276996600561857,
            -0.16629612208162492,
            -0.060965431470731725,
            0.08169420277033522,
            0.262366263629195,
            -0.021409309218363384,
            -0.20994407660146067,
            -0.45983983315045884,
            -0.19981186807369758,
            0.11147615079516197,
            0.15027440280654508,
            -0.0034004497106448132,
            0.026582804025831786,
            0.01611534906214192,
            0.10103979990084326,
            -0.032878737585579354
        ],
        [
            -0.1993368331716762,
            -0.21083210862733195,
            0.003376360302568931,
            0.15297878606864315,
            -0.15579951294655342,
            0.18216381530441983,
            0.12910109069429865,
            0.16181422437363963,
            -0.23336919592544433,
            0.1419556952222418,
            0.089331677052363,
            -0.3533565494230029,
            -0.1819535788944565,
            -0.1684037739320871,
            0.030867491660430218,
            0.2099555998069328,
            0.02072064799203936,
            -0.00894882878071475,
            -0.016293672934106718,
            -0.022934483330759436
        ],
        [
            0.08823022303815051,
            -0.09589920308058787,
            0.23677750270477865,
            0.026352348573021267,
            -0.2611929421201218,
            0.07823302050376367,
            -0.028431266931474054,
            -0.14646012914057013,
            0.27984361660830653,
            0.12609623533191483,
            0.03833539227648408,
            -0.16249642457188365,
            -0.06346852348200784,
            0.22684278276896183,
            -0.15113303463653577,
            -0.18411148746740613,
            -0.033749037025552396,
            0.04188895936056511,
            0.06871457085324503,
            -0.017813118982052047
        ],
        [
            0.26182918475037836,
            -0.1453097729813946,
            -0.0398594519499001,
            -0.02138811303483052,
            0.002327858908777945,
            -0.1120636523643423,
            -0.15731519397377822,
            0.12759984708187794,
            -0.015501664810632481,
            0.015819150246708547,
            -0.011542871146213867,
            -0.10724885848297666,
            -0.23581083635216285,
            0.2627085409452145,
            -0.12044868597951147,
            0.03897978755706253,
            -0.011201203134423713,
            -0.008917221133941952,
            0.017598754064689304,
            -0.009776919513725809
        ],
        [
            0.04210328054362765,
            0.26919315018852724,
            -0.051336171100163204,
            -0.04650646742016644,
            -0.0745269440733429,
            0.315361299095108,
            0.11318782325997537,
            0.001647252295740957,
            0.09569606138224396,
            -0.27794216853085163,
            0.1639790077894893,
            -0.0032243385646659353,
            0.10138380313909234,
            -0.20804288985794056,
            -0.14597455867454845,
            0.015505772489164415,
            -0.013737691284251032,
            -0.03126494533477045,
            -0.007323929196520992,
            -0.011065808501782577
        ],
        [
            -0.111974053872264,
            -0.10021567708201432,
            0.30105318174635043,
            -0.1319033476457068,
            0.07234677335874026,
            -0.05025755768594062,
            -0.2032335600766259,
            0.03091374858490848,
            -0.1376309883714212,
            -0.15182223652223906,
            0.12646172848563883,
            -0.0011522207094667198,
            0.14405390871146748,
            0.2504368637652989,
            0.18903487387115275,
            -0.012211028259388093,
            0.006085822777480096,
            0.004546743458629622,
            0.07494718165379924,
            -0.04101634191320995
        ],
        [
            0.1474264403918152,
            0.19040648140114574,
            -0.2184657745923261,
            -0.12721157775786585,
            -0.10826910408247595,
            -0.029730278623354645,
            0.004395303765159896,
            0.27055418730239944,
            -0.1334379689944947,
            0.016017473369842723,
            0.2501899470646552,
            0.12956695865789886,
            0.021395807570900663,
            -0.14964630330915418,
            -0.09337148232931598,
            -0.21843703583736093,
            -0.003972835042044211,
            -0.023030932567802243,
            0.003599392247202694,
            -0.037223550084168014
        ],
        [
            -0.0701253049674759,
            -0.17713315768276647,
            0.06467656500398228,
            -0.09547944021761413,
            0.05083754470149556,
            -0.28141100033976707,
            -0.05932678937776295,
            0.0694416926451613,
            0.024204276879265164,
            0.2058482568132377,
            0.14509416644079065,
            -0.0108799838715969,
            0.1569093507475902,
            0.20136060395274963,
            0.007217157387103246,
            -0.047978175710011686,
            0.006921797550387664,
            -0.02471018233700264,
            0.030624776178319855,
            0.025509309694445266
        ],
        [
            -0.2807592961177773,
            -0.04156296438461471,
            -0.23553534405585133,
            0.01060966956275702,
            0.10585679421001047,
            -0.02900735843945308,
            -0.03704738227444252,
            0.045331788822048746,
            -0.25270527663383385,
            -0.08322732134368518,
            -0.14168281942641034,
            0.04953540918994617,
            0.2327962428727997,
            -0.017186427577160487,
            -0.16136518839506986,
            0.1988593860591184,
            0.07123909909904833,
            -0.023185858267613508,
            -0.049989987981964024,
            0.00809596545437452
        ],
        [
            0.024878037658243972,
            0.232674300972941,
            0.21925692768688185,
            -0.12577264859062584,
            0.11941944788465943,
            0.09539288638329972,
            -0.18638547360260593,
            0.17937948638441642,
            -0.09997759146408504,
            -0.13093996999491345,
            0.06311580002749799,
            -0.16155956527760604,
            -0.00012341139764055395,
            -0.17553737729413807,
            -0.01721757912360344,
            0.1063593204213873,
            -0.04360099319909007,
            0.02038698918927609,
            0.008901495455074484,
            0.01779051941991216
        ],
        [
            0.10168513565522697,
            0.16115235922510204,
            -0.16197677805995422,
            0.11532235601787073,
            -0.28961404836788346,
            -0.25546580932293433,
            0.06965737163431306,
            0.15021513336194486,
            0.0840682546137048,
            0.14881758067764905,
            -0.21667772153591158,
            0.21375840873011498,
            -0.1652691250495709,
            -0.045089645214852564,
            -0.01702965828051386,
            -0.0033926893409982734,
            -0.09454784766012882,
            -0.048639291783460485,
            0.0064395614313337915,
            -0.015144575222518103
        ],
        [
            -0.26084077907509184,
            0.24597382590353029,
            -0.16344413651937334,
            0.05363436483213177,
            0.21682809110178275,
            -0.24421355191289962,
            -0.18519119770873432,
            0.2650154614354936,
            0.11754942473291832,
            -0.0362448506824292,
            -0.06850082286285686,
            -0.16460256643766402,
            0.1990736720855382,
            -0.16254999984363644,
            0.1644098094591721,
            0.28676423611805113,
            -0.0351557649307493,
            0.015772670666196083,
            0.059583998914133414,
            -0.05712546496879319
        ],
        [
            -0.1566690287018375,
            0.05965827745646409,
            0.07884263895620953,
            0.016397722980262805,
            0.2109787283135452,
            -0.06242301888108343,
            -0.12452990613287053,
            -0.1561645210758713,
            -0.18947580764183322,
            0.045429493841624834,
            -0.11460658188658941,
            -0.06860564195070859,
            0.04451896630966718,
            0.17109459458730916,
            0.11789146899022741,
            0.2489386750763466,
            0.014163004377138907,
            -0.046908697423806454,
            -0.013573328115755625,
            0.007272003830008464
        ],
        [
            -0.09338386603465122,
            -0.17016741166982616,
            -0.06004267322974727,
            0.2665704532807937,
            -0.20815677025877266,
            0.06016080474711274,
            0.32094437720551977,
            0.04382359048209854,
            0.239909715244197,
            -0.01560665893212395,
            -0.19730999870086346,
            0.002528634526552926,
            -0.00011953884106148157,
            0.08015423797231933,
            0.09220929058333091,
            -0.12785829420152703,
            0.05975013023323007,
            -0.019943665264467125,
            0.032802726865266495,
            -0.03958101724990927
        ],
        [
            0.10585361612587865,
            0.13205939918661017,
            -0.14316754118383793,
            0.12943575600068888,
            0.12499933977136357,
            0.21866813664647705,
            -0.06165107474756885,
            -0.13235034715779223,
            0.017368980788058024,
            -0.24515733727078184,
            0.19357617972876523,
            0.015395048427799578,
            0.019494029068961763,
            0.04638864351509378,
            0.12740367086260138,
            -0.006955213875886221,
            -0.03093600790176132,
            -0.00010805481007915487,
            0.0034309302973189342,
            0.05702468709384804
        ],
        [
            0.10609080985718165,
            0.14601056179554017,
            -0.11344836100791,
            -0.15236797727504348,
            -0.21889166270104526,
            -0.08064761401126827,
            0.005045102487552114,
            -0.011281160410067029,
            0.20945146184342484,
            0.18710560790351632,
            -0.06924768157899959,
            0.015273126881460632,
            -0.033231168307460285,
            0.16234309392406152,
            0.06465036974541293,
            0.153509603648829,
            -0.05009593764137617,
            -0.005131721562586818,
            0.08436457099551545,
            0.012503992955640572
        ],
        [
            -0.1988297003347279,
            -0.14661611512158257,
            -0.27640276414067955,
            -0.01477873911519881,
            -0.004520866282644304,
            -0.0059224405569251815,
            -0.019782942003858515,
            -0.1735411045814818,
            -0.15886348159938438,
            -0.12085305984770521,
            0.08006086679706284,
            -0.1716631551070135,
            0.2410292700382159,
            -0.07741857624374124,
            0.14010442972227047,
            -0.11752955356809316,
            0.00326019238162427,
            0.015452117731000517,
            0.02971421104151361,
            -0.04812700810008701
        ],
        [
            0.1228644165141691,
            -0.27145264722312046,
            -0.0921254816794638,
            -0.08532424714414201,
            0.2457192532611426,
            0.10136236861281521,
            -0.10414126970919056,
            0.20015940945247107,
            -0.1935182784193835,
            0.03614041973493427,
            -0.23496891860094757,
            0.10037666613158973,
            0.10249544470407615,
            0.05494356225693424,
            0.00806564042328992,
            -0.1688536674220133,
            -0.02621477333327902,
            -0.02704255257150429,
            -0.04451310146889991,
            -0.0011127634545412348
        ],
        [
            0.09859255386463137,
            -0.10310456102961153,
            -0.18723838139928053,
            0.32914623721605535,
            0.16576736933149291,
            0.19143196622384784,
            -0.04156847390500522,
            0.15882611398483765,
            0.14985756648930595,
            0.2534750129284381,
            0.18281214521280456,
            -0.00250140537249448,
            -0.07667102945753518,
            0.22674646798674683,
            -0.05297490472483765,
            0.2565342743921168,
            -0.03213436921119018,
            -0.016593401320736924,
            -0.06974566932504896,
            0.024180796868343683
        ],
        [
            0.18424548864217494,
            -0.05472105216465445,
            -0.012540254153144007,
            -0.06866503808440276,
            0.10121725084895786,
            0.2996979197529261,
            -0.019286323077572432,
            -0.09274753035818617,
            -0.0694138803660568,
            -0.3693534700157987,
            -0.1307050294253894,
            0.0448815731564497,
            -0.09538952089704299,
            0.21585327471509105,
            0.1701821361681502,
            0.21603076279250727,
            -0.0029857813706971634,
            -0.034324632933522115,
            0.02530970356940498,
            -0.034604700392030396
        ],
        [
            -0.013607738206441069,
            -0.10484577407473376,
            0.06767910177743525,
            0.4524578996891414,
            -0.17765079693996813,
            -0.16879398126923367,
            -0.015344503691388255,
            0.1044971072570481,
            -0.020690068145217556,
            -0.01337581126447422,
            -0.15939347747007798,
            -0.08149099361441678,
            -0.17634130881060534,
            -0.022599019759148815,
            -0.1477614335315789,
            0.22397711140361384,
            0.028400611687257715,
            0.0009429835412423474,
            -0.07205870962513698,
            0.04497432796357138
        ],
        [
            -0.05172740189506118,
            0.18021092876961795,
            0.19326175516212826,
            0.18408092546401877,
            -0.14597066347224522,
            0.24821667224696503,
            -0.16439497722237306,
            0.200545823162469,
            0.033443781158791236,
            -0.3090513381295268,
            -0.16746841293553333,
            0.03512737623709949,
            0.054958814706117375,
            -0.27358515225613483,
            0.15211617485698511,
            -0.17209755789785955,
            -0.02017199051003393,
            0.0441465312198623,
            0.044377814451804505,
            -0.019370629756968474
        ],
        [
            0.13696154555692563,
            0.11542739995482841,
            -0.1488692873345981,
            0.2080643652294025,
            0.06706255080412304,
            0.020980726576257616,
            0.13897699788391513,
            -0.2511398572780073,
            -0.20145680192175167,
            0.12303696559960585,
            -0.08871803817982483,
            0.08425457279019516,
            -0.17723741059793807,
            -0.1817513671317231,
            0.22773055761054825,
            0.06174312098017334,
            0.038350328629740325,
            -0.0023158053706079365,
            0.03611531843979544,
            0.02889393294290473
        ],
        [
            0.21206180652391482,
            -0.007334881700317519,
            -0.06565890669071588,
            0.013802076929577438,
            0.2933739127826691,
            -0.2323241554398681,
            -0.01716994239016844,
            0.05615955987093944,
            -0.30725475310919503,
            0.15109673354114217,
            0.02014438121611786,
            -0.092920072688018,
            -0.15050171287019137,
            0.02034253346895422,
            -0.033179963828222775,
            0.007587831477550653,
            0.004622622455013733,
            -0.0025607720548408218,
            0.03342280416324772,
            0.002498052723986969
        ],
        [
            -0.23649801487026587,
            -0.3412079567665123,
            0.05164126151336949,
            0.02027265533999729,
            -0.24920842562560336,
            0.08427584971835198,
            -0.10369138175275808,
            -0.0019035690613756703,
            0.2031746289205568,
            -0.13298286922993122,
            0.13650245480417086,
            0.17189932040954609,
            0.19631915403064398,
            0.28881917448296796,
            0.011410441313665878,
            -0.012372237216829908,
            0.03194820768296487,
            -0.018656263228574197,
            -0.028609998494800063,
            0.02027069344477237
        ],
        [
            -0.09005851631244688,
            -0.21535983133583103,
            0.051436087760942974,
            -0.21037907370773726,
            0.1126140306609313,
            -0.003533995856118974,
            0.10756435356831363,
            0.2602593125171582,
            -0.2699134221933495,
            -0.09112253275065843,
            -0.17116701665278583,
            0.14199884315204356,
            0.14927085921211522,
            -0.13314000339430393,
            0.0412602927586169,
            0.05810648388801127,
            -0.013679832692826013,
            0.019612826771875074,
            0.04115031467587641,
            -0.031690941778479156
        ],
        [
            0.14250515412184683,
            -0.21276237101679943,
            -0.09146254350946872,
            -0.10506989138138799,
            -0.16665859132131408,
            -0.07445378980709721,
            -0.024560587581895135,
            0.09522694597288474,
            -0.18470667775679916,
            0.019254430132162766,
            0.06569709141629075,
            0.1675902183958864,
            -0.18122594411092333,
            -0.01055021306346206,
            -0.03585748386430713,
            -0.11547988907247017,
            0.08606516701904325,
            -0.051970862522127376,
            -0.055045660418478574,
            -0.002865845392748888
        ]
    ],
    "h0.bias": [
        -0.12628958233837898,
        -0.0367303248833429,
        0.15924339409038543,
        0.021374277246933176,
        0.004152531257657121,
        0.4043927234323132,
        -0.22469246700604614,
        -0.18747484070139575,
        -0.1718341154918936,
        -0.07218125569036087,
        0.23030532487593472,
        -0.20174263126834385,
        0.34091768345245965,
        -0.03505588783655377,
        -0.1000721373519726,
        0.2995677017957011,
        -0.22033243212852935,
        -0.1973722098102235,
        -0.06914499612282955,
        0.07492433065604422,
        -0.08911585001019491,
        0.009852548039790642,
        -0.12483661470430205,
        0.014650175339285166,
        0.18522822766223676,
        0.249115802872035,
        0.26204893580483607,
        0.02101519612930882,
        -0.08663556463389868,
        -0.06430766555632057,
        -0.025190748434446443,
        0.18555898175327562,
        0.03840928038213426,
        -0.09606514193505498,
        0.12021158653605268,
        0.002700020769273774,
        -0.11505826789311285,
        0.008514902677848482,
        -0.13232643541514266,
        0.22820579472608735,
        -0.047363745845118904,
        0.30849208222543145,
        -0.16691675476866719,
        0.006384620468521092,
        0.13728165877640255,
        0.34848708909697973,
        0.11249914015169864,
        -0.010737282310542108,
        0.061207208412030326,
        0.4263615616947238,
        0.275054227935895,
        0.2549687102158334,
        -0.04142871704574821,
        0.13923726806382067,
        -0.04718068719883981,
        -0.143514539357079,
        -0.03886088296451221,
        0.3129097659048104,
        -0.034712482297473674,
        0.05922024755399495,
        0.018695018875580494,
        -0.09923860752399254,
        0.29922460449423294,
        0.10755453444915251,
        -0.22921889928392838,
        -0.12099925980012018,
        0.30586695496727473,
        0.14277736315576428,
        0.08878363981679604,
        0.15594373631130753,
        0.3696185194854638,
        0.16071828060342433,
        -0.09669821010696834,
        0.27493175229767364,
        -0.38880249853076826,
        0.27823350101345923,
        -0.11050645197895002,
        -0.1768656184949285,
        0.2628952826098055,
        -0.0826733015236397,
        -0.3775143284736984,
        0.09945740081314869,
        -0.42191655837559794,
        0.3829585696646828,
        0.07441179664634948,
        -0.096912007577841,
        -0.11925486354027019,
        -0.06391852683788483,
        -0.282360200228031,
        0.1544052906944164,
        -0.15238448391349937,
        -0.15659148903758072,
        0.3338328514056293,
        0.08671796110882919,
        -0.08265672733923765,
        0.14396328387017462,
        -0.0862135383592268,
        -0.1875299880143022,
        0.027220412221570747,
        -0.00413889955860151
    ],
    "h1.weight": [
        [
            -0.06303928127450895,
            0.06039815134159575,
            -0.05658930469898085,
            0.01803717035148903,
            -0.043084678471406714,
            0.040039220117340395,
            -0.18786970843359668,
            -0.14374806110118,
            0.12158313255644268,
            -0.019541265379984928,
            0.07538551458932286,
            -0.12006540877723261,
            0.07786962439235132,
            -0.06838214833341645,
            0.010784405198364015,
            -0.05236074263171591,
            0.06468139778155169,
            -0.07863555231677476,
            -0.1606297201091276,
            0.004698117218163365,
            0.04817569167533827,
            -0.005743816734123456,
            0.010053532793126495,
            -0.13704990022959443,
            0.11140868817281697,
            0.08741409729981735,
            -0.2619392506534408,
            0.10111065117236505,
            0.07835341183345354,
            -0.0009625364824461735,
            0.07680838174082615,
            0.013625221184103717,
            0.0354694259264231,
            0.11632276558560865,
            -0.012253457516149842,
            0.06149349503980979,
            -0.018448951788870606,
            0.0985698887395234,
            0.03258011365270476,
            -0.03919098360143179,
            0.01897375893776812,
            0.029196165688559778,
            -0.022379968478687107,
            -0.016165090839456255,
            0.035887685894438685,
            0.0355131840269788,
            0.008437763844057668,
            -0.0356339079958018,
            0.11209102494068306,
            0.05306408343684732,
            0.0016397986259849408,
            0.1067801205575474,
            0.11254209948451825,
            0.0013924236857237398,
            0.050504993221123715,
            -0.07206131470149356,
            -0.057674078280509196,
            0.04072950488390818,
            0.05959840995347549,
            -0.03875996587387079,
            -0.05040001151933512,
            -0.08432567594271684,
            -0.05496176593612718,
            -0.07416693116838238,
            0.008603632271283084,
            -0.10965490901784297,
            -0.1423474252142818,
            0.07047848807723596,
            0.00796380814717583,
            -0.06000784533463485,
            0.10264067399430074,
            -0.05485333018164074,
            -0.045062531996015356,
            -0.012802688626807316,
            0.053698763362619646,
            -0.14308257771815674,
            -0.13167762619938717,
            -0.13314579167651378,
            -0.07881070282311982,
            0.1036745933683422,
            -0.04908494138190146,
            0.03271405076395564,
            -0.002979767558416276,
            -0.057534615777741396,
            0.04952531981273843,
            0.08197720082409732,
            0.034909734322980154,
            -0.046675741755115734,
            -0.06789897594924654,
            0.04335422962934339,
            -0.0022554369275476233,
            -0.032247834422424355,
            0.07940191235192179,
            0.02751115644355257,
            0.018485362337744553,
            0.07766056658888795,
            0.048527877065032136,
            -0.14572322607458413,
            0.08274957601388226,
            -0.05554158985840125
        ],
        [
            -0.009751696855927541,
            -0.21651667543302294,
            -0.18692793411975725,
            -0.11966560160397048,
            -0.13757155994462844,
            -0.041255038370155886,
            -0.07811370202057746,
            -0.21085056210256672,
            0.13997361476156442,
            -0.13584581817646268,
            -0.07694657140827325,
            0.04011952148413357,
            0.03246559540925453,
            0.005025725211922649,
            -0.052889365500812434,
            -0.1209504819039481,
            0.08268117497872454,
            -0.0030019558423246976,
            0.020606118559723916,
            0.09338100699440019,
            0.07691708750765858,
            0.02673940872557423,
            0.03680615592413353,
            0.025150878441908858,
            -0.05042130581535983,
            0.10712034408920681,
            -0.023936341576361438,
            -0.03765590722613317,
            0.017673339074867286,
            0.10130540688803696,
            -0.15958094036231757,
            0.02629808513833591,
            -0.004199253018990558,
            0.19449489202460568,
            -0.023947732271328844,
            0.14904624446148831,
            0.022589155270627985,
            -0.09163370553711861,
            0.027157551000642002,
            0.04266043395981593,
            0.19401379286800463,
            0.0509367184697025,
            -0.018861779846107696,
            0.06935571768125288,
            -0.0008403542719778029,
            0.06160791396081545,
            -0.088320997193393,
            -0.03293702622704357,
            0.10340629590056588,
            -0.039472638362646494,
            -0.03640173206176363,
            -0.08040047578415965,
            0.05417952563616487,
            -0.0568893108006334,
            -0.049657281905522474,
            0.12409865567299427,
            0.040987201336839404,
            0.00945420059957572,
            -0.0060460566716142305,
            0.026194090650017467,
            -0.082130274670427,
            0.1619016347910103,
            -0.06004127177840602,
            -0.09122535232237171,
            0.054744756706793685,
            -0.0421646335475249,
            -0.06059467752688216,
            -0.05366441140589202,
            -0.07646608423706823,
            -0.07724956199677335,
            0.05644642563711737,
            -0.039626522844512686,
            -0.08670981243571405,
            0.15250228780703615,
            -0.004135240743917886,
            0.09731656626722224,
            0.2577374959266608,
            -0.06844368219060001,
            0.10192079172017891,
            0.05116054944105392,
            0.09406360556766852,
            -0.018660608661091593,
            0.010008565685303188,
            -0.08687702614041296,
            -0.22443470947713606,
            0.0040351216681767275,
            0.1623831245414409,
            -0.06423435042450411,
            0.07451824452774426,
            -0.01794244604651967,
            0.04607365563417054,
            0.11268314148319655,
            0.19957556508577748,
            -0.0318223837965775,
            -0.1876127114774207,
            -0.024395601127215037,
            0.1539059448002901,
            0.11682682115706922,
            0.02262333111497678,
            0.09885414785198023
        ],
        [
            0.09380380140861742,
            -0.07619313309619978,
            -0.019564127055270282,
            -0.10775782100318369,
            -0.03807668225980621,
            -0.13577831669785242,
            0.09421700703013831,
            0.028056058417754874,
            0.05737635562290511,
            -0.14848229580712366,
            0.08901874559385066,
            0.03477405912504179,
            -0.10042552696743776,
            -0.1009490650880498,
            -0.054739691236384155,
            0.13813791779158296,
            0.11866364265850723,
            -0.04852312399742674,
            -0.010717554327667588,
            0.09439351627236156,
            -0.007539143738347277,
            0.02919414917571693,
            -0.0006316056251268702,
            0.1173143378446535,
            0.030339685371839994,
            -0.18208637769370908,
            0.07046786339051916,
            0.040197533594322626,
            -0.08258618052284339,
            0.07947536760443213,
            -0.12871628612967406,
            0.06233021461419476,
            0.03595967159417181,
            0.031189184772472116,
            0.029351338746868072,
            0.00111933857705276,
            0.11416546168642164,
            0.011604067812904462,
            0.05469139677500672,
            -0.021718356564829375,
            0.04686720041681431,
            -0.0032041293969120727,
            -0.10164757327794337,
            0.07074932625178804,
            -0.0666489810801944,
            0.005448993409492605,
            0.08230586255018597,
            -0.0573267303419211,
            0.03861875189722621,
            0.03448437913790013,
            0.013871135249042398,
            -0.010258786838764014,
            0.06982978055359716,
            0.026669818276167722,
            -0.04422474502481629,
            -0.04252309358173481,
            -0.030014864518935893,
            0.02224827145565673,
            -0.0693748569878319,
            -0.08148549626238116,
            0.0023484288207831277,
            -0.15516538134917982,
            -0.011673423017521884,
            -0.05013093110269869,
            -0.03775678081857459,
            -0.04236570964046432,
            0.04971777493468796,
            0.1423548685619465,
            0.057402076915722335,
            -0.0667281061768131,
            0.19347715836556909,
            -0.09951042036176502,
            0.01575560885576075,
            0.1359178481502711,
            0.08119849343856506,
            -0.022136298828173265,
            0.07018875276229537,
            -0.01691956848541893,
            -0.040512350412204294,
            0.018211726157831246,
            0.13086768742605018,
            -0.09437392978448451,
            -0.0990458894586379,
            -0.03471146048238151,
            0.009458240680951082,
            0.06584780203909671,
            0.10719430475738095,
            -0.12740916586482898,
            0.045467263053222684,
            -0.16431702038413817,
            -0.13796971791538412,
            0.08620101363530419,
            -0.11292680759441055,
            -0.13499751076261932,
            -0.046056746239025205,
            -0.13842498851984378,
            -0.03098825415225394,
            -0.03559903537909132,
            -0.08069101348183327,
            0.12803746137687602
        ],
        [
            -0.09348573047556062,
            0.030012918728596228,
            0.07775030651123933,
            -0.00552441707082282,
            0.034343419014043974,
            0.07131406539194274,
            0.027352882806222112,
            -0.03976486624187812,
            0.09604821743231928,
            -0.042295991638899647,
            0.02592139111963982,
            -0.0622542219570748,
            -0.04879291332726442,
            -0.071897006865408,
            -0.11486041133853914,
            -0.05171689299819873,
            -0.1433394787465352,
            0.09657167372830647,
            0.04349541821464555,
            0.08467661948005732,
            0.04167031576452036,
            -0.1936005651758944,
            -0.04971717760591535,
            0.12716256221081584,
            0.002525274364553981,
            0.025614880225041766,
            -0.1341131225584007,
            0.002303482675817211,
            -0.0027110536800508925,
            -0.1381761026397146,
            0.13943000078778228,
            -0.037892324111100696,
            0.004578142322913391,
            0.013036704907362926,
            0.08914579566666582,
            -0.09426537253204531,
            -0.11823738634482373,
            -0.05482753062939169,
            -0.07724176328697199,
            0.09270772768425221,
            -0.007084637249379729,
            0.022039427568044223,
            -0.06575786706530717,
            -0.005000401574968161,
            -0.1057292556333463,
            0.006510930378703441,
            -0.005524205875571119,
            0.019076414141210873,
            0.060192711916990486,
            -0.03134414837052815,
            0.05538105884630167,
            0.06411262515724972,
            0.020441324489616955,
            0.04840544209281556,
            0.012445174976153543,
            0.07079608516307495,
            -0.19059117433897968,
            -0.154783882002076,
            -0.13290421931868548,
            0.008830652118116098,
            -0.09459324692229425,
            -0.03579628928971744,
            -0.021618490740721842,
            0.08362648118137864,
            0.007006067555229308,
            0.02734331692275194,
            0.15793891213811173,
            -0.004851762466252012,
            0.08623686597017649,
            -0.3205036132050525,
            0.1589305648044809,
            -0.2781710329875261,
            -0.0967853961893486,
            -0.08392952269958716,
            -0.030516438389494093,
            -0.2889341710186334,
            -0.060919542860115625,
            -0.047522630335388824,
            0.06392723557278623,
            0.1003103457384305,
            0.022815474907398953,
            0.023473246507232207,
            0.11039247813344444,
            0.008347510264948932,
            -0.00232341408983464,
            -0.10741440947926575,
            0.04098013169923566,
            -0.012121943271170072,
            -0.002998700355179533,
            -0.05406887273428875,
            -0.03592160145648018,
            -0.13574752945164242,
            -0.0141793112106222,
            -0.11091686943411329,
            0.026226541729549115,
            -0.053382728424607256,
            -0.16680416727414984,
            0.1657199937569543,
            0.1357109512041719,
            -0.13315527677634847
        ],
        [
            -0.10885482115039297,
            -0.05192621296623774,
            -0.011136772942766339,
            -0.008627557947324475,
            0.04395534444900546,
            0.09337904750526911,
            -0.11842170176941513,
            -0.08617964788475026,
            0.0630931857803925,
            0.00861118442343546,
            0.01820547718934816,
            0.02503225857896852,
            -0.09025679421241231,
            -0.06835495402633088,
            0.1008245745355125,
            -0.032300398629651825,
            -0.09436032452778163,
            0.023259869809325952,
            -0.118287244578819,
            0.04836723176385639,
            0.019794415794309392,
            -0.030188198859982328,
            0.11500877648525484,
            -0.047372372463821644,
            0.03928106515628561,
            0.16596976393825294,
            -0.003780069529675635,
            -0.0036073009067015592,
            0.07220282861928169,
            -0.01177591102080793,
            0.09301311308080407,
            0.018760627205540358,
            0.0109318794618732,
            0.058079416657173255,
            -0.050526394399796205,
            -0.11959103791757637,
            0.050634771007943266,
            0.04723824861975836,
            -0.03051142605951427,
            0.011335809901988847,
            -0.00551726872857182,
            0.03355825694396415,
            -0.1027962124654203,
            0.07867555506578498,
            0.035228873947371196,
            0.05043824886086413,
            0.009907046265106549,
            0.05673139557906202,
            0.0775821193843709,
            -0.0007349733121489005,
            0.060513735999188176,
            -0.09533373065556697,
            0.06844392728931754,
            0.012616820893442689,
            -0.0049703411231074475,
            0.061573784239616486,
            0.06964517892810326,
            0.05682154376927115,
            -0.042035137339084,
            -0.09170992274465803,
            0.020870542343127657,
            0.024628933906955804,
            0.08682995229575628,
            -0.11703940485439937,
            0.04026939516142725,
            0.12816722683272183,
            0.07973570415472835,
            -0.05451060894958898,
            0.1076373418929941,
            -0.07304492702428157,
            0.08645313639618127,
            0.07429609750619484,
            -0.0396639292747872,
            0.125538676816636,
            -0.08203905535173366,
            0.004450208490240364,
            -0.2121875214022596,
            -0.06585703995655014,
            0.009370541764639024,
            -0.025573337708553585,
            -0.12912748719720682,
            0.022230337992872058,
            -0.024094481994209407,
            0.013111000158599763,
            0.022182928033692324,
            0.0453488224135829,
            0.08697852446594728,
            -0.0013833352076679476,
            -0.10117032978528419,
            -0.1044015575807176,
            -0.05770782261717172,
            -0.04432047063949904,
            0.025381822882498885,
            -0.009940939485607918,
            -0.01492602385779666,
            0.08189840773408358,
            0.056523963620446996,
            -0.1435659950336442,
            -0.046980525946258504,
            -0.055314940626875066
        ],
        [
            -0.04224057034097849,
            0.021906361880991265,
            -0.04073044996314945,
            -0.03238649530822827,
            -0.06511577902059103,
            -0.07197893689361876,
            -0.007077308040567563,
            -0.09967865884703657,
            0.08596145457582759,
            -0.12505334764991277,
            0.006514002614148579,
            0.09503807965710526,
            -0.001909364141308706,
            0.012909597116414212,
            -0.04032938565299386,
            -0.13987929875775185,
            -0.1239729403175857,
            0.05022772741996631,
            -0.09863487394103505,
            -0.099893847141419,
            0.08525141725492012,
            0.04384446287368231,
            0.10445998047068698,
            0.0361774048592993,
            -0.05623530152688123,
            0.061001887427413054,
            0.03617301831140266,
            0.06656798270187479,
            0.05626265975986316,
            0.09407690880962771,
            -0.03366385117628443,
            0.006496407335532412,
            -0.018946914168751907,
            -0.13308896228234737,
            -0.06606098236454663,
            -0.10964442352351564,
            0.0010611573671254575,
            -0.07064054080226839,
            0.04307278284875269,
            0.08099122562756512,
            0.09184915465514394,
            -0.03613774987629424,
            -0.08215460331012574,
            0.09647523885897566,
            0.018187750274124077,
            0.047906277838590215,
            0.0021215754799322616,
            -0.01958550980117897,
            0.03445249194603977,
            -0.05885095538394879,
            -0.08025333536229667,
            0.006396724543002735,
            0.006474119048921038,
            0.00528891072786603,
            0.08818408537834858,
            -0.08497589707303968,
            0.14189528119424263,
            0.026778360038787776,
            0.041374657416588106,
            0.02480848723367349,
            -0.020036748929344008,
            -0.08421216277571632,
            -0.07851459202248406,
            -0.05896766925590163,
            0.035807010007254454,
            0.02230816675586238,
            -0.06213096898520621,
            -0.05576001692296904,
            0.08236793801616378,
            0.0016163665937544008,
            -0.05297034785525973,
            0.13836665178278987,
            0.023989890275678914,
            0.11314895852375369,
            0.054667007787990586,
            -0.029475303650152197,
            -0.02481641965184707,
            -0.07857921562416924,
            0.024132387161351545,
            -0.03756944077956359,
            -0.16395798302948109,
            0.048171937815059865,
            -0.08617981732196683,
            -0.028477296438094792,
            0.024615621646379218,
            0.08142149346183468,
            0.12497830830159602,
            -0.006674592824372148,
            0.05349062048015379,
            -0.024562683730092183,
            -0.04744201236654059,
            0.11960398868699054,
            0.060126046843182006,
            0.12987283247063228,
            0.0890658054604316,
            -0.04909566706448548,
            -0.07588525443146026,
            -0.14050372682520673,
            0.04897328947774702,
            -0.09911270883031863
        ],
        [
            0.0439150455981273,
            0.08944407978301558,
            0.07533195549055739,
            -0.07108838936164431,
            0.04867680829065226,
            -0.028636786830837414,
            0.046231360805243295,
            -0.02895539057184803,
            -0.08011753223016294,
            -0.15900843938032133,
            0.033177566827164565,
            0.09819622758240296,
            -0.13566863140461727,
            -0.03176553395339449,
            -0.028272539117173104,
            -0.10122921601198337,
            0.05476823636220703,
            -0.17588104448375733,
            -0.09790046820188927,
            0.01342400067506043,
            0.08224930555192164,
            0.024291744115700755,
            0.11162690968162729,
            -0.1423188409588355,
            0.006596617069198941,
            0.06886364684512722,
            0.13278227871206316,
            0.12348895966581946,
            -0.02231402709637835,
            -0.025818181482483958,
            0.006976883025666657,
            -0.05190022189731239,
            -0.12410269102631838,
            -0.02437861983170867,
            0.1388297476935916,
            -0.08236393272234098,
            -0.014328637995117561,
            -0.0699519514167561,
            -0.1890525893727594,
            -0.11164432396610253,
            0.03721677041076095,
            0.0779907089639085,
            0.0836658703086532,
            -0.11772027593833848,
            -0.13523060523338276,
            -0.016908688350713852,
            -0.010866678988590655,
            -0.019796071237135806,
            -0.04449663010384384,
            0.031451789042542526,
            0.08847458495516217,
            0.09870261373118647,
            -0.05572366467829467,
            -0.07059795517626229,
            -0.104722680149978,
            0.1241395151143506,
            -0.15688610969943806,
            -0.0230465273767012,
            0.14469763313955353,
            -0.044346652548775574,
            -0.12023664766134068,
            0.03210565666498113,
            -0.05397014962058192,
            0.0484424926410273,
            -0.02685586630358315,
            -0.048175817785190346,
            0.08607286601624975,
            -0.028705791200191084,
            -0.002875270569223167,
            -0.027832045796792316,
            -0.11108681641295225,
            0.11944343730578005,
            0.1002661140293117,
            0.11837016142846217,
            0.06657787407595815,
            -0.1269562911138406,
            -0.024759441314235176,
            -0.14820792762740823,
            -0.07155164251577552,
            -0.009735889983691915,
            -0.02618668998930391,
            0.047731857251706325,
            0.023317774635504825,
            0.037789952272430205,
            -0.04567722742508904,
            -0.039014628084815636,
            0.08330220579057682,
            -0.004986481217725073,
            0.17529311245491072,
            0.0923502237980833,
            -0.022083849192924117,
            -0.047267535485190394,
            0.09996997157221918,
            0.050456144104954415,
            0.08072707400404225,
            0.0380669106533189,
            -0.11734838291217733,
            0.0002944324425626359,
            0.04020709048211444,
            -0.007819464223635034
        ],
        [
            0.040677347032526776,
            0.057581783694747556,
            -0.1403850902908055,
            0.1702610297736552,
            0.021497589430800827,
            0.023112138113046334,
            0.036324395719951066,
            -0.09887705230974879,
            -0.06731659480404728,
            -0.011029441668196884,
            -0.05107563594624073,
            0.06770528246272678,
            0.038816472845996895,
            -0.08285412939722052,
            0.04043529228902519,
            -0.09184997425480271,
            -0.06956123272306834,
            -0.06065337680454673,
            0.014612855343630472,
            0.09405201236263146,
            0.09489656165622826,
            -0.03248918100128956,
            -0.0667805071714514,
            -0.010834134962695986,
            0.12924468606554454,
            -0.03529512416917117,
            -0.044386377821015566,
            -0.14239528951199515,
            -0.004924589757366521,
            0.06230678617523482,
            -0.043741355083065876,
            -0.0678383456705246,
            0.01557670957013055,
            -0.05694386195829856,
            -0.023262518722705794,
            0.009358059483222636,
            -0.08374054264231628,
            -0.002429012507801935,
            0.053644783243209225,
            0.04402072805433015,
            -0.18574468593980814,
            0.05758234113333581,
            -0.045378083252119276,
            -0.12027603691666827,
            0.03368084378955426,
            9.79308789969132e-05,
            -0.05333385712990711,
            0.03241119120406007,
            0.11966374456301163,
            0.011555059075798948,
            0.16851860841500302,
            0.07293968827407667,
            0.09820155942398258,
            0.10396676894453895,
            -0.03649100815288745,
            0.018182667433528324,
            -0.1297670827789154,
            -0.20967009146579904,
            -0.0825505331448553,
            -0.08168090091908803,
            0.06301843617291732,
            -0.027924989960886576,
            0.08348271873803717,
            0.031443241136571196,
            -0.07988412985971366,
            0.05426377099322402,
            0.007936104257070713,
            -0.009627427311737888,
            -0.10640677410143065,
            -0.0699926557027624,
            -0.020641883470658054,
            -0.19718171230401857,
            0.01557872118970948,
            -0.04229094536656997,
            -0.039838297406182534,
            0.09183227703212134,
            -0.004504434129821632,
            -0.03544710706522218,
            0.08577679509496425,
            0.05611292290774072,
            -0.12190581995514518,
            -0.05403461192550659,
            0.03509079551473375,
            0.08741443516505851,
            0.09775558876214162,
            -0.016581236794476276,
            -0.06911460858383087,
            -0.009486837813304859,
            0.11253966920216972,
            -0.09684011401104384,
            0.006900428049401847,
            0.04990346349829444,
            -0.023010869263198862,
            0.06738468094429478,
            -0.0718339637419875,
            -0.010610432179765709,
            -0.04420509216520139,
            -0.21897638245658574,
            -0.005801271329530325,
            6.772661632876622e-05
        ],
        [
            0.006025463011095559,
            0.05455534375778701,
            0.08187026295995199,
            0.0005451346771292382,
            0.06404689152184252,
            0.03110231873024097,
            -0.04100021434595548,
            -0.07308680923292193,
            -0.008558735823785937,
            -0.11806314897227072,
            0.026220334350504422,
            0.011173019450495002,
            0.08402338000242009,
            0.07313000864774839,
            0.16141478691838054,
            0.1164469918106729,
            -0.02865515726165647,
            0.017839697354844936,
            -0.06208887888471282,
            0.0008202449972630661,
            -0.006504316042003182,
            0.033988048307884336,
