{
    "h0.weight": [
        [
            -0.17547717954032338,
            -0.0761176051171965,
            -0.35569837903354534,
            -0.19277298239417934,
            -0.2482440732857606,
            -0.17160447639439777,
            -0.07288414400840032,
            -0.3829096460258746,
            0.20140864833230968,
            -0.013541434107515765,
            -0.053945978187484415,
            0.6927732841581057,
            -0.20673119659963218,
            0.30942901031417025,
            -0.029278169354123165,
            0.2002017516890379,
            -0.03651603659473496,
            0.3958449141141322,
            -0.19725103070293523,
            0.38294961071759737
        ],
        [
            0.2762555444657637,
            0.3420063851949394,
            0.02568059900773253,
            -0.3047192731426454,
            -0.21239535857972305,
            0.0568603131954758,
            0.03723606433783095,
            -0.305117588330346,
            -0.1412294164454303,
            0.2048959961425111,
            0.4072193352312732,
            -0.3004123893001893,
            -0.16208663032035406,
            -0.4539229040237995,
            -0.13848103454478183,
            0.244188116423965,
            0.05063256326638871,
            0.012012794973548848,
            0.2200977044886488,
            -0.3778435935981669
        ],
        [
            0.05847877768052161,
            -0.2292211756865287,
            -0.3131073185862084,
            0.22783602509983708,
            -0.04780136573027878,
            0.2590125045680445,
            0.24540245604551159,
            0.23982931171371547,
            -0.020944348313350403,
            0.1893033161512805,
            0.378132308798852,
            -0.2142508029781276,
            0.04399123624112723,
            -0.06287673610704313,
            0.13878389098747082,
            0.10008332946344597,
            0.0842549992691665,
            0.3202732230458534,
            0.5141707957669107,
            -0.4527258407526447
        ],
        [
            -0.0888532187828824,
            -0.06250335279508559,
            0.20054451234089693,
            -0.10460735246932218,
            0.13959485448765815,
            0.01737768041356085,
            -0.11852423775790545,
            0.03355027945808006,
            0.1059984604617936,
            -0.33522409001071396,
            0.1714289744508157,
            0.21496157221157414,
            -0.06598435838487102,
            0.04635882677934761,
            -0.1469770534174448,
            0.06133270628916028,
            -0.08313205179190748,
            -0.04727412411880153,
            0.023000681655030553,
            0.41369596364909195
        ],
        [
            -0.04380136769102774,
            0.12915494467010835,
            -0.2830216044153739,
            -0.19630235133212862,
            0.1122699948871915,
            0.22058640276102123,
            -0.15322090020875553,
            0.1729350920199458,
            -0.06560280900303049,
            -0.38719217806684036,
            -0.40885929418508465,
            -0.47209671548612686,
            0.29590674992396293,
            0.011462592942856061,
            0.13943910035884777,
            -0.2096502962147093,
            -0.10658173433701887,
            -0.09125502456817162,
            -0.2802852992442677,
            -0.45097455905316186
        ],
        [
            -0.24695255807996117,
            0.09714119514122187,
            -0.18846660244634628,
            -0.12442490380343517,
            -0.23497246389533805,
            0.21425168657665308,
            -0.17640089792541694,
            0.2121192918730813,
            -0.05945300699709544,
            -0.09608205423979714,
            -0.034358789208729,
            0.22567063886363115,
            0.285666087248418,
            -0.27515047631334266,
            0.31291317886189585,
            -0.22963713036816885,
            -0.6565485288057632,
            -0.01864053007042461,
            0.0480572753406482,
            0.011737988469079778
        ],
        [
            -0.05676267563870669,
            0.2266012572909354,
            0.40433106136116886,
            -0.0336685652359557,
            -0.07273726327493733,
            -0.14856262617828225,
            0.20549014878403343,
            -0.13242726390525839,
            0.3268595287687088,
            -0.2096376442890487,
            0.4097897297339145,
            -0.11659163622218399,
            0.07383959070638571,
            -0.11176658242440862,
            -0.282122703239977,
            0.0815128464130835,
            0.08195344456919884,
            -0.052577541529426806,
            0.5635022868673393,
            0.7358361364065805
        ],
        [
            -0.08916594367012746,
            -0.12378812837023075,
            -0.09021073936994622,
            -0.3603168988786082,
            -0.2598377113701697,
            -0.14813788000538924,
            -0.16369577734798588,
            0.21418505868423837,
            0.06161271787301953,
            -0.019188077633488704,
            -0.006986160201104102,
            0.32431457736153,
            0.0692249625976451,
            -0.2650575183299643,
            -0.31472680935681585,
            0.15134578641242236,
            -0.5748581342746879,
            -0.5011570155996455,
            -0.16609347430277907,
            0.3442328735447365
        ],
        [
            -0.1467071230173792,
            -0.06826940694441136,
            -0.16796078384871385,
            -0.09880284377914611,
            0.15712257649079042,
            -0.07868627848165641,
            0.27349011599915923,
            -0.14410669167825182,
            -0.21359105175949453,
            -0.3487042440297159,
            0.04720954785992191,
            0.22328760177219603,
            -0.03436202746162705,
            0.02322455870309172,
            0.055935588202597586,
            -0.3297329357826368,
            -0.3764849921770451,
            0.3474939987187325,
            0.11684522240658936,
            -0.03582816053015793
        ],
        [
            0.2161545469111567,
            -0.008455691695770545,
            0.013536503795729194,
            -0.6563429454574341,
            -0.12543628185219063,
            0.013996798484329463,
            -0.2096798050680809,
            0.2967802678787194,
            -0.23806575719581613,
            0.19791728809684445,
            -0.29551786943199,
            -0.12834381501364878,
            -0.26189970648716276,
            0.2221586018686124,
            0.05994074394615764,
            -0.04045707112695758,
            0.1656751786400057,
            -0.18170064868674485,
            -0.3397549224849202,
            0.07019804934212351
        ],
        [
            -0.42685615117465414,
            -0.16461527218855712,
            0.057044844752776214,
            -0.1023177507744302,
            -0.23417364894098758,
            -0.20761633327141976,
            0.11884968468769622,
            -0.14175025805017064,
            0.2765998879515818,
            0.16770228151572866,
            -0.08141765579658636,
            0.5182460715406206,
            0.3544808866971026,
            0.27943395242881575,
            -0.05465081022174126,
            0.10469091800262964,
            -0.18159131575865262,
            -0.11573151727706016,
            -0.0021084472306666896,
            0.056862244879020016
        ],
        [
            -0.06844032421907573,
            0.007702131282122405,
            -0.6372242903135946,
            0.18860862836415265,
            0.029606086284303404,
            0.2798825221598269,
            -0.20327958394270282,
            -0.024579632823893107,
            0.1923565250964921,
            0.049739546921263096,
            0.43057530840446345,
            0.32856039999225006,
            -0.21291863841603323,
            0.0047460095561232185,
            -0.3657701674997529,
            -0.007810435207910508,
            0.002699386029729155,
            0.0855616872187665,
            0.2940831760710401,
            0.7838772712211305
        ],
        [
            0.18248835221826265,
            0.15341090675127442,
            0.17059544213858005,
            0.3154751032688317,
            0.018581975216383443,
            -0.26385915912241753,
            0.11456230182141369,
            -0.0041602157895270315,
            -0.23654360831343996,
            -0.11327556244507188,
            -0.43556577553130466,
            -0.0345775255346834,
            0.12696763794607144,
            0.16372264352960977,
            -0.06831483127375826,
            -0.11771953452056139,
            0.04569964550075352,
            0.19768430161618963,
            -0.6771801208526537,
            -0.4267761443319421
        ],
        [
            -0.31494860795946683,
            0.2931397241565881,
            -0.10886830209183593,
            0.5017698838782811,
            -0.1710496177899396,
            0.11996595404127113,
            -0.07999377931857447,
            0.18716097123576142,
            -0.009625473436243506,
            -0.0641163190815116,
            -0.35847733308453117,
            -0.6021758418023645,
            0.24883197609660848,
            -0.0942076387083535,
            -0.28212541134039915,
            0.1814839745113728,
            -0.20620793476296137,
            0.48635598533243213,
            -0.5208918226198258,
            0.07721436708798306
        ],
        [
            0.2176096739034184,
            0.3515959417656008,
            -0.1045743491596325,
            -0.3159225003850129,
            0.21287601892021313,
            -0.16514866267535408,
            -0.28555726793499614,
            -0.005243863533294766,
            -0.16820780605044006,
            -0.05341437564784056,
            -0.03208803175752857,
            -0.17516513196086583,
            0.007961392999104179,
            0.03798094205135467,
            -0.33237432176452636,
            0.44881699279218007,
            -0.10671875466757601,
            -0.11658128271214598,
            -0.41305419384092207,
            0.5682885684101108
        ],
        [
            0.008510663799676875,
            0.03893991222364143,
            0.018974254409045516,
            0.12365789312662254,
            0.060943155008386395,
            0.050366635303044284,
            0.16362495004005806,
            -0.18572326395563524,
            0.38311576308111095,
            -0.18335343662549416,
            -0.3619760634451851,
            -0.20024299111126997,
            0.03361304095231453,
            0.28563965233411465,
            0.15833199176097607,
            -0.012805060664504275,
            0.03317489437578386,
            0.03960285288588857,
            -0.21361070451425687,
            -0.193625852663836
        ],
        [
            0.09949263079867753,
            0.10599283235147589,
            0.33154515250908684,
            -0.10344806885056865,
            0.1371156064133905,
            0.13785735798212562,
            -0.2856196650032778,
            -0.13958592030948172,
            0.08944568984473067,
            -0.0917020273510338,
            -0.0148500795537085,
            0.5386489168605547,
            0.08339545184982629,
            0.11833720259531841,
            -0.09636549306188781,
            -0.14963962989082796,
            -0.3039211103261609,
            -0.394247648577693,
            0.173773725967597,
            0.1507813656848293
        ],
        [
            -0.009994665378457689,
            0.20279809527866538,
            0.2349098230239364,
            -0.03970527719229696,
            -0.04984680751016635,
            -0.30065109227033837,
            0.026119903078846717,
            0.33489996009747436,
            0.15979013552907134,
            0.24559549663036595,
            0.590922760470826,
            0.07918658178622953,
            0.19504768304539033,
            -0.29750187858854626,
            0.11888503471071833,
            -0.1902398692076982,
            0.06674271423681145,
            0.0013729121187078606,
            -0.3085021273419178,
            -0.3765745874147649
        ],
        [
            -0.22340571187046876,
            0.124962069398522,
            -0.03376534641712516,
            -0.38514900882279857,
            -0.04524397511219532,
            0.2057253768004775,
            -0.11842108953067346,
            0.10658897309988016,
            -0.3236229486404147,
            0.12018873062370697,
            -0.13589332835396173,
            0.3283502519815563,
            0.04402347262004659,
            0.04693074013842591,
            -0.19829328880720248,
            0.14142902562846288,
            -0.02598789205347544,
            -0.7280444382666856,
            0.3436662163746631,
            0.3413915550380866
        ],
        [
            -0.14065416904165598,
            -0.1895158019363893,
            0.3697562107392314,
            -0.34153681061043456,
            -0.07162155320151009,
            -0.00958220165835809,
            -0.019154869960062038,
            0.11264452058461956,
            0.04377302490081055,
            -0.04697481521055446,
            0.07699414293745034,
            0.6161078201623919,
            0.1025203790476457,
            -0.014237021302604515,
            -0.15607716515543596,
            0.0545768408725332,
            0.11575661946827473,
            0.006884928909745244,
            -0.2305355164127259,
            0.5506064617930542
        ],
        [
            -0.2832842245832182,
            -0.03454095630991435,
            0.27344525373480305,
            -0.1315180646260066,
            0.019866706041757044,
            -0.24018209097542154,
            -0.17107524842353464,
            0.2286964052606681,
            0.10716668929731099,
            0.31938191287104056,
            0.07725898888493526,
            -0.24542311522563307,
            0.21096177866504,
            -0.08451269004619584,
            0.029962883950934827,
            -0.03080842248852298,
            0.11437841801463393,
            -0.11439396048163986,
            -0.06108783689942966,
            0.2773321165318681
        ],
        [
            -0.20449879966092635,
            0.0797576727681096,
            -0.1885743640157348,
            -0.355527927012419,
            -0.17362076027692563,
            0.17892048660181006,
            -0.12862546176230458,
            0.07650227866824122,
            0.29683225585648165,
            -0.304044617737642,
            -0.016369153745112774,
            -0.20033537647965113,
            0.1285760692840053,
            -0.016505194236848257,
            -0.04006478946267088,
            0.08649352667013585,
            -0.09508480463654488,
            -0.593750205857817,
            0.08420323349891617,
            -0.2436361558976028
        ],
        [
            -0.3310738042015054,
            -0.25968314252293134,
            0.32862571653228434,
            -0.5082261697172648,
            0.11030645652775423,
            -0.20130131204052115,
            -0.09991238255437207,
            0.10515153944285006,
            0.1103842972639302,
            0.21830533131695964,
            -0.38362517721159406,
            0.13680434248544326,
            0.18475370903032007,
            0.16075930249491469,
            -0.10971638726594832,
            0.17704894713712932,
            0.34968555873703333,
            -0.5471532613744509,
            -0.19387067852279535,
            0.08928890443378219
        ],
        [
            0.05462667648123977,
            -0.3834290031833472,
            -0.21495587093118057,
            0.11566566769409682,
            0.2865712177094609,
            -0.20646606807197618,
            -0.1804224970132809,
            -0.11366936213794437,
            0.08639822523480722,
            -0.23948765028876343,
            -0.28960670973627406,
            -0.2715380320931475,
            -0.14892276066390614,
            0.09041809815716136,
            -0.2199900603685016,
            -0.029804453890524375,
            -0.37459415687287545,
            0.5191998656945479,
            -0.06101339616617973,
            0.052891807881864546
        ],
        [
            0.07032119540825299,
            0.24014542273791223,
            0.22868348656853058,
            0.59406871420097,
            0.31882725961877706,
            -0.20103556215559498,
            0.06405471441023902,
            -0.08331096248908987,
            -0.40918837985434225,
            -0.1710661751130166,
            -0.0017417441763871036,
            0.34340702955453883,
            -0.09361419963741403,
            -0.1284877293999,
            -0.11170773773983798,
            0.15660963439712253,
            0.20877883409652573,
            0.29176919748788266,
            0.2233703448376041,
            0.3192985824755422
        ],
        [
            0.09858114400685335,
            0.2793868753528162,
            -0.8682462656150854,
            -0.3700773641499535,
            0.1261660907136161,
            -0.15660792148574337,
            -0.040009331522369844,
            -0.11864883157094389,
            0.23518236287600933,
            0.17914888085567446,
            0.39941354635874154,
            -0.2786319539597797,
            -0.2696930523914642,
            -0.24039191954644878,
            0.2847723587781138,
            -0.11687953882027229,
            -0.6781914223477032,
            -0.24677385613821967,
            0.116795737539905,
            -0.028630643749779593
        ],
        [
            -0.007399032643427425,
            0.17407008824231915,
            0.41173496230397894,
            0.23021889614033847,
            -0.23970303245556618,
            0.11098639589772462,
            -0.0212288426939209,
            0.12362592304264994,
            0.2514681747373639,
            0.24269586369007246,
            0.10024845807658084,
            0.26478350170388276,
            -0.10349024862033333,
            0.08364019826478024,
            0.3333963924492203,
            -0.23698824020111373,
            0.05537679867250624,
            0.11918158545022722,
            0.5409210226270639,
            -0.16416602656437818
        ],
        [
            0.10636251493326628,
            0.11008842646733771,
            0.17693464559026656,
            0.3471280366723278,
            -0.32649065199910904,
            -0.1141703182252179,
            0.17132887076004008,
            0.21217088661083058,
            0.1484221625427184,
            -0.007928242411797987,
            -0.28471014183150534,
            0.09460259809466293,
            0.03641540763168944,
            0.27218270942893946,
            0.3143545330037278,
            -0.10653383287416805,
            0.014469584501193572,
            -0.016324735975854734,
            -0.31968757582603763,
            -0.33236052854640563
        ],
        [
            0.24320060742760805,
            0.02585410487792821,
            -0.05948193810884777,
            0.5665933278695143,
            -0.21472208796098008,
            -0.2628900467905974,
            -0.229777002019115,
            0.028512680339095004,
            -0.0020082343705655295,
            -0.4604746328212727,
            0.42526525871659937,
            0.4929825420539251,
            -0.07438279021178443,
            0.2741987967004234,
            -0.23038385724516464,
            -0.26632052241053084,
            0.13879119172278093,
            0.2942103559700459,
            0.05922773699693852,
            0.03400118104079661
        ],
        [
            -0.10406238390525058,
            -0.12254908694750558,
            0.24406337584405677,
            -0.3787635856858549,
            0.10208186376714885,
            0.07783568977676764,
            -0.1362441570263201,
            -0.19857737686208604,
            0.18306516994825592,
            0.14795264444095896,
            -0.3720677926815047,
            -0.2664300830916926,
            0.17607410884633942,
            0.1320009033042962,
            0.21079421355736405,
            0.20819780623242934,
            -0.05670977575950827,
            -0.06101614041233569,
            -0.5364313444892688,
            -0.3538889072743451
        ],
        [
            -0.4000486736043686,
            -0.15618216318220976,
            -0.3734335067153284,
            -0.3922129333815592,
            0.19081963686541561,
            -0.13647302200178052,
            0.14815829829373237,
            -0.10492653049840178,
            0.225620042275548,
            -0.09871395146264485,
            0.21527490825337625,
            -0.011208375126247115,
            0.2295947209354753,
            0.06781829656987774,
            -0.18515715047622874,
            -0.13917992533262796,
            -0.42715172317246997,
            -0.0694028738089165,
            -0.05357123955137138,
            -0.04979192082245801
        ],
        [
            0.02083310377462955,
            -0.07243693329950643,
            -0.03164196117575138,
            0.014923128022972559,
            -0.2754537863892212,
            -0.41558127486036295,
            -0.12171420042620192,
            0.006948966987024935,
            0.28946797129597707,
            0.43751495883770636,
            -0.10441017852465242,
            0.09015423272018337,
            -0.030979505453142014,
            0.023766131741564646,
            0.05591475291049076,
            -0.013637147105704829,
            0.004069806414025769,
            0.029034432189447627,
            -0.23403136806678065,
            0.07861972155034326
        ],
        [
            0.05222348286118592,
            -0.12279870513981744,
            0.12150289949556574,
            0.3986211009628212,
            0.14236915075675166,
            -0.10030663883320692,
            0.14933147805530628,
            0.1238778795187872,
            -0.05954283689678878,
            0.1412001092609926,
            0.40077116440091026,
            -0.45114125735834265,
            0.11797355557289714,
            0.0003761984928361295,
            -0.2600741983661707,
            -0.19480661553553505,
            -0.05770092569689332,
            -0.14976488449843695,
            -0.005725808946405239,
            -0.5468519783678076
        ],
        [
            0.15393167526333207,
            -0.15036674419964907,
            0.38153300918826105,
            0.12704180560749648,
            -0.17660248412852392,
            0.07664161033371876,
            -0.0780208073131283,
            -0.12192127516450407,
            0.2336558098548248,
            -0.24187524731801452,
            -0.6242492973571976,
            1.092566268398332,
            0.078370141320776,
            0.04091834757547104,
            0.3490486552734109,
            -0.04486394092310962,
            -0.36967247650665774,
            0.4198113675675249,
            -0.5137229757001066,
            0.672703852789092
        ],
        [
            0.04407084768719527,
            0.14781709496207246,
            0.18463310515360984,
            0.0868515064380753,
            0.029786308539245625,
            -0.2866849755209442,
            0.10885652442742948,
            0.11914480843769829,
            0.13256656390123878,
            -0.05882401945372769,
            0.27801812535391546,
            -0.024001583677000657,
            -0.3378741576417163,
            -0.00886462430340614,
            -0.19613668127070588,
            -0.2232462307418541,
            -0.07724372514462147,
            0.2776523143823646,
            0.3084146078554205,
            0.04056102683078835
        ],
        [
            -0.40055112928111125,
            0.08724690147195585,
            0.6339916305201396,
            -0.34835070754091596,
            -0.22883244167671474,
            0.139397102841841,
            -0.028683434307745767,
            0.02644423923842689,
            0.32748220373433806,
            -0.11118141808412293,
            0.0962270118680548,
            0.40748574490746575,
            -0.29506725120996236,
            0.017389987689589843,
            -0.082096968072275,
            -0.100217163407702,
            0.15716597526353296,
            0.01769871836763795,
            -0.2956946124005066,
            0.4442503151464342
        ],
        [
            -0.05764770614544386,
            0.30896065010012735,
            -0.035890863775148066,
            0.35666545741044414,
            -0.2890733954457967,
            0.33722584604257994,
            0.10493434254388723,
            0.141060376206331,
            0.09890182929798916,
            -0.33903690395469677,
            0.25061603998605764,
            0.2279895396040499,
            0.1977298013075622,
            -0.41345937188593296,
            -0.041843610055801075,
            -0.002353634933382714,
            -0.059623995819493805,
            0.4572275868122067,
            0.14479094358487685,
            -0.041421634086378875
        ],
        [
            -0.15535173301864344,
            0.20291054799670893,
            0.24964966733181637,
            0.520766862381979,
            0.19400016901487682,
            -0.11590522459133248,
            0.004635384640009398,
            0.32118907158444215,
            -0.02344040908972401,
            -0.17495054058438214,
            -0.1026995610792192,
            -0.39951410596518655,
            -0.13855445232737074,
            0.16773855404230564,
            -0.157702862812595,
            0.17667846585434244,
            -0.0918245360963021,
            0.09128120533702144,
            -0.08303291259767856,
            -0.5309413632501906
        ],
        [
            -0.023424761304864983,
            -0.06015687858863175,
            -0.4408244217192938,
            0.11123032539500366,
            -0.1782409413374998,
            0.0246888783045483,
            0.09946197993331558,
            0.23336374966798096,
            -0.09991607151499579,
            -0.07477271190170642,
            -0.01863995185547597,
            0.376642260361494,
            -0.21819570973346714,
            -0.13869696670554063,
            -0.039821925460612154,
            0.09048591106323314,
            -0.5724248978620247,
            0.027200560482038175,
            -0.02745995555360542,
            0.22864025053367004
        ],
        [
            0.14465845473172456,
            -0.2627344631520121,
            0.3526750819024447,
            -0.37624565629880274,
            -0.06514990218119375,
            0.13300683505543864,
            -0.1810903347827553,
            0.12676355014305277,
            -0.2591080978899996,
            -0.2945869159324763,
            0.40433191390086193,
            0.117810013431689,
            -0.05917946955517075,
            0.3152559630823747,
            -0.20651045977757318,
            -0.0632702139067563,
            0.4608088503937268,
            -0.3705957592681842,
            0.03582418966149031,
            -0.005027760495309172
        ],
        [
            0.09927522230820515,
            -0.29859322285121065,
            0.2772771394056719,
            -0.7463007313621447,
            0.23818469066170586,
            -0.014909319153593644,
            -0.1454385777810112,
            0.09290073089961286,
            -0.057723837179003736,
            -0.0748072892261608,
            0.0156580161048571,
            -0.09176702576436103,
            0.16898521646253642,
            0.07461906199105715,
            -0.06852298926717182,
            -0.013233974774218364,
            0.7296628635939277,
            -0.8426389951531008,
            -0.14801305330490375,
            0.12281284834412245
        ],
        [
            0.21131067457388908,
            -0.10843651426604457,
            0.7114203632743012,
            -0.5853802919971741,
            0.13432285907631886,
            -0.17642580909726352,
            -0.23861202465270706,
            -0.11434524640593488,
            0.10824077436954106,
            0.054466453946045434,
            -0.29152486957811274,
            -0.10313760787424212,
            -0.303850365181243,
            -0.14743239287450802,
            0.06441101079889205,
            -0.2042301162276934,
            0.3589580208825874,
            -0.652334174307858,
            -0.11088720442254005,
            -0.03714642671957244
        ],
        [
            -0.02033890176177398,
            0.18816401638641128,
            0.07747420499072255,
            0.1597875233503322,
            -0.1672587480305686,
            -0.34479696950317085,
            -0.3343146333992981,
            0.0035948609704382663,
            0.24253081390161405,
            -0.20598310040222045,
            -0.3484331684909913,
            -0.30024684777228394,
            0.10871700500277422,
            0.2720672809056775,
            -0.22519786208402168,
            0.3976982366507465,
            -0.14374165861145746,
            0.02849539145119818,
            0.10742271394137487,
            -0.1727672510385625
        ],
        [
            -0.23543838823818702,
            0.1271828485042582,
            -0.010020751621289474,
            0.18238858432486155,
            0.12777485335026956,
            -0.18112130603662255,
            0.12244198272017129,
            -0.05078342109372517,
            0.3577020407282179,
            0.07216068874688322,
            0.023733446861751807,
            -0.35861754212349073,
            0.23458361772093073,
            -0.1776451617815893,
            0.11181505989311656,
            0.06290102110394397,
            -0.1544665813539426,
            0.08532147568847695,
            -0.43804530962603805,
            0.612748326958775
        ],
        [
            0.22538661675349878,
            -0.10864368324848866,
            0.566251761617632,
            0.6280357167086723,
            -0.05354024072979898,
            -0.22018685306144015,
            -0.010785005688185054,
            0.01931618697860952,
            0.09940118718954907,
            -0.10631549696640147,
            0.4540846346174278,
            0.1673082833848863,
            -0.12137545467262784,
            0.3705720851350275,
            -0.2836120905827147,
            -0.33992944025311106,
            0.6325341697591226,
            0.8110841059726364,
            0.08443018068368345,
            0.18007399086096343
        ],
        [
            0.13767264966475307,
            -0.13885605782413737,
            0.05278652660019773,
            -0.06446694226450692,
            -0.028678650847799823,
            -0.18881758005993116,
            0.26211588239184735,
            0.2648729512040854,
            0.22301479024316598,
            0.14065494045276358,
            0.08321275319182599,
            0.14886486652884326,
            -0.3079939251475312,
            -0.09609123941606657,
            0.030377315085385746,
            0.13811298960070562,
            -0.12897776431852404,
            -0.020966795028504202,
            -0.9067899050772459,
            -0.3079172553405904
        ],
        [
            0.009455325730738949,
            0.008910332640683838,
            -0.4718470607026388,
            0.11096178871391973,
            -0.01227642871350747,
            -0.05514133696863386,
            -0.23352445413451264,
            -0.17932368447369976,
            -0.13471415658798752,
            -0.072844184386462,
            0.5886433502113027,
            0.36449916634705243,
            0.03836842665376764,
            -0.10531872045317879,
            0.22922576607962303,
            -0.18606349462785676,
            0.06655665444058934,
            0.0836377749158596,
            0.5208986445418893,
            0.5925619412221251
        ],
        [
            0.5349784261129275,
            -0.5763305628694894,
            -0.09802677413481496,
            -0.20721233077989823,
            0.3823060113204736,
            -0.3230246389630492,
            0.24833611064287145,
            0.006406568671313774,
            -0.4303583798732194,
            0.474044885391142,
            -0.11631032171590672,
            0.09309606821202902,
            -0.4204775164279814,
            0.3344771747973976,
            0.09045629211626571,
            -0.0966770103556502,
            -0.10613808398274129,
            -0.2321768173161834,
            -0.07880350391531725,
            0.08110433786209278
        ],
        [
            0.2848953700794324,
            0.03651621855269709,
            0.018098572187054112,
            -0.158092853325546,
            0.11394491891856669,
            0.23913122429410708,
            -0.06855637721071482,
            -0.17549822122933872,
            0.017704176352847482,
            0.25346606196871924,
            0.5313280708431231,
            -0.47061403891922243,
            -0.006733992474362449,
            0.12039230864083379,
            0.13093859682434197,
            -0.09218058161255678,
            0.39434058320620063,
            -0.01175290070737076,
            -0.05605216123034635,
            -0.32370048491087994
        ],
        [
            0.20231582492195987,
            -0.073882854999008,
            -0.5710486483574714,
            0.003312271553726044,
            -0.10772320572918415,
            0.09548872359172525,
            0.31885437297371455,
            -0.0959090687092619,
            -0.19413373236481635,
            0.27092863247184973,
            -0.3423531373013271,
            0.5512481073677947,
            -0.3109294730741006,
            -0.18329215842248447,
            0.009644103536430486,
            -0.13357061715519228,
            -0.04912755060698603,
            -0.038531891927022874,
            -0.9343541559069184,
            0.9143340598494204
        ],
        [
            -0.13867275619297656,
            -0.38941324046659415,
            0.4430546595150576,
            0.6310915303576532,
            -0.2970259243546365,
            0.050527764658692305,
            -0.13557760508928024,
            0.013241297465650404,
            -0.2438424770708072,
            -0.265894322122266,
            -0.3609636943652765,
            -0.020246822237581702,
            -0.12684261375405334,
            0.15696858000577918,
            0.24204325587485334,
            -0.06720862785114283,
            0.012312960140556706,
            0.0005596938363757419,
            0.4852006030415198,
            -0.3305438409068445
        ],
        [
            0.23228294130782454,
            -0.13718173904437758,
            0.3287346492133546,
            0.40547855910202363,
            0.050434247693896206,
            0.13300819361897542,
            -0.04680445480808551,
            -0.15428016436869588,
            -0.13830169129691444,
            0.031411750940996366,
            -0.18120853245366897,
            0.5552472560141395,
            -0.2830187108104215,
            0.28094425165567505,
            0.1722527853099117,
            -0.00778178912476521,
            -1.3094259120069285,
            -0.5316395991579731,
            -0.023459271614588263,
            -0.24883432658723753
        ],
        [
            0.28317120050688266,
            -0.30962678836112284,
            -0.4863599958084137,
            -0.0905428320887382,
            0.06143543448723888,
            -0.21265467762922757,
            -0.12541373836032163,
            0.03343512244490308,
            -0.05548631377947053,
            0.030653059295000246,
            0.39067545173423096,
            0.12014549962248855,
            -0.0024660429249872546,
            0.04186623946906776,
            -0.07781366916902484,
            0.310248216298492,
            -0.011618904775669752,
            -0.3488220412144016,
            0.19584426486138554,
            0.3016374409386597
        ],
        [
            -0.08450689198880487,
            -0.09402658983787276,
            0.2476810027364953,
            -0.02059444355900994,
            -0.30085020743733576,
            -0.2801084274706064,
            -0.14069112375518475,
            -0.06677427446702965,
            0.2830613487898291,
            0.018253432684116486,
            0.10350845793564353,
            -0.14394857976417239,
            0.08486679828189421,
            -0.18668506663552492,
            -0.06731875254463664,
            -0.00010828043212892948,
            0.7342465577386655,
            0.2314353428462938,
            -0.0068108612592650206,
            -0.07117827640136462
        ],
        [
            -0.11581060585473922,
            0.04048633214135991,
            0.28178507428944655,
            0.13138705660337308,
            0.13557914624173042,
            0.007043410065185855,
            -0.23984272070649518,
            0.26554184553006666,
            -0.08879556001808851,
            -0.13095245449879003,
            -0.23265172955085342,
            -0.015230072395038317,
            -0.16207822746875666,
            -0.28891475914240144,
            -0.21526833552971078,
            0.16986183731146037,
            -0.17604814910576622,
            0.5581327887156546,
            -0.03042839029279733,
            0.03706111826396429
        ],
        [
            -0.005478600187996207,
            -0.2634465147881123,
            0.19534861018535649,
            0.15083386239267002,
            0.23293119391783457,
            -0.2851963990415068,
            -0.022439064877111094,
            -0.06342132356776554,
            -0.18921947237435272,
            0.05620751370927339,
            -0.07437312367961738,
            0.4070163676952922,
            -0.0739876299332669,
            0.4611035340474663,
            -0.07197811504753783,
            0.04263789831523684,
            -0.219221721966449,
            -0.17394488125618576,
            -0.16925985291968157,
            0.21676667098550192
        ],
        [
            -0.09438459463727704,
            0.19390431055199625,
            -0.2579130254401673,
            0.08447694195754828,
            0.11654838486743213,
            -0.11622617105720852,
            0.06715651971967944,
            -0.1848923333047202,
            0.12422531577904287,
            0.2612953609403347,
            -0.22354737801518906,
            0.09356939415792233,
            0.20988279999792608,
            0.1578752173118981,
            0.2339940469603371,
            -0.08247826443011418,
            -0.45366227751311133,
            0.1401373076377636,
            -0.1393095023541322,
            -0.08977082057113171
        ],
        [
            0.08697104369122657,
            0.2669798135802948,
            -0.3293035877314932,
            0.3595103349697141,
            -0.22097880191038313,
            -0.17887243590548488,
            0.17383121119942133,
            0.11377133291103701,
            0.24736135444208532,
            -0.1514224464296866,
            -0.052944030763237275,
            0.31972846388973014,
            0.0769262479223409,
            -0.14851542959845132,
            -0.34265160873735245,
            -0.2534294569988906,
            -0.51367937364389,
            0.21874852290435495,
            0.11558058447646569,
            0.3055689108887398
        ],
        [
            -0.20009224120121605,
            -0.20844794879070067,
            -0.39768526407731064,
            -0.5098803986833137,
            0.37116083880558015,
            0.16965500237318495,
            0.029087752800756744,
            -0.03038583521377842,
            0.04403260594111472,
            -0.09943077931646344,
            0.19806738005311453,
            0.026616487737756944,
            -0.11272092744744155,
            -0.11347828813277779,
            -0.0752618945301356,
            0.3299287361060746,
            -0.3944340926144341,
            -0.37258413318300515,
            0.2945330013758006,
            -0.1585088632216144
        ],
        [
            -0.3917605515395966,
            0.04490635714508797,
            -0.3220574974442929,
            -0.24812349651241317,
            -0.3721774854828822,
            0.01266720155563928,
            -0.040038371663846835,
            0.014390133333922743,
            -0.12685591725701237,
            0.08955022676421266,
            -0.2607571383762217,
            -0.3638905900417659,
            0.22141529189733233,
            0.24834487914404652,
            0.03645106670162811,
            0.23051686704449129,
            -0.4944691379197693,
            -0.11971566560042088,
            -0.04974987179786469,
            -0.19366792371827501
        ],
        [
            0.18145764261023753,
            -0.05903575470999294,
            0.38424940126389745,
            0.15565220827594414,
            -0.31252614351466684,
            0.0400889738808652,
            0.04473965828320125,
            -0.021728657256232086,
            0.08858342749208895,
            -0.010473303828797447,
            0.683601959617861,
            -0.2018105986268515,
            0.1386075510654459,
            0.19119745142126643,
            0.24702741294851294,
            0.19552743625669602,
            -0.7327379204015593,
            0.10207950535137117,
            0.08060385595344616,
            -0.08952643385653175
        ],
        [
            0.20492883774220805,
            -0.15748754898857775,
            0.20638181913577167,
            0.2231007515425598,
            0.2631061055799605,
            0.1337382795137779,
            -0.17231878274974655,
            0.2882134814360465,
            -0.08328922376756316,
            -0.21130731525177857,
            0.6256218164745229,
            -0.23025937652795075,
            0.014658841468052845,
            0.24352852354808205,
            0.2251272639714859,
            -0.13968771274012298,
            0.10616030566331924,
            0.6498082662868074,
            0.32330164202919487,
            -0.07936921451640934
        ],
        [
            0.1683896423171612,
            -0.05049230987266921,
            0.24613997184544786,
            0.1282422462610467,
            0.0966184763741798,
            0.11698051355441831,
            0.036787361039830116,
            0.009608457305571812,
            -0.1910972437380396,
            -0.05308819088017693,
            0.2955746780712509,
            0.5219169559607909,
            0.21002433451907043,
            0.14065033095277504,
            -0.010088327141470095,
            -0.2790945690994644,
            0.1050884867662009,
            0.11922017490952225,
            -0.4766656562379319,
            0.6953641491765666
        ],
        [
            0.04355598923486058,
            -0.13512392247917143,
            0.15925775231332281,
            -0.6044111682054237,
            0.11891783722029683,
            0.001138664877486977,
            0.19344987163494431,
            -0.06072580658435906,
            0.12748438629228667,
            0.3050886718767305,
            -0.3157710281999964,
            0.6153713303217698,
            0.16389538142365376,
            0.16797540311812986,
            -0.1538777183711594,
            -0.1977466608024168,
            0.0541175351665939,
            -0.46087676862714,
            -0.40004040753403175,
            0.22125640887250034
        ],
        [
            -0.22298957542790915,
            -0.03387550111007463,
            -0.17906428063866342,
            0.09517928244943015,
            0.05907187867688242,
            0.2149861899310196,
            0.026941887979188676,
            -0.020192631677303317,
            -0.3242959832314048,
            0.22596244569546467,
            -0.024723933491253198,
            -0.12960754717813908,
            0.2962579943906938,
            -0.23877606367917426,
            0.16438389115747068,
            -0.13326353912974967,
            -0.1238820314166476,
            0.4086442886568294,
            -0.13364865124842334,
            -0.0040155214295386765
        ],
        [
            -0.003272094985499032,
            0.0242627380108431,
            0.3325526986453745,
            0.08470892496100342,
            0.1166076796142017,
            0.1674403682639798,
            -0.2487529160662338,
            0.08387841844355617,
            -0.1457360131839454,
            0.3483117072170618,
            -0.3249888994202459,
            -0.0024422299234735808,
            -0.0504445817243727,
            -0.1000286111087842,
            -0.2556411897142784,
            -0.058344333361908494,
            -0.004480812148106015,
            -0.031919915586871794,
            -0.2390762160751333,
            -0.6520808431559351
        ],
        [
            0.20511879133477093,
            -0.16043110489175733,
            -0.0006518304152713719,
            0.17189024546921944,
            -0.21325796630385668,
            0.3221178086435675,
            0.1113863141178208,
            0.13461202700205516,
            0.07337301452556336,
            0.02829658831895657,
            0.3551607447590964,
            0.6184080162987218,
            0.22667713107758972,
            0.2387302786864237,
            -0.06756395215080835,
            0.00720851149241924,
            -0.14612906866669234,
            0.08512719543085812,
            0.6109764249477369,
            0.11668093533734543
        ],
        [
            -0.21362490632800443,
            -0.03934388704485388,
            -0.211090170855122,
            -0.4510544279773926,
            -0.07895995776909762,
            0.16342355848277826,
            0.18631142552146182,
            -0.10501310995990056,
            -0.033173447285046266,
            0.09918018813279843,
            0.1406368834470891,
            0.4696101090923583,
            0.32929668859666883,
            -0.24856769972344722,
            0.13053948453708913,
            -0.19004464461752746,
            -0.3070520090621525,
            -0.35383022807512543,
            -0.05915582963605713,
            0.5716541728714367
        ],
        [
            0.34963334486788766,
            0.09723842805439768,
            0.2758109130147308,
            -0.49476903330826166,
            -0.30080937810989733,
            -0.35482751377951816,
            0.07404495092669618,
            0.11527886325812288,
            -0.19072717378625417,
            0.15123878061446594,
            -0.2922853034626033,
            -0.025184063292707767,
            0.13751058594206814,
            -0.040720171630637396,
            0.12607746565481345,
            0.12818989434710218,
            0.04045479408585407,
            -0.1143862349783015,
            -0.2517405804646266,
            -0.17582983771054175
        ],
        [
            0.19054385168035473,
            -0.37016496788622655,
            -0.17933476930315775,
            -0.36327956665883526,
            -0.16097196889016505,
            -0.14491103498336982,
            -0.07040961067975081,
            0.2303289951408578,
            0.307122040185764,
            0.012143129578312123,
            0.33640041756278066,
            0.13346682617208394,
            0.03632524883574925,
            0.023852626685567088,
            0.17529197696501547,
            0.04928398539313768,
            -0.03106002360606321,
            -0.4032568134384212,
            0.37736400138130904,
            0.7772241206055674
        ],
        [
            -0.0781749370564409,
            0.18050931868660708,
            -0.14080076435092886,
            0.5438546472682331,
            -0.10807213521638377,
            0.26594598802582237,
            -0.15627611975849934,
            -0.0020531716602735697,
            -0.23607397650510115,
            -0.030785821699062854,
            0.5736711754331549,
            -0.10215178688876986,
            -0.19573305080494033,
            0.31159052620999633,
            -0.08778983574898729,
            -1.9601921739999652e-05,
            -0.3114931742427704,
            0.4915017219901784,
            0.5996803304892643,
            -0.22310552824282728
        ],
        [
            -0.09817637484331179,
            -0.3083429190022864,
            0.31439870005270687,
            0.37403359273151193,
            -0.21057749873600767,
            0.06874353146821795,
            0.3387146541273433,
            -0.2560213797561853,
            -0.1488116878055909,
            0.36956219895184494,
            0.07529471283443996,
            0.24050956443512406,
            0.27973135333740046,
            -0.12403786112118194,
            -0.04852262398334889,
            0.22751841656804714,
            -0.05697218830371077,
            0.8317549058693295,
            -0.07353254447836058,
            0.15116854082147216
        ],
        [
            0.01294742475925414,
            0.19254228904918558,
            0.06065216052508339,
            0.128014650011228,
            0.02056830525567125,
            0.3378842299750306,
            0.14698662730125364,
            0.08987194343055813,
            0.18653190409388315,
            -0.3706212181750187,
            0.17962436208444876,
            0.5252768147159956,
            -0.08454922168140078,
            -0.037597599726786904,
            0.1603677571130053,
            -0.23729757235335758,
            0.19921574889611737,
            0.4460856860648327,
            0.2448317202144632,
            0.13814316783631397
        ],
        [
            0.12738376495993897,
            0.24875891839662873,
            0.25415293062636835,
            -0.0654077266609973,
            0.15143315927111245,
            -0.06516912371750196,
            0.18802246805760808,
            0.2797350173405377,
            0.1299330938428948,
            -0.029562193338313787,
            -0.3380050575713489,
            0.10326046049977693,
            0.05513200789294541,
            0.14765351069790655,
            -0.11153523623710768,
            -0.18866106050017184,
            0.30791865000919244,
            0.3999187230908384,
            -0.613037357599183,
            -0.015050847519819173
        ],
        [
            -0.18975143631250269,
            -0.09192031607805626,
            -0.12309661562829466,
            -0.16216822813717074,
            0.01737344704362955,
            -0.2357775145443323,
            -0.08705641157883386,
            0.07876420263319502,
            0.14697422184146938,
            0.11753627536330953,
            0.12810150113321842,
            0.11734773370502051,
            -0.26510388455037603,
            -0.2647652200731669,
            -0.1375574334418502,
            0.2665612983625377,
            0.4171739624717671,
            0.031315097897537864,
            -0.0602466065612367,
            -0.04880443861047819
        ],
        [
            0.22414871178511128,
            0.043128099892546526,
            0.18348974105858826,
            0.06761525993458574,
            0.1405052483385574,
            0.11913538249219992,
            0.25076001111766566,
            -0.20520384276259276,
            -0.2749219671083719,
            0.1834175112804235,
            0.36962317154720425,
            -0.05825681815118995,
            0.12529837590376058,
            -0.02993881263358521,
            -0.17904730871883767,
            -0.025178996993128745,
            -0.01710891822718916,
            0.15121685879710492,
            0.1715221668699657,
            -0.25730032292289995
        ],
        [
            0.23778803511151833,
            0.1462908815421037,
            0.24310213165389938,
            0.27007803292202576,
            0.05997763958864769,
            0.20700635337032755,
            0.2699135212989352,
            0.02487466082191784,
            -0.11535518568433746,
            0.023575030727996632,
            -0.805019772221318,
            0.5554261584031933,
            0.01575604418076688,
            -0.4050517759721613,
            -0.02353957875820405,
            0.10977451070777142,
            -0.13683096122465727,
            -0.439302001431839,
            -0.17506574042650327,
            0.1879610926925318
        ],
        [
            -0.08630277673120344,
            -0.11370906758818332,
            -0.1369975210023165,
            -0.24115782552496853,
            0.189637637480976,
            0.002230685093223722,
            0.14626372723900674,
            -0.0679853818726841,
            -0.2721021704540618,
            -0.031235470563442707,
            0.17789272685352728,
            -0.34928696041083673,
            0.16214171994657628,
            0.33010120386711894,
            -0.28692571011506185,
            -0.20075457582333692,
            -0.07530662583115008,
            -0.4316342051795159,
            0.09642932446539282,
            -0.3079530770010983
        ],
        [
            0.05505428623738796,
            0.1345847108454286,
            0.0689996818901723,
            -0.24085682404229167,
            0.3655998797408316,
            0.16132457881281317,
            0.2029886046519986,
            -0.10778889175242094,
            -0.15848392341586018,
            0.0844749901950812,
            0.4167830454558614,
            0.08454176376505901,
            -0.31345644369592796,
            0.002035476012297629,
            0.10674051974459886,
            0.16720779958362453,
            -0.013345902561900748,
            -0.2061758152167989,
            0.28529787247596083,
            -0.12061799154777751
        ],
        [
            -0.051893870472911746,
            0.15252721760762109,
            -0.22429325369758038,
            -0.2913356308364665,
            0.15496819268199247,
            -0.20881007331594134,
            0.30401293970089416,
            0.014841395509184448,
            -0.0320340715537443,
            -0.25354812764684737,
            0.24965943872039015,
            -0.5211598468880245,
            0.20549162438599208,
            0.03254386045948599,
            0.07983321795893145,
            -0.0704888552560327,
            -0.32564412981182944,
            -0.1965052162714382,
            0.7557478055033596,
            -0.8138158175812547
        ],
        [
            0.10344089003869192,
            0.5473239405689639,
            0.20583487619765742,
            -0.27461112698238355,
            -0.2203605768803402,
            -0.2728989970948208,
            0.11034453625935757,
            0.08346349825157809,
            0.010840978373726091,
            0.12349032561216533,
            -0.27975609177950966,
            0.2233892480800602,
            0.14513513343769652,
            -0.15862519568352826,
            0.33363110965433457,
            -0.15255850603249585,
            0.19016820482950889,
            -0.3334871072880929,
            -0.11102568939166385,
            0.17079896678004391
        ],
        [
            0.0004611136559266329,
            -0.15114893896148732,
            -0.004216546780528612,
            -0.19838721812872098,
            -0.09788636908674542,
            0.06527642388106958,
            -0.0919495455242541,
            -0.054949029742861075,
            0.13336247476039645,
            0.11678887866179118,
            0.0038689588873947883,
            -0.22616406578140816,
            -0.1107862670529523,
            0.0841179937024709,
            -0.18095553904005734,
            -0.11309795861188196,
            -0.5810898621607765,
            -0.28196606853654127,
            0.002667246022518546,
            -0.420806111146233
        ],
        [
            0.22065177227498545,
            -0.31914667975142696,
            0.011794924658991542,
            -0.07203232887063406,
            0.11321861317635491,
            0.13907049608679445,
            0.11365216336777105,
            0.08543656066279477,
            -0.10413672778010162,
            0.0328347721185042,
            0.34037850450375967,
            0.12567134725466425,
            -0.08973096588316998,
            0.1406149972441421,
            -0.07391129595067264,
            0.09105096054117534,
            -0.06655567343460345,
            -0.06124633674788715,
            -0.33423996076899587,
            -0.17729745051388107
        ],
        [
            -0.05852784050623485,
            -0.017569243066711874,
            -0.1497535361133256,
            -0.21252787003523851,
            -0.29661450548366936,
            -0.2799002212806143,
            0.2797014409570569,
            0.1477548891222966,
            -0.23037883238436518,
            -0.0445638566405463,
            -0.29904300413387847,
            -0.1472940809132466,
            0.24852967770849724,
            0.17784415710428808,
            -0.02497459579137994,
            0.011856391529517686,
            -1.1796567280776498,
            -0.48685177436905036,
            -0.1613608992346325,
            -0.2707706288109716
        ],
        [
            -0.3111959590411545,
            -0.3264886397790229,
            -0.3618124104018346,
            -0.44665690871511754,
            -0.2716537627442102,
            -0.34032743230529366,
            -0.05975703674327226,
            0.1255607810842124,
            -0.059330286027488535,
            -0.06077160973168627,
            0.07572707919603032,
            0.03638763098881906,
            -0.07114141524497422,
            -0.13711324251556758,
            -0.01868674719431984,
            -0.1776526033983348,
            0.030320603976623485,
            -0.4863390723360862,
            0.38272542842621426,
            -0.6723233930100866
        ],
        [
            0.24832380661258158,
            0.12584601456589511,
            -0.34531813471987804,
            -0.36837889899469267,
            0.17548907053682475,
            0.0008926949681907177,
            0.10504707939162371,
            -0.0006774305098435092,
            -0.0716036303094533,
            0.02185549217748734,
            0.49225454218721637,
            0.43893951805975323,
            0.24158381819027946,
            0.23575995358907645,
            -0.04658731246903319,
            0.26152484678056276,
            0.015681439104047786,
            -0.6003197882856274,
            0.823339556937587,
            0.44595126481555286
        ],
        [
            0.061565126863862195,
            -0.17776742177560118,
            0.22291183328053385,
            0.005005808008449069,
            -0.02697467266493981,
            -0.09276975228882113,
            -0.019894181084019722,
            0.0329028292743648,
            -0.08630852726240713,
            -0.11847516016694443,
            0.27452535905825565,
            -0.10433721910233068,
            0.10516603340907484,
            -0.29395588091760605,
            -0.022201464205481244,
            -0.06152562668046473,
            -0.15811855600945635,
            -0.04347565044128835,
            -0.17310242452291388,
            -0.3506620389420364
        ],
        [
            -0.2026459410256556,
            0.25649317121459564,
            0.07984085350671118,
            0.1421336285453214,
            0.1876488233316668,
            0.01718052202250833,
            -0.1115094677882524,
            -0.37408221315505447,
            -0.2839200141913595,
            -0.08555979532708785,
            -0.10415849681646291,
            0.19037179513108748,
            0.15802931785514118,
            0.0966606587575233,
            -0.18015393586438594,
            -0.30715093969565904,
            0.05424969352883783,
            0.4170398631285552,
            0.3076992781706792,
            0.1976095009984319
        ],
        [
            0.2213815306850733,
            0.17262749050540724,
            0.07409993058287744,
            -0.0952494845522019,
            0.1217036679205014,
            0.05682384843559792,
            0.07038177583183901,
            0.10488462244566107,
            0.04586864902315988,
            -0.03254870416580235,
            -0.4833125862847296,
            0.025526103409310615,
            0.024363977858632337,
            0.254721364017141,
            0.09499964138814568,
            -0.06027014263215766,
            0.29623163864707147,
            0.020773164047896843,
            -0.0871107054239428,
            0.0923562009843901
        ],
        [
            0.07004569264914791,
            0.13616253662801484,
            -0.44577200551306845,
            0.7761171318405479,
            0.09966133127059004,
            -0.31710474907445707,
            0.05619082384325526,
            0.20944705151041504,
            0.09990116199763246,
            0.011036130923700134,
            -0.2743676320151249,
            0.7440472832861055,
            0.3404424913531295,
            0.011363993577251038,
            0.2058819518935373,
            0.06978670695074929,
            -0.2771167950053733,
            0.22851108044180402,
            0.006571022211102632,
            0.6315562956723932
        ],
        [
            -0.3189437592368541,
            0.1741144284575188,
            0.23258173979552332,
            0.16647961488746824,
            -0.20451454177890022,
            0.07767879057825436,
            -0.2837232426591916,
            0.2454549309172336,
            0.0709169863959875,
            0.11402452319360735,
            -0.10259170448072277,
            -0.1994976412079252,
            0.395176556653672,
            0.032158220245007946,
            -0.06180879563214895,
            0.4568138130747622,
            0.6716713312194661,
            -0.3211966520403535,
            -0.18258071714138654,
            0.04052154022000399
        ],
        [
            -0.3803477739853804,
            -0.22416096099631433,
            0.27507233419186955,
            -0.09662476703055861,
            -0.3737361062086356,
            -0.029401233782776422,
            -0.0020007995586432785,
            -0.0762517501136018,
            0.34397317883993195,
            0.1536739102301967,
            0.44935920952616365,
            -0.33064578875232703,
            0.16211409140735628,
            -0.17773440825839426,
            0.04405111885209928,
            0.05827194484367779,
            0.023269020715658114,
            0.0063817376356105245,
            0.3693762370556438,
            -0.0561418423056491
        ],
        [
            -0.08461608874537249,
            0.35094658935688994,
            0.32820738952894096,
            0.35102361448292474,
            -0.23632837418031089,
            0.20771900368711443,
            0.20302713080834417,
            -0.1291864547176381,
            -0.018684325540720588,
            -0.4303459456490637,
            0.28195225422515874,
            0.04686139169646808,
            0.22168411513960035,
            -0.11592642230565704,
            -0.01676373646794903,
            -0.0507114466504386,
            0.2767471304475574,
            0.11734128111670512,
            0.4795085201699454,
            -0.1534463926693618
        ],
        [
            0.329854235585229,
            0.23691320056771886,
            0.14325198428343439,
            0.1255027077215147,
            0.2851532217261139,
            0.28467862800242816,
            -0.019138435406152114,
            0.22763242000168796,
            -0.3759648808999176,
            -0.24708935114406053,
            -0.32040416981751835,
            -0.23781954947971629,
            -0.21987791486199976,
            -0.38412114434550665,
            0.03426581810236129,
            -0.02534586129428882,
            0.20096893617895403,
            -0.000416905662497107,
            -0.1759370564748749,
            -0.19786764507069812
        ],
        [
            0.01784158999540019,
            -0.5423560987957107,
            0.2890889538016265,
            -0.2149374054862696,
            0.1410371196521655,
            -0.35718093584863425,
            0.25142921741742735,
            -0.02831292448379162,
            0.08456763001139883,
            0.2619357499846597,
            -0.49318140584986364,
            -0.1672840211040592,
            -0.16101831163944133,
            0.3049905682227493,
            0.23268265830012885,
            0.26564967868491035,
            0.23508383651570144,
            0.2773368543482275,
            -0.3516131970121752,
            -0.32180054073826003
        ],
        [
            0.46868221649147634,
            -0.195797666828702,
            0.6954162584684208,
            -0.031280912253468206,
            -0.30112098001655757,
            -0.016728243800306915,
            0.15973314658151289,
            -0.1974338012438888,
            -0.045020664460201774,
            -0.06433072181379816,
            0.2468632548645851,
            0.3068823993647537,
            -0.13688415634592604,
            -0.12893569123629234,
            -0.1748278028148197,
            -0.12235150660435035,
            0.3511006311795453,
            -0.7909404598873978,
            0.028717436007738413,
            0.09728966991830151
        ],
        [
            0.1045010940551567,
            -0.0894191369613591,
            0.37949770709591546,
            0.14342101681129188,
            0.0005855415512541446,
            -0.09698855773284037,
            0.0662824132254104,
            -0.008498978086448655,
            0.3691689947750634,
            0.25001067548146866,
            0.4669154867179456,
            0.13457545728398634,
            0.07689308161732857,
            0.06013533699617186,
            0.15029623030523123,
            0.36098726459106395,
            1.0079159649092735,
            -0.40407650961304475,
            0.4957444691438346,
            0.14751977664821117
        ],
        [
            -0.2468757414379368,
            -0.17908636649065912,
            0.07568446434828759,
            -0.1148143764872919,
            -0.4435896104607966,
            -0.46345672065361165,
            -0.018739671710869554,
            0.01800326882434581,
            0.38218346906402173,
            0.31879525433860567,
            0.1513367067598096,
            -0.033067759160730174,
            0.272315304943931,
            0.2658771026184677,
            0.09022822262174636,
            -0.003012699502954552,
            -0.05678989840771703,
            -0.08117830744230793,
            0.33041121848025035,
            0.26642765117755346
        ],
        [
            -0.033912722530091574,
            -0.11037361240758517,
            -0.6857268419362491,
            0.3408383298215422,
            -0.24033457025371652,
            0.1180728244392353,
            0.3575951883222088,
            0.07381712528758391,
            -0.24814873843074747,
            0.18065173102571125,
            0.6001311311097264,
            -0.28382107821277486,
            -0.11393934637999753,
            -0.02202365172108352,
            0.04926393550896619,
            -0.14311568243297873,
            -0.7197443312730513,
            -0.0734573552277165,
            0.5740193814400534,
            -0.02265903165013511
        ],
        [
            0.17159567765465636,
            0.16486428614093124,
            0.0398666326190723,
            -0.1675121759881679,
            0.20302153982977503,
            -0.18163111799015214,
            0.13268933105275227,
            0.000850831233527079,
            -0.3692921594959015,
            -0.24102024673705622,
            -0.053954971735416614,
            0.09130980692730165,
            -0.3165846916755381,
            0.030549318075313036,
            -0.10717699636717776,
            0.05545832317190178,
            0.06344280800176437,
            -0.06618096174976926,
            -0.1948497178333191,
            -0.038359306754264653
        ]
    ],
    "h0.bias": [
        0.24808482314094318,
        -0.4282793360020302,
        0.07351843417128581,
        0.3967254179197357,
        -0.9449028052036164,
        -0.19312120180317324,
        -0.10458132198054182,
        0.09557547650876914,
        0.16424637862938077,
        0.26991713428568204,
        -0.17192117200625284,
        0.003525334654987255,
        -0.08742525879438044,
        -0.11993340611373214,
        -0.4507416667338584,
        -0.3759358829561666,
        0.12415906151083611,
        -0.22974350039324204,
        -0.16758964754528385,
        0.15516791851352726,
        -0.29077551882032443,
        -0.1514588120869993,
        -0.29070088257887305,
        -0.39867228052572595,
        0.14558266880340823,
        0.2849880556202732,
        -0.034461858286227,
        0.18240867358157076,
        -0.3962703036440068,
        0.05972118729595848,
        0.14907455835576675,
        -0.0999037727964391,
        0.17716430704253366,
        -0.11156499493012095,
        -0.2738101436034303,
        -0.41006864228886936,
        0.0027403796302185386,
        0.4139293345263991,
        -0.04511446669562026,
        -0.22145870955531033,
        0.13028676948680487,
        0.4387438250759936,
        0.07478202601480652,
        0.2941454604277537,
        -0.08133086412093586,
        -0.15078920771980062,
        0.44158378637852436,
        -0.37930465793684165,
        -0.47076711644795466,
        -0.2283299983638101,
        -0.2749775718320583,
        -0.3668831531040348,
        -0.11502484873755003,
        -0.26459502172547233,
        -0.16167147726325112,
        -0.993843174265366,
        0.014305874040371593,
        -0.1270122196275159,
        0.6000987149408767,
        -0.2864932875584732,
        -0.07813506857725828,
        0.2199152571222386,
        -0.3207871104864102,
        -0.06462954428584053,
        0.10497728096461181,
        0.12275156956357415,
        0.013657554855275878,
        0.4746670939876585,
        0.2476448200493769,
        -0.36586292663857306,
        -0.16280044681901484,
        -0.18611415217951513,
        0.1641238533713303,
        0.45577876760840014,
        0.05654997751002343,
        0.01236823487224007,
        -0.0038047529557051784,
        0.0992415449908374,
        0.11673636493088438,
        0.0036881014423539265,
        0.3683925109723168,
        0.05192300052449813,
        -0.22980056327868548,
        0.2305773881473956,
        0.126500066078051,
        -0.03490105252928594,
        -0.43003343034993174,
        -0.036597742988706675,
        -0.27177805572427904,
        -0.25104184297659476,
        0.41677916437427787,
        -0.11503460168611024,
        -0.4264739161189223,
        0.11723208370608731,
        -0.14017548127613708,
        0.22485076393333875,
        0.01118324600758367,
        -0.3609126492806636,
        -0.4678225116118867,
        -0.4566365432630108
    ],
    "h1.weight": [
        [
            -0.23534124652631927,
            -0.04209682312318157,
            -0.03823032638932376,
            0.13471916643412676,
            0.03713534980840075,
            -0.14253470705777627,
            -0.09735994616445569,
            0.10664612005052203,
            -0.019677551291004684,
            -0.16490079636300253,
            -0.2527475949933376,
            0.028265894811899304,
            -0.02371131730499579,
            -0.15328616878647144,
            -0.1298097532446869,
            0.05197988640011981,
            0.03001541759352572,
            0.06525298614879002,
            0.09421800988021035,
            -0.07235781468237322,
            0.0019194390543899452,
            0.1584040127264077,
            -0.027876977018082214,
            0.01402881949582479,
            0.16495457073074038,
            -0.11441127239811112,
            -0.07676798239003292,
            0.09483436115951677,
            0.1029946783072081,
            -0.12787097366006647,
            -0.06266674891879473,
            -0.01419243585668944,
            -0.1137306597962703,
            -0.04510253827232125,
            -0.028515433550893046,
            0.01698637561433381,
            0.09877854659051052,
            -0.02787716903928527,
            0.04502072848437605,
            0.052002717305535406,
            0.06593420895900025,
            0.06062886902270537,
            -0.05593321725371381,
            0.09515822869245064,
            0.15130104924787174,
            0.034743862477379206,
            0.004500779741750414,
            0.03835607257040447,
            0.09651512980103454,
            -0.1147912401427429,
            -0.18669250580627386,
            0.07488408838441422,
            -0.04728071132892606,
            -0.020338895322810618,
            0.07100984674125749,
            -0.1043838718295126,
            -0.01448506751126706,
            0.08300249759401852,
            -0.01711118002313627,
            -1.6004011604758608,
            -0.09297418168327486,
            0.11656611075848754,
            -0.05547866806388308,
            -0.05903834229400581,
            -0.18572082179799076,
            -0.11966634221770556,
            -0.15228376925330508,
            0.12977487949383218,
            0.0732327628803536,
            -0.05507330876274208,
            -0.022034176420987973,
            -0.34388472682430477,
            0.030641087385077447,
            0.09536204034449362,
            -0.11149577237752899,
            -0.013235395404727597,
            0.12583124674610557,
            -0.13069075330203542,
            0.24210296127574712,
            0.12604398717112272,
            -0.0031903654293685313,
            -0.06823483300282163,
            -0.15161735217697006,
            -0.0046036307394420875,
            0.009691012436434327,
            0.030150426530528622,
            0.003539097370921299,
            0.11506990514766016,
            0.09329442572453472,
            0.08405163298173325,
            0.03596483676030555,
            -0.2694405375548712,
            -0.1803434671278184,
            0.07020336944357167,
            -0.025055805383174336,
            0.02746367707981913,
            -0.03254090540908346,
            0.1471363301588709,
            0.04901808937305891,
            0.050200110756021536
        ],
        [
            0.025065647396981652,
            -0.003113152931600549,
            -0.16033608509086186,
            -0.031586164756631174,
            -0.06670503597604244,
            0.1357136108097693,
            -0.23023368204068703,
            0.017446364929074264,
            0.06001928595115867,
            0.16251757324908842,
            -0.15648042512302363,
            0.14668502551080453,
            0.09094077839756301,
            -0.11533082140982838,
            -0.002058748464702213,
            -0.009480403870939855,
            -0.0544830574510912,
            0.01962960083151219,
            0.23411406720149544,
            4.5519022408723595e-05,
            0.10540784977993027,
            -0.10007616029872515,
            0.008015394480003893,
            0.0656971278061605,
            -0.17949118009650844,
            -0.14246969237850715,
            -0.20235358407707038,
            0.08883491831737224,
            0.019363077031118055,
            -0.09260279164331314,
            0.12887263534715668,
            -0.09995256564316835,
            0.06814444603379795,
            -0.12514582871923952,
            -0.0745200211572984,
            -0.18710634784596436,
            0.07506553322020972,
            0.12393152809566857,
            0.2693574948035522,
            -0.09635466424638864,
            0.16410827492232574,
            0.007310833396104872,
            -0.020114200074417058,
            0.07181372744955437,
            -0.06784011584547574,
            0.11823438986771434,
            0.09959873564403031,
            0.16865257554688998,
            -0.08400579304508365,
            0.1799064609325219,
            -0.026854107430321458,
            0.09625410867033553,
            0.035653397754470906,
            0.06516103333608363,
            -0.13625340803289113,
            0.5090905274269281,
            0.007452424013506915,
            0.20447773401482325,
            -0.24009540705121385,
            -0.009747065537808313,
            -0.06513730372250795,
            -0.04989820552327663,
            -0.00037868642650959363,
            -0.08028115044607245,
            -0.07230271190146798,
            0.12426592135585168,
            0.23184231621280998,
            -0.09351213593041971,
            0.02239673192968576,
            0.020730016872808003,
            -0.030143187869314247,
            -0.024925299880246797,
            -0.12000541797642997,
            0.03152154372147335,
            -0.18015401448851934,
            -0.002262769187714793,
            0.024445392181343843,
            0.09961736575555138,
            -0.029895298214073232,
            -0.10168973805581208,
            -0.0654195244985619,
            0.016026477528480746,
            0.25268021403658486,
            0.007368318240706979,
            0.08824802447726032,
            0.0733136862178462,
            -0.38664703785987187,
            0.0033212079822276595,
            0.021303323228043503,
            -0.08556415671468595,
            -0.013586483408615367,
            0.15281887109790887,
            -0.06437223820348484,
            0.05341843102518911,
            -0.14426013913375527,
            -0.1883501941296982,
            0.11302340675094856,
            0.0934304007468318,
            0.14898741015337805,
            -0.1146678444886195
        ],
        [
            0.04665474483433998,
            0.1675061497329052,
            -0.058012822067362656,
            0.10062143246316535,
            0.13175026852782473,
            -0.0641600452043622,
            -0.02442729231886529,
            -0.12640923913736027,
            0.04237512129451854,
            0.07831637586429212,
            -0.02990453632062467,
            -0.1835361115642089,
            -0.023560023834322846,
            -0.018446889490087815,
            0.005736221339086459,
            0.06073070820943288,
            -0.0254718114051328,
            0.03361288209310133,
            0.07860940560267363,
            0.006002197988313369,
            0.14225962798396494,
            -0.08266532189673949,
            -0.33527676840898635,
            -0.004696934711155918,
            -0.023007826020365236,
            0.054344455152260045,
            -0.11151825577583623,
            0.05436436249998598,
            -0.01948224616659784,
            -0.1821582443170388,
            -0.10470053961052361,
            -0.012298664670189526,
            -0.04243165089528404,
            0.09361618494097397,
            -0.0261891400389556,
            -0.29248052697288696,
            -0.20997542395596888,
            0.13902196646058873,
            -0.2145837028884546,
            0.21734420910123173,
            0.006126760969364698,
            0.16263583596224726,
            -0.22278524327978147,
            -0.07538990362398094,
            0.057447589744245346,
            0.06446092593990489,
            -0.07386936994954996,
            -0.1904551596735666,
            0.008582667170815829,
            -0.10252400060683818,
            -0.05470473205070527,
            0.006261308200569796,
            0.11833566652709993,
            -0.22892823752600447,
            -0.070290894484753,
            -0.09138530626800803,
            -0.06709976579854528,
            0.03414463651593137,
            -0.10171296986713856,
            0.08790819126634035,
            -0.04339068527886882,
            0.0021496597517187406,
            -0.0605838045637221,
            -0.015656981315019365,
            0.02118438885554566,
            0.05699317438537152,
            0.0935057349750269,
            0.09519145193692498,
            0.17302558702914647,
            0.05679593960207719,
            0.05161554543984332,
            -0.08120216079871412,
            0.050510694399992465,
            -0.004352644409837684,
            -0.1361909995978844,
            -0.005798312548206133,
            -0.09435941763270095,
            -0.2204983006316175,
            -0.0066678263036755395,
            -0.14920688712063146,
            0.05444968250569687,
            -0.02747964799406179,
            0.0061456474916708565,
            0.22489804940598568,
            0.1690426772595971,
            0.06744265381618864,
            0.0024604594660823514,
            0.026806201685591967,
            0.12004705553183335,
            0.08111045906864078,
            -0.08063410775903594,
            -0.006222659111989886,
            0.05992856360351067,
            -0.17406204447186097,
            -0.0007302470101038234,
            0.028863727618787312,
            0.04917677419417355,
            -0.05748094355235278,
            -0.18373079327651382,
            -0.0997836575698516
        ],
        [
            0.20437352186641228,
            -0.0075457423895683795,
            0.056796597913645545,
            0.0034778959285909385,
            0.09568572596664164,
            -0.1963040248643169,
            0.02123793447846358,
            0.24951755284981428,
            0.09010313872401829,
            0.1669478441981507,
            -0.38052892629646135,
            0.09456944917384667,
            -0.0582145159460945,
            -0.21585026451112843,
            -0.005285718346240021,
            0.009068342776270341,
            0.08877817672208431,
            0.19260220163326638,
            0.2089064633368495,
            -0.1430241070678362,
            0.14130841052797335,
            -0.07237559687814928,
            0.0786299043373716,
            0.11251112459809935,
            -0.26784768820803484,
            0.23006431174165198,
            0.04577428661980002,
            0.18357423984567695,
            -0.143012884632736,
            0.006017779443841026,
            0.10837392754163677,
            -0.10891000854222047,
            0.1410972389831158,
            -0.16188560149350312,
            -0.1548702479530053,
            -0.14584842766450476,
            -0.19354199334871447,
            0.14433352821341242,
            -0.025152874732540027,
            -0.08352623567540533,
            0.10990402620314389,
            0.05852333969174547,
            0.1202115511638173,
            0.03497987848902305,
            -0.09757169299697481,
            -0.1003267347131728,
            -0.06384536545816505,
            -0.19821778175315263,
            -0.1326879230491507,
            0.16850766431625191,
            0.08772833377971254,
            0.027810319299184608,
            0.0786477657411799,
            -0.13081849742431775,
            0.06371520499591442,
            -0.3178417726549929,
            -0.06641162828348778,
            0.02807866508774161,
            0.21163118808928755,
            -0.08554360813829585,
            0.056939561682229675,
            0.0515244747008591,
            -0.07053604285209766,
            -0.030458764193131153,
            0.15856511557017947,
            0.08003241745737733,
            0.051955367727630195,
            0.10358545199534318,
            -0.001603313197029412,
            -0.10075659719768877,
            -0.09295374901686465,
            0.25296174995904913,
            -0.24092234961830464,
            0.03696436910513702,
            0.2866700143469461,
            0.05851760081734639,
            -0.17549490972022502,
            0.13141952025978076,
            -0.06442824772304644,
            0.00448975978186576,
            0.05543580318601836,
            0.04916144481397739,
            0.004945995641462152,
            0.11848910153294173,
            -0.3192308810968875,
            -0.04186354670630685,
            -0.1990084407632535,
            0.13754236495277522,
            -0.17047602174379017,
            0.08136361506237157,
            0.13380028558386597,
            -0.3119001457950822,
            -0.07900974687427732,
            -0.5930144006735437,
            0.015384261629583387,
            0.01827967484979788,
            -0.061720734744152496,
            -0.25660299963033345,
            0.105639909769648,
            -0.4900159896894995
        ],
        [
            -0.38420852799551997,
            0.15123177174822308,
            0.05578948609635997,
            -0.5083810175616567,
            -0.00211916517251294,
            0.22066599272424278,
            -0.050529929179653085,
            0.020149551652391226,
            0.13676121609965303,
            -0.040840137771988354,
            0.0020065635865866337,
            -0.14685368585623296,
            0.037223699463662385,
            -0.1442242596557142,
            -0.07155410912142454,
            0.04884354076450327,
            -0.16165565337159982,
            0.012243142049303317,
            0.03342801474819842,
            -0.42143982753544734,
            0.1790966181506667,
            -0.09260619203638312,
            0.21744191993448025,
            -0.33333388364125976,
            0.05716829512330181,
            -0.1911976795769756,
            -0.05258576877615265,
            -0.16369163107387635,
            0.1931064452019682,
            0.37071871493258224,
            0.22364140887705233,
            0.09816729589575837,
            0.11419299730352428,
            -0.10035382075819847,
            0.027991978873512194,
            -0.28203351710867314,
            -0.164609340488647,
            0.15578554645535506,
            -0.10099348680241133,
            0.087191993872727,
            0.023107557617593606,
            -0.13425917346211957,
            0.026667996898221368,
            0.1502600301251419,
            0.005774542214139456,
            0.1301508049740967,
            0.17519382066564057,
            0.17973071618562017,
            0.03677259502714371,
            -0.019208100606493878,
            0.14243925150101508,
            -0.09748795873708377,
            0.2239678968303159,
            -0.34927437829812913,
            -0.14679501303648101,
            0.3164312661504239,
            0.06210415990247289,
            0.14707726003838364,
            -0.09061224838887559,
            0.05372741140551864,
            -0.07233196499146706,
            0.08107043401330961,
            -0.033927809950869074,
            -0.012427501772155588,
            0.028804074934214156,
            0.1624756331564572,
            -0.10368024156853405,
            0.07377255159191826,
            0.10614661695037891,
            0.09973292310721663,
            0.12918657222762078,
            -0.008858564737618443,
            0.025279039407481642,
            -0.06222622391669138,
            0.0554478639211744,
            0.012547552194001424,
            -0.048584122169013186,
            -0.04369311754535413,
            0.2093653908899907,
            0.06553656801768025,
            -0.08266345663105865,
            0.3032100485720984,
            -0.181561561477102,
            0.15936313906039265,
            0.005130599401446979,
            0.1922337883932772,
            -0.07285655296248765,
            -0.06051656267509117,
            -0.09053503814146587,
            -0.13196304064089306,
            0.0976148257059438,
            -0.14971349177476354,
            0.07905058441837945,
            -0.09215706161158346,
            -0.10210020709183212,
            0.27354275104474857,
            -0.07101542206512419,
            0.0901479043950704,
            0.14905209819473242,
            0.22468229175412993
        ],
        [
            0.1337474579338847,
            -0.0005042713045666994,
            -0.009949799348407588,
            0.14911213843626375,
            -0.1630391978878929,
            0.1790704623512084,
            0.1166870814415246,
            -0.010593059865159031,
            0.0380964285476239,
            0.04373868162801447,
            0.23170809766306924,
            0.017925682180607493,
            -0.014769584145024042,
            -0.25765462937803274,
            -0.07799047178123139,
            0.013291328500073533,
            -0.12484522936213578,
            -0.030420070380291455,
            0.03787378026338026,
            0.06305139691996534,
            -0.019322141444926343,
            0.04042299247648955,
            0.08739230826731578,
            -0.04260113030792993,
            0.012618110341046037,
            0.00906095659435721,
            -0.045701340421329485,
            -0.0727678399995151,
            -0.0579075277611173,
            0.08055930726900279,
            -0.08149556687202884,
            0.12203871859763318,
            -0.009737515892519259,
            0.13165807594712392,
            0.14139669758599743,
            -0.26688705132262047,
            -0.04607386613920392,
            0.07334946373691764,
            -0.1326724401045989,
            0.025612979235394188,
            0.0938766324339524,
            0.18217429680073208,
            0.11264554793760197,
            -0.1834534229649743,
            -0.0013287188255268457,
            0.021052089675189282,
            0.027788191177496556,
            0.0735012734752523,
            -0.033000028147228924,
            -0.1925498266511522,
            -0.03733053880665063,
            -0.02837884572171407,
            -0.015917995407468234,
            -0.013259994942445832,
            0.023746678334962752,
            0.03924204455842513,
            0.09317371780173413,
            0.02692525040125188,
            0.043418703316078465,
            0.24773364459669042,
            -0.03876312487398613,
            -0.057408180197594146,
            0.13335501238907393,
            -0.07762764101397414,
            -0.09356017915197994,
            0.00815466060641978,
            -0.0946041949674385,
            -0.12870747765137802,
            0.1940093608478979,
            0.021286856070451478,
            0.06085750667950556,
            -0.09529480059041381,
            0.008007684609575665,
            0.043498110528159585,
            0.07556780598519822,
            0.02531442817646574,
            0.040462973015735045,
            0.20250915905687975,
            -0.001449475997396459,
            0.03559415319807631,
            -0.33946054068508547,
            0.07681120347251237,
            0.07095504307004809,
            0.0880246873124393,
            0.2104137741960826,
            0.04306521731189908,
            -0.006055130304702111,
            0.216831939007576,
            -0.08492906080138281,
            0.12260255050080923,
            -0.06742337507002572,
            0.00992026287091706,
            0.062288390345784435,
            -0.028659416840106502,
            0.08788586485555523,
            0.14305458569031237,
            -0.132679765061746,
            0.022798073171286265,
            -0.0013890133158969956,
            0.06561821578779123
        ],
        [
            0.09635950740070708,
            0.0013827592848108894,
            -0.08415327167698604,
            -0.35349839545887124,
            -0.08852132288302952,
            0.024123549906639948,
            -0.05806417585276788,
            0.17606870766298333,
            -0.001042646173305991,
            -0.006308139433584205,
            -0.10902275777833502,
            0.21149845515010884,
            0.15606517332407377,
            0.008171264282933605,
            0.1758863213379928,
            0.021812109256921498,
            -0.03981487380798871,
            0.03694777288479817,
            -0.1406901312677897,
            0.2062168612629698,
            0.05005438617572265,
            -0.10060130701981274,
            -0.33724905478903366,
            0.02450709471512378,
            0.13671559441468978,
            -0.16196866330559945,
            -0.032499855570841854,
            0.25316950748766603,
            -0.028532504799889745,
            -0.10912893055878377,
            0.01662409108551938,
            0.1708628099371585,
            -0.11590442245424576,
            -0.1491013197262058,
            0.19609281919023236,
            -0.14237583856884747,
            0.07382784507306893,
            0.09721731754704682,
            0.19873244509661334,
            -0.23614173343682765,
            0.0836955643139549,
            0.04018266468556787,
            0.07496719852278956,
            0.08993790264580266,
            0.17128368992090248,
            -0.1817012160307697,
            -0.08656101574456211,
            -0.004241136694949435,
            -0.030001130775298063,
            -0.10075495656582059,
            -0.0730541078387239,
            0.008729949252098626,
            -0.08317009893371839,
            0.004114015092127962,
            -0.14300094171481448,
            -0.1346753465015912,
            0.16090817679304267,
            -0.03491261925500529,
            -0.19100208561247184,
            -0.09368914208029053,
            0.07871888296187841,
            0.10060688522491386,
            -0.16259377693148105,
            -0.08313781792996301,
            0.28946946889155156,
            0.20247182064211483,
            -0.12704946339823453,
            -0.059341123978604304,
            -0.16403878597194915,
            -0.2586293922871905,
            0.24567181490373163,
            0.02809401619167332,
            0.04882711214295441,
            0.07507915410334556,
            0.09423426916057487,
            0.042801144957686825,
            -0.11409793885564423,
            -0.038417113850801786,
            0.015074137147734324,
            -0.052302618668538615,
            -0.039920182782033284,
            -0.32060385741366176,
            -0.015461483651481651,
            0.08955430277459926,
            -0.054806384116679326,
            -0.054284678856528316,
            0.2125624139485837,
            0.1537914033132047,
            0.12600557200696005,
            0.07932577809936289,
            0.12445973790196466,
            -0.12845019925021497,
            0.14263513503148645,
            0.10812970624491156,
            -0.009111796725665332,
            -0.24059571533801957,
            0.23549318510558476,
            -0.015513612211057267,
            0.06614822636014962,
            -0.09524214022694107
        ],
        [
            0.0896073441973556,
            0.05906110509540953,
            0.22617000899909304,
            0.09896375491788462,
            -0.16056806283511757,
            0.08228332892627924,
            -0.2887146303469224,
            -0.12271153776665043,
            -0.08079476848767417,
            0.06946843371130462,
            0.004038702029412277,
            -0.03969661243966376,
            0.08448912349186012,
            0.0014623413962955864,
            -0.279896849818575,
            -0.2514570390172266,
            -0.11276758553702708,
            -0.11036571861459814,
            -0.03238186614262484,
            -0.29037037475186167,
            0.003636025530504596,
            0.2973156283663344,
            -0.01830294196591094,
            0.25825426669452156,
            0.07083564120793517,
            -0.35817452960589247,
            0.10818593354770287,
            -0.059864900016793766,
            -0.008725853375744604,
            -0.04741240082442094,
            -0.002229437785833218,
            0.2044489323888934,
            0.03314387979579968,
            -0.2375364360092646,
            -0.009444548446059098,
            -0.009825725818050393,
            0.09662158774570226,
            -0.045715669443369425,
            0.1156114047287612,
            0.10594864981894464,
            -0.19808895884127678,
            0.02986523295913993,
            -0.061430028600934806,
            -0.31256218782373546,
            -0.07489384412143238,
            -0.012475579055675706,
            0.1500841739516008,
            0.008846452412050175,
            0.0726755100856497,
            0.01003360793664002,
            0.10639520518894424,
            0.18848499960346124,
            0.06253593614538593,
            0.06374065538732948,
            -0.119092883097174,
            0.04503818602247529,
            -0.004408674793630687,
            -0.12470953312676054,
            -0.42441719058469285,
            0.08113427165824565,
            0.08105915395522602,
            -0.10405070191538816,
            0.03949748660710168,
            -0.03584899769834769,
            -0.08260972297695426,
            0.05543600202648669,
            0.12668480738288024,
            0.006798348735753545,
            0.022335396320034902,
            -0.11911886189174999,
            0.14414671686471067,
            0.006952115556894631,
            -0.01811786244736787,
            -0.016101127681138108,
            0.1321868330193675,
            0.07571057702940646,
            0.045382606243247206,
            0.03247957013261843,
            -0.05681844258692606,
            -0.11963966870364072,
            -0.026769022370638565,
            -0.06963245522089033,
            0.02739415019986565,
            0.0439585680192191,
            0.024480785643271837,
            0.009552119218822479,
            0.1208631047985081,
            -0.027494589055714464,
            0.06075993702803047,
            -0.20420683718608718,
            -0.1523156670038984,
            0.024090186157286704,
            -0.08934583394387664,
            0.04257148185173262,
            0.29913833581659666,
            -0.11312714283020178,
            0.12305161440956158,
            -0.017251480106178853,
            0.02888985468890169,
            0.037664568406347416
        ],
        [
            -0.03295579891908828,
            -0.23819670945846302,
            -0.20038451273132923,
            0.03921889274487496,
            -0.11171666341341459,
            -0.009607097219353928,
            -0.029634206898382993,
            -0.07012791999606793,
            -0.07427521725231102,
            0.029562978308206214,
            -0.12172355579511303,
            0.19847255853019988,
            -0.11304904608877525,
            0.11826837610281832,
            -0.10347275061806596,
            -0.07762456232930967,
            0.01631071303149504,
            0.12612955756679786,
            0.05868177118005295,
            -0.02661507186738311,
            0.02500238739734417,
            0.08369482706192641,
            -0.10612049654699646,
            0.05098278720187246,
            -0.3320385588481404,
            -0.19018924890987537,
            0.012138831161997253,
            -0.06497367129567241,
            -0.03342608741712765,
            0.07171308105444943,
            0.028362897331298494,
            0.003447280759535891,
            -0.007198227127106078,
            0.022958270949629635,
            0.06843408820770937,
            -0.13368506885360307,
            -0.08459232211645155,
            0.1259394829538776,
            -0.05479919092994426,
            0.005917551329823659,
            -0.10701795102727368,
            0.1234518961610834,
            -0.026622418544792727,
