{
    "h0.weight": [
        [
            0.24759817275466225,
            -0.6053673835876509,
            0.04824388862930241,
            -0.06510071574609268,
            -0.11892856245547215,
            -0.05754257823784918,
            0.2709804302656125,
            0.09249398347639286,
            0.20134935431108936,
            0.19406552239693672,
            -0.13435735111117747,
            -0.36321190532937514,
            0.16429184962177049,
            0.4461826514656111,
            0.10227361059544567,
            -0.015170390713423115,
            -0.8992997465263661,
            1.2132875736431705,
            -4.688566871023134,
            -3.928805739642971
        ],
        [
            0.42502222178278787,
            0.5446026720073643,
            0.15742304188684564,
            0.334393915332962,
            0.747301792774933,
            0.26351568153938804,
            0.09360297535521009,
            0.11139108423279619,
            -0.6600605448495983,
            -0.2659141134943509,
            -0.08925509052037078,
            0.06940045470172906,
            -0.3662478829911865,
            -0.46226441047116923,
            0.10960264159608282,
            0.009814658329343596,
            -0.044526113757554685,
            0.03362006483911074,
            0.05058460126122907,
            -0.008502105231562532
        ],
        [
            -0.6105920998734697,
            -0.24106267433257716,
            0.16105081126736995,
            -0.4215991531184046,
            -0.12963865132292693,
            0.6762515578898275,
            0.16694070445849957,
            0.11752715265742383,
            -0.211557855177346,
            -0.23199859263125372,
            0.2468221236092459,
            -0.02792722763898041,
            0.47338123596243004,
            -0.2376591662562666,
            0.022295743270773802,
            -0.31939518092255353,
            -0.01930492628806497,
            0.0029869032024098918,
            0.11063508799138373,
            0.11983071639880842
        ],
        [
            -0.2936245487076548,
            -0.34581025398824017,
            0.538627882200779,
            0.592217535655174,
            -0.2663826963466304,
            -0.24811721074337612,
            0.42966662808922934,
            -0.5732241783026669,
            -0.2021164753229502,
            0.2184888097581568,
            -1.0131098040354733,
            -0.3954408271741574,
            0.09990553888466665,
            0.1829623556648985,
            0.19594108647511535,
            -0.1360648408088895,
            0.04174926802297104,
            0.04970432829573642,
            -0.06783355924808977,
            0.1131500772107626
        ],
        [
            -0.05753267200593823,
            -0.31694888654807885,
            -0.49587845033517364,
            0.6513478993524219,
            -0.15024398746520304,
            -0.5695429842729812,
            -0.18872308277069091,
            0.46923249365745345,
            0.17443525956838712,
            -0.13223159208932395,
            0.4177968811626609,
            -1.134323097295116,
            0.15931400282181715,
            0.45187615272722687,
            -0.12538000336929095,
            0.0650699346796511,
            0.08436962488784433,
            -0.017135851627660167,
            0.02027803845511044,
            0.010176226620304119
        ],
        [
            -0.021002227114919402,
            -0.006400154795937906,
            0.02627957784698114,
            -0.0063803315895623255,
            -0.8307001892625209,
            0.7859871830715711,
            0.0036118682326451495,
            -0.0037964894883183455,
            0.8461478896966877,
            -0.8642829590706604,
            -0.009922543577190496,
            -0.08647055081415984,
            -0.020091869249366463,
            0.011119468144248816,
            -0.010865941887295248,
            -0.023066770809895037,
            0.021704216770601293,
            -0.026322941614323806,
            -0.010851929055646007,
            -0.01625661490033834
        ],
        [
            0.33573661665450827,
            -0.319397259674287,
            -0.1752987997636634,
            0.47169215346671606,
            0.016082608290241506,
            0.2552493990342217,
            -0.25564480115533994,
            0.04133806887430562,
            0.1958345006004999,
            0.05019671007921003,
            0.08999650047267868,
            -0.15971297962184902,
            -0.5385931709265053,
            -0.07976057764329267,
            -0.13086135446728997,
            -0.05091400260250614,
            0.037942862982483824,
            0.07436824775574116,
            -0.008807678924219778,
            0.021663408620074164
        ],
        [
            0.12181547567617927,
            -0.4004209541159015,
            0.04188617830651167,
            0.2899950397444436,
            -0.20507169559416105,
            -0.2606542927915173,
            -0.12670575435078604,
            -0.05938974573694221,
            0.11915470342042482,
            0.2745727174486956,
            -0.7082887819457312,
            0.04748198010020698,
            -0.19753084605272844,
            0.41568305871028993,
            -0.06723451657701367,
            -0.3109381401932818,
            0.0553126817986372,
            0.0785454835959718,
            0.0917914882112034,
            -0.03582114234402963
        ],
        [
            0.012050665036256666,
            -0.3980563931872198,
            0.5158299590955348,
            -0.12904735144305624,
            -0.1714785827311831,
            0.19290895672176178,
            -0.015591500774202056,
            0.08859105659343207,
            -0.06897667976570315,
            0.035036170705430386,
            0.051566293815723134,
            0.08745004142708628,
            0.14526482840590904,
            0.1120752766707744,
            0.25735296679874314,
            -0.07544533082689825,
            3.262070348303694,
            -2.48273601436375,
            -0.02979411730383621,
            0.01285217166722632
        ],
        [
            -0.393489141897474,
            -0.3546626660558742,
            0.3044486859679316,
            0.17906109455226038,
            -0.13569068003099816,
            -0.3274488420911522,
            0.19615978536533152,
            -0.20534686785976833,
            0.6875730717148125,
            0.597748512288062,
            0.6249393875429875,
            -0.3228110858858757,
            0.4540289449783781,
            0.2887484630073409,
            -0.3076417287598552,
            -0.2753819985299507,
            0.03316581681749326,
            0.007241544751252377,
            0.08216764459740955,
            0.05492701265761774
        ],
        [
            0.467430070737716,
            -0.05083598675803261,
            0.29209644635201176,
            0.209598433834488,
            -0.12288008379387966,
            0.008481414868680892,
            -0.018477783977548845,
            0.08214849723842456,
            -0.12828841824280646,
            -0.08592170699128748,
            0.6256235550432157,
            -0.27851550367196204,
            -0.2517701371681588,
            -0.04381379040568545,
            0.03565786139107872,
            0.022193287852626312,
            0.09274146512343975,
            0.03202302410883793,
            0.0646927218303737,
            -0.09984880242665188
        ],
        [
            -0.3567082204120246,
            0.6060787378909422,
            0.6196378571744307,
            0.5343931916218644,
            -0.244555596183153,
            0.20501512599988544,
            0.10882047709092883,
            0.19703046110106212,
            0.6028069381274338,
            -0.15318883402077013,
            1.274136760184712,
            -0.15023855425570518,
            0.08460783549457855,
            -0.2014812074612865,
            -0.23782446167096893,
            -0.16656750967157202,
            0.01277231556517038,
            0.012824175561283234,
            0.05343200775963513,
            0.08017917126839431
        ],
        [
            0.04351927037456428,
            -0.0038352817253683143,
            0.4057396931189942,
            0.0851835015384135,
            -0.23674917874286416,
            -0.16256079435367385,
            0.1927031013236539,
            0.10307549349788371,
            0.03400787891676162,
            -0.3187740198432293,
            -0.13617768575616,
            -0.31372418771589583,
            0.2481526779701865,
            0.44206040636338934,
            0.2681851995652275,
            0.1926598662806487,
            -3.776160157403843,
            3.9269282819309206,
            -0.9721277854874483,
            -0.11327911224100613
        ],
        [
            -0.16796080201660235,
            0.018599916164889197,
            -0.7984561941151903,
            -0.34546139363580625,
            -0.7761241589496833,
            0.2881130257907007,
            0.22506089383008113,
            -0.12031168169526657,
            0.29369920641275205,
            -0.27887838152893935,
            -0.6798494982270001,
            0.4145528142471227,
            -0.35064728380009497,
            0.37542129073343955,
            -0.03909804348080573,
            -0.22194430604842114,
            -0.05527056125366338,
            0.06686989960122285,
            0.005830838305729074,
            -0.01234887900706151
        ],
        [
            0.1158574873645764,
            0.3920614715897133,
            -0.4350928857473534,
            0.6666183282421779,
            -0.28710777160585077,
            -0.34381078510304247,
            0.3793207080089306,
            0.03338216808927657,
            -0.4113728112582647,
            0.4090324082413576,
            -0.22569303089114834,
            -0.47845860387353495,
            0.5210427986170867,
            -0.6140959240944561,
            0.23055402894951893,
            0.12757350261674094,
            -0.0533040019557221,
            0.05050045640625509,
            0.04230832424656391,
            0.0007307321551398836
        ],
        [
            0.3152179028072396,
            -0.4529469568732607,
            0.4927209888367724,
            -0.9103892398078386,
            -0.4965293054267638,
            -0.08766056371300154,
            0.13933048977448967,
            0.144307036479596,
            -0.049926222288448605,
            -0.6410176677264713,
            0.0025565654749503813,
            0.7790438651321732,
            0.34975078727195885,
            0.453380062077888,
            -0.08947691961290823,
            -0.07518758166829963,
            0.00048498869929442727,
            -0.005708038605130705,
            0.06632740018516894,
            0.017513509673520306
        ],
        [
            -0.07031561016636198,
            0.04332540097314891,
            -1.1912008360695738,
            -0.35135987623026205,
            0.2826023954687106,
            -0.4276731203885299,
            0.07509097197020252,
            0.3514961218877423,
            -0.3188911219615063,
            0.10683276678244338,
            -0.24192733116946705,
            0.3420117189589078,
            0.32889920520119875,
            -0.196746337489133,
            -0.45924546416616285,
            -0.09431688165278312,
            0.008476976585417174,
            0.03524886325806962,
            0.00812164434533147,
            -0.04041560186719805
        ],
        [
            0.8020665694259638,
            -0.6651605158940723,
            0.11780712631391012,
            0.3747722737153574,
            -0.1826799265565429,
            -0.29071773989926997,
            -0.012833523783631562,
            0.2365219606732582,
            -0.6652615970981332,
            0.979162850420279,
            -0.7928966879857355,
            0.45705497902912884,
            -0.5481102637535541,
            0.06070064028095739,
            -0.2184698006918527,
            0.04250210505537347,
            0.019447812735084544,
            -0.014282954923471935,
            0.00840441401932871,
            0.0057075628064269645
        ],
        [
            -0.030268648227337238,
            -0.7525063014418133,
            -0.11552611812169233,
            -0.7368360453199857,
            0.021608298228576874,
            0.06584950505279263,
            0.005054166159037533,
            0.009417449003637945,
            0.04510059714816588,
            0.031370616850011294,
            -0.07994817932017396,
            -0.040316445859794686,
            -0.036039220656828845,
            -0.0012364220402752216,
            -0.050705558758831766,
            0.0030740307631725652,
            0.055271659736257465,
            -0.1422547939596952,
            -0.028068766279602135,
            0.05161900901458663
        ],
        [
            -0.06486200613478493,
            -0.0979247323940123,
            0.15871535511952006,
            -0.22099950901641727,
            0.18246129442317655,
            0.15088576712450363,
            -0.019621273735186767,
            0.2879456477870363,
            -0.47473531118111545,
            0.023529214290182423,
            -1.5684551726282907,
            -0.08743181662446219,
            -0.24885554137744212,
            -0.35588711333687373,
            -0.2319284552383999,
            -0.025656848946920715,
            0.05287710242944381,
            -0.005121283169912817,
            0.013611256788239144,
            -0.022208384453812183
        ],
        [
            -0.06610448065871573,
            -0.47852102340272445,
            0.3478747363966739,
            0.5899040396966817,
            -0.1631387283451846,
            -0.04493007862782759,
            0.30878045543116556,
            -0.2152976314525362,
            0.9336410364585405,
            -0.08160931081829996,
            -0.05036433641488113,
            -0.7531832961038091,
            -0.8655116565011686,
            0.057302633399446266,
            -0.08472383044783428,
            0.3428236151561889,
            -0.0290651342962416,
            0.05535227869751431,
            0.052337511730600944,
            -0.013953654241334632
        ],
        [
            0.36238806245262356,
            0.28100459261725147,
            -0.13172236349809527,
            -0.41655893794048743,
            -0.30468786416156424,
            -0.1478079133810937,
            0.006186453486005016,
            -0.14596572903146074,
            0.6195577503553753,
            -0.3463068981861617,
            0.8769615291748447,
            -0.03619486901475759,
            -0.24901277681883913,
            0.21299909251182514,
            0.03058868996411345,
            -0.33816539201760076,
            0.06402434783529282,
            -0.05619535949014615,
            0.00881595635619489,
            -0.004751601208459339
        ],
        [
            0.18406685775079365,
            0.20631911156836483,
            0.8348034495710771,
            -0.3931830037780704,
            -0.04987983802473742,
            -0.23605193183378456,
            -0.2104004082816681,
            0.11427541138987217,
            0.2364499430165645,
            -0.24284995856951216,
            -0.4954538748984019,
            0.6231291687425913,
            -0.33450325627640703,
            -0.05148730400056863,
            -0.2956824936171048,
            -0.3135145283356434,
            -0.00723819585057878,
            0.051451841221226355,
            -0.05536170680900946,
            0.04318630240400642
        ],
        [
            -0.2124806015534072,
            -0.07860068247896387,
            0.3264813044381166,
            -0.5721621795994284,
            -0.009688796037907343,
            0.3847941010693701,
            -0.17477104834963905,
            0.3422096981072717,
            -0.2432563307607427,
            -0.007957258205785531,
            1.0248570708689475,
            0.24305724136179957,
            0.22363388298646808,
            -0.5578781767544831,
            0.08623291907798535,
            0.37386049451578196,
            0.0230170678319255,
            -0.031015711846399292,
            0.022865470841208102,
            0.03584343873022606
        ],
        [
            -0.17559090647520056,
            -0.17808279542583832,
            0.11305299334966992,
            0.9093743801974251,
            0.23140830710928634,
            -0.21686775881720693,
            0.16815759325012555,
            0.09891442201818308,
            0.4306295246724376,
            0.4935050548765396,
            0.4094329962433248,
            -0.5780765019824002,
            -0.6938807183206185,
            0.41367965235460724,
            0.23012837541183812,
            -0.07149432537911181,
            0.0557935109939192,
            -0.03210840986239831,
            -0.03647488180851864,
            0.025344676800649994
        ],
        [
            -0.7066573936648569,
            0.26543511388343705,
            0.5498563661397629,
            -0.7180703243778612,
            -0.5379895084961013,
            -0.35880905688982795,
            0.5196481976059809,
            0.35070277499752767,
            0.8117958508743172,
            0.6185922667726498,
            -0.3250596857375612,
            -0.7311895690824979,
            0.18198656520241957,
            -0.3243288951729579,
            0.04075827802205342,
            0.22785372728748118,
            0.06823168188233565,
            -0.04768494130733305,
            0.08568757684991439,
            0.017966696463223363
        ],
        [
            0.3895766581584659,
            -0.307725354134024,
            -0.3830968566505322,
            0.29005206712592635,
            -0.22359082601495234,
            0.06802056566958438,
            0.042203613709562826,
            -0.1196865119538242,
            0.5127415348456532,
            -0.3253885605377881,
            -0.8210279618907675,
            -0.87394526836591,
            -0.39586245004421766,
            0.5813395388576263,
            -0.4633684149049737,
            0.3160632840805777,
            -0.020458352819584934,
            -0.05619196223361906,
            0.08917718632399112,
            0.008506706938438864
        ],
        [
            0.2258123030588053,
            0.13056298983219866,
            -0.2807827548022254,
            0.5951169497507808,
            -0.5092099473836125,
            -0.9114500434191417,
            -0.11437768088384902,
            0.053545541247919985,
            0.30536719009127417,
            0.5753544685642592,
            0.6033750302364488,
            -0.022865514678849348,
            0.06306400110812524,
            0.40814960109310733,
            -0.39411140835232195,
            0.1933336317462255,
            -0.052088969754975685,
            -0.0034284100026534137,
            0.02117315558390288,
            0.012398417818979574
        ],
        [
            -0.3848033647598287,
            -0.3668756558682722,
            0.23355517421017996,
            -0.06203811507629472,
            0.23476930692887837,
            0.16393362057611666,
            0.20497224594302466,
            0.22959264902980936,
            0.1633186249178265,
            -0.03457057418883735,
            -0.056043833768314816,
            -0.16342963567252103,
            0.05510318973068128,
            0.20346073467193418,
            0.054571915227752565,
            0.05082236192663572,
            0.2034074508703786,
            0.4810787819698219,
            -4.33511548588738,
            0.003930123820097216
        ],
        [
            -0.19718211697955992,
            -0.3742979158356078,
            0.0824274107592583,
            0.15345424085010262,
            0.32708233058094005,
            0.16081816239238694,
            0.42700615875421305,
            -0.03956118397815124,
            -0.19015700942348632,
            -0.521969249204029,
            0.15052734274258653,
            -0.16462120307334113,
            0.1635999680722077,
            0.3245850982159016,
            -0.3587590453956951,
            0.027611340989378837,
            0.06348705330171726,
            -0.029180273208410795,
            0.057514530464788424,
            4.524902849310252e-05
        ],
        [
            0.5564443443959226,
            -0.06448614624142085,
            -0.1995817016045846,
            -0.6016054368573258,
            -0.7327202399904285,
            0.30993324030767133,
            0.2929447198858528,
            -0.2720514177581968,
            0.3493228777712859,
            0.0443475926310008,
            1.0531091439221294,
            -0.6337146606142134,
            0.15816737324771796,
            -0.49083322893170805,
            -0.1122804799493655,
            0.41886541572410546,
            0.02730880454625799,
            0.017321345277291338,
            -0.007239729074262462,
            -0.0035368722540930725
        ],
        [
            -0.1555446629142177,
            0.17059979666162525,
            -0.42215842073138754,
            -0.03965641699504521,
            0.013766731401891767,
            -0.3104891955319207,
            0.19804070814659944,
            -0.17897578463246366,
            0.06038272379978572,
            0.6827811645063395,
            0.028600582808474988,
            -0.3756484840965998,
            -0.02329919645814254,
            0.044948054963676695,
            0.2232221984995732,
            -0.26775582107201207,
            -0.035767939879043004,
            -0.04124609413584574,
            -0.04727402357985252,
            -0.03834403909604034
        ],
        [
            0.9199523920308076,
            0.19369819434988153,
            -0.13251717207533592,
            -0.0970403785330455,
            0.48556374162804655,
            -0.007924195583545545,
            0.5013599466431111,
            -0.18499795973685815,
            -0.006005765723897142,
            -0.42472538487775646,
            0.5266190049304441,
            -0.37230573501874004,
            -0.7030608171664835,
            0.414274200618125,
            0.0022806447813190807,
            0.3134741292141628,
            0.07541966220362523,
            -0.00994889860913428,
            0.0719025403269407,
            -0.027103313393930083
        ],
        [
            0.20402956929573726,
            0.0074638747071571684,
            -0.12494066544101805,
            -0.6913140167564261,
            0.43631758064275644,
            -0.49910743114157674,
            -0.1712238364305376,
            -0.15327890354123405,
            -0.4574064496096986,
            -0.16110219968076442,
            0.2548937332107643,
            -0.6636763126234123,
            -0.3095921861477136,
            0.7801061335297791,
            -0.03733958930428571,
            -0.031168934171964282,
            0.06283816998783161,
            0.0026138770705221507,
            -0.036202138524574226,
            -0.03717512480928034
        ],
        [
            0.1122093518516247,
            -0.36442045345499174,
            0.8141599729930412,
            0.49867745233496363,
            0.5714679787618056,
            0.4892367165028815,
            -0.09129197332321266,
            0.07724231495449985,
            0.13325691521194977,
            0.10011169664127026,
            -0.16925062865854532,
            0.2162462842912174,
            -0.36966525388300087,
            -0.4651631869917993,
            -0.3411346536056783,
            -0.13861161355452142,
            0.012823951776654427,
            0.020635501189792495,
            -0.03456331279363626,
            0.04440512898663658
        ],
        [
            0.6287310483058829,
            0.3462485409713017,
            -1.3185650658904162,
            0.25141983095409054,
            0.03395897421663895,
            -0.24712897815132262,
            0.029058840245700327,
            -0.5467540710785779,
            -0.054723289299376296,
            0.11627060875881731,
            0.6032921208619136,
            -0.5400443063982432,
            -0.5235127635490292,
            -0.5097886056504466,
            -0.39355034449521953,
            -0.1005511697928281,
            0.00884679514865371,
            -0.04557553352370237,
            -0.022940571976030263,
            0.02964303142395097
        ],
        [
            -0.22858841378391148,
            0.1918036999244584,
            -0.2506588648880474,
            -0.2732677423208943,
            0.12628299811749685,
            0.014538659625744693,
            -0.11641123577082664,
            -0.12045258670703358,
            -0.05150318919481964,
            -0.6117367494839715,
            0.036002545991399376,
            -1.701159261684218,
            0.028005868484928167,
            -0.187526483056065,
            0.09139731176517478,
            0.012522140277484614,
            0.05407139209237527,
            -0.008659122576341246,
            0.001831937170110629,
            -0.03796580995785252
        ],
        [
            -0.08248763002599496,
            -0.15970988609003237,
            -0.5624482573478128,
            0.611018643054795,
            0.35357023008079214,
            0.16165523925240793,
            -0.13969284037092344,
            -0.3159313691786085,
            -0.6357463633737719,
            -0.43294243896983003,
            1.0733357575088578,
            0.6788565107176336,
            0.08098800160913583,
            0.24663589323584892,
            -0.16723573530739436,
            -0.184642650634956,
            0.0360753455771801,
            0.01724945703871694,
            -0.04627100779186157,
            -0.014365166622045017
        ],
        [
            -0.5341474517155123,
            -0.08330690150741375,
            -0.019514828485848432,
            -0.2422662433138802,
            -0.5190726925359646,
            -0.6753533150754492,
            -0.3140458224830929,
            0.10945450542935152,
            0.7896487971189042,
            0.6030160092566325,
            -0.04668105966969294,
            0.28856159829296507,
            0.18772463061774342,
            -0.22743005345649428,
            -0.10896005707869713,
            0.0571815463043902,
            -0.01445359732999079,
            -0.026686656743086797,
            0.025776297282863184,
            0.023483187749990714
        ],
        [
            0.07140343051658805,
            -0.24212910116587733,
            0.2427804291337358,
            -0.31427944274572256,
            -0.08363621808521815,
            0.4046274364577766,
            0.010930030596480256,
            0.2326023348117154,
            -0.022598405545862378,
            -0.13250048496643824,
            -0.582505401598076,
            -0.45311200537289736,
            0.017712261880103646,
            -0.13689108689510143,
            0.09828365847058498,
            0.056213234947231364,
            -4.569990806859706,
            -3.410496947561396,
            -0.9139887245422482,
            0.730177744459774
        ],
        [
            -0.177940710160371,
            -0.10037301104228474,
            0.3346036799430611,
            0.06151679260388683,
            -0.6768824877715858,
            0.10974536080380343,
            -0.38344455249715503,
            0.21707200482496689,
            0.3859664188241294,
            0.22786688415733883,
            0.32821554078172166,
            -0.1854243809518853,
            -0.29929590509988885,
            0.02065343144103014,
            -0.20144029934733793,
            0.09377012318869023,
            0.025020266265840033,
            0.042097670726550816,
            0.013796131565558365,
            0.002070335213864386
        ],
        [
            -0.1608653203648232,
            0.004835015895829146,
            -0.9017197375468586,
            -0.3897478606475915,
            0.1646757968286266,
            -1.2440860818140609,
            0.12420448051400312,
            -0.2532375243197435,
            0.33496868347214853,
            0.2740677904606461,
            0.23181680352874431,
            -0.16465721383871834,
            0.012865646425453363,
            0.3338959479215299,
            0.3069448332047484,
            -0.2333035574873754,
            0.013010575153906705,
            -0.015316916193145309,
            0.018334819856111184,
            0.0022713894243526853
        ],
        [
            0.12070921393648408,
            -0.13000363094933035,
            -0.41689899423985155,
            -0.19086025135339557,
            0.3574635876042862,
            0.23808098131586725,
            -0.06504832271291719,
            0.22484070672928144,
            0.32951662220132344,
            -0.17457927778045534,
            0.49624322047482294,
            -0.0968823612913833,
            -0.06993439334247466,
            -0.03363542117005204,
            -0.04353766481847531,
            0.31739632286151065,
            0.014520234673523199,
            -0.00784308746695686,
            -0.0031050763500339133,
            0.00892159105435302
        ],
        [
            -0.3090137880908423,
            -0.12908319832322668,
            -0.7613309653424019,
            0.4593966632661494,
            -0.6259470063943333,
            -0.029477244603267345,
            0.02844379259271487,
            -0.4350848610273667,
            0.564139852903736,
            0.5379648258924711,
            0.4279249911087751,
            0.005641664973003551,
            0.40779894803399513,
            -0.2776586501310359,
            0.08293087692066661,
            0.49459069077411566,
            -0.015086032541445325,
            -0.011929717430701654,
            -0.08665849420250324,
            -0.08263067028650219
        ],
        [
            0.3820762865503495,
            0.12950808462025246,
            0.1598751888469751,
            0.8704920718345702,
            0.1835158610821487,
            -0.07961580639961803,
            -0.25237749092248757,
            0.18425753687824978,
            -0.5786631352274594,
            -0.0803870875864399,
            -0.016379168920105457,
            -0.721932536362816,
            -0.3485638653152485,
            -0.014534898882110361,
            0.1833234786388274,
            -0.32158035320152034,
            -0.1040746717513147,
            0.09131019681202772,
            0.05725070557516766,
            0.016170865285999404
        ],
        [
            0.7344043693471448,
            0.007542674595063719,
            0.3684740316190491,
            -0.26775900547171866,
            -0.15714822135543158,
            -0.45029206761623636,
            0.5254885007127822,
            0.07461452701248675,
            -0.06760258122330397,
            0.013064332711881416,
            0.17825098331178746,
            -0.08808506083505006,
            -0.44365104513772347,
            0.26629326176917506,
            -0.10593787288645634,
            0.22144301616013704,
            -0.031749477778029896,
            -0.00440452025212002,
            0.05107313498862748,
            0.0038445104477304
        ],
        [
            0.10583004499135826,
            0.07185538517027733,
            0.7097735137928688,
            0.7976559024559685,
            -0.3226085494103135,
            -0.04018734469419775,
            -0.04428151441893683,
            -0.049266716444004134,
            0.4270224559117866,
            -0.19423781256063838,
            0.25624452011478216,
            0.3605500287094826,
            -0.26243971771249075,
            0.09333436271040936,
            0.3761360116652898,
            0.2001203069870999,
            0.015341953006624495,
            -0.05359400980580266,
            0.01196222433587032,
            -0.01885020020077862
        ],
        [
            -0.32167101309785984,
            0.37214687307531097,
            -0.5907365039958695,
            0.614679949227699,
            0.02181988156760462,
            0.39299085875389206,
            -0.05902132373986371,
            -0.3824053615525297,
            0.2149625173641695,
            -0.5340232833724153,
            -0.8406310815710565,
            -0.1607678415806828,
            0.1822536030174276,
            0.2743885965462502,
            0.315794561796502,
            0.3356604157771198,
            -0.005155608583589159,
            -0.018759200300370957,
            0.05228550917299383,
            0.06562625841539502
        ],
        [
            -0.0877975484185367,
            -0.05552220577085105,
            0.6322797830560163,
            -0.5624142764030305,
            0.33311624821552405,
            -0.304842862045832,
            0.022716649584141064,
            0.0710842395862815,
            0.22327274815073095,
            0.4299110415506653,
            0.09185321397230148,
            0.9392918936888367,
            -0.5714725720798817,
            -0.09089892420168831,
            -0.11544652663988676,
            -0.15640547539531097,
            0.012061706590047634,
            -0.03284841449785214,
            -0.0732580637909634,
            -0.09940615836217623
        ],
        [
            -0.48080359204055934,
            0.38136175075093676,
            -0.4654827865566682,
            -0.13413461940900548,
            -0.4056743880131377,
            -0.8304547236003572,
            -0.2842140057039256,
            0.01790751148418235,
            -0.3493927273752152,
            0.6501515399653043,
            -0.37353877011973063,
            -0.24492399884383617,
            0.7608234262016929,
            -0.04474433392179004,
            0.12472383363518624,
            -0.1827487623385094,
            0.030290156312541658,
            -0.026658270778344116,
            0.02018270310131435,
            0.03616113596941191
        ],
        [
            0.826112135258227,
            0.3508150918048877,
            -0.907852169624615,
            -0.34235349162318246,
            -0.37533212738418775,
            -0.4907460319778489,
            -0.21045865243600273,
            0.06187097327761184,
            0.13591351460094908,
            0.4032645287397442,
            0.06691885707036013,
            0.30235609600627317,
            -0.34915615134827965,
            0.08730829767980036,
            0.2809531464166124,
            0.09919639849150338,
            0.02524945555290444,
            -0.0014165447849107922,
            -0.030900565649891965,
            -0.015782539676728158
        ],
        [
            -0.5216154903979134,
            -0.47900655505491585,
            -0.3589349225873473,
            -0.18401019292272688,
            0.14402293510359906,
            -0.0985327843619897,
            0.3341950877000176,
            0.07095482666712911,
            -0.10006437230988321,
            0.2517561608435648,
            -0.0767045895060108,
            0.8700422048401163,
            0.23466898285944,
            0.3991423770166488,
            -0.012702254988313812,
            0.15426593689968918,
            -0.06446092442445296,
            0.06413533142726356,
            0.019396895550833255,
            0.008981917149072106
        ],
        [
            -0.04141254845451023,
            -0.1937985398121079,
            0.47898031843819705,
            -1.1414719165328195,
            0.17438120492828701,
            0.09937187528224979,
            0.08758933856997093,
            0.0007084661013757212,
            -0.014997896939031379,
            0.49072214927915675,
            -0.60900239018383,
            -0.33053911122896096,
            -0.0591959926329095,
            0.01667145469767544,
            0.135273159711256,
            0.03961189691409736,
            -0.02003262273962968,
            0.04065699936112082,
            -0.029345155944983187,
            0.009147666939787906
        ],
        [
            0.0547695533053493,
            0.3224194809252014,
            0.211070449604372,
            0.7911342350937891,
            0.047361606492426905,
            0.414567880596273,
            -0.145907787170354,
            0.23387598942114415,
            -0.022449944307472266,
            -0.6882961206413332,
            0.3764945740016606,
            0.4065575861846957,
            -0.5811663944365755,
            -0.0384209355412557,
            -0.2178337387371774,
            0.15262271261249838,
            -0.011566363940611066,
            0.007699941738184741,
            0.06086780838834838,
            0.042910484069758795
        ],
        [
            -0.056840293154268404,
            0.4032629481670735,
            0.5026619175706414,
            -1.7739113726804572,
            0.20768938547943855,
            -0.5035143245253247,
            -0.07097424433419333,
            -0.24471614535940753,
            -0.19782926676873855,
            0.3171262898099345,
            -0.3156260568630963,
            0.3295054921413826,
            -0.11359852983009867,
            -0.16057466526168787,
            -0.04510064243770689,
            0.24501001531774966,
            -0.09064119672365736,
            -0.006442590378976629,
            0.033639218420467826,
            -0.08313875457080457
        ],
        [
            0.2920347375282498,
            0.28396720969306977,
            -0.3916273734104171,
            -0.08997933416507505,
            0.4766228971091247,
            -0.49848252538538107,
            0.11936781080503801,
            -0.44772939573453674,
            -0.355959726016305,
            0.17228775643276872,
            -1.0447224807688098,
            0.6850785980618684,
            -0.09049663688957105,
            0.5611811731313803,
            -0.31851984176141984,
            0.11851071755501759,
            -0.05198248480476889,
            0.015353445543464675,
            -0.019943986802228836,
            -0.0254170714700541
        ],
        [
            0.30384726129186546,
            -1.1725508111820089,
            0.041714799128820215,
            0.0037337447540742824,
            -0.0719786187945797,
            -0.030962320595032816,
            0.0007991972845096503,
            -0.03385695448129674,
            0.021522513288039277,
            0.010905960073887945,
            0.032439053287063216,
            -0.05864062475850885,
            -0.309139968728809,
            1.2152003023895397,
            -0.04484959693908666,
            -0.005541964029632517,
            -0.006920724442583371,
            -0.0020634991752467727,
            -0.011308298567134578,
            0.01683961845037238
        ],
        [
            0.6292450962230416,
            0.40052481391905803,
            -0.10990505244265919,
            0.08307650073635689,
            0.3666811596905159,
            0.03741475310597449,
            0.07427101993936305,
            0.15848672152693594,
            -0.36114974629307667,
            0.6128362571201936,
            0.2727933816186642,
            -0.21402635704598558,
            -0.7842057114325645,
            -0.7045214176291411,
            -0.09472607765915626,
            0.5457750530105744,
            0.0052252035303703625,
            0.03032723926718194,
            -0.004093627609335498,
            0.03824291354193755
        ],
        [
            -0.22287810081771464,
            0.2566656084460064,
            0.004988290153193487,
            -0.6174302931153465,
            0.5843414161528366,
            0.48318550520891523,
            0.2571468668957214,
            -0.21349624259100344,
            -0.45811696706966776,
            -0.5185064669517166,
            0.15643274850165517,
            -0.3264627742771943,
            0.020191408716233896,
            -0.055771272141329514,
            0.09029269992832875,
            -0.28969403722000275,
            0.003377846483436989,
            -0.019453707353554565,
            0.008930362167979657,
            -0.07763446565189565
        ],
        [
            -0.21184009311127722,
            0.8330083902396406,
            -0.04678697571396283,
            -0.001806473358187631,
            -0.15200779867365,
            0.021069578003443334,
            -0.15509812184557267,
            -0.030870972672941924,
            -0.381176397551293,
            0.25535369666009194,
            0.38966821993177997,
            0.2214819922449,
            0.5031130657002051,
            -1.040778617523345,
            0.3119738717984487,
            -0.0691518767662427,
            0.060765554603202224,
            -0.02764226846252403,
            -0.01531419665909795,
            0.02707867194582508
        ],
        [
            -0.2003353306097319,
            0.3954678733991887,
            -0.3317499626231306,
            0.3357244968478403,
            0.08478114571536981,
            -0.45913500776487354,
            -0.4079699401839419,
            -0.36400329845687623,
            0.206060523136488,
            -0.17507769272085885,
            -0.3674809689764198,
            -0.0527243517345677,
            -0.43427435964219135,
            -0.46459779053021855,
            0.11813806477865992,
            0.0785008137136116,
            0.0367671959881667,
            -0.004743126959195811,
            0.033637543175963805,
            -0.02133449528476699
        ],
        [
            0.6882890750234351,
            0.5519448606980295,
            -0.026963822248066285,
            -0.18593642879711395,
            0.11665950973751257,
            0.18604280046905727,
            0.04200428359759433,
            -0.20613782676471504,
            -0.36021101977069936,
            -0.15991607377341888,
            0.23265413432196488,
            0.01751264565504282,
            -0.7085466086139098,
            -0.8158621677962136,
            -0.28072966190845866,
            0.08328606338484328,
            -0.000701938989416249,
            0.018150403996620417,
            -0.03476693034631537,
            0.022855802444659245
        ],
        [
            0.033415043614816974,
            0.3085788039538638,
            0.6677756798695336,
            -0.46687863838432253,
            -0.014377955790953191,
            -0.01864585636686766,
            -0.14356627506213762,
            -0.46978072999144027,
            0.5524886812599051,
            -0.3425889052902482,
            -0.06995160450194643,
            -0.43669421799556524,
            -0.7792009834702702,
            0.14928588293658343,
            0.36252769643151267,
            -0.25405332010348103,
            -0.01647042587583776,
            0.011689645883514427,
            0.03142635835510696,
            0.06824103657156626
        ],
        [
            0.5003837389843294,
            -0.3985413155672332,
            -0.4777206852763079,
            -0.062221662655439464,
            0.09499358991879824,
            0.232760327284846,
            0.2171153507844549,
            0.10439215191582459,
            -0.25881043199621484,
            -0.1991452399586822,
            0.7556879663328949,
            -0.7234154357505921,
            -0.02663458565631743,
            0.17294347086376885,
            0.10619060945220841,
            -0.031031053601208194,
            -0.031033998973114593,
            -0.07770877823592026,
            -0.020862361585823566,
            0.024904781188483792
        ],
        [
            -0.0983673040374006,
            0.007511149373055301,
            -0.18793222698074058,
            -0.19244805628111686,
            0.10662338952064297,
            0.012997433438847104,
            -0.014703378030402618,
            0.013951651530664197,
            0.47384925296447183,
            0.7264975577787016,
            0.5765500142857922,
            0.7342516326063476,
            0.04052601070548567,
            -0.004914790773742058,
            0.012268538652352907,
            0.008199607382427412,
            0.0009739441913653561,
            -0.015739238440621414,
            0.07251791978211036,
            0.06801477119832383
        ],
        [
            -0.17399815176968592,
            0.5283022396864001,
            -0.24380554382428177,
            0.43187492071649936,
            0.10152257285730484,
            -0.3834185254967345,
            0.4504044712873682,
            -0.023873695637575274,
            -0.3709240992328158,
            0.21094700929906623,
            0.2851102169139393,
            -0.3070924403199989,
            0.02271960417058432,
            -0.3489542128141095,
            -0.32044276746569905,
            -0.043963486539867765,
            -0.0027492065684863276,
            0.08347704595064875,
            0.09117216016565735,
            -0.050847636134487305
        ],
        [
            -0.07842164484044785,
            -0.4614835505977375,
            0.14739755194815382,
            0.13698332034242633,
            -0.5706862610582805,
            0.5460630587387081,
            -0.5843604614555382,
            -0.580722725289655,
            0.5689750705664359,
            0.3078918862225937,
            -0.7217385010538644,
            0.2679522783262508,
            0.03228414115811092,
            -0.3787876807270114,
            0.1649891739787517,
            -0.008622883313779443,
            0.014758943763881387,
            -0.010295265562980506,
            0.05408237608083143,
            0.03435511390171965
        ],
        [
            -0.03650476185153827,
            0.034539533547509785,
            0.02366700091836941,
            0.12358801683300799,
            0.04278746128290707,
            -0.01489908726229896,
            -0.012874212819501362,
            -0.020116888553003986,
            0.5513830154357858,
            0.6645383721076652,
            -0.4610807627593502,
            -0.7259328470200185,
            -0.029332061122734808,
            0.019229894466887276,
            -0.017405007832681497,
            0.02618705695882286,
            0.006308262477790491,
            0.0074876871832682285,
            -0.007498919771563032,
            -0.04864690850378392
        ],
        [
            0.5085689948535588,
            -0.13544273581309396,
            0.5572963632072571,
            -0.17723771910618158,
            -0.03100566650471627,
            -0.02249532364742645,
            -0.00020248471453370915,
            -0.04041991725443466,
            -0.004592253715400434,
            0.03196265317998871,
            -0.016203686255568707,
            0.04906632029205465,
            0.000462519869048146,
            -0.021406165292989374,
            0.024726640438700955,
            -0.002320460947187605,
            0.05591411334510579,
            -0.04189328223907654,
            -0.02104572030280072,
            0.0007723435558249081
        ],
        [
            -0.26734091367856905,
            -0.6640277955302314,
            0.20517286677865132,
            -0.24508373225362576,
            -0.010028732130567418,
            0.3524684014129349,
            0.07526648189791353,
            -0.0030295057697915574,
            -0.43144375798616613,
            0.38637737166737446,
            0.1947599456439527,
            -0.3516406636066226,
            0.06830958915111375,
            0.3340386602298512,
            -0.011743821325390631,
            -0.018710427559728512,
            -0.03794215592189396,
            0.029698015381547222,
            -0.04919490071560758,
            -0.06422550012446061
        ],
        [
            0.11056700126594736,
            0.3086504764919817,
            0.00995169496527904,
            0.8149943283243768,
            -0.5045835669414241,
            -0.44207120170079334,
            0.04349288723170555,
            0.11663957068845657,
            0.24581100956992816,
            0.2703456922388163,
            -0.5029508208896382,
            0.47334773167961464,
            0.2809399838815221,
            -0.09577507345091761,
            -0.040962955753053365,
            0.06581128733147615,
            -0.030134420218805833,
            -0.03536176993903787,
            -0.009864343831651435,
            0.024211622224372176
        ],
        [
            0.8539256132903923,
            -0.1545738699944047,
            -0.22514096263603414,
            0.007585340832235208,
            -0.0625889838697231,
            0.45406325884855836,
            -0.11771144649430092,
            -0.03902023814699967,
            -0.23109952045522894,
            -0.393424757881266,
            -0.7568765596730562,
            0.33582696685734476,
            -0.5032894856169614,
            0.0011974234886237038,
            0.06988586322784465,
            -0.027971111468036228,
            -0.02216829269747995,
            0.007676919823906349,
            -0.051537650243160094,
            0.0245166774446148
        ],
        [
            0.5935945720974003,
            0.0058781292692784886,
            -0.7294178067366065,
            0.4468948932326331,
            -0.632767531108278,
            0.3014511702241792,
            0.29055009462058157,
            0.08963543375860965,
            -0.11296422969947938,
            -0.24610100911786637,
            0.036500440016592,
            -0.22676727781471634,
            0.46641214064705344,
            -0.3771388772624673,
            0.05232996312065056,
            -0.5272719072197662,
            0.00178529975286768,
            -0.010876782878755296,
            -0.03215809253037738,
            0.0021620137170213108
        ],
        [
            0.04541768626870376,
            0.04826105333908421,
            0.04944761140592046,
            0.5464357378129274,
            -0.7301409436802542,
            -0.8060258750699208,
            0.1001024067266476,
            0.012231955541776217,
            0.7522887143355788,
            0.8491458508093566,
            0.2829704265651709,
            0.2608712852558258,
            -0.002738923203339671,
            -0.32509930381499813,
            -0.2742767466490235,
            -0.3002677435190984,
            -0.04344790865334359,
            -0.007664627706358252,
            0.006995979407156416,
            0.002830047498145608
        ],
        [
            0.06449073155184122,
            0.14030411710858773,
            0.04069308794337253,
            0.1296924167771364,
            0.5104655676361592,
            -0.6234906496846264,
            0.05893441260612296,
            0.5100327415567656,
            0.08439668218375827,
            0.1747922599967897,
            0.050895452011465836,
            -0.09158008574576058,
            -0.6358629866605016,
            0.3365277702126767,
            -0.08298975702038992,
            -0.07464443842740642,
            -0.003543588201010935,
            -0.023685437806803614,
            0.017571416033335334,
            0.05835246658329216
        ],
        [
            0.26198662139151435,
            -0.3866067579637811,
            -0.29596513335711283,
            -0.08311621455454064,
            0.760041049236551,
            -0.8520863260730591,
            -0.33764722373433653,
            -0.13792468271738034,
            -0.40057509289700133,
            0.8062653914484148,
            -0.36060141106693805,
            0.24898623594943906,
            -0.6263721099883095,
            0.1393869617957768,
            0.1786979149419315,
            0.09609309179388989,
            0.07844999007807998,
            -0.010796468255510758,
            -0.011794427225473336,
            0.03149391095666577
        ],
        [
            0.2879331605438434,
            0.6000523227896571,
            -0.09989551586365736,
            0.8267144821216378,
            -0.36668009151219305,
            -0.3556549389697535,
            -0.19209090641405416,
            -0.382079617606929,
            -0.34335144550147295,
            -0.03584680301681277,
            0.688465214765263,
            -0.2560201445932238,
            -0.08181610024175914,
            -0.05604712373701491,
            -0.03906948723468175,
            -0.01702911381636416,
            0.022031452095480245,
            0.013101363018464957,
            -0.009863093689306764,
            0.04788772566908252
        ],
        [
            0.19818309079938337,
            0.45281758522051346,
            0.03238927002493648,
            -1.2516298188216648,
            -0.5415307103580261,
            0.36649454750016147,
            -0.170148987566731,
            -0.007479099166584628,
            0.2696895665820375,
            -0.3510245362754091,
            0.042728206008904306,
            0.016778309153138115,
            -0.2206047683500311,
            0.3153238561999164,
            -0.37604474065882665,
            -0.005522808745152738,
            0.061540572648990016,
            -0.03986582604707369,
            0.011856121249766203,
            -0.0031311427267434696
        ],
        [
            -0.9884647146551597,
            0.3891318309238595,
            -0.6756156684496455,
            0.16689082273037548,
            -0.4119543636645246,
            0.18142201774088537,
            0.058860747061242925,
            -0.18157743219992717,
            0.6212840045253464,
            -0.25981243764037504,
            -0.21537576132448008,
            -0.04861911862259318,
            0.8337572433346404,
            -0.29591375656187724,
            -0.20643453905175138,
            -0.2255180453704851,
            -0.004207409280544946,
            0.02960406219209652,
            -0.0028569266270159193,
            0.0033722529293330177
        ],
        [
            -0.2322053627614708,
            0.8305624348485556,
            -0.5374840676606032,
            -0.08472039437777543,
            0.3289949261023933,
            -0.08464407226654054,
            0.24426719573504815,
            -0.3217099598881922,
            0.3429168495089124,
            -0.21671854082004527,
            -0.12011081035664492,
            0.6992460149406344,
            -0.3697803690586423,
            -0.6067132178338995,
            -0.1275958959157815,
            -0.1150747480785605,
            0.061436749280268585,
            -0.036634948397595714,
            0.031033834021457582,
            0.045129697889841024
        ],
        [
            -0.4270530931987666,
            0.3766267685459416,
            -0.24119398576110934,
            0.9546584401735991,
            0.1945501265334355,
            0.1987789926863748,
            -0.18278157753782193,
            0.3937099245273057,
            0.0812462542441252,
            -0.03228822457957528,
            -0.35183647283016994,
            0.10206846071942599,
            0.3098316858610334,
            0.1078271484313167,
            -0.23034152684915152,
            0.18621127374034674,
            0.019366098408484123,
            0.006800811913530454,
            0.05663208215263903,
            -0.017518820059489307
        ],
        [
            -0.7246537186719465,
            0.10732624221088034,
            0.7959856542041509,
            0.2989587138170213,
            0.17447097802443434,
            -0.45393670499522076,
            -0.17822687058528894,
            -0.15486387614020805,
            -0.3763049357372459,
            0.16912149172410046,
            -0.18094840460354059,
            -0.002956309587361647,
            0.539478089619426,
            0.27711206233077373,
            0.058964332148251856,
            0.27305799587092733,
            0.03594321491396329,
            -0.008748714401041312,
            -0.01078028175667668,
            -0.005205182148195312
        ],
        [
            0.3265563209237963,
            -0.5001827075516238,
            -0.03442481096331713,
            -0.6878387418697216,
            -0.40531463902931686,
            0.2016509344020913,
            -0.17326671833518306,
            0.3624613103060858,
            0.15379005128129117,
            0.6323941237923046,
            -0.09870677647191127,
            -0.5821150719944383,
            0.03559988350040824,
            -0.13683405541891347,
            0.08747799859613936,
            0.017541769843479924,
            0.0858535747225724,
            0.005682462222867217,
            -0.018255248266224267,
            0.02567549189388697
        ],
        [
            -0.5542244432613725,
            -0.3390813950128973,
            -0.6724264684280852,
            -0.3454224689016642,
            0.012244924084002214,
            -0.02067951518647808,
            -0.036246023097160296,
            -0.003907472898212019,
            0.034575587520769266,
            0.02804526056798812,
            0.08440980090645421,
            0.054745856360887135,
            -0.03427825079158944,
            -0.01600374613744781,
            -0.003222460241729379,
            0.008208010179011568,
            -0.05951038186225286,
            0.008142847561158434,
            0.028221188431185044,
            0.03059016128629311
        ],
        [
            0.15283234189581527,
            -0.5471569548460926,
            0.7617975674441402,
            -0.22001083582844572,
            -0.11735299625428613,
            -0.7617692236620552,
            0.08946709805797866,
            -0.18409193468641957,
            -0.49202803129681616,
            0.8379676246384066,
            0.8437380094443518,
            0.381116849583277,
            0.11251512903391053,
            0.41584569579598196,
            -0.36795758417565294,
            0.27756648029055864,
            0.044764447039407296,
            0.00018347777529247963,
            -0.054071018535673254,
            -0.017636161500320092
        ],
        [
            0.037135493899810794,
            -0.8299385548344137,
            -0.12086388003462115,
            0.7079555323899315,
            -0.07851318973110794,
            0.09906891707460896,
            -0.0356887912156988,
            -0.00626888238422128,
            -0.0034786281283956176,
            -0.0034369796472976943,
            -0.06277562954859175,
            -0.00679009629505842,
            -0.03761142395668462,
            0.027155880625157693,
            0.0012450525206928584,
            -0.006448664884511336,
            -0.007585881997348694,
            0.08253230046134065,
            -0.058581703129594306,
            0.050596829539676744
        ],
        [
            0.19884155007995757,
            -0.12634309279247524,
            -1.3647357711721302,
            -0.7229022886881689,
            0.08305323038444257,
            0.10391379664774651,
            -0.07246301383492612,
            0.33499460734902087,
            -0.31968282709470397,
            0.12039494589371923,
            0.8146115437370065,
            -0.553976623512208,
            -0.3895857026261995,
            -0.2356431183404929,
            0.2506108941153611,
            -0.07899820866298883,
            -0.020447372152857978,
            0.0023024946059112335,
            0.012076439401204416,
            0.03713009528007664
        ],
        [
            0.2035287959398448,
            0.4117466073676693,
            -0.5302910710675096,
            -0.052895136615527874,
            0.30198313670922816,
            0.20718537821560049,
            -0.01543380786385065,
            -0.028402031765326487,
            -0.27278484224451355,
            -0.18842651610226022,
            -0.6797967767972684,
            -0.038700889394807134,
            -0.157865388971257,
            -0.3639518323487882,
            0.035846764471864405,
            0.3215460496302323,
            0.01960810381450112,
            -0.05081587605699096,
            -0.02331857590532626,
            0.01833016365013368
        ],
        [
            -0.5646083102831606,
            0.4216062318417285,
            -0.7518574169370423,
            -0.46881581951760726,
            0.09429090860818287,
            0.40738089864935473,
            0.04277566960991214,
            0.024101377566655417,
            0.22293269719183834,
            -0.5100811141175382,
            0.08871155722336264,
            0.4362799187978917,
            0.43330356831483186,
            -0.5602164067015073,
            0.05375135866691647,
            0.099869650939303,
            -0.01944134320792618,
            0.00437721980256695,
            -0.0070801791023682595,
            0.025683631780354786
        ],
        [
            -0.39971455736921174,
            0.006440636418018105,
            -0.4118083787744619,
            -0.12944234738829108,
            0.01039819674837555,
            -0.26410384280440813,
            -0.05852351469570481,
            -0.2526028355814054,
            0.08260616207057471,
            -0.1987267977289901,
            -0.6490224171546274,
            0.3877656283714503,
            0.23612820492680653,
            0.547353900017892,
            0.004978302389986173,
            0.008506167628400133,
            0.04757175690506394,
            -0.1059500274163341,
            0.029931548191582898,
            0.004269219625478599
        ],
        [
            -0.448047247908578,
            0.28469902776290174,
            -0.9613516749781539,
            0.21908971594233662,
            -0.5706898086007026,
            0.23319645685453605,
            0.016319043276220854,
            0.5094882799940911,
            0.7380712144535737,
            -0.5027709604903404,
            -0.11629341166151287,
            0.2961761066865395,
            0.08596718139712962,
            0.12641696824227436,
            -0.3882356098638718,
            0.2678613705317537,
            0.034172013126508284,
            0.010816443995807598,
            0.04612122920761031,
            -0.010253729100366524
        ],
        [
            0.3858354018556525,
            0.4463919510529733,
            -0.10198526207472758,
            -0.039632899949838624,
            0.26405001301539144,
            -0.39519537220329215,
            -0.38309393256493646,
            0.2435356740794765,
            -0.5669150966973311,
            -0.11371169420498287,
            0.23373641436904696,
            -0.5664114784392845,
            0.03413600097803148,
            -0.3309772084435373,
            -0.2432829143372952,
            0.17145102345674426,
            0.0044379052834775225,
            0.011822865304711008,
            -0.016810668994963487,
            0.00499088730865833
        ],
        [
            0.5013858704109166,
            0.5176951932628109,
            -0.10731201377325932,
            -0.0032490726137823413,
            -0.7925827866463583,
            -0.5264889211305634,
            -0.1480019241687687,
            0.1364401835788433,
            0.8762788349990469,
            0.4292416839989543,
            -0.4222128123617688,
            0.06586848898054387,
            -0.26068705372106565,
            -0.41095675198060094,
            -0.00317759421900559,
            0.3392809411278298,
            -0.03291187759243431,
            0.03864575276273496,
            0.02605335232788171,
            0.048872200230936975
        ],
        [
            -0.4402736201670179,
            -0.4175748978550159,
            0.2574976055896378,
            0.3764167793507819,
            0.19413089856473004,
            -0.027709096589881407,
            0.14000363300019825,
            -0.18806602063521052,
            0.33105868834817814,
            0.5085957384968183,
            -0.0227221544193919,
            -0.5243019503736646,
            -0.0029917250892519008,
            0.20864607276746933,
            -0.15910903299587878,
            0.15518224021128044,
            -0.04659825328690116,
            0.009302769685019575,
            -0.08981966728926215,
            -0.1128698276081465
        ],
        [
            -0.18530441317861482,
            0.33165172504002843,
            -0.08723790695588926,
            0.37588743936774777,
            0.49734452904657783,
            -0.16663905162158585,
            0.2740795177941601,
            0.25720783178817896,
            -0.6341458312832713,
            -0.26379420901317047,
            0.3841489542033454,
            -0.1442991634226523,
            0.2407973121433155,
            0.12864769176624685,
            -0.04801984352436452,
            0.33413588818648987,
            -0.12140511842734979,
            0.08691017581765094,
            0.06519335079829561,
            0.013907263136285772
        ],
        [
            -0.06522051447716415,
            -0.20935816459239653,
            -0.0006418544690680074,
            -0.4296246233622743,
            -0.2788902218270723,
            -0.23872215676621214,
            0.3126255378646176,
            -0.1958925151700421,
            -0.6176639632871888,
            -0.07070059240003777,
            0.9141444981599359,
            -0.29990372984223457,
            0.34719009299509196,
            0.4085537470819871,
            0.09749177307431973,
            -0.0007471025223094413,
            -0.03058219282271767,
            0.047638617478487494,
            -0.03634714855576579,
            0.014298003400504918
        ],
        [
            -0.003092805203259635,
            0.22047549696459218,
            0.42165805675169127,
            0.3663124237144837,
            0.12149061179480168,
            -0.00951096964203808,
            0.006492334266698983,
            0.15082979350206807,
            -0.09141806340751649,
            -0.18967903718874454,
            0.11422517002571561,
            0.0904555320892957,
            -0.09111197048125771,
            0.04887685306027519,
            -0.1446120854143179,
            -0.14244082309176345,
            0.04078083930509124,
            -0.11823367156496048,
            -1.5733091612385077,
            -4.824003233156042
        ],
        [
            0.4334306220599273,
            0.2100264044550347,
            -0.07584593625700245,
            0.009066911407696776,
            -0.36489295472211125,
            -0.09936816003120688,
            -0.03202578064458498,
            -0.10777658458915511,
            -0.053641923103652955,
            0.0807362802008434,
            0.23621054700917035,
            0.20622926775841147,
            -0.3924064946290472,
            0.1893284911650428,
            0.17067138954796568,
            0.02326772586897026,
            0.03769192274606951,
            -0.048660296580175566,
            0.10896735863731381,
            -0.06445244012606641
        ],
        [
            0.1198056936608991,
            -0.4576859362411977,
            0.0881037118768909,
            -0.29401418688499137,
            -0.021049717252605262,
            0.09132709799013135,
            -0.2580352304866894,
            0.2030893778715888,
            -0.31123126813266394,
            -0.3596048346358191,
            0.060637097550307544,
            0.4938010693990912,
            -0.34260481500888135,
            0.09942381895800215,
            0.33360169854842103,
            0.5435303748567872,
            -0.004318376551713721,
            -0.031264266036061666,
            -0.0386385522665546,
            0.016582237764642297
        ],
        [
            -0.3248537205066924,
            0.34019546651881377,
            0.401173613787934,
            0.6739312503619822,
            0.1652730062673983,
            0.19468218133587994,
            0.3219112627374423,
            -0.4142779915768011,
            -0.5275126230676945,
            -0.11773193870322705,
            0.3334257106667114,
            0.737384032498651,
            0.2621913218190765,
            -0.4117110697465676,
            0.10700273932146012,
            0.37291415835423203,
            -0.017542160853538387,
            -0.043016373580949764,
            -0.029841734989313518,
            -0.0008012055407331886
        ]
    ],
    "h0.bias": [
        -0.8842434816059729,
        -0.9177554544932036,
        -1.3824712122764742,
        -0.1935920381368962,
        -1.639953609958548,
        -0.6180870164669965,
        -1.9442803910291733,
        -2.027325620548041,
        -2.2194920037530963,
        -1.1621377563679383,
        -3.0178925239725456,
        -2.2269457365175445,
        -0.7119225807784,
        -0.17023636881875528,
        -1.1633538935395014,
        0.3893837063065853,
        -1.418963496661739,
        -1.4408728382116989,
        -1.2926586416722,
        -1.01640166593744,
        -0.8126693869276785,
        -1.4422226051491027,
        -0.3752748309019979,
        -2.13536550633268,
        -0.045846904136762304,
        -1.8820408930168675,
        -0.2058483210334108,
        -1.3960611443251338,
        -1.1313119290230433,
        -0.6411897449740563,
        -0.34279106421774447,
        -1.9234849368857305,
        -1.0254062348205002,
        -1.4957054733599604,
        -1.1378498277511213,
        -0.9512869636023176,
        0.8204977151547523,
        1.2588029931617206,
        -0.9003997239689338,
        -2.0328509687904326,
        0.29372192126021646,
        -0.7212486828206579,
        -0.9433106157997825,
        -1.9472056615593754,
        -0.8043042083467554,
        -1.9860349710575784,
        -2.0561273350592097,
        -0.5603625758097016,
        -1.4193605892142842,
        -1.9301145217805358,
        -1.0941232492779016,
        -1.7136527936357528,
        -1.8719234057342156,
        -1.9543975564910265,
        -1.727145285092046,
        -0.8058314038840613,
        -0.5802456432188019,
        -0.7746279672852636,
        -1.9034396859781006,
        -1.309298452379931,
        -1.5506549273879655,
        -0.5756728934245363,
        -1.2302881556151941,
        -1.9929302524185513,
        -0.5806697426024002,
        -2.481162239684411,
        -0.6337325648476859,
        -0.6578827143438318,
        -0.3601849174978066,
        -0.49025242260162477,
        -1.8260931709780022,
        -1.676525938641361,
        0.7698756506782938,
        -0.47490704670571726,
        -1.4941497765535527,
        -1.0052852437858635,
        -1.0156751876470744,
        -0.7325935125856408,
        -1.8417974814543552,
        -1.3792459176493133,
        -0.7278404091250545,
        -1.2621738627503916,
        -1.6558177017088562,
        -0.5338438531851428,
        -1.556606132337965,
        -0.9984651387442579,
        0.6425668654818891,
        -2.4777153291002043,
        -1.6302632592340696,
        -2.402444896980351,
        -0.5608071605846802,
        -1.5268278519792318,
        0.7130802605033663,
        -2.1961462892443797,
        -1.3148452420101893,
        -1.6485081415223906,
        -3.146641055663209,
        -0.8241990584113833,
        -0.5760266005683471,
        0.17954570031774714
    ],
    "h1.weight": [
        [
            -0.01253208535954647,
            -0.618571669814453,
            0.19701531749849346,
            -0.426353058674793,
            0.1354211198246998,
            0.6042824543981332,
            0.36634880800838937,
            -0.02620526666299076,
            0.013081154949576805,
            0.1798126511979836,
            0.2841358118432773,
            0.1984570613188223,
            0.008010553783769536,
            0.6290891679925342,
            -0.630538741291406,
            -0.23288097758807058,
            -0.10194029989488596,
            -0.43761635762958834,
            -0.16814964233806387,
            -0.6525256443627991,
            0.10844667286407099,
            -0.28492745721178525,
            -0.06744037436377179,
            -0.16015340317310253,
            0.458407152608282,
            -0.3488000630468849,
            -0.24068608461235352,
            0.7741689211245908,
            0.02674044521167067,
            -0.002227154686693752,
            0.02833185406897207,
            0.11219582368087745,
            -0.5262837516874406,
            -0.30949966214673136,
            -0.14479096956940055,
            -0.28060548422487114,
            -0.1036087249485628,
            0.2919083688352566,
            0.4018544939082258,
            -0.02275580565569463,
            -0.3746976231161347,
            -0.12412000294817979,
            -0.12178263863257618,
            0.2173694817496991,
            -0.43816159952063066,
            0.15502435299203748,
            -0.06689395898207771,
            0.40724938434111607,
            0.5014602835869221,
            -0.05279482900312658,
            0.1697475706191234,
            0.11996717729090357,
            -0.598644402448233,
            -0.4202430060187458,
            -0.4707560834666038,
            -0.3696521952985477,
            0.11319878264060448,
            -0.19928900226863172,
            0.27935207487501384,
            -0.16341011542963377,
            -0.26856031602238384,
            0.0413513589360309,
            -0.4905603137879088,
            -0.09957278096872409,
            -0.1638548422074108,
            0.4269600320313858,
            0.13600997343895074,
            0.3881385476618511,
            0.33232409249719774,
            0.023818216669232724,
            -0.08046515209793073,
            -0.2330399304185039,
            -1.4735544413658639,
            0.7446927742215049,
            0.28899675863665786,
            0.14227415238624372,
            0.16602241878417526,
            -0.5030929176709025,
            0.1382094665180135,
            0.8266637324982804,
            -0.0706558603560322,
            0.03475634761251874,
            -0.09040600188504161,
            0.309179509344633,
            0.44437250917259635,
            -0.1301761908689256,
            -0.08900287847947079,
            -0.13555441708421057,
            -0.313205260481331,
            -0.2024660114798606,
            -0.8610563623950903,
            0.0817168317215719,
            0.11659041280177031,
            0.5440837396621443,
            -0.17148133261658163,
            0.3927195929648629,
            -0.031814581963566756,
            0.45252605533156587,
            -0.22124752088265673,
            0.06294567029077101
        ],
        [
            -0.015824125681628484,
            -0.22349551426139475,
            0.1476049194758275,
            -0.18456755634251473,
            -0.4281160406523467,
            -0.905423163959817,
            -0.37250604131517406,
            0.13751428583288067,
            -0.0682211938977104,
            -0.4111062107068669,
            -0.050080733729370906,
            0.055205850830790514,
            -0.0551264371396852,
            -0.48064559598600975,
            -0.19272822078140187,
            0.315159062874839,
            -0.1621565300244901,
            0.10665585167300069,
            -0.09416453623189398,
            0.18239295578413994,
            0.4887699934406424,
            0.4315557558610057,
            -0.01195717879183423,
            -1.1386383698662104,
            0.7306491929540818,
            0.18148489326831546,
            -0.4289728597969699,
            0.061538119076300524,
            0.029110289659881054,
            -0.13931742913097866,
            -0.1669129260367111,
            -0.4433328290025807,
            0.24713010476842348,
            0.154228590912901,
            -0.18668000098907897,
            0.170507661341826,
            0.1624100953807528,
            0.47225166653439166,
            -0.2744750675809045,
            -0.02382233898497168,
            0.12792211649674967,
            0.34136042293802393,
            0.34064321045423224,
            -0.24011525354446797,
            0.12768736157557908,
            0.11212283482934689,
            -0.03912943816167549,
            -0.23455733936310327,
            0.0057506357675416505,
            -0.8593024862722398,
            -0.19895616731801563,
            -0.06462410186990017,
            -0.2078788008628405,
            0.18263911589459644,
            0.4632972238174714,
            0.12426206343908626,
            -0.9878943460150136,
            -0.1285063372120128,
            -0.25980265965223565,
            -0.26951826985264327,
            0.5944935577848136,
            -0.24204712617268995,
            0.4295077082308773,
            0.13902582331122226,
            0.3090951035287575,
            -0.17731490314723408,
            -0.08840425053150276,
            -0.36192434925873235,
            -0.13820592214069755,
            -0.011899384028747132,
            0.4453098952454294,
            -0.35111039215075496,
            -0.40834580161338874,
            -0.2755203387489695,
            0.29709695519144075,
            -0.7348017449578612,
            0.6291563511022451,
            -0.033958544590197044,
            -0.5344915600803588,
            0.005028934529613946,
            0.1815707480156687,
            -0.2976437629077026,
            -0.05181435620307171,
            -0.04427405387599781,
            -0.13189899160385113,
            -0.09558183635246373,
            -0.24597623730503854,
            -0.423223488586491,
            0.21139201475573013,
            -0.061250703784159345,
            0.7384950382931011,
            -1.1250974392905768,
            -0.040387342055390255,
            0.0663518491092929,
            0.3460454944735188,
            -0.1411330197463617,
            -0.09608792754048587,
            -0.21812931775707814,
            -0.27509119852495,
            -0.21772906066631967
        ],
        [
            0.001184298716786143,
            0.248915931816564,
            0.14797653121991192,
            0.06497956270698735,
            0.1439846058968547,
            -0.643570777146459,
            -0.1612467140409126,
            0.44181409893168233,
            0.07149001011706826,
            -0.07160041217883174,
            -0.03343068961506499,
            -1.0934924683125749,
            -0.05260785082100166,
            0.17935386000993955,
            0.04896936099765038,
            -0.6309352739238522,
            0.24769410470216344,
            -0.5068637729790312,
            0.46820622414735596,
            0.13218624938804696,
            -0.15415389244038483,
            0.13063512130313018,
            0.02844644507988459,
            -0.35998860236297653,
            -0.03995145661598221,
            0.3729905237116407,
            0.39452323618187457,
            0.798708368471138,
            -0.047077729216305465,
            -0.1346596331371316,
            0.0025203346921175633,
            0.0029455926356353242,
            -0.37071120355688736,
            -0.33254190006174034,
            0.339398341065764,
            0.29977407442220433,
            -0.4977199257216532,
            -1.7082262747256745,
            -0.5149456954879188,
            -0.009203074833954189,
            -0.5810423353555201,
            -0.5436133945441192,
            -0.3141235339135674,
            -0.8261849134407394,
            0.06909389947814286,
            -0.05452605941128265,
            0.03465075845963279,
            -0.7687721963398161,
            0.3729593910948457,
            0.058461986551963684,
            -0.4663305717997163,
            -1.0885734069826007,
            0.2547848817398174,
            -0.4540934423754396,
            -0.69974948284069,
            0.22607979306446385,
            -0.8311130586389331,
            -0.8934086420739504,
            0.2371971165759609,
            -0.29314468851057335,
            -1.4187172565689614,
            0.12486619396745155,
            0.7400784131963223,
            0.1069997055728036,
            -1.0235172294024648,
            0.05551415136371819,
            -0.4243353719125721,
            0.46421813173359144,
            0.5007736844161506,
            -0.369892559576021,
            0.2604292850796583,
            0.3383888946755606,
            0.21329737713903937,
            0.4436714889913856,
            -0.11008228318020322,
            0.3051641540371729,
            -0.1495109555111999,
            -0.6653009103297522,
            -0.12196618665959154,
            0.5493546246270994,
            0.27214553231930416,
            0.48226067148995627,
            -0.3458982991615607,
            -0.17911019844566195,
            -1.4369478443314425,
            0.4268826537913029,
            -0.7334848916668251,
            0.25524621218152377,
            0.07485065942762571,
            -1.2832422237345464,
            -0.25794277510620256,
            -0.103748742123608,
            0.2947926349832094,
            -0.04474506847282664,
            0.34557623458046954,
            0.42945286022070484,
            -0.030739390607970606,
            0.6591411920396298,
            0.005919153675047578,
            -0.22123530714905626
        ],
        [
            0.03733984549555482,
            0.3485504041799262,
            -0.2046766659036214,
            -0.11760903062691777,
            0.14507799073368116,
            0.9949018580071683,
            0.13969908681261523,
            0.053170204831506564,
            -0.06397684342362243,
            -0.28373944225104736,
            0.3271380445361735,
            0.19294542641395848,
            -0.03127984021458834,
            -0.15908490770245165,
            0.23955518079900584,
            -0.3671788231507447,
            0.09893859289675644,
            0.0547555981560442,
            0.7702745994729566,
            -0.3221198583321024,
            -0.10115176558948653,
            -0.26854588224370946,
            -0.23626443175399175,
            0.3653174706913788,
            -0.16691634838549388,
            0.055602090508016046,
            -0.15824820905059034,
            0.23453362354904791,
            0.006235438298855844,
            -0.2820670874241127,
            -0.20255455091953464,
            0.3503284364569649,
            -0.18195941923641845,
            0.36967705382196964,
            -0.047814693241147725,
            0.13003924063378802,
            -0.5269893479169779,
            0.3021652737308078,
            0.08570675837653387,
            0.012830855858398039,
            -0.08322217056045725,
            -0.12654012658419905,
            -0.9611686808828632,
            0.3455454242859098,
            -0.05244632813096234,
            0.25058125046146434,
            0.17160781570161113,
            -0.10877259618399117,
            0.09060666422557155,
            0.3010988502359902,
            0.02724469889841829,
            0.23308309226644194,
            -0.03376351007734181,
            0.1879141625689213,
            0.2862909350027804,
            -0.23226552075450632,
            0.6912743895197175,
            0.13753677778869522,
            0.24106524238369686,
            -0.010151581589796723,
            -0.008450386623637505,
            0.4588255160715957,
            -0.033919183270492606,
            0.06655128552332204,
            -1.228908747232836,
            -0.06060013896133585,
            -0.13561212662143154,
            1.509740076734042,
            1.3998716183501738,
            -0.039684600417757045,
            0.194018968674048,
            0.16837974846773918,
            -0.1837790710503727,
            0.023911457316869587,
            -0.06395002764596595,
            0.1376108945740221,
            0.11542721536169108,
            -0.3337873058119952,
            0.5110216010576177,
            0.1473301826302628,
            0.17170488445871565,
            -0.3969959479307226,
            -0.09170718789028776,
            0.9865905877408078,
            0.16135794901248385,
            -1.148311293292754,
            0.17768542784632832,
            0.0518392636038815,
            0.17029055789211117,
            -0.290967850885486,
            0.08614924598588493,
            -0.021293316388227485,
            -0.31133339588132913,
            0.3027572485907718,
            0.4227059000526463,
            0.332873721213346,
            -0.04614930730561303,
            0.13848560321380404,
            -0.06976623691447727,
            -0.05579795662732114
        ],
        [
            -0.0022284624727611883,
            0.04672439455486004,
            0.016466020236186672,
            -0.3039362203294943,
            -0.04402048469850217,
            0.5479283048516914,
            -0.20173757866649392,
            -0.5957672090817069,
            0.1187930617759401,
            0.28026146572638333,
            0.10161656803746559,
            -0.2994154971430872,
            0.002393349888354975,
            0.13180437607782572,
            -0.2734465092271917,
            -0.02415120197333296,
            0.2121539193934275,
            -0.44789921932491455,
            -1.2589391093816302,
            0.5749029362077757,
            -0.5114215059456398,
            -0.3620267364147744,
            -0.8702378408394693,
            0.2094616175137796,
            -0.25681919019330846,
            0.4637915201131901,
            -0.03413713016110083,
            0.09865734977686857,
            0.06809999930033243,
            -0.27094360864249567,
            -0.4605185111044875,
            0.07737991635611483,
            -0.15176533711749118,
            0.5574669775346155,
            -1.102675959779743,
            -0.45161807767710804,
            -2.143880184951718,
            0.010290259562016383,
            0.3342003221924749,
            0.0019533624731184673,
            0.06958052132983762,
            -0.07897459543942131,
            -0.3417383672697467,
            0.10303666968892947,
            0.29577467434054777,
            0.39624618774222425,
            0.17869785056276913,
            0.05264501300918508,
            0.15334807640306664,
            -0.3654675892659181,
            0.19365682010776236,
            0.07963709807079745,
            0.6394830713522572,
            0.1106890857698489,
            0.1996394071944509,
            -0.0703212051940875,
            0.3781993593838395,
            0.05864676477622939,
            -0.003326622230229779,
            0.2671729446553738,
            -0.09967468078601531,
            0.008791212819300205,
            0.13300953287671427,
            0.040410534995221216,
            -0.060491401725216096,
            -0.07983525997089344,
            0.14288110945462898,
            0.03611573129869328,
            -1.1683786141600434,
            -0.20758109969783547,
            -0.057841042608297456,
            -0.1780374613762405,
            -0.263806261216111,
            0.4116996228922895,
            0.12910550150901842,
            -0.3775298580178993,
            -0.03895307150708222,
            -0.016614820107199193,
            0.2935414771686566,
            0.11011760745996418,
            -0.13071999412505708,
            0.33161112391041414,
            0.329825485025148,
            -0.5320131502272536,
            0.11570808137920233,
            0.679120085971882,
            -0.08129855836195973,
            -0.007091027499926704,
            0.00486086030382311,
            -0.0013202724140906682,
            -0.17204735236147078,
            -0.3613709505587475,
            -0.028827878023656214,
            0.19385417353453907,
            0.08709274757886484,
            -0.11828982474240456,
            -0.031118788408070603,
            -0.03459124533002047,
            0.02525796807587477,
            0.2288212167032903
        ],
        [
            0.025595367105545587,
            0.6605074316903372,
            0.002541735270439388,
            -0.11705398760378968,
            0.5453144838278611,
            1.022703630510158,
            0.2704596148590917,
            -0.25627716899249403,
            -0.10584812162825166,
            0.21865493580348797,
            0.029131249083054655,
            0.4072477080022733,
            -0.056252434320373024,
            -0.870729013227164,
            0.046480914907883725,
            -0.3007644380152415,
            -0.05762861769264153,
            -0.7246984324551803,
            -0.40711518164131644,
            -0.11848767465875258,
            0.0681994645105327,
            0.2898033711257102,
            -0.06566691603856535,
            0.30825150735973894,
            -0.2069167179515944,
            0.1971061243616248,
            0.036627564602813266,
            -0.34490537688841394,
            -0.03301789251110854,
            -0.09160154099259378,
            -0.19387858790276166,
            -0.19575785068248522,
            0.06474257465504259,
            0.31369582388313466,
            0.23892972113263056,
            0.1517276623804116,
            0.37463570761776943,
            -0.0777215974142464,
            0.4389010718288065,
            -0.002793617346865097,
            -0.05975044276576247,
            0.1839182648201997,
            -0.1861506581838587,
            0.1861413618494251,
            0.03022320697662875,
            0.24238981149684713,
            0.5028839281469518,
            -0.5557779247656068,
            -0.19743005030516228,
            -0.5787669321326007,
            0.31899250699765636,
            -0.05921904086500758,
            -0.022713041298962365,
            -0.04648439055490125,
            0.08721545438376554,
            -0.41745463715916536,
            1.001552246419641,
            0.11197672789211924,
            -0.13306574009304006,
            -0.11825950302707071,
            0.21049833177353372,
            -0.04298393611710491,
            -0.31865374708503064,
            -0.20412733436502578,
            0.1489102030778754,
            -0.08472661350577557,
            0.06528811521502821,
            -0.8866708481482911,
            -0.6704333508213486,
            -1.439234723796842,
            -0.5198811187115235,
            -0.3799539553929452,
            0.24622777341768484,
            0.1771674286945166,
            0.14671377036738048,
            -0.18357151563085888,
            -0.03732754396492586,
            -0.9264891817874322,
            0.4084241900453772,
            -0.20053105435436636,
            -0.2188571669536066,
            0.08750360266594402,
            0.4243976533846651,
            -0.1731976882806238,
            -0.29095341836439004,
            0.21614025985105578,
            -0.5488240081994628,
            0.2671720601807503,
            0.0010351307958823277,
            -0.27369021083581313,
            -0.015840642363131693,
            -0.07585033487550563,
            -0.3150153518128754,
            0.12532038898925862,
            -0.14331847742103504,
            0.3848284048432947,
            0.00358744739759513,
            -0.6475333063213252,
            -0.1538526912796043,
            -0.3832796609440729
        ],
        [
            -0.012527781419594597,
            0.43879627124656656,
            -0.3903935736574798,
            -0.05168545183889825,
            -0.14198135651675123,
            -0.053963129970130995,
            -0.15930312771060381,
            -0.2039987981005044,
            -0.003836927625333535,
            -0.7535643342778754,
            -0.11137240400778946,
            0.0734192922633479,
            -0.018414462711194513,
            -0.007482255929252531,
            -0.021091959367853273,
            -0.026101178564583934,
            0.049869467575351496,
            -0.018604868263964302,
            -0.37913239976620683,
            0.4715084128107928,
            -0.08916088209243445,
            0.060182420642623836,
            0.2853659468979714,
            -0.4533730269214821,
            -0.5724393121068929,
            0.04936537628066882,
            -0.29822137918815383,
            -0.11957496317790038,
            0.03688847925346578,
            -0.0317378734683502,
            0.04087233652351918,
            0.465827214999651,
            -0.016216218197609083,
            0.4348908009495575,
            -0.15724917359821944,
            -0.07050256673841221,
            0.25467684225723997,
            -0.681297896424836,
            -0.25133107619718587,
            0.03356713257058807,
            -0.23448981553241982,
            -0.2555538180698931,
            -0.14682190195938385,
            0.23355179217994423,
            -0.12568883694951125,
            0.14345836283322377,
            0.3474287868998868,
            -0.23133180697198663,
            0.2373454522122705,
            0.5037752913542478,
            0.3930652632308249,
            -0.22696159389775786,
            -0.12512862820925805,
            -0.1954630210354305,
            0.47195121826216657,
            -0.28821126690768933,
            1.1051255410482073,
            0.27984302026082397,
            0.24721305262790177,
            0.10193657046499806,
            0.47093638113719694,
            0.7401759562967046,
            -0.0825489295150517,
            0.28693449750536965,
            0.6934076987312159,
            0.08216980371873746,
            -0.24886455401237875,
            -0.5340855374217875,
            -0.6588553971462366,
            -0.4345033309145487,
            -0.397626486175924,
            0.031214744722272345,
            0.038036852827563965,
            -0.27578747692937006,
            0.07044024348934688,
            -0.11903759360274078,
            0.10158686410704716,
            0.39737085493612734,
            -0.13025107680711476,
            -0.06583992452060923,
            0.14200945711478163,
            0.20656962698557607,
            -0.11997507512663316,
            -0.32461468705735125,
            0.13232587381647973,
            -0.07493669609510129,
            -0.18111728299158983,
            0.6029625237583407,
            0.4051215579800439,
            -0.30027359630585204,
            -0.11151912339827481,
            0.42220270341388405,
            -0.08915976269629687,
            -0.2107404382679137,
            -0.2621678410179754,
            0.03056761071673203,
            -0.01410930010071813,
            -0.0582524042547963,
            -0.5832366869080952,
            -0.03816449941973263
        ],
        [
            0.09325390382650213,
            0.3181643746473822,
            -0.8831183452389535,
            -0.5103595861377824,
            0.6360093222428241,
            -0.16553439361798936,
            -0.12143314841027063,
            -0.4929404339535824,
            0.01733751079412841,
            -1.1334230617491674,
            -0.04722142516560646,
            0.21908587274547833,
            0.0021692945824958467,
            -0.33191064640528617,
            0.4348518638301196,
            0.29359340814988727,
            0.0002492329012674245,
            -0.15181396857590493,
            0.2740599961335001,
            -0.6421918584405096,
            -0.14856699905703802,
            -0.6093591715727474,
            0.5107283116034071,
            -0.4646457639100967,
            0.3678398214369074,
            -0.023667091443838748,
            -0.4948123548929657,
            -0.5595280154216463,
            -0.07950840053415681,
            -0.03760296649811309,
            -0.37622186599444624,
            0.7551585359663334,
            -0.1880284829770785,
            -0.20395247904374855,
            0.4280113860569297,
            -0.7095308472614674,
            0.4721137383650837,
            -1.1282118222771584,
            0.7454825971993585,
            -0.035354794351355565,
            -0.46428634169715877,
            -0.5025936187101127,
            -0.5468394072991716,
            -1.047887359230937,
            -0.4834239092763292,
            0.4013617906113901,
            0.5304033019392242,
            -0.2262473776449993,
            0.3728281511963232,
            -0.5891235956483475,
            0.5976784133512169,
            0.4791859362975063,
            -0.00016227747019811355,
            0.26699619697318716,
            -0.2591844848410581,
            0.1999114296911856,
            0.14039578759849516,
            -0.004101076861094923,
            -0.050378573078829376,
            -0.3117004803778555,
            0.5184786580956601,
            0.33311447182577353,
            -0.6941515396337763,
            -0.017593789034241056,
            0.6537813286405324,
            -0.7488724463558469,
            -0.9739293820515587,
            0.2134073363086571,
            -0.013166082216234328,
            0.085008221404907,
            0.16471188188589617,
            0.8355758593946436,
            -0.07465137280543575,
            -0.6542420011056405,
            0.5055822431254916,
            -0.1586494896621219,
            -0.0527444778342759,
            -0.14658181258197533,
            -0.45505039378750733,
            -0.46774573558756855,
            -0.14892523567131366,
            -0.17028114677529996,
            -0.25315571548759913,
            0.10352085434416708,
            0.08354617646941441,
            -0.01406477108586293,
            -0.5741684794667781,
            -1.1347309667014234,
            -0.198387152276396,
            -0.8902110126394756,
            0.11737211457501315,
            0.39447629818879476,
            0.0036369278078354672,
            -0.10078716042260243,
            0.06641237049456328,
            0.21419658230528735,
            -0.005507592565792254,
            0.5592370377853376,
            0.3806861111978147,
            0.533771486463921
        ],
        [
            -0.0056158807667579065,
            0.7511706025538498,
            0.281770752016758,
            0.14055315014762662,
            -0.06302387689717148,
            0.17312978163241677,
            0.057855041884843215,
            -0.9041031864965786,
            -0.10760406149098298,
            0.3180890624409726,
            -0.3641185231221611,
            -1.8245165869364617,
            -0.0716272998568886,
            0.3093358852652628,
            -0.21202834035967708,
            -0.3933363060874851,
            -0.5248300510341809,
            -0.14102735792722024,
            0.10519863022431028,
            0.6913646596462438,
            0.43327020271764427,
            -0.3147497251571317,
            0.035267185667767806,
            -0.10818720836808163,
            -0.3476960323985628,
            0.49012277450753183,
            -0.829176272298531,
            0.46542025156183203,
            0.024646376867551875,
            0.18892402029145772,
            -0.8031853338551013,
            -0.36491940240792,
            -0.8676667090560495,
            -0.28655152312259297,
            0.1883055863814369,
            0.17991222996525116,
            -0.48496606076433707,
            -0.03072673181382642,
            -1.0223582361368926,
            -0.009045977585159595,
            -0.29696661841880445,
            0.13607288079052132,
            -0.1150719410766974,
            -0.27879107231067596,
            0.20317889522651778,
            -1.6455354637251753,
            -0.5808925474586768,
            0.27725388453465766,
            -0.6883525527929655,
            -0.09297822495944892,
            0.42857733173946017,
            -1.1495610253248207,
