{
    "h0.weight": [
        [
            0.2552761610592644,
            -0.456328826314554,
            0.0811680764654016,
            -0.34898130305503555,
            -0.06512870198274329,
            0.03561332615902306,
            -0.0033684223261285606,
            -0.0817938103875013,
            0.15908544616095296,
            0.0036938178185882634,
            -0.18440563439778415,
            0.3193266722994246,
            0.11306903937274675,
            0.36882740368372924,
            0.15673783098531416,
            -0.007978186948769232,
            -0.5043153997071343,
            0.934610707932015,
            -4.135011407926436,
            -4.251539465737157
        ],
        [
            0.9581302745528845,
            1.0820630112564344,
            0.6449448562298974,
            0.8803842917227962,
            0.2522726219117824,
            -0.21761956145464373,
            0.6529037298628249,
            0.010924179638653119,
            -0.6714170588922209,
            -0.6862021575927673,
            -0.6405989296327782,
            -0.21957059134939522,
            -0.46371352177432035,
            0.11018100401435126,
            -0.1391991371095832,
            -0.26732937655196487,
            0.12372320168791323,
            0.17542784126209715,
            -0.12613869418978285,
            -0.040829293254918526
        ],
        [
            -0.8876383602980968,
            0.20985479607412572,
            -0.4051303491440371,
            -0.3890089680797283,
            -0.23678713658708156,
            0.11906793603880067,
            0.0704648361128457,
            0.6580946989934712,
            -0.0897862918248959,
            -0.7286176406959586,
            -0.07018739275057016,
            -0.5549436625336003,
            0.1598829561172861,
            0.32252742998406997,
            0.5504099508678969,
            -0.36946993162942576,
            -0.07819358872357773,
            -0.07093107131312457,
            -0.0075758370019779015,
            -0.10139520073338547
        ],
        [
            -0.013772816954939949,
            -1.1837890013885999,
            0.2951538747012699,
            -0.20552618006592407,
            -0.959459031989981,
            0.09749938659851169,
            -0.1478571759647797,
            -0.6976122771966191,
            -0.10883520493701142,
            0.4148905390637149,
            -1.024772689094441,
            -0.06225890388302711,
            0.0156787683349761,
            0.07688610218161868,
            0.25512825645917414,
            0.1097344545556712,
            0.045875235723519946,
            -0.03525042955225326,
            -0.18892431547279295,
            -0.018074601129661663
        ],
        [
            -0.14926667744714625,
            -0.45965602253754834,
            -0.5720301131583707,
            0.2718057671526699,
            0.11519626955444401,
            -0.8904866022014042,
            -0.3052137974593427,
            -0.5057793799128669,
            0.2713547839593723,
            0.4757917481775554,
            0.45858690249601264,
            -0.6874341066460581,
            0.06920688932649013,
            0.24589258781988096,
            0.165217046023075,
            0.4785765409978359,
            -0.09570899345127726,
            0.056104207534480616,
            0.08847175405486693,
            -0.13622131086923442
        ],
        [
            -0.671510887913061,
            0.5689279025645048,
            -0.40630881180914985,
            0.27785483880558803,
            -0.2323842239618515,
            0.1861826857886525,
            -0.6691285701955211,
            0.5913529971521595,
            0.8994706845150873,
            -0.8642529893013257,
            0.8055371949123924,
            -0.9045385392183652,
            -0.20333586133881773,
            0.00874638456740092,
            -0.2927361419083787,
            0.03857775990765264,
            -0.07610256858657431,
            0.04503542679711666,
            0.16512698688893626,
            -0.1787732604442712
        ],
        [
            0.08944587151058911,
            -0.03200543176565524,
            -0.09785747739496657,
            0.16403352343028152,
            0.4573175251061962,
            -0.01485932914781816,
            -0.13953857828138086,
            0.495482355260015,
            -0.6978100256096862,
            0.18274772338090134,
            0.20336560761224148,
            -0.21941177317669577,
            -0.04499550069999179,
            0.30433220318116627,
            -0.8856924452898977,
            0.019986349954976633,
            -0.019673442269627892,
            0.013399036753298505,
            0.03820850423880031,
            -0.036530349362599975
        ],
        [
            -0.2973516033494843,
            -1.0944355435349165,
            -0.2272609590528472,
            -0.11918777266945756,
            0.20594983462381375,
            -0.14157237106474407,
            -0.1528353016978449,
            -0.27652221031320184,
            0.03841472888150908,
            0.4106768942316402,
            -0.2915446616439095,
            0.30559533633244734,
            -0.09170928997166453,
            0.7029144376953584,
            -0.2784155915284178,
            0.13702705081418548,
            -0.04201822291800791,
            -0.02905771835360912,
            -0.0573621286838819,
            0.051903897494652525
        ],
        [
            0.21492607173409428,
            -0.06891329965600837,
            -0.1039909310280025,
            0.30226598501004287,
            -0.170328308313797,
            0.2729252651850441,
            -0.09121166719032736,
            0.12727339305901422,
            0.012360154069132127,
            0.08104810178459118,
            0.12561522955207183,
            -0.07486367155844943,
            0.04571058981558397,
            -0.0678251208358723,
            0.1063654241392237,
            -0.10169996822313224,
            2.6130577117824467,
            -1.991171593714735,
            -0.02495858779550925,
            -0.06960335002765398
        ],
        [
            -0.35610209819092564,
            -0.6205903190702162,
            0.07073828491275322,
            -0.7781502827615442,
            -0.2688905462764248,
            0.0805198481360879,
            0.2223881653976749,
            -0.033756436559925926,
            0.6295121307499318,
            0.3625018482873508,
            1.1304366172419174,
            0.18571494253956214,
            0.4621789805540291,
            0.6069080724965652,
            0.39418529968928745,
            0.2890593187896358,
            -0.0050117942155853,
            -0.16382806438245082,
            0.21587492458744617,
            0.04492574775278368
        ],
        [
            0.3914564415323958,
            -0.002766803670732771,
            0.4429310729770031,
            -0.027805565514852203,
            0.012168890734046615,
            -0.0410116916892893,
            -0.21271785825860146,
            -0.07065976634147986,
            -1.1810148963119236,
            -0.18224156830876118,
            -0.029538952561173077,
            -0.45523004596178096,
            -0.051227985811413704,
            0.09934420020815317,
            -0.46426103599094076,
            -0.04255801947775135,
            0.09048686554929757,
            -0.012335856481038104,
            -0.004201086558727891,
            -0.07589397191566571
        ],
        [
            -0.4962024123932237,
            0.8409201998527247,
            0.17166119720629613,
            0.8663080203777327,
            -0.505467767350507,
            0.023018345162664447,
            -0.22441325992212358,
            0.14978397761039994,
            0.2712868568641856,
            -0.4475195494673448,
            1.288473649067955,
            -0.5214127375858346,
            0.3374901350321226,
            0.13737850907238594,
            -0.05332186381449493,
            -0.24852163639500266,
            0.018250989959329864,
            0.17469366705738087,
            0.25860471722819617,
            -0.09919601283862191
        ],
        [
            0.22837353141262867,
            0.00429891743876663,
            0.3363504035932566,
            -0.04443282092182166,
            -0.23503488154012708,
            0.01991943915559493,
            0.15280284092856253,
            0.17197634068348716,
            0.03179389157405043,
            -0.3702024983916686,
            -0.5151017703119369,
            -0.3135096310863868,
            0.17415625942045881,
            0.40434713202386946,
            0.2706903171558708,
            0.050383836978117616,
            -3.2594572685806082,
            4.1708498464366945,
            -0.9161889962765889,
            0.2939621749879424
        ],
        [
            -0.27196381080117243,
            0.2390461847372609,
            -0.9824932913626306,
            -0.09593908939047574,
            -0.8847879984394874,
            0.3078451473780181,
            -0.5451726588416331,
            0.08574767289728695,
            0.15146512096284637,
            -0.20984767358807271,
            -0.20083004929086548,
            0.1724087865614106,
            0.01933970303163151,
            0.20830046268341634,
            -0.26923786767100055,
            0.12410472699876061,
            -0.18761680121552035,
            -0.00553540911280326,
            -0.050043487077554065,
            0.015061970703566584
        ],
        [
            0.8543045269037021,
            0.03130911983631821,
            0.004358783831274957,
            0.542762312426875,
            -0.7588344837089531,
            -0.35113799892959086,
            -0.13456355149970262,
            -0.3917450373620182,
            -0.035973245748819535,
            0.4385286555826737,
            -0.3769654057201287,
            0.13842493853937293,
            0.024661518744902404,
            -0.526074592997298,
            0.3599103660996086,
            -0.518180112740077,
            0.010927600262141509,
            0.09479843746713816,
            -0.0757025590937449,
            0.0032142936475304863
        ],
        [
            -0.042258162262349304,
            -0.17508602832658837,
            0.5226674089428829,
            -0.9839567928644692,
            -0.4606336452949223,
            -0.1540869137513451,
            -0.5504811120876015,
            0.16229259597684093,
            -0.05073478486444731,
            -0.6767861299886977,
            -0.07923929432649982,
            -0.25685490239155556,
            0.30946368954268594,
            0.18583857907262355,
            0.2615009676810363,
            0.32221081552917363,
            0.09537699427379859,
            -0.18175826997971303,
            -0.007267322871053333,
            -0.047170934325195125
        ],
        [
            0.4314316931711878,
            0.3277394085873639,
            -0.8279740455401472,
            -0.18786394191972855,
            0.1517182754777271,
            -0.33638730155863794,
            0.5299481415499441,
            0.05335110151295131,
            -0.5939112585940064,
            -0.32945829796988885,
            -0.3411977815435848,
            0.31098848357983183,
            0.7194193990705458,
            0.113165819261797,
            0.248161658175791,
            -0.345385438543311,
            -0.1335056250126452,
            -0.04037581829378863,
            -0.07510336594757645,
            0.0634021552265704
        ],
        [
            0.7046740242120758,
            -0.8328159206140087,
            0.5793987627744106,
            -0.5403049737991646,
            -0.1856013027641778,
            -0.08374584334396694,
            -0.34019231574319425,
            -0.049556627747290374,
            -1.4652746998368702,
            0.904628125322472,
            -1.6352689664602682,
            0.9698766568187916,
            0.290673260035985,
            0.1443959423472032,
            -0.35582895658065833,
            0.017837406949231166,
            0.10972658345554005,
            -0.0992518908821194,
            -0.30272483440785086,
            0.18446186471491893
        ],
        [
            -0.030307231534425733,
            -0.834353378044054,
            -0.09768228935982419,
            -1.4294876481681884,
            -0.0190061267966371,
            -0.18294452006558684,
            0.11461287409514091,
            0.09471184125723871,
            0.08670194932462734,
            -0.015198642142419243,
            0.010088724715478337,
            -0.06561686483416594,
            0.09778781444177427,
            0.042315931841813044,
            -0.056737502773752474,
            -0.052471735076780573,
            -0.016527771794609764,
            -0.27719467208546117,
            0.012505413985704388,
            0.0037804309772791873
        ],
        [
            -0.13683042783269206,
            0.5409557535614474,
            -0.07339343751820566,
            0.0425453778674134,
            -0.015359266400931524,
            -0.3173729400278781,
            0.14966402515207902,
            0.11490772907778495,
            -0.9502637895756523,
            -0.46626959917122474,
            -1.69130408018971,
            -0.33164832696083485,
            0.2430963875873584,
            0.021821882245621572,
            -0.04503357597397109,
            -0.27899484086681275,
            -0.0074417790503910055,
            0.014865136842115077,
            -0.32492410682182993,
            -0.06242552624274075
        ],
        [
            -0.21479965338052007,
            -0.9248186293665362,
            0.3508856411286791,
            -0.3047928843375782,
            -0.41238297791618334,
            0.3070588983935576,
            -0.2198855495102271,
            -0.0027408211548291127,
            0.36407182047862746,
            0.1526313676808987,
            0.6797972836202318,
            -0.2689889835748243,
            -0.2872817345545136,
            -0.3157896771563135,
            -0.8133960402760262,
            0.2582730140660391,
            0.06545850213837741,
            -0.06483436890208716,
            0.12929076908942821,
            -0.05311778998666645
        ],
        [
            -0.04443967890639872,
            0.3036911893456667,
            0.07447683582444085,
            -0.14926744841134262,
            0.08686324939932827,
            0.23343354672517877,
            -0.29392561154615954,
            -0.3330093831300955,
            0.507862045183202,
            -0.9406823813329476,
            1.1966291668373124,
            -0.8777724489859045,
            -0.026307920167333212,
            0.4895414930667499,
            -0.3888712222526209,
            0.2249083460876283,
            0.021571999536409238,
            -0.034358597131228796,
            0.2191750534782272,
            -0.17277956134868844
        ],
        [
            -0.3650149289784305,
            0.30588070074284074,
            0.24777248329675014,
            -0.006477926756125427,
            0.2530444978294823,
            -0.3972888585662879,
            -0.24287466545716171,
            -0.23139146262280946,
            -0.11962738963729533,
            -0.9295080560359876,
            -0.16652422520711774,
            0.17249783939986016,
            0.1330405250120641,
            0.3407659798384648,
            -0.46699594339872225,
            -0.1694545203456483,
            0.031242686704880562,
            0.0052830906551732905,
            -0.022535338224210583,
            0.03917053178701649
        ],
        [
            -0.2346124893658465,
            0.6494046966366007,
            0.07558710632664985,
            -0.3412767597659383,
            0.10777587365390222,
            -0.418909552346383,
            0.1022122182229438,
            0.516537349830025,
            -0.23917880626499216,
            0.212092114826586,
            0.3970431455614464,
            0.492595999323003,
            -0.00923319115452427,
            -0.8713388968480252,
            0.12666771053735076,
            -0.44135286761273324,
            0.023097085111748315,
            -0.06773411956039493,
            0.05885291044510826,
            0.08834709159404619
        ],
        [
            -0.5663956544029786,
            -0.2815811784949881,
            -0.6516718789730193,
            0.5092239585831195,
            0.08003055902865416,
            -0.28896816348593285,
            0.37309891677530704,
            -0.1165431775113486,
            0.6145109791492411,
            0.6742791168328076,
            1.0479459514358478,
            0.26996360008222675,
            -0.728425448065146,
            0.24573000818207286,
            -0.5311920143921991,
            0.14633701387563353,
            -0.12986540618711082,
            0.0814409403415392,
            0.19509437641864963,
            0.034712573789792325
        ],
        [
            -0.4174687847432695,
            0.6134995238758921,
            0.03725483833248219,
            0.07265649845710911,
            -1.1836307925698293,
            -0.48066616237001436,
            -0.35996003874394494,
            -0.1399505420817338,
            1.3018818937870702,
            0.3199464253237747,
            0.5102767358336261,
            0.04687025895851844,
            -0.024102386848000642,
            0.08933296928938811,
            0.01093305979571632,
            -0.11393410563172139,
            0.005075234342829249,
            0.024061249143522777,
            0.09329831614189973,
            0.0058037395306454066
        ],
        [
            0.3507140975850577,
            -0.7344448006932495,
            0.2527825782805938,
            -0.12738737533310263,
            -0.41038262619402355,
            0.41774564899807193,
            -0.3659720333811284,
            0.06507750694552066,
            0.22309425203744315,
            0.49796723483895583,
            -0.5495815982543147,
            -0.6829989942185442,
            0.5104930046531344,
            0.028040590738079994,
            -0.4534034040970932,
            0.7544411668022583,
            0.04235678634178459,
            -0.024087641950239644,
            -0.08531013618275016,
            -0.13488053774902398
        ],
        [
            -0.16154304107459086,
            -0.18332631710586597,
            -0.05120091918165785,
            0.2874077639813331,
            0.06486570283507051,
            -0.37118182350318635,
            -0.6673074080735009,
            -0.6460261451589069,
            -0.22595795681492145,
            1.047829055117795,
            0.2077866255760489,
            0.577706320010044,
            0.5329909051856314,
            -0.13896504520178377,
            0.2731021144273651,
            0.015681447271122417,
            -0.0025665332793786337,
            0.03006257687863414,
            0.03427371413576363,
            0.12133108014790703
        ],
        [
            -0.22144235399642817,
            -0.20982256718818668,
            0.202064022571601,
            -0.10123992761598398,
            0.10304522586136684,
            0.15424803001622708,
            0.11888926313930341,
            -0.0535967890126799,
            0.0856883160076612,
            -0.17065359144971695,
            -0.33433226662542415,
            -0.014713136620640176,
            0.04091109951911322,
            0.12250766157395461,
            -0.0626923852107156,
            -0.03676053898571649,
            0.49904274722594155,
            -0.0010847247028310124,
            -2.1702400615877497,
            0.7600203943127021
        ],
        [
            0.4057985660942772,
            -0.5834646428773302,
            0.2065267693098981,
            -0.49416295727124215,
            -0.3320504334120523,
            0.30760955142282465,
            0.4885801639010002,
            0.26386741781780304,
            -0.551763475167494,
            -0.28805966568390184,
            -0.26187706821966755,
            -0.5547218017631362,
            0.6123869902429833,
            -0.11864359480802314,
            0.1115332883408283,
            0.2781478273356343,
            0.041897624991993586,
            -0.08009198935561751,
            -0.05485583713866778,
            -0.10908211754180468
        ],
        [
            0.6269394100111265,
            -0.036565533306834694,
            0.288820030515868,
            -0.6314536414413503,
            -0.700583774020936,
            0.5452307348606189,
            -0.7243541606206816,
            0.3337991621687654,
            0.1231665348856689,
            0.22537237399967006,
            0.7791866188196557,
            -0.0394451979130241,
            0.18696697292192208,
            -0.7822290150292612,
            0.0771104532342157,
            -0.48238730194228135,
            0.06614863300899465,
            -0.14071884079401417,
            0.1572422265667045,
            -0.004544086175547337
        ],
        [
            0.18540414151439522,
            -0.34631609476706826,
            -0.06864679822468785,
            0.1807876243333502,
            -0.22352370464287294,
            0.2283709937789452,
            0.24798311017546038,
            -0.4726436047227227,
            -0.0031541809004052043,
            1.0369158037958548,
            0.27864076224086537,
            0.016604785779952103,
            -0.1052954844512959,
            0.2320223270008499,
            0.06371137315800758,
            0.037604402966938386,
            -0.01459385175066195,
            0.04357469401060716,
            0.06108065118291332,
            0.003649964391358783
        ],
        [
            1.6365571351981307,
            0.02992201265545868,
            0.7778677447566569,
            0.21857886212737437,
            -0.5392570184263317,
            0.22972977892059485,
            0.408390836606381,
            -0.0901541114755254,
            -0.09312501934212519,
            -0.05925108559492023,
            0.22579879681703968,
            -0.6190376935836767,
            -0.4163485361212005,
            0.0102999558157276,
            -0.46424118405674414,
            0.44607553277662776,
            0.13820555724858158,
            0.038572793287959845,
            0.03741847004551777,
            -0.09972891508198278
        ],
        [
            0.406672104140305,
            -0.06165246723616085,
            0.07548794591635032,
            -0.4735766463774814,
            0.3742931813884299,
            0.0541711517069295,
            0.5979999860242267,
            -0.37447560745725955,
            -0.7606366763684818,
            0.5519892474945823,
            -0.4056212085676131,
            -0.33462427502979536,
            -0.0631275553765296,
            0.16283799875305385,
            -0.21932673476685344,
            0.6738238273575935,
            0.02753493585423367,
            -0.08552593106014822,
            -0.06130273926107015,
            -0.07322014813304491
        ],
        [
            0.2692858733126884,
            -0.027247899796814832,
            0.6012982659648481,
            0.07373141209747416,
            0.29792405730323135,
            -0.06398578142991657,
            0.5253512402966595,
            0.3115839006601118,
            -0.36596203757321266,
            -0.41251968518626053,
            -0.16588719660125634,
            0.004248618682189364,
            0.38498907161548596,
            0.06859115884061247,
            -0.18787291115661867,
            -0.5869255125300646,
            0.09909699024316555,
            0.009777670844719607,
            -0.03723671586017178,
            -0.01238038246135636
        ],
        [
            1.0866948299229113,
            -0.6951667836203855,
            -0.022473232364298962,
            -0.08987065483645396,
            0.03278167955990245,
            0.6255922171328904,
            0.13220397307658294,
            -0.43938341762312144,
            -0.8628718837893989,
            -0.29302072053946093,
            0.26060825599871423,
            0.05628143111548223,
            0.14047152942400468,
            -0.006515872365216502,
            -0.5702204880956698,
            -0.618395327583277,
            -0.00294989054445629,
            0.0008688351923148435,
            0.034509762407459885,
            0.0010073324552291412
        ],
        [
            0.08648365036890854,
            0.5327918425866789,
            -0.3109789638028834,
            0.13401572341589585,
            0.09259578329599903,
            -0.01577495109679918,
            0.16076254236532583,
            -0.08385018032006747,
            0.06922507150572202,
            -0.975970110401576,
            -0.029006596676989276,
            -1.7433770806805347,
            -0.13010628136680533,
            0.014384692947346102,
            -0.1975096879729786,
            -0.09553674073953655,
            -0.059680150552028556,
            0.027367830285764696,
            -3.690423240569362e-05,
            -0.3190230659960438
        ],
        [
            0.04365417572387816,
            -0.2533791849432581,
            -0.3476692256607064,
            0.034134499257564344,
            0.3498300994818339,
            0.22165242396733537,
            0.2187561017572254,
            0.0879670221334775,
            -1.0970538450855523,
            -0.7300864502860004,
            -0.06579999448035556,
            0.1507566954122909,
            0.16885256553541247,
            0.3315187059001594,
            0.07789672229145717,
            0.12564804538383204,
            -0.05961624185525524,
            -0.003440789399918644,
            -0.010260307286094724,
            0.03624826610071449
        ],
        [
            -1.2939742865516515,
            -0.5857293793307558,
            -0.8517038406911911,
            -0.77657783894223,
            0.1502710487163425,
            -0.2635754787118276,
            -0.3412684102929337,
            -0.4300655294316769,
            1.0839669852697726,
            0.4449893610022652,
            0.9148984539884039,
            0.377179201063533,
            -0.02562040995101252,
            -0.06725275641785172,
            0.03659176915127445,
            -0.22509999707446818,
            -0.17918826850335814,
            -0.14082894664915904,
            0.16871324246499314,
            0.06998567319399515
        ],
        [
            0.3197602168834443,
            -0.17932525494358587,
            -0.02296238028462089,
            0.19957447716037008,
            -0.07196896713258337,
            0.339049455999892,
            -0.02184910093784443,
            0.19311398784472342,
            -0.059553545386348335,
            -0.1855719110969158,
            -0.28031152672172666,
            -0.35011377272475375,
            0.08529169082737886,
            0.09302755188261212,
            0.06995452029662447,
            -0.034032657068511114,
            -4.025114953479629,
            -2.755705984554354,
            -0.3388928370818229,
            0.15706274030916353
        ],
        [
            -1.3644603694081627,
            0.5257249952462222,
            -0.7649718151078693,
            0.13330943360409364,
            0.37148836697610266,
            -0.28246485607240623,
            -0.5695817960105783,
            0.15546391147327687,
            -0.2681834071704256,
            0.529111103339735,
            0.14528109775687587,
            0.2348861632679805,
            0.0072469320026603366,
            -0.17408095604226453,
            -0.4693292399843739,
            -0.1378431211305794,
            -0.1467339027039593,
            0.03253773028378695,
            0.030072624266177482,
            0.040816815827404075
        ],
        [
            0.09958013071619576,
            -0.7823215136221685,
            -0.5223000144970346,
            -0.439670471253126,
            0.1750091660076664,
            0.04216257160787569,
            0.41061561425868337,
            -0.9033126423209555,
            0.8112022000242375,
            -0.07838939971922236,
            0.8240168419403364,
            -0.17786351373590065,
            -0.42296672461193063,
            0.29929172574866775,
            0.04761393804232177,
            0.2308558845344005,
            -0.11087507428706991,
            -0.09895320440146908,
            0.15677658906874212,
            -0.03977978999392111
        ],
        [
            0.7244160009392002,
            0.2740734852799429,
            0.04216151441249173,
            0.09468391281624143,
            0.18115781757264887,
            -0.2445666312485537,
            0.28540446549942733,
            0.18987997437050555,
            0.5174583582602127,
            -0.03836962074313303,
            0.8382529147612078,
            -0.20749541246968908,
            -0.18575724331283838,
            -0.32660225842631097,
            -0.15215204725180445,
            -0.03285908389920008,
            0.00701248318813,
            0.0003195747787271747,
            0.1467493516801186,
            -0.03742913778332383
        ],
        [
            -0.6747655319468792,
            -1.0074201273284757,
            -0.8377393788133123,
            -0.5062302463471153,
            -0.0722905605687811,
            0.5652086489316742,
            -0.4791965236219848,
            -0.13163785219218932,
            0.8304019248825173,
            1.1046916750581586,
            0.6705499847567618,
            0.6599874594356238,
            -0.14420493372551407,
            -0.678013608951556,
            0.25611312539053194,
            -0.3132895663805035,
            -0.16401413727366523,
            -0.10382623695647615,
            0.11910461973349872,
            0.12669935515135916
        ],
        [
            0.17592014322600102,
            0.2837406950887736,
            0.2863252397556446,
            1.1388007616552676,
            0.36883840859137035,
            -0.47292339260845884,
            -0.015466869954223628,
            -0.060346335553893474,
            -0.6941738726083778,
            -0.4682205585149415,
            -0.28376118405031,
            -0.9831550804429818,
            -0.3186296354875023,
            0.557164366605342,
            -0.23315031851238258,
            -0.19390328632831558,
            0.04919441973512828,
            0.22067162323018552,
            -0.05292175506545946,
            -0.17405474847605715
        ],
        [
            1.2347264259450175,
            -0.02612293390422196,
            1.249252541784662,
            -0.056309938651193846,
            -0.71249624742812,
            -0.3969999638788165,
            -0.15684164107945214,
            -0.43434144630287985,
            -0.7103543069238342,
            0.48829958960589676,
            -0.2893264540824577,
            0.059530646840543,
            0.07014197137240892,
            -0.325984990392677,
            -0.36290553810015674,
            0.15703923773383785,
            0.25591688839196947,
            -0.017465966574072775,
            -0.05475854216678612,
            0.004340162706513653
        ],
        [
            -0.43968649376107005,
            -0.1456910880021988,
            0.3945514810091974,
            0.5317022498198172,
            0.05128936363442369,
            0.3344588803012565,
            -0.39077052452418953,
            -0.03484078902879215,
            0.8011320151211012,
            -0.38943817597309166,
            1.1399996556020848,
            0.21860740674432333,
            -0.516334203538949,
            0.0371665458718285,
            -0.2993786420991625,
            0.3398788689061715,
            0.053536829658251496,
            0.09884804354319,
            0.21041793690838417,
            0.03497944831037969
        ],
        [
            -0.5364781893342444,
            0.45112901918086873,
            -0.6591344879613142,
            0.7070654965949364,
            0.08004913160536611,
            0.5984393880916283,
            -0.012244636191229943,
            0.3627342319849821,
            1.0744517799707083,
            0.02480547511775809,
            0.07991456272923192,
            -0.38667939251647604,
            -0.48854990204785276,
            -0.4553214629185937,
            0.04109686360509621,
            0.2290788889597046,
            -0.12917195196631776,
            0.11933431828443591,
            0.027763624827812552,
            -0.07781776703620857
        ],
        [
            -0.30496143627376265,
            -0.14607597405380893,
            0.1524858424134564,
            -0.25391949743911013,
            0.1994518295206589,
            -0.329041320044048,
            0.487583659398088,
            -0.33740964237709203,
            -0.6223195300177548,
            0.0948664195839355,
            -0.0691067691906763,
            0.9739342423490398,
            0.07723162329571866,
            0.24212072954340297,
            -0.6171388070976787,
            -0.31067447306912144,
            0.016441849437052482,
            -0.05632106925461073,
            -0.018838978028623377,
            0.17955908664085138
        ],
        [
            -0.6196068573866556,
            -0.13763953587805888,
            -0.6376739087148402,
            -0.06855269235219259,
            0.10551095820736352,
            -0.3062615012027131,
            -0.20420703294657716,
            -0.6170608673157674,
            0.4269375016053346,
            0.5096214381357697,
            -0.46492969312677734,
            0.21289377958375005,
            -0.21631933489126487,
            0.38410083344663787,
            0.7604186920523789,
            -0.05733044463753919,
            -0.12804532571006302,
            -0.012773030505419395,
            -0.07703017719301795,
            0.04685636072503306
        ],
        [
            0.7659275960121125,
            0.2573169366507623,
            -0.17691570793608127,
            0.3805431162024398,
            0.08298627332339611,
            -0.28439816990496186,
            -0.447749579225725,
            -0.3625225025855705,
            0.33047390795444115,
            0.5541827728448516,
            0.19496199173751602,
            0.6783133820651878,
            -0.8001246389424725,
            -0.08471032425487489,
            -0.36791274140646113,
            0.07678222840474881,
            -0.009957592036703685,
            0.06870126104624215,
            0.03966206322342683,
            0.1254655460350116
        ],
        [
            -0.08340830228418043,
            -1.1516662722810886,
            -0.4177037674430289,
            -0.8527090354324668,
            -0.2141801537259765,
            0.17371409831773016,
            0.38118581651428574,
            -0.10005982908614325,
            0.10052667023625741,
            0.6600554902669349,
            0.17839252332066258,
            1.2177008942797976,
            0.2765134686158886,
            -0.20566490920849848,
            0.26649429821224013,
            0.09323488461497197,
            -0.0830272451615255,
            -0.16332104256357405,
            0.0407587048112939,
            0.23024393523025063
        ],
        [
            -0.11483019445738457,
            -0.044764116690626445,
            0.30084308432652346,
            -0.8638757164346631,
            0.0038697378734519217,
            -0.1765837824985272,
            0.18841840505475013,
            0.028912935858897915,
            0.6761770997382118,
            0.9613108503653374,
            -0.10881122243120403,
            0.5454271564216083,
            -0.37806439220488036,
            -0.07327200949978287,
            -0.09905334335858218,
            0.13451907304891955,
            0.036313240274350074,
            -0.15296701667006937,
            -0.0065654897098393235,
            0.10446688015106988
        ],
        [
            -0.20808503452043803,
            0.8164634150997875,
            -0.13699890700306,
            0.8877572283741355,
            0.020494424065613984,
            0.02487071212162632,
            0.060674299994373265,
            0.408770422971617,
            -0.8953165827419399,
            -0.8477164468407452,
            -0.09762089500252416,
            -0.35540176086723274,
            0.34341251983945065,
            -0.26922581888261365,
            -0.31048810048505415,
            0.14182593557677345,
            -0.04631315653528888,
            0.16941971581826779,
            -0.01539363947052726,
            -0.07080740192482302
        ],
        [
            -0.021812713100183134,
            -0.0025949678618377822,
            0.4825362224784296,
            -0.9497713153969141,
            0.0021844959889688364,
            0.20076751599012152,
            -0.07712531574158758,
            -0.6002910037982472,
            0.02587134857267841,
            0.5778679935992194,
            -0.5463573381286588,
            0.9260045312719465,
            -0.34971598424934436,
            -0.6815224202407568,
            -0.20482979996528958,
            -0.38196019534418574,
            0.10104279287355879,
            -0.1839690444399087,
            -0.11679854041246301,
            0.16835751983015232
        ],
        [
            0.895874730302296,
            0.06126068564099444,
            0.12184506491492669,
            0.22875883519321824,
            -0.032088296904161234,
            0.14888234252034094,
            0.5677272365921456,
            -0.3858373711006477,
            -0.2724477599963389,
            0.49922007576511496,
            -0.9339968183294529,
            1.015258656732042,
            0.31512956725443936,
            0.04175779340860282,
            0.0133833517758096,
            0.5807338467965748,
            0.04076801766677526,
            0.03702999145775966,
            -0.16757096784022252,
            0.18666553026222585
        ],
        [
            0.3847111403759111,
            -0.7060013070757049,
            0.1637492388809929,
            -0.49423250903695215,
            -0.2851149567625442,
            -0.10429497047425763,
            -0.08661984251451744,
            0.10672452812172611,
            -0.16127459679670522,
            0.6191024160354256,
            0.02367646999826108,
            0.256296456675479,
            -0.09421519235287797,
            0.4424832966343241,
            -0.3093206302793109,
            0.864818047293066,
            0.01839973087951974,
            -0.10780009107592042,
            -0.0019418038181488928,
            0.060360357816542615
        ],
        [
            0.9080735129093602,
            0.5612299807055258,
            0.4801771821382111,
            0.47608110426553346,
            -0.05466106517772434,
            -0.06644525579809916,
            0.13874242266497283,
            0.1869524711491671,
            -1.0930052171515996,
            0.8168952853125813,
            -0.6052001093757295,
            0.4896205629586522,
            -0.23296346328631606,
            -0.7056966373122234,
            -0.7287114316179749,
            -0.48011020105083746,
            0.09082943252402427,
            0.08959938907508833,
            -0.11971529234021425,
            0.10826114617269679
        ],
        [
            0.3042010537794512,
            0.4387289902700659,
            -0.2469161181207908,
            -0.1263843634687254,
            0.047069108156954004,
            0.46548902448437246,
            0.5289386202678122,
            0.21499595709168412,
            -0.8084663316663844,
            -0.9290269781404981,
            -0.10304372814391229,
            -0.7332725393070654,
            0.09349656309057,
            0.46887830041862144,
            0.21540889268198418,
            -0.24722077128539752,
            -0.026453668767146516,
            -0.01521056352159766,
            -0.02787957701634291,
            -0.1518709223766803
        ],
        [
            -0.1664452663582405,
            0.657682637797737,
            -0.00803907151986068,
            0.7749273770456189,
            0.014523551457013246,
            0.12736857728455955,
            -0.4945399991922643,
            -0.019680435595651552,
            -0.06537377442450003,
            0.025194105389801366,
            0.06464670906395016,
            0.6630282048596446,
            -0.2640246006992274,
            -0.4901577071675495,
            0.14736365728164386,
            -0.935150747720893,
            -0.01096535801179001,
            0.1446843156109896,
            0.011162217922298451,
            0.11971490065505937
        ],
        [
            -0.3601212348954084,
            -0.21320710534051904,
            -0.5993915592560799,
            0.34888933363035585,
            0.5084729020272769,
            0.20592776806682148,
            0.18645741655691192,
            -0.4954766502177308,
            -0.00673542672407064,
            -0.6433669711433119,
            -0.12926303356249164,
            -0.3059609984050562,
            -0.45081898516586,
            -0.0871781139190831,
            -0.444856563714309,
            -0.4572102501243591,
            -0.09740789492014908,
            0.0671666824328445,
            -0.030382686374533938,
            -0.06028569067926281
        ],
        [
            0.85595230060163,
            0.37549288264687053,
            0.3908444599823742,
            -0.05582778897205805,
            -0.030772210783342156,
            0.2875778467090521,
            0.05951278503249413,
            0.0508956004042841,
            -1.055383200394565,
            -0.6821487002972371,
            -0.4803134845651369,
            -0.18763196531736143,
            -0.09036737247784386,
            -0.39096972973620214,
            -0.4678211214003628,
            -0.5433625859041281,
            0.07798879906032449,
            -0.012468568946078703,
            -0.09769810554878883,
            -0.026795279165536777
        ],
        [
            -0.3697941788673403,
            0.415462269515778,
            0.06794902786917463,
            0.24030116305067092,
            0.29175591288542296,
            0.08259792289010873,
            -0.10296528747767504,
            -0.24421962465715272,
            0.7596617833726306,
            -0.5784406927853863,
            0.7661899457364371,
            -0.2311142003396068,
            -1.1467279958284227,
            0.35116554639381087,
            -0.600105770979535,
            0.043126835632432414,
            0.017753576328693434,
            0.03856606317060204,
            0.13417679014716807,
            -0.050754771859492655
        ],
        [
            1.364596501789668,
            -0.2927845690546275,
            0.44295273074105396,
            -0.2198770659822057,
            -0.20307761295513702,
            -0.01816951194689647,
            0.21609454234265946,
            0.26582056397573567,
            -0.5456660189986775,
            0.39382067981777813,
            -0.0269733089671042,
            -0.36370323103337315,
            -0.1245213844303033,
            0.0297744923348162,
            -0.0643343379040243,
            0.23943529739637953,
            0.10016945079950965,
            -0.041547015455992695,
            0.004944269573425548,
            -0.07033896491802032
        ],
        [
            0.1616579909137058,
            0.49535892843268897,
            -0.08951070366312744,
            0.20037099309896164,
            -0.0033001243648754,
            -0.036876439109354675,
            0.2349464550688169,
            0.1378927334229336,
            0.5137042217425394,
            0.5688178675856719,
            0.803080340842553,
            1.1913766446165273,
            -0.04751008777814484,
            0.12984068577522903,
            -0.1459993208904645,
            -0.11291430111141318,
            -0.01902147578575862,
            0.04859098896792415,
            0.1413797676260353,
            0.22247660910786587
        ],
        [
            0.3811923707315989,
            0.24118300021213385,
            -0.3357129043783008,
            0.442323550676854,
            -0.4794278874795548,
            -0.09942750659141125,
            0.27772799099755463,
            -0.4164723042138185,
            -0.8498111224926121,
            -0.23483796771273674,
            -0.6494638705638285,
            -0.17140511726340585,
            0.3620719975065711,
            0.09920749662115864,
            -0.09331452931810669,
            -0.35956401556315476,
            -0.058622779751196466,
            0.08852637565548255,
            -0.12040814569557204,
            -0.03396839045719965
        ],
        [
            -0.8188520049435457,
            -0.6530865886754796,
            -0.5145996559622037,
            -0.6727892248235254,
            0.38597413658751223,
            0.6289250259687589,
            -0.5812949250978289,
            0.26099688537230636,
            1.0355158789295018,
            0.37644035036085194,
            0.0321350000282569,
            0.30891634255493067,
            -0.32975520682312837,
            -0.07763819266052119,
            0.21477298838367773,
            -0.328530748908322,
            -0.1049295063763421,
            -0.13821056062510037,
            0.009715555863557691,
            0.0665163034363576
        ],
        [
            0.023539908107923238,
            0.01123347510857165,
            0.10152104764844999,
            0.11216555061989071,
            -0.044297070237038536,
            -0.04834370593446328,
            0.034510600948262644,
            -0.016235615294202733,
            0.7712806680423985,
            1.0783857143176971,
            0.07320588587721476,
            0.1305958416111532,
            0.02503888105019569,
            0.06540597773817101,
            -0.06065464204275226,
            0.028393145392764333,
            0.014153857975688355,
            0.024692917714844637,
            0.02621973461368977,
            0.027226472637570248
        ],
        [
            0.6399352777661975,
            -0.21147123992387198,
            1.1099171999241704,
            -0.35102837037372847,
            0.08289332873118883,
            0.048043252119723864,
            -0.07854128029418062,
            -0.007206436504175216,
            0.0021246664508782786,
            0.01685254801201955,
            -0.0622599513435485,
            0.007850530958482429,
            -0.05059581354682386,
            -0.005165333044771221,
            -0.03407023640991915,
            0.06620726503490343,
            0.23083092469086877,
            -0.06370359017455149,
            -0.015400721960897052,
            0.008648779306134835
        ],
        [
            -0.10732351032982679,
            -0.3831512508251918,
            0.08389065786950406,
            -0.33863500344425934,
            -0.3515928628462425,
            0.13449318060804946,
            -0.14597589753480528,
            0.4861421752315336,
            -0.7519291432121512,
            0.8916202204471744,
            -0.4216418232877584,
            0.476170800612256,
            -0.023919532473964444,
            0.11877521691657314,
            0.04633074089124469,
            0.23216279132310766,
            0.016213742591759818,
            -0.0939425065474595,
            -0.08419666224462896,
            0.10502839813615178
        ],
        [
            0.2355488688699192,
            0.3394497435036805,
            -0.1584439219435704,
            1.0154965986205462,
            -0.782538780748536,
            -0.4157655181477639,
            -0.5706878791472646,
            -0.43837315646050157,
            0.4749839982649778,
            0.4891909284385207,
            -0.43958273400286874,
            0.2408805630158956,
            0.27034695930709696,
            -0.36143027804184463,
            0.29921567216150313,
            -0.01987064395716235,
            -0.038917731169514795,
            0.1987484901061517,
            -0.07148001414162672,
            0.02412215700461022
        ],
        [
            1.0501573865417424,
            -0.09014026490765256,
            0.8090391660710401,
            -0.3761488963201251,
            0.13784354664220375,
            0.6105246846921714,
            -0.23243277488403952,
            0.3697657451011487,
            -0.7535359854373107,
            -0.6070541963183859,
            -0.8945658532820688,
            -0.24885492142391125,
            -0.20786070079246166,
            -0.2213743400618266,
            -0.19512092256874256,
            -0.04148877976783937,
            0.14064235693392615,
            -0.0681690919077967,
            -0.15459089016284885,
            -0.05650433049346245
        ],
        [
            0.8179125971676815,
            0.0794561407686494,
            0.2304437190414229,
            0.3502696540280117,
            -0.6867744246870432,
            0.10872459796805142,
            -0.4949602672969005,
            0.22748793756224506,
            0.09444034097063139,
            -0.9454088179932854,
            -0.22171679880427933,
            -0.6536674430511944,
            0.05828242608779456,
            0.3412159001961651,
            0.45236917188556763,
            -0.6191598182332697,
            0.06368713689889108,
            0.06004747001137261,
            -0.03630973318911603,
            -0.1180830185243067
        ],
        [
            0.1254720715722566,
            -0.6698583609639798,
            0.10009631626069342,
            0.23590274996371838,
            -0.720866620408032,
            -0.23689296104081753,
            -0.5047216252592734,
            -0.5470470600593603,
            0.5829507621010138,
            0.25977106855254034,
            0.4094299279767409,
            0.6117007776826783,
            0.2670140760289608,
            0.08114251479741538,
            -0.37125017696329804,
            -0.8580007881426209,
            0.02732271037441487,
            0.038028993605557705,
            0.07344823162972744,
            0.10807279278589489
        ],
        [
            -0.06296415776763585,
            0.4220296792987535,
            -0.4833772281604161,
            0.5381789618273062,
            0.2929235301491802,
            -0.6771905557144147,
            0.6482384232205354,
            -0.4336624018085645,
            0.31355551617329963,
            0.3143956180209838,
            0.4728835887622792,
            0.20862963804033746,
            -0.4940635872847815,
            0.17434408509316124,
            -0.685719686378368,
            0.13840525977930934,
            -0.08358986592324551,
            0.10107436881513109,
            0.08925202665087942,
            0.06021075596247172
        ],
        [
            0.252663826615379,
            -1.2544066772596714,
            -0.017238318346200186,
            -0.6757728869769062,
            0.5303838334746177,
            -0.07800065600116719,
            0.5110084849970172,
            -0.5351284155279779,
            -0.1318483622750221,
            1.4699884832500882,
            -0.29229097500320816,
            0.9411414373733439,
            -0.7658663272594689,
            -0.5071913877185864,
            -0.4559934403234217,
            0.0194755253103128,
            0.012276065535795579,
            -0.12690924981496376,
            -0.06967490259470593,
            0.18878477289587509
        ],
        [
            -0.26040060700991935,
            -0.07045426169389005,
            -0.14307287460287144,
            0.8968533935667826,
            0.37523484542058105,
            0.38188047161650834,
            -0.2888343141405486,
            -0.5013912030424831,
            -1.3380563887181263,
            0.17392035101538397,
            -0.16943837444818396,
            -0.0925412277080073,
            0.30860010825372075,
            -0.14284245154324635,
            -0.21960096884329658,
            -0.03877121409160876,
            -0.044118211234846744,
            0.15784409263104254,
            -0.03843779163311711,
            -0.009067770658668381
        ],
        [
            -0.6075142646445522,
            1.3009269402052341,
            0.34648627300837687,
            -0.15040255916160675,
            -0.09817275068083536,
            0.04710045307061266,
            -0.5660203861974848,
            0.3248675180656116,
            -0.37349885739258837,
            0.11513360891577379,
            -0.10917245733825577,
            0.044956677498000905,
            0.3657492608109798,
            -0.0660242105582771,
            -0.05981680636049431,
            0.24466544301094387,
            0.07162984739500743,
            -0.025447239188260796,
            -0.017158473031929522,
            0.018005816887888992
        ],
        [
            -1.2753021632406316,
            0.38779718034716376,
            -1.372518729847121,
            0.3126838421525551,
            -0.15206736072691476,
            0.24745707759474214,
            -0.2718714142024676,
            -0.09016655763154968,
            0.9452247727760382,
            -0.8584207979095739,
            0.13572782909346517,
            -0.35607091110401384,
            0.48491766713076384,
            0.12450413442226636,
            0.5365965418367753,
            -0.30319623406419494,
            -0.2573247867697118,
            0.06204480150595585,
            0.030995126112660986,
            -0.0681520748228732
        ],
        [
            0.4135427761280516,
            0.6039384737749528,
            -0.0307798950970126,
            0.7621998811180557,
            -0.26622317787576966,
            0.2670235050325563,
            0.31570164922324023,
            -0.14400962062412073,
            0.08429152369825386,
            -1.2807634539306632,
            -0.08914375116677978,
            -0.047812774015163303,
            0.015911940495536764,
            0.13642555632894668,
            -0.28352385399009794,
            -0.32480094321777225,
            0.002983547279983083,
            0.1379682889253901,
            -0.028347768776278516,
            -0.010875881217475496
        ],
        [
            -0.554640202778496,
            1.0348901617583917,
            -0.7292706310674062,
            1.4210080875108975,
            0.40573941183804413,
            -0.42674224785161696,
            0.15527216330727645,
            0.272426581276267,
            0.4395888765622849,
            0.16602144211351078,
            -0.011425926553909834,
            -0.04416866551698016,
            0.11891426404955253,
            0.11340549292854223,
            0.2721004104755863,
            0.26808933454465134,
            -0.13968858553203808,
            0.26412836192081685,
            0.008010311522957888,
            -0.01089315174475261
        ],
        [
            -1.2195919178293488,
            -0.469786887440687,
            -0.35933037024654385,
            0.06502794778418941,
            0.3008617770035642,
            0.22675922931097142,
            0.17341527209289223,
            -0.33580966052346994,
            0.02374716530913318,
            0.5073057443161336,
            -0.18558790027217942,
            0.3090564628569417,
            0.04297508233872132,
            -0.2006188281499525,
            0.4160395278393049,
            0.3783136991993549,
            -0.06656514324498218,
            0.030790036206030776,
            -0.046864959759395246,
            0.06675583127655842
        ],
        [
            -0.07636877728202596,
            -0.15989962298821067,
            -0.08362309538754016,
            -0.703353010393394,
            0.04099769431113718,
            -0.5823499060939109,
            -0.5272648665656364,
            0.37329092673698616,
            0.4304212877076153,
            0.9793829282731451,
            0.14207287165127655,
            0.28176788364840727,
            -0.10806303025665222,
            -0.036415811216072916,
            0.043449397371150444,
            -0.2546923449099846,
            -0.02289178586075935,
            -0.13765150220727487,
            0.0469798138341594,
            0.04040147388165401
        ],
        [
            -0.6881301153216157,
            -0.7138533381235067,
            -1.1221826615298656,
            -0.9463117839652189,
            -0.046693271466085096,
            0.11892116506910029,
            0.046609014966380174,
            -0.05620933185847226,
            -0.33584732682108304,
            -0.2031527216547761,
            -0.16770288939198125,
            -0.044662277031736274,
            0.08795982395108452,
            0.0713013249890965,
            -0.0006386516017167403,
            -0.10005748436990544,
            -0.21288203518492235,
            -0.17003758196788002,
            -0.03474672454188913,
            -0.00540162493253463
        ],
        [
            -0.1239642048214702,
            -1.2992786757696013,
            0.4728416079920842,
            -0.8084384510377042,
            -0.14330521567133153,
            -0.11526446369514422,
            -0.20966012322095232,
            -0.7051666173506759,
            -0.7937556423566187,
            1.338729741985327,
            -0.3196826521872662,
            0.7719601770078995,
            0.3402144606780471,
            -0.23946771360231844,
            -0.046615191244142345,
            0.5857910793831301,
            0.07480141325387722,
            -0.1450288731615646,
            -0.04414708635062017,
            0.1435538992195611
        ],
        [
            -0.21129171520814927,
            -1.113955610597603,
            -0.034164741553109855,
            -0.12312245939564592,
            0.12163190752911347,
            0.006407540978590518,
            0.021801988021417185,
            0.026273764911068975,
            -0.04427419201598823,
            0.016141775549134506,
            0.003240749244630788,
            -0.0031388586376907023,
            0.06336544408816067,
            0.001157372894198856,
            0.012017568855439384,
            -0.07330621523016569,
            0.01629100178479311,
            -0.022343542430937974,
            -0.005013827918863914,
            -0.009437865228414872
        ],
        [
            0.22318209311811307,
            0.1526760804691464,
            -1.0263793590146824,
            -0.28254156594445284,
            0.2047552366114639,
            -0.4266934759828081,
            -0.020485650024754894,
            0.027999742652633386,
            -0.4440021761739068,
            -0.1687094266798825,
            0.45668537748732707,
            -0.5475072914025784,
            -0.7066051366070858,
            0.12679107065008452,
            -0.4329273385947656,
            -0.19053058451248278,
            -0.197721757389352,
            -0.04937267452694516,
            0.09074778969119691,
            -0.11148438862102353
        ],
        [
            0.9051059506880449,
            0.6888428032751642,
            0.2204473576420254,
            0.13510179653051427,
            -0.07441235019614968,
            0.06380450507245593,
            0.05171905855535771,
            0.3141734422567327,
            -0.008062240332507277,
            0.1488180714800137,
            -0.38425640053758625,
            -0.23831453200151476,
            -0.04976851467443985,
            -0.5546904833147583,
            -0.18940379230809196,
            -0.06478826565048074,
            0.04236847658947324,
            0.026082344122423978,
            -0.07890061105535791,
            -0.038943276905067256
        ],
        [
            -0.29948940339353103,
            1.0767122456168998,
            -0.4557128529236608,
            0.3968088790446875,
            -0.013588443777368238,
            -0.12547805533115608,
            0.012975596960867085,
            0.12525711772940873,
            0.8019480692486199,
            -1.0801935505518327,
            0.5642771132451689,
            -0.4743378577105792,
            -0.4077492413503025,
            -0.1359555676575775,
            0.12914744739290054,
            -0.5560151448628101,
            -0.0799644970270419,
            0.07427084521820122,
            0.11015400262335358,
            -0.09643786794708802
        ],
        [
            -0.524603175777893,
            -0.6060445696474751,
            -0.8843973826099503,
            -0.49767408902942195,
            0.06854672080507072,
            0.3597466074123892,
            0.023965851551094663,
            -0.5806339713089258,
            0.3973201633570634,
            0.03338927034700368,
            -0.25709346825713636,
            0.2571531129608485,
            0.20041030227388945,
            0.1148117724227458,
            0.2550741323558144,
            0.29340582986612523,
            -0.18231877031233434,
            -0.07621458367245951,
            -0.03036270961963053,
            0.043686644576836395
        ],
        [
            -0.5548355203715938,
            1.1208256398458463,
            -0.9387722327217247,
            0.5488507732400818,
            -0.4602533659732635,
            -0.5110781308856005,
            -0.5470923047707797,
            0.36597458953197093,
            0.38760585745348847,
            -0.28267045467539,
            0.6540256770872062,
            -0.035185301808024746,
            0.622750823938144,
            -0.29161884527788456,
            0.10750386368471532,
            0.021130594595072022,
            -0.1648951306973707,
            0.09994517562553853,
            0.125246352602039,
            -0.017227803439569596
        ],
        [
            0.6592823046304708,
            0.26442996957446263,
            0.502992901375539,
            0.15633648392754335,
            0.4450756214873886,
            -0.45082271852558997,
            0.12335743020887406,
            -0.24111343278933078,
            -1.2323718784373132,
            -0.11342045642232612,
            -0.8177446090763819,
            -0.6598040506462362,
            0.2929073522386957,
            -0.40056021532245745,
            0.008619352618774997,
            -0.13705188057469284,
            0.10205728678853936,
            0.031081390526618288,
            -0.16760782747247072,
            -0.1323121134989546
        ],
        [
            -0.12250312359636188,
            0.37130167527378277,
            0.098375367352393,
            0.22768864784143739,
            -0.10031371855969243,
            -0.3282892736744674,
            -0.49728226318212343,
            -0.5196696800896043,
            0.8531855559709328,
            0.36944943669271724,
            0.06761683968337362,
            0.5556210589676387,
            -0.28908300013684396,
            -0.5503036394433669,
            -0.21630557395218614,
            -0.4388578819527976,
            0.022995423414199287,
            0.04710741587047016,
            0.03855375952625697,
            0.09308341567183043
        ],
        [
            -0.650923416625572,
            -1.019381495145535,
            -0.30053343391572296,
            -0.40430187727443323,
            0.035780521753926875,
            0.3044388023783139,
            0.43912921131003,
            -0.0278964400937858,
            0.2932647483494477,
            0.9077759638904711,
            0.45506577280123683,
            0.08257411104323585,
            0.22234246176081063,
            -0.07143121632781534,
            -0.3048442860110327,
            0.4321461720734765,
            -0.045469167011459526,
            -0.07826436886909856,
            0.09013422957119664,
            0.027378306205745252
        ],
        [
            0.46886796213705334,
            0.28111298968276255,
            -0.1359681152158702,
            0.662210575268594,
            -0.11548150722347045,
            -0.2780789579380716,
            0.6529076031766388,
            -0.2808170624461485,
            -0.744027877767629,
            0.350388568123666,
            -0.19988863667114112,
            -0.1796327729592193,
            0.14997692983663932,
            -0.34249678574765247,
            0.33708061133718015,
            0.35964933928790066,
            -0.015352635726231648,
            0.13823933709304176,
            -0.041516926947665844,
            -0.030546217020677367
        ],
        [
            0.2029589948702708,
            -0.5724570978312955,
            0.041885904539667104,
            -0.7419939108880341,
            -0.40498327089216346,
            0.03135224076655569,
            -0.16955011417568946,
            -0.34601985552920556,
            -0.731085589987672,
            0.3405286028531651,
            -0.11140277783184047,
            -0.47123342569465615,
            -0.06266389899832385,
            0.17127389115188035,
            0.3648056840206819,
            0.35092744759789263,
            0.019302820789792383,
            -0.15814335991276465,
            -0.010246905618071513,
            -0.09699415216214885
        ],
        [
            -0.14317339854517522,
            0.13006484877003746,
            0.37061630396120043,
            0.2754401505765229,
            0.20878007257690506,
            -0.030517819700389935,
            -0.006058923837274432,
            -0.030153025942783563,
            -0.0717117752974372,
            0.0371269161402455,
            0.12697136158812108,
            0.10936258869158133,
            -0.03359257996441543,
            0.02890793299668121,
            -0.10057503876761525,
            -0.02450881471989842,
            0.07014686572940633,
            -0.1683581302481164,
            -0.13486170755054508,
            -3.173342990755962
        ],
        [
            0.14980485505245586,
            0.24096616441955127,
            0.1917227440737197,
            0.2521481201475301,
            -0.1557455870340337,
            -0.11146973007236619,
            -0.40616512112438313,
            -0.3170658061340996,
            -0.38735277501393417,
            0.3248761980562306,
            -0.006079913640518171,
            0.5732785993834038,
            -0.4087105828479936,
            -0.011899682040812152,
            -0.34442034063319954,
            0.16368102974791637,
            0.023584630858919403,
            0.07097907423954465,
            0.0029966837104698336,
            0.1054289707024415
        ],
        [
            -0.49070330918650484,
            -0.5488495377474496,
            -0.5517715177535509,
            -0.6663428865233936,
            0.34849301502495417,
            -0.061683663122176005,
            -0.10163917653452971,
            0.18234991018772412,
            -0.2630001376421445,
            -0.17466173927500656,
            -0.09700904667347872,
            0.2088602654553986,
            -0.646284983802816,
            -0.5966010842610683,
            -0.3524393295313398,
            0.25340126114123906,
            -0.09967394131403624,
            -0.13175876489279428,
            -0.011982009133090877,
            0.034622253432877614
        ],
        [
            0.25782281615260566,
            -0.18450818116861747,
            0.46539194241070625,
            0.43940829330671655,
            -0.5032144205335347,
            0.7427723591423405,
            0.26137368843622566,
            0.02901600080026314,
            -0.25109771897828825,
            -0.004955709795381648,
            -0.10784257903771108,
            0.7968863731890656,
            -0.13375451792433235,
            -0.7211831226883837,
            0.23993377255517548,
            -0.33760660980324736,
            0.07957202500450293,
            0.06856978724819808,
            -0.02986858065000062,
            0.16426449617779068
        ]
    ],
    "h0.bias": [
        -1.6730908208540776,
        -1.7980835915512041,
        -2.41674677640212,
        0.37082882687459723,
        -1.88296932574373,
        -1.3707173169810825,
        -3.338511987828547,
        -3.836408247533971,
        -3.2701940908044014,
        -1.676772116662223,
        -4.468464305010621,
        -3.407546421983126,
        -1.6614904571738576,
        -0.35425684250535233,
        -1.933253989998509,
        0.39982239739392506,
        -2.2452680108145198,
        -1.984000424729506,
        -2.74505755390605,
        -2.113620797887593,
        -0.9460574790932426,
        -2.8007839730521376,
        0.36747152231197727,
        -2.6260834017319348,
        0.04495311388966615,
        -1.9540767042108855,
        -0.09360550191391477,
        -2.915018474161927,
        -2.2931014636470164,
        -0.8712739093458516,
        -0.04767050548629956,
        -2.840217988333459,
        -1.2667978386271,
        -3.4394185045318793,
        -2.1160222630096013,
        -1.430011619295487,
        0.6423069697978452,
        1.1845279707571361,
        -2.1078851816424535,
        -3.245843707776127,
        0.17153827895096693,
        -1.0773766961688855,
        -1.8889100294552672,
        -2.013898430514883,
        -1.2133505255610724,
        -2.485946024375838,
        -2.8857114356674933,
        -0.4337129074802442,
        -2.781590574303633,
        -2.5807457568549874,
        -1.4416073437347348,
        -3.0211221641524237,
        -3.6481503079983972,
        -3.5148852191034776,
        -2.9660115088625556,
        -0.7705248536321537,
        -1.5424018675482294,
        -1.1885588658918589,
        -3.537763976632058,
        -2.958823707399062,
        -2.4865879387237353,
        -1.2266408686765184,
        -1.50964514900441,
        -3.03429772369495,
        -1.4747735047006079,
        -4.2172742258936085,
        -0.5013828860089956,
        -0.7030908860533118,
        -1.4385131038764756,
        -1.359998899502233,
        -3.140149003134779,
        -2.5916942220023027,
        1.1336892307611672,
        -1.5211997336482816,
        -1.37608852718703,
        -2.3447993909089457,
        -1.7961032309708747,
        -1.1770857197417537,
        -3.090378902744187,
        -1.971561577974898,
        -0.9056278489541254,
        -1.9906299293281695,
        -2.8320820042308914,
        -1.2381301436201932,
        -2.6843156036918008,
        -1.0974673189627415,
        1.858058216622125,
        -3.935563578732365,
        -3.362547182755137,
        -3.0706574865196314,
        -0.43309051131254556,
        -2.567378069238316,
        0.7474845594269057,
        -3.055947023971519,
        -2.4516600950366048,
        -2.3252180217881704,
        -6.028502164313978,
        -1.505591517580489,
        -0.9134377338584979,
        0.22126405948978592
    ],
    "h1.weight": [
        [
            -0.004623081265099448,
            -0.8600773795212512,
            0.43367417941001835,
            -0.31002733933080817,
            -0.1073694417722332,
            1.1115459196876794,
            0.12025468020340198,
            0.6193947218923858,
            -0.0040191692725541385,
            0.1634185384538208,
            0.2240956496363968,
            0.09238307167056775,
            0.007984315904854409,
            0.7773764285148295,
            -0.02546919374951304,
            0.179647036123919,
            -0.19592768379285955,
            -0.48585085846663184,
            -0.21822331163790523,
            -0.8139777595180335,
            -3.71060190343902e-05,
            -0.15500406866581182,
            0.14795133381017,
            0.4950034229519528,
            0.390431316776936,
            -0.45039257790358084,
            0.13876676507362024,
            0.9298065737664979,
            -0.04768065462963717,
            -0.06952159379303206,
            0.19092496025180813,
            0.6329862172919976,
            -0.5442640727439522,
            -0.43805336241782644,
            -0.16193053242028285,
            -0.2684498067581464,
            -0.34882521905990616,
            0.21320467479176136,
            0.3770982806597668,
            0.006516973560394501,
            -0.709228727106837,
            -0.041054944086789204,
            0.2120990018098422,
            0.5289201999959996,
            -1.1128909842639267,
            0.10784982355062189,
            -0.17566983272458284,
            0.17697196058775988,
            0.5064056413861568,
            -0.15647242052461183,
            0.7150702084737874,
            -0.053700991606539725,
            -0.27984019155553425,
            -0.7398222571331194,
            -0.10273330461654816,
            -0.2679444296547567,
            -0.059765488374832594,
            -0.4418527982937771,
            -0.5131563508832087,
            -0.2657339366837127,
            -0.5810087829489542,
            0.8268121229839566,
            -0.4001598635374637,
            -0.2967434636187431,
            0.4009694266603676,
            0.1151303763029244,
            0.28136226594023794,
            0.4691136799048054,
            0.2838052603300109,
            0.04820003642365152,
            0.06970875854253245,
            -1.1226479159280849,
            -1.6952803231171185,
            0.7149046877554824,
            0.27181816476548754,
            0.5709988356487924,
            0.2576657564569689,
            -0.7060750247060018,
            -0.27420906135449474,
            1.0367980129201524,
            -0.570838690858339,
            -0.036349247373173334,
            -0.10498696201678731,
            0.39754646109679304,
            0.5394130988533028,
            -0.2596796724921863,
            -0.3221373483318774,
            -0.42607468874872106,
            -0.4590883671598192,
            0.026646850007854384,
            -0.673529169583365,
            0.626818378482557,
            -0.3533625613169832,
            0.524856952414876,
            0.15113823651625508,
            0.2305433627924002,
            -0.03654278842219618,
            0.10792046966718924,
            -0.42808533793622644,
            0.29798297613011254
        ],
        [
            0.0010202200509279561,
            0.1449048954094947,
            -0.0553945261183601,
            -0.09619486128461625,
            -0.6991436451594342,
            -0.659276729510047,
            -0.009499906859740831,
            -0.7668886702631249,
            0.02729484758989549,
            -0.5687123005089718,
            0.5363545638308641,
            0.03139121979492304,
            -0.0025222690072133026,
            -0.5143148709124834,
            -0.3720008387077444,
            0.7281245113441321,
            -0.714357143259988,
            0.3228439017774508,
            -0.238357609790199,
            -0.26629630058813536,
            0.3971564398044555,
            0.2769977690667845,
            -0.2406176071187565,
            -1.281328488303607,
            0.8597124889406736,
            0.0873509057498156,
            -0.4267246265049289,
            0.38419549246326595,
            0.003435085359270297,
            0.12225606138121291,
            0.3766633993065762,
            -0.4537311743146368,
            0.5937525838350964,
            -0.2780694378025224,
            -0.7416966266098338,
            0.2817768148417552,
            0.5526358586460559,
            0.4875205825669411,
            0.17373519703460313,
            0.012864371051028884,
            0.03379654010105145,
            0.31248575723858113,
            0.19335798291771145,
            0.06938325772921877,
            0.5171530045448636,
            0.08446103652489052,
            -1.2735497581284045,
            -0.520164680586372,
            -0.17595381601021842,
            -0.698538789988967,
            -0.26861127505494925,
            0.08049254347931345,
            -0.12471952341981624,
            0.3403749442722898,
            0.9213050454454386,
            0.19070568397149515,
            -1.1059623966131538,
            -0.04635180442739406,
            -1.268335038823127,
            -0.5529231749984039,
            0.3579865722760932,
            -0.49699357477820066,
            0.24749122546863425,
            -0.02463534065265574,
            0.5969845823217472,
            0.1248247702201286,
            -0.4220812662898485,
            -0.013144296719832105,
            -0.3597684366785623,
            0.11884938256020403,
            0.5372229916933908,
            -0.5533108506343121,
            -0.5453212769873161,
            -0.3300426176273713,
            0.35409947319881396,
            -1.3631920160961486,
            0.5652667709759944,
            0.0521004716145577,
            -0.7922101367613849,
            0.4924361469855314,
            -0.17164547403914032,
            -0.27143319843070496,
            0.034761998817210094,
            0.2231922441131946,
            0.06998166837201025,
            0.40290789080172396,
            -0.4120015313044667,
            -0.2743806861368559,
            -0.3116354610465675,
            -0.425168801933914,
            0.9651565084415316,
            -1.5886969236981383,
            0.13896202642215033,
            0.25208520185125183,
            0.5223136936983589,
            -0.05217139950970601,
            0.08418861881694434,
            -0.415259374335947,
            -0.12551342753527128,
            -0.3461185851118377
        ],
        [
            -0.0027886425255423766,
            1.1169518256148512,
            0.6888627468501957,
            0.10316845207191436,
            0.4243335735195038,
            0.010097468025931141,
            0.2819510814633501,
            -0.24897923552737314,
            -0.026056392454751196,
            -0.0261348130674046,
            -1.5254764545956703,
            -0.9006541965638002,
            0.0022236274937008607,
            0.6159489637765547,
            0.03999815075430434,
            -0.9892585927030201,
            -0.09957431912460435,
            -0.8828500977932253,
            0.46296276767360917,
            0.9109112970958771,
            -0.4482987966299518,
            0.8442503539916638,
            -0.1655683482766268,
            0.08725677945164985,
            -0.9428145915411763,
            0.5240994817822747,
            1.0610783814814728,
            1.2638332551687776,
            -0.021971955928674763,
            0.08860234294645826,
            0.1089569881428251,
            0.16064474349575825,
            -0.5390287574882869,
            -0.09856893204025252,
            0.45378437516522035,
            -0.018622772745899595,
            -0.697684656218557,
            -1.9261512716312572,
            0.00016940753989010257,
            -0.012001153292644007,
            -1.174789615996462,
            -0.44585343639448627,
            -0.5946099507542407,
            -0.6406386822866359,
            -0.05222507326253453,
            -1.1146293179306976,
            0.3396771466397397,
            -1.5225949389701499,
            0.2784071040171896,
            -0.030645949598680472,
            -0.30309159275561876,
            -0.7448166336074157,
            -0.09515041544615463,
            -0.7034841102286024,
            -0.10595161008774324,
            0.486095973082277,
            -0.2319733113335444,
            -0.017823369721900573,
            0.034825391457494394,
            -0.5957577412069778,
            -1.176303749705158,
            0.12766939853959652,
            1.1968181582652428,
            -0.06526812909772552,
            -1.0518674554097296,
            0.09787174372192693,
            -0.6266291341651667,
            0.42380248757344513,
            0.07620004097777801,
            -0.4640508115199556,
            0.3915485891660332,
            -0.05889396992513242,
            0.39273390934754443,
            0.47552931078623084,
            0.17982433370779272,
            0.022307137821508304,
            -0.3021419113820305,
            -0.6656718487474247,
            -0.05574765844288919,
            0.7816633702251887,
            -0.522403469607721,
            0.16876586308229152,
            -0.9540859906117397,
            0.5947352834762578,
            -1.6610910670873351,
            0.3943095114717128,
            -0.2846678967762659,
            0.09889131665439561,
            -0.3621467610548605,
            -0.7198848182758342,
            -0.32795970526473067,
            -0.3766014299551109,
            0.2538367436981766,
            -0.9324888094709752,
            0.36408282306947376,
            -0.12295676782841843,
            0.019879262938657497,
            1.1724593841425803,
            0.6855530260121204,
            -0.011224982946238849
        ],
        [
            0.008802334396875177,
            0.7085220671843284,
            -0.172448365992279,
            -0.3968176633296548,
            0.052389184602263494,
            1.0897206029935826,
            -0.054435786216952435,
            0.2661939145159984,
            0.021114572383839868,
            -0.44498898463593545,
            0.4632589193652412,
            0.33636717871880245,
            0.002588245567807217,
            0.18194742452530632,
            0.14916285410120056,
            -0.5306782406493818,
            -0.011683842436167604,
            0.0452014337572873,
            0.8187094739124152,
            -0.6630033665818559,
            -0.28852763783050533,
            -0.3472439041596573,
            -0.19804889748080343,
            0.3104228435438764,
            -0.07535728290011018,
            0.007088274327481872,
            -0.2532025388720552,
            -0.09515915284336741,
            0.011869357019977883,
            -0.3951046083209752,
            -0.36009859975322683,
            0.42415989048483377,
            -0.12616836699177356,
            -0.07489487676142176,
            0.3508886648412629,
            -0.10165556736519776,
            -1.0168380376068302,
            0.321204789002232,
            0.21574793564034972,
            0.017288326209045708,
            0.052728602074883515,
            -0.0982804420590669,
            -0.8366059648699326,
            0.449831372237221,
            -0.08846671031005664,
            0.3992475296011635,
            0.11662147184934969,
            0.048015521300872555,
            -0.00786249106670954,
            0.22919900171104562,
            0.23723028684570768,
            0.3995060376108627,
            -0.4015391108279817,
            0.5140471897238686,
            0.04474976197824713,
            -0.31338022604666654,
            0.2708337163876449,
            0.19820885109517178,
            0.5243597270392849,
            -0.025213960715107734,
            0.036367032105876704,
            0.4993892171577047,
            -0.021173259490119244,
            0.2900208925648229,
            -1.2516100613338597,
            -0.07314439487314432,
            -0.27958312131999796,
            1.914368650671833,
            1.799687487455072,
            0.06366273730976671,
            0.1330921627382289,
            0.14037089061632738,
            -0.2512638404282367,
            -0.015333328261717715,
            -0.1829075623701264,
            0.1885164584461441,
            0.1680702066956747,
            -0.5061516225379353,
            0.6438337786420616,
            0.3443282924997424,
            0.3740864976257509,
            -0.15180583272042952,
            0.024190629588454776,
            1.4343488277900127,
            0.28195322328701317,
            -1.0903637537046524,
            0.0705073022697656,
            0.10897087362441284,
            0.3370558005937316,
            0.26978710687677937,
            0.1801209189026128,
            -0.08402230336501594,
            -0.10544913902281942,
            0.39560989703833627,
            0.20724893710549483,
            0.7148660920207947,
            0.06421282631811123,
            0.08822175854381405,
            0.10230031085938641,
            -0.1813577189462942
        ],
        [
            0.006743242825150006,
            0.2664784687813116,
            -0.4196986055681454,
            -0.6159762562052556,
            -0.2641089230118948,
            0.46860299180279424,
            -0.7892350566722808,
            -0.5089517014066275,
            -0.011934830704096674,
            0.6103743722298178,
            0.7644960940337574,
            -0.34593491247237873,
            0.015604849574583813,
            0.07988013005446418,
            -0.8055220616444498,
            -0.053525139338752685,
            0.8346010063697189,
            -0.1252863914763993,
            -1.777610955700808,
            1.09873974513321,
            -0.467642621337794,
            -0.3175916249500117,
            -1.038531315382899,
            0.5245807088860812,
            -0.14076863444353666,
            0.5130814528481276,
            -0.40669693723378647,
            0.4396716776661938,
            -0.053589148910267795,
            -0.6997454659652348,
            -0.36226636283944713,
            0.09497979889173895,
            -0.06782310049309913,
            0.5318562866711771,
            -1.106181820169644,
            -0.2932705522425286,
            -1.3948630850514283,
            -0.3931048377501814,
            0.7736174036745995,
            -0.016170399245864633,
            0.36895092006812424,
            0.240945635268645,
            0.013466124492771233,
            0.49141991519002537,
            0.40474022820006467,
            1.1264145104001932,
            0.5077726565795891,
            -0.10918452612484388,
            0.3890068941663005,
            -0.32903607229897236,
            0.13234185875473406,
            0.29585636634689805,
            0.3776778727847192,
            -0.09216098871947019,
            0.4804161510398765,
            -0.270789584483926,
            0.0979582580677002,
            0.273033477467544,
            -0.1861466287945539,
            0.33330039842407555,
            -0.19445376399367753,
            0.4674536475220846,
            0.5180338879848867,
            -0.5788789991720648,
            0.09623794907911533,
            -0.063023108277588,
            0.09879413903546966,
            0.2892963945305575,
            -1.3564222339807872,
            -0.2282624372648478,
            0.14210128484011142,
            0.07133380591389268,
            -0.6211936429121162,
            0.3030593633951406,
            -0.2984571075092694,
            -0.38911543946189087,
            -0.24425261721680538,
            -0.3407851810461955,
            0.2100479286868511,
            0.108718657462184,
            0.06461103473149744,
            0.39673927192881203,
            0.3372573484496465,
            -0.3266040103685355,
            0.29247093408490565,
            1.2943387250838827,
            -0.20045772082501803,
            -0.8847315459174027,
            0.12591423879464572,
            -0.2012972318687515,
            0.02210641897196684,
            -1.0851529614859061,
            -0.2833819212475088,
            0.15882548363243476,
            -0.29911636122152946,
            -0.17796669759671474,
            -0.020796423643348386,
            0.14665518095343452,
            -0.13411980248605834,
            0.1804583890878465
        ],
        [
            2.6091390221937315e-05,
            0.40196608836302,
            0.49930689841635695,
            -0.09715160375887393,
            0.7683569459592228,
            1.0999623327995058,
            0.31841050965775186,
            -0.6006919827751513,
            -0.0005942436371815115,
            0.1872079430673532,
            -0.33305008856711005,
            0.6306783456999266,
            -0.013869010648330333,
            -0.6893217611171987,
            0.342118617651854,
            -0.23520386511921598,
            -0.1518460068475116,
            -1.1756959206942585,
            -0.3758974568613326,
            -0.24568602366931722,
            -0.0537340273150325,
            0.2018562183304942,
            0.043736595787060184,
            0.09487999132647415,
            0.030793369697272838,
            0.08369392767657977,
            0.0036739410372071653,
            -0.6005742991036447,
            -0.029264823345608877,
            0.40865927114888767,
            -0.30623364513966456,
            -0.5318533388195285,
            0.5337294037499313,
            0.07971484859395539,
            0.46696349010173593,
            0.3023749248316185,
            0.4728269555259451,
            0.04196185779818004,
            0.6202208145838017,
            -0.0021583494344080112,
            -0.4310334466926677,
            -0.16895649497415854,
            -0.03778728176914418,
            0.6689241948153744,
            -0.07399122402540735,
            0.5479392772726002,
            0.4879626997017115,
            -0.33770592441113667,
            -0.3071105050232473,
            -0.481686203051657,
            0.20586807352142675,
            -0.40471331812320815,
            0.09008263497391207,
            -0.1722941951727961,
            -0.18191034925791735,
            0.00789352741364454,
            0.9797957853998814,
            -0.09266598893624332,
            0.33910628893631506,
            -0.30026299401235357,
            0.30474322954883265,
            -0.06097209058545703,
            -0.38570143544560276,
            -0.48206358139734484,
            0.22377043228113572,
            -0.3119758081329768,
            -0.19708780137036308,
            -0.8578706764438354,
            -0.6312995069977894,
            -1.8716804742032331,
            -0.4859681607093852,
            -0.18733596185607942,
            -0.10039102228326911,
            0.17440216781216994,
            -0.536295352901402,
            0.30653719557222714,
            -0.3726327014724689,
            -0.820717037193073,
            0.14443904661329543,
            -0.34957625291188027,
            -0.5624394157137961,
            0.476160475231226,
            0.980892166466844,
            0.14915804813997915,
            -0.28607547552187307,
            0.2255924984711875,
            -0.22994778204392563,
            0.5102341636616101,
            0.127830721536783,
            0.03089533896097633,
            -0.11327769637039115,
            -0.3820315464275899,
            -0.21111515550412555,
            0.5823731981529663,
            0.2816433867385995,
            0.31260579196012267,
            -0.00250501317473584,
            -0.43393620007575456,
            -0.12385239001145039,
            -0.5253860115779706
        ],
        [
            0.0032877004154351665,
            0.5357828258259467,
            -0.3635290879621671,
            0.055171045450818565,
            -0.09496683837924629,
            0.03533733737533802,
            0.21729566311338364,
            -0.04672256708986599,
            -0.024017307229563772,
            -1.1454450525521869,
            0.127034391386365,
            0.5217565604508402,
            -0.013504780783920502,
            -0.1986054002809664,
            0.10797588124733021,
            0.16484697925490055,
            -0.09886703383645577,
            0.1086399668359571,
            -0.7504426044986053,
            0.7259576213781126,
            -0.3486332157215394,
            0.15292224646430538,
            0.14707091622231472,
            -0.17528188578659898,
            -0.7111803385421418,
            0.10393065375718848,
            -0.32565315118586097,
            0.5036484158994378,
            0.008474494117706477,
            0.39378532587668075,
            -0.22421039152477765,
            -0.00034536125883721395,
            0.0808863189635161,
            0.8654024076262674,
            -0.37120661120489057,
            -0.17213216029459097,
            0.4680265379375211,
            -0.633720223872188,
            -0.3344615417271235,
            0.0061734679404387175,
            -0.1273872425146285,
            0.048681278178001434,
            -0.36284188382903954,
            0.06556217867266197,
            -0.3566331104095215,
            0.7246192287771466,
            0.15176665141249673,
            -0.534994059128261,
            0.13220978738626085,
            0.40043791754964103,
            0.2891179225225551,
            -0.15101787952732096,
            -0.11731633804540326,
            -0.5680756550428511,
            0.3920564141411345,
            0.031230090552834894,
            1.1252746122289896,
            0.043003801291061294,
            0.43403083959855326,
            0.46806636357646897,
            0.27260947180141337,
            0.9440351073029141,
            0.11251541023405069,
            0.10778962837011498,
            0.7485469222720285,
            -0.45512099346768264,
            -0.8419559966707135,
            -0.6383578343848916,
            -0.8286849758165393,
            -0.15194098052510774,
            0.07535427749913029,
            0.6144615889782685,
            0.4944717193000383,
            -0.515505447800411,
            -0.36194319838681477,
            -0.3463795654028783,
            -0.24842493097370355,
            0.7129934368361324,
            0.1409318595628629,
            0.10091196135867678,
            0.1272364420882156,
            -0.07050111378355624,
            0.24365318663651403,
            -0.5236144944284741,
            0.12831029279494593,
            -0.7484828169590104,
            -0.07657681369641382,
            0.4093279561439568,
            0.4889613664822995,
            0.013606042280796801,
            -1.1619586981306027,
            0.0738987614852793,
            0.0329563018938219,
            0.5969143039897884,
            -0.4687065197205879,
            -0.13053651639072936,
            -0.029168085885381518,
            -0.021767020137343284,
            -0.5801878428154607,
            -0.27567376429422363
        ],
        [
            0.008721151808058871,
            0.280375710383776,
            -1.2597567641415768,
            -0.25536480089922775,
            1.066246489486498,
            0.7070787115661789,
            0.43965391424185424,
            -0.4148321501965899,
            -0.01178121173086538,
            -0.9825462740639778,
            0.08888439605701959,
            0.08076110518009683,
            0.00462703843669177,
            -0.4267050761267361,
            0.9519190689550171,
            0.15077567706761802,
            -0.6544245945115587,
            -0.5248431090381953,
            0.019618851190785783,
            -1.108619565582549,
            0.09319451233767737,
            -1.1748039489758673,
            0.6244634027318096,
            -1.0081090001748292,
            0.7501221421119275,
            -0.7605961255043495,
            -0.6836716738425699,
            -0.23958089912848682,
            0.005173926562312093,
            0.357369618448761,
            -0.673688500741779,
            0.9157995679366978,
            -0.5131794070014193,
            -0.3802882235968458,
            0.3464515543417856,
            -0.5005500936244077,
            0.33390699372633903,
            -0.9687894788048101,
            0.5159897965853114,
            -0.03771222011723594,
            -0.6414295906823736,
            -0.03586528911494495,
            -0.7174416503539517,
            -2.009566320421323,
            -0.2718890388133827,
            0.5032984499027366,
            -0.1739514447046919,
            -0.3893445503016892,
            0.5803665208790211,
            -0.5882644574612347,
            0.5267220290125754,
            0.46850423911384964,
            -0.3937148681124049,
            1.1559895133178426,
            0.081985847898803,
            0.2093406675646567,
            -0.04850098199746152,
            -0.23275242712128227,
            -1.4084491980016927,
            -0.45276661013266406,
            0.7133795106969397,
            -0.012425674056983214,
            -0.8527194446983609,
            -0.3478070375205024,
            0.6182723296552465,
            -1.070630837483238,
            -1.138189972714389,
            -0.07359127491745238,
            0.2796626303966465,
            -0.056429696454890765,
            -0.3912057656659051,
            0.7950393274023206,
            0.0454261135823023,
            -0.4317866230504983,
            0.9241446751193826,
            -0.31415988615951573,
            -0.3674957535156861,
            0.4278414980965212,
            0.15452554457872386,
            -1.0815003636663902,
            -0.1847328538033558,
            -0.30965860418416397,
            -0.44952597136892875,
            0.33887325983129696,
            0.3998519789450138,
            0.02448528656752881,
            -0.6799241929970233,
            -1.4833048498207628,
            -0.3478047069518613,
            -1.4900936676066814,
            0.1291342172385645,
            0.7448346698172426,
            0.21460261648558354,
            -0.18448066863662918,
            -0.2876577007501441,
            -0.02312879031521316,
            -0.03546712694269201,
            0.32021342531498836,
            0.13794635308740338,
            0.951933395431681
        ],
        [
            0.028309117856357122,
            0.1431479340950955,
            0.6027017685742573,
            1.000956781719722,
            -0.27240474294039063,
            0.15437267499723364,
            0.6283143923193606,
            -1.900837803927071,
            0.5977269422673595,
            -0.8454452383619433,
            -1.2943046725950758,
            -2.645494758555265,
            0.025409579870219783,
            0.19249331325678937,
            0.5594053006527665,
            -0.561223677916613,
            -0.41221330323199257,
            -0.8881872557166791,
            0.016269177301250635,
            0.9175356663276136,
            1.3546571908322462,
            -0.6251600799521855,
            0.06316515435376914,
            0.25893744538614044,
            -0.03828297785208258,
            -0.28331328171863646,
            -0.04401667832923676,
            0.8319735802693076,
            -0.013054427546683933,
            -0.4446643874516447,
            -1.089119211880288,
            -0.2786714928642569,
            -1.9700677332756389,
            -0.4884829331763624,
            -0.28266435903375353,
            -0.6797737773164366,
            -0.7360048900098425,
            0.4985037711672384,
            -1.9766062713053743,
            0.10576968572483642,
            0.5046659490716318,
            0.15165553589281877,
            -1.2990829678510663,
            0.3580288414344211,
            0.5010704273661928,
            -3.0278066179815375,
            -2.9075422163592735,
            -0.23691317160021372,
            -0.9855492772409337,
            -0.5390403946756789,
            0.8595651018632291,
            -1.4269666185653538,
            0.9386336350560133,
            -0.9324838704692373,
            0.2864866896227042,
            0.7038278280977293,
            -0.9854980687591002,
            -0.6736794912662086,
            0.5755424915325018,
            -0.3926330361359125,
            -0.1328494587999838,
            -1.2769594569020684,
            -2.1090746032452534,
            -0.4936672937410894,
            0.4977623742356189,
            1.3129141578511871,
