{
    "h0.weight": [
        [
            0.035724754925061844,
            0.19041654812016068,
            -0.11795960592320262,
            0.2765290033241218,
            0.18370678031330212,
            0.13173635141647425,
            -0.07476737423185145,
            -0.18690929553703806,
            -0.10746963541424598,
            -0.22142676571846556,
            -0.1178176578387318,
            0.018177166756809398,
            -0.20885409689795706,
            -0.021852597323834683,
            -0.1137391817610191,
            0.24448216842856862,
            0.007783743956082254,
            0.005170731499709841,
            0.002590633749362912,
            0.031312303732132486
        ],
        [
            0.1510071329976708,
            -0.0839089977371516,
            -0.08934117651335585,
            -0.26465777544003943,
            -0.16126089248268738,
            -0.2819616814959664,
            0.12586955878696837,
            -0.16594704091036863,
            0.28435978319273547,
            0.18044684010826947,
            -0.21952096959072098,
            -0.16703861306887838,
            0.05226547442074253,
            0.26175626115851774,
            0.23214934650853042,
            0.1509597188466989,
            0.019513923504318385,
            0.016964446691217182,
            -0.010216420961289174,
            0.0017965237752474122
        ],
        [
            -0.19111794092285042,
            -0.15300094439200462,
            -0.6419081176864541,
            0.19215116023322135,
            -0.09961235514264447,
            -0.2600353555878035,
            0.18719998525025777,
            -0.10527042659355867,
            -0.1025606241116984,
            0.03669562390679537,
            0.25485847716811033,
            -0.27841314251375315,
            -0.11227351608939068,
            -0.01739707334335018,
            0.18218495596630743,
            0.27616091149476113,
            -0.07315593438902604,
            0.018774864529446884,
            -0.036758499135279815,
            0.07605567908553026
        ],
        [
            -0.21831634468385339,
            -0.26614033737788817,
            0.3907519657669215,
            -0.3157228713560688,
            0.08845891471304901,
            -0.19756294015421483,
            -0.025734002865933716,
            -0.14199823571490605,
            0.2202673518380245,
            0.14891864352422213,
            0.05547810674689074,
            0.08277436462710573,
            0.01871847175759891,
            0.026915239503916617,
            0.05360099461617703,
            0.031294096621133874,
            -0.00863322806594554,
            -0.007150827576651278,
            -0.012330242547690119,
            0.0004683762219883387
        ],
        [
            -0.19424527986555962,
            -0.07040927436483127,
            -0.001102652493497559,
            0.4088003082501928,
            -0.14619679550954873,
            -0.15951525279611714,
            0.09510841200138377,
            -0.319796009551325,
            -0.08863054112950314,
            0.19154070972303577,
            -0.2810903717542672,
            -0.3428217505187517,
            -0.1945860290816047,
            0.35334688927113495,
            0.3468676326652034,
            -0.006483067308664121,
            -0.01231486959705347,
            -0.030182792889283803,
            -0.01896347068755891,
            -0.00883196898356625
        ],
        [
            -0.0852751932960245,
            -0.0469267268895668,
            -0.17025517594028156,
            0.22842852986718962,
            -0.23599897921709406,
            0.08017063933725044,
            -0.14477911498444507,
            -0.0263616988567201,
            0.15103821169692572,
            0.07604903374160749,
            0.40969044766704416,
            0.14452024797593468,
            0.02724170160448286,
            -0.15722338784953915,
            0.2340971747810253,
            0.23330023453083867,
            0.014041674046789174,
            0.014698138861601576,
            0.04604839299032688,
            0.01508434493308253
        ],
        [
            0.020013214377883837,
            -0.13486442166195997,
            -0.3571237198922378,
            0.31349476424288947,
            0.06176578068833421,
            0.14647104403476902,
            -0.08224526088905856,
            -0.34036728608348,
            0.29046028408902586,
            -0.09113396546037521,
            0.10883668306024309,
            -0.2901486481124884,
            -0.18435022102241472,
            0.13001145054787647,
            -0.013091936026942643,
            -0.01942210506927728,
            -0.01901982522448298,
            0.031289308541004944,
            0.012920982295100338,
            0.01630984266846939
        ],
        [
            -0.18910681584029884,
            -0.16348023369477696,
            0.14245728293328516,
            0.37339267922322267,
            -0.15745433870139008,
            0.16229197698211748,
            -0.12053756210709415,
            0.350735208258273,
            0.3119221138849919,
            -0.014540861442876488,
            -0.26259574411998304,
            0.22777839648643958,
            0.1306180417959573,
            -0.11006709967316364,
            0.07959928726162392,
            -0.0968728115844894,
            -0.04929802547220899,
            0.015520420946934347,
            0.02951964412265635,
            0.007259235343829891
        ],
        [
            -0.07188860773613992,
            -0.2594062579455587,
            -0.44193769810274264,
            0.45556855744688357,
            -0.28293811869648083,
            -0.2863193859097058,
            -0.08561626251803185,
            0.31859124236438935,
            -0.13131208988861948,
            0.24725587477099914,
            0.10084919181038271,
            -0.132923038032227,
            -0.05631831577820396,
            -0.03855391871037579,
            0.1799526870842893,
            0.3087859324943916,
            0.008733254745787363,
            -0.035672103564590406,
            -0.01954102127923223,
            -0.06125971357106625
        ],
        [
            -0.2590849224789964,
            -0.16558634578914103,
            -0.08269475039027271,
            -0.3708320907614407,
            0.14935105194361722,
            -0.03503311578585602,
            0.07816300123509996,
            -0.1966529834219493,
            0.17854027064411074,
            -0.25868457387312765,
            -0.17752330658963178,
            0.2365453187084484,
            -0.06646034870923001,
            0.22231040085397277,
            -0.18773856745845752,
            0.21821965398191148,
            0.025502455279298487,
            -0.010872036634155808,
            -0.0306037933353701,
            0.04440027471353561
        ],
        [
            -0.09951534038482647,
            0.26846019432583257,
            0.21977459690131215,
            -0.02027649970073194,
            0.11318550592612095,
            -0.03756437035090584,
            0.1741808954415964,
            -0.05284285263270134,
            0.09030329248467726,
            -0.32680460517767906,
            -0.07457045982670392,
            0.13758846458727875,
            -0.07115293015624505,
            -0.19299482169555512,
            -0.029396016182477506,
            0.2121698861735671,
            -0.009955140851375888,
            -0.006393848105378711,
            -0.006163062440808974,
            -0.007494781051539849
        ],
        [
            0.013285437788947209,
            -0.1897891023041847,
            -0.029410650698923513,
            0.08646142684438941,
            -0.022915853281746803,
            0.17246266708069702,
            -0.02781099486082628,
            -0.20867345498089515,
            -0.14965621656494063,
            0.1379720180603779,
            -0.0045218167411647855,
            0.3415613123055035,
            0.060237968746187864,
            0.22207483774166376,
            -0.1176568858567978,
            0.2508880520235696,
            0.0013561419894240298,
            0.004357896722763834,
            -0.01825226155929375,
            0.037089650296665215
        ],
        [
            -0.13501068308368833,
            0.2006497724190885,
            0.10131937217500735,
            -0.2618566539304121,
            -0.1145825554670052,
            -0.15566135251752053,
            -0.1032608133947853,
            0.09510348701341056,
            0.17145307377288524,
            -0.01735846872227939,
            -0.18458750466263713,
            0.32097280707825215,
            -0.3099369207449907,
            0.20966007769144598,
            0.10381396541583428,
            0.16661483859415258,
            -0.012770116503588806,
            -0.03990408785962114,
            -0.020853255414028108,
            0.0451221879265233
        ],
        [
            0.08206113065389678,
            0.15931120531805767,
            0.16977163271301132,
            -0.24655722395680063,
            0.3680565699760317,
            0.4267854497226868,
            0.07266266606575593,
            -0.03478078159775823,
            -0.15899579724823684,
            -0.2823412567475195,
            0.08732322252651588,
            0.11289684638222286,
            -0.24291549652709418,
            -0.31759281640999343,
            0.0557559106150014,
            0.24591978264537445,
            0.022696443949390126,
            0.010407237508324578,
            -0.006926874908822069,
            0.01659512204922157
        ],
        [
            0.15072086640868668,
            -0.08337505259333311,
            0.16633028677603282,
            -0.3155698954509977,
            0.22578806315652455,
            -0.23944344401945308,
            -0.029416527212440292,
            0.20522141948696968,
            -0.10774029430199107,
            0.09918305363854293,
            -0.14002990180885105,
            -0.07302023818161113,
            0.14882501132830597,
            -0.21389928393438912,
            0.1197926261303297,
            -0.2285382540805556,
            0.05551756501645673,
            0.04191882257779378,
            0.00982304004137427,
            0.044935315702881694
        ],
        [
            -0.15027397912832413,
            -0.3492864564346569,
            -0.025961918954269494,
            0.04686201760176901,
            -0.30196652135400764,
            -0.4120418310624291,
            0.10168682494347539,
            0.02350108342367766,
            0.18035874400611962,
            0.43670952393148216,
            0.1292631079221956,
            0.35668895193094063,
            0.17809346456583647,
            0.24329779578961308,
            -0.04673735059025491,
            0.16588157812277485,
            -0.009745762424701291,
            -0.010754446762058972,
            0.033810393714126676,
            0.011631280595802058
        ],
        [
            0.060604648074642095,
            -0.005643310197739511,
            -0.17320264728542686,
            -0.3257177718049874,
            0.08589948547468715,
            0.03379221708455305,
            -0.25859305162056617,
            0.0508810215629482,
            0.1088578311770413,
            0.22380842046277927,
            -0.30503840854775766,
            0.10312062714317169,
            0.203254155150769,
            0.2786135815981988,
            0.1457116914858808,
            -0.2520331304262111,
            0.04405049273232361,
            -0.019790689714566354,
            -0.05849012790300666,
            -0.03593588466342049
        ],
        [
            -0.1837925912502134,
            0.17208218209806508,
            -0.4839490988920118,
            0.05511411740258926,
            0.16924843163908948,
            0.008120714907445098,
            0.051917035256457716,
            0.06884959290690958,
            0.08199937388596795,
            0.014696506846586174,
            0.24411137763704244,
            -0.014592683376023582,
            -0.18395604129688137,
            -0.23240931084833705,
            0.1151120910952655,
            -0.1469733520761812,
            -0.026868386802487303,
            0.08851155283302063,
            0.01460045652723937,
            0.048057187878612545
        ],
        [
            -0.22424709841284804,
            -0.18255660445129487,
            0.11649435676684664,
            -0.2922126431285714,
            0.26457939158395705,
            0.25078566758442716,
            -0.2601981476565034,
            0.12692553436043982,
            0.06876496886216174,
            0.25857013404706247,
            0.12312585946914595,
            0.11540454595861002,
            0.002327673427308475,
            -0.18907989954522933,
            -0.07884805914255764,
            0.07193559063278265,
            0.019378315022974102,
            -0.001414769613966068,
            0.012313838838928908,
            -0.0009697114973585669
        ],
        [
            -0.0007615038108988189,
            0.06331791991918898,
            0.2563721601853814,
            0.18656177025411494,
            0.0015408544703641028,
            -0.09681390935276706,
            -0.06913106581500571,
            0.06984001353849059,
            -0.010214063616367997,
            0.23779443106108333,
            0.4397190056494272,
            0.33232200683774316,
            0.16028857542069322,
            0.0798332005051954,
            -0.05845468492626144,
            -0.010978571258432554,
            -0.03336405142656529,
            0.08657122784650273,
            0.028002797064372528,
            0.09955168822907974
        ],
        [
            -0.049596725566116905,
            0.1771757824748761,
            0.14030953157195641,
            -0.09469744244507036,
            -0.1230713352795053,
            0.20672059867797501,
            -0.12427268063342584,
            -0.007388889240861292,
            -0.06934307999395924,
            -0.012138477002465502,
            -0.14518275184623353,
            -0.46315886158320907,
            0.09428665684055235,
            -0.06597040066524827,
            0.043546393246016134,
            -0.21744755132105106,
            0.0331468462780025,
            -0.05494136973486186,
            0.013386358811079847,
            0.04162355199237457
        ],
        [
            0.06021442103442016,
            0.1800684698372331,
            0.3685084893185259,
            0.02950462809720342,
            0.07258270000919059,
            0.005196847017241872,
            0.0007838497668800694,
            0.08455074903635901,
            -0.18073993673307343,
            0.10734937414907297,
            -0.16550278413759523,
            -0.1451610438605387,
            0.12602380256579718,
            0.24877284683840373,
            -0.14881535498784101,
            -0.0012136591916964167,
            0.01354340299296682,
            -0.03501232746509962,
            -0.01337570601945401,
            -0.004645029685390256
        ],
        [
            -0.09877501990945405,
            -0.29152255589809223,
            -0.03983028972261882,
            -0.17409470275711453,
            0.13624097847749864,
            0.03461371855775731,
            0.0580757794344395,
            -0.1711507703064131,
            -0.14149056377401406,
            0.17662070920806816,
            0.20028105067520607,
            0.26734533571993924,
            -0.004859610800170712,
            0.2424143167740397,
            -0.1423781992169663,
            0.17226189837723363,
            0.015311596378684353,
            -0.009396184594168173,
            0.0017049186902574987,
            -0.01453759624507605
        ],
        [
            0.336123222901005,
            0.32604084034915126,
            -0.3634171360200545,
            -0.29868074099619213,
            0.031220270038981163,
            -0.025881956195118943,
            -0.24865223222011726,
            0.08245964919596156,
            0.055356370394687944,
            -0.10329320062455742,
            0.41802245191071197,
            0.12849555976825225,
            -0.06924940240809212,
            0.19963133497753827,
            -0.014239061652663185,
            0.18345789483992433,
            0.036312787695476384,
            0.0038690708885654955,
            0.01606285661706739,
            0.0012284027495336979
        ],
        [
            -0.0005456387650491171,
            -0.34474384694409577,
            -0.01686070445433876,
            -0.1623728308267297,
            0.213441616338667,
            -0.09906869463311485,
            0.2659149454367294,
            0.24537993943358008,
            0.06977315229203854,
            -0.021381005486987778,
            -0.2221534482122975,
            -0.06207816409132131,
            -0.22481126920558123,
            -0.08876425669359729,
            0.02677998515963114,
            0.15444187171782708,
            0.04453096942876377,
            0.007746831474199728,
            0.005554190901160423,
            0.007395079422892132
        ],
        [
            0.26756286392785056,
            -0.021451759805468117,
            0.3568214557469317,
            -0.05882098541469369,
            -0.09852816903863608,
            0.11264507096717773,
            -0.40750555398257693,
            -0.14974462203575087,
            0.05236968780312099,
            -0.28329680869934093,
            -0.3557171358554403,
            -0.2929502003915468,
            -0.014030700505768365,
            0.08509748201851926,
            -0.0036742306134000184,
            0.021898747477357056,
            -0.015267525730977505,
            0.004246068481842024,
            0.03192595499528758,
            0.04619973210946522
        ],
        [
            -0.05391454274208448,
            -0.009352818103536456,
            -0.15882411523482629,
            -0.20291680719661534,
            -0.11730021160157277,
            0.20401048587364992,
            0.2733256382789308,
            0.02857614526377901,
            -0.007309173731552894,
            0.21588786849623273,
            -0.11682448388115162,
            0.1250828990984825,
            0.21345273060162354,
            -0.09932256749328222,
            -0.12819990903031026,
            -0.1660484669383006,
            0.0071575850681668066,
            -0.023701701790380825,
            -0.06338595505429102,
            0.03490340978022583
        ],
        [
            0.151407529869779,
            -0.12099655294626176,
            -0.5508969694844738,
            -0.18754332431781218,
            -0.09388387850929437,
            0.2349691729896332,
            0.05989207217253273,
            0.3400841181180911,
            0.15425556499254003,
            0.005510412121244053,
            0.10191310749665447,
            0.30891829460079867,
            0.2017940397091961,
            0.012621546155769943,
            0.004142077539752029,
            0.15122725146002391,
            -0.0030222282690829526,
            -0.015663702660394706,
            0.035670813051754256,
            0.0391371178380374
        ],
        [
            -0.0797694279328494,
            -0.0712623509381269,
            -0.07324812796937134,
            0.014969982430216747,
            0.034002908603173704,
            0.21002077798350818,
            0.141854871043153,
            -0.09097919379403191,
            -0.23511224193752883,
            -0.24359447252632008,
            -0.1684493402613645,
            0.13348527804241872,
            0.24321168649119665,
            0.12537388969458277,
            -0.17612303782778124,
            -0.19459733758548184,
            0.0023637669907877437,
            0.025735461603980603,
            0.055458892644930806,
            -0.007263695871188469
        ],
        [
            -0.2373228028227148,
            0.10931800734574038,
            -0.15452564143513814,
            0.10642806533683395,
            -0.39869307934306186,
            0.12555338235775038,
            -0.023716567765752733,
            0.09989936310575834,
            0.21771019351619203,
            -0.05275002857109695,
            -0.19097505516187585,
            0.134506528098737,
            0.3080425502173117,
            0.15107394274715474,
            -0.09192095881985889,
            0.013107596185076216,
            -0.0020362651075364223,
            0.0027105944969443977,
            0.00502502682680212,
            0.0020588695312612824
        ],
        [
            0.15735822703671185,
            0.03146985474741356,
            0.24783284376354472,
            0.11277491320950539,
            -0.14166807475279775,
            -0.007942036970055778,
            0.1907424703050484,
            -0.37123185984226414,
            -0.08824518385462618,
            -0.2098103270197176,
            0.3915584691016227,
            0.42729914953460735,
            0.22958865487821906,
            0.055902361542265355,
            -0.053788142730089535,
            -0.14860084980805455,
            0.004709249577011292,
            0.005047664585881291,
            -0.003312808106381637,
            0.002180487087372868
        ],
        [
            -0.05784217050934362,
            0.14273459477523004,
            -0.09911157330581664,
            0.0013885461499343005,
            -0.05975746686747603,
            0.017119367807788284,
            -0.16176237366273136,
            -0.36433210630919094,
            -0.04155120921171041,
            -0.11469403750298361,
            -0.06786644016539654,
            -0.3255424570923423,
            -0.0032998977267412358,
            0.10262169984593454,
            -0.27068543490806557,
            -0.14840672933046994,
            0.0025003677273386336,
            0.048130120504804884,
            -0.04538131760261722,
            0.055786057128619886
        ],
        [
            0.19596858257509417,
            -0.2189546924468403,
            -0.17516309334562905,
            -0.035264222279159214,
            0.13194660023386565,
            -0.1097968202298045,
            -0.005268317527309903,
            0.053835552997103985,
            -0.15928740316140289,
            0.14059885692555618,
            0.013950134637792372,
            -0.015931168329900502,
            -0.22334787527920869,
            0.20361414159463037,
            -0.16842123473202603,
            -0.04959554538586783,
            -0.04406017013142138,
            -0.037159159647196086,
            -0.017074054915151515,
            -0.0008972690012339836
        ],
        [
            0.011515205879836754,
            0.10425268362849585,
            -0.016649535073579667,
            -0.14252376164925246,
            -0.1382336709231463,
            0.09144208547565863,
            -0.3331192257890696,
            -0.018910698715903063,
            -0.13600235402548064,
            0.14367069251088047,
            0.251738745163931,
            -0.15760108742141196,
            -0.036887092439275,
            0.08341458439708979,
            0.19928598131934858,
            -0.1373140525508658,
            -0.015526272625515326,
            0.0013077391338472632,
            0.0949286700242281,
            0.008004036998945292
        ],
        [
            -0.03276463733445341,
            0.06820509287940747,
            0.06836922048116753,
            -0.1389068696085438,
            0.23016197015532358,
            -0.27897668573715156,
            -0.2396214532435547,
            -0.11692325031431121,
            0.1781715589126125,
            0.0760499432283333,
            0.11311613723188797,
            0.04556912020872712,
            -0.08307345437202637,
            -0.022451242466103027,
            0.04386411192635755,
            0.029080884654133932,
            -0.02427602011551427,
            0.04401329360830912,
            0.03130077449819213,
            0.007393056474763831
        ],
        [
            -0.03167315147685845,
            -0.04666153229146184,
            -0.30453065914421995,
            -0.044712177163851514,
            0.20279882593750184,
            0.09309039729526206,
            -0.16476117304860316,
            -0.16524280172036485,
            0.0023542223448731548,
            0.11249830703880155,
            0.1629535395084348,
            -0.05589949463195512,
            -0.031797085912484584,
            0.16286903249630139,
            0.2567610942927651,
            -0.21257134457323507,
            -0.02084595494125413,
            -0.06679774046849686,
            -0.003223864328188081,
            -0.007289172563044784
        ],
        [
            0.22508006130036298,
            -0.07009144638487999,
            0.09155651087078429,
            0.08274371087672706,
            0.36969014656408006,
            -0.023108447232886298,
            -0.05690080665578112,
            -0.0703761479158183,
            -0.42495452486734747,
            -0.04244567565752767,
            0.021810504964186083,
            0.16002850417019754,
            -0.225190729444148,
            -0.0033171117990391627,
            0.028194600421222585,
            0.011806938062267057,
            -0.01339480525184231,
            -0.0159386113931526,
            -0.028435429833897685,
            0.003709973995548737
        ],
        [
            -0.13669535616646303,
            0.015347929076346894,
            0.004119085580219068,
            0.18549326098669752,
            -0.18265620718998948,
            0.05248560449525785,
            -0.07179105653215022,
            -0.08817177464266568,
            0.01049449656346446,
            -0.07155903346686994,
            -0.1864224136676347,
            -0.04144246313082785,
            -0.1464413133328336,
            -0.12107981504719265,
            -0.17783215642382427,
            0.1940743820073138,
            -0.004476008086042517,
            -0.009459705728128646,
            -0.033517097162677256,
            -0.04346765570118079
        ],
        [
            -0.14552320898032797,
            0.21831730050253179,
            -0.15276215885108796,
            -0.18457111362779835,
            -0.2483447310443857,
            -0.13116679256103808,
            -0.13793989519058902,
            0.03747508577221091,
            -0.045098427851631546,
            0.05160089785898591,
            -0.1392587124183478,
            0.1869707168507917,
            0.19315583738750441,
            -0.22190866622213998,
            -0.26012916085098603,
            0.13519994493943888,
            0.015138909515877024,
            -0.0176502539425098,
            0.001606804839661007,
            0.01831665914704429
        ],
        [
            -0.10901623614484413,
            -0.22023529114939705,
            -0.26276146137424344,
            0.16640678980720833,
            -0.1429626916143921,
            -0.24153090377386158,
            -0.08849488559691968,
            0.015113669396270577,
            -0.1291549548379133,
            0.13511719644518289,
            -0.13420540785692409,
            -0.09079377329184744,
            0.1035740574180232,
            0.03428061299447067,
            0.20248018867155526,
            -0.3326780871402321,
            -0.007525634706754463,
            0.007881659471531917,
            -0.014116584731830403,
            -0.006215549963364238
        ],
        [
            0.15807716015097603,
            -0.05363604915750124,
            -0.05636175025079078,
            -0.007162037454144572,
            0.2614576707477555,
            -0.19137664391712553,
            0.029216865702240816,
            0.03362208237576257,
            0.030184828591248068,
            -0.07723293137405356,
            0.19809969782580475,
            -0.015070197171225073,
            -0.18768836439015643,
            0.26530755408992107,
            0.02561196271848713,
            0.04078627697241166,
            0.024687435738616224,
            0.05754690247801043,
            -0.008360332755473002,
            0.010437166668781538
        ],
        [
            -0.16434311944777816,
            0.1495966454432469,
            0.05898062835731591,
            -0.15826772018530078,
            0.22392906407011623,
            0.1340006244053833,
            0.060679145426267345,
            -0.10392703397672973,
            0.2596978374924082,
            0.07960271099815243,
            0.33668552461803475,
            0.12658049309961836,
            0.2656740437844511,
            -0.05901922653687638,
            -0.0390034927636387,
            0.2119898708248056,
            0.04805791675202298,
            -0.06964014849638445,
            -0.04586165931566883,
            0.00035336823076197605
        ],
        [
            -0.0693804295902578,
            0.2692276946193741,
            0.37202601452661294,
            -0.10533218181507704,
            0.11514812404667471,
            0.24362468963353995,
            0.16851396272686636,
            0.15395475637938763,
            0.3111848582855642,
            0.14267644738550098,
            0.37189284058883737,
            -0.2829945291912203,
            -0.11864593148399775,
            -0.024332607523803163,
            -0.2325560470724152,
            -0.15074212894006678,
            0.024340416515737002,
            -0.030207809940581122,
            0.02228427247325518,
            -0.012178651480562514
        ],
        [
            -0.046681770060728676,
            -0.017652492845957084,
            0.06452457954299788,
            0.32807967759275203,
            -0.13751289679166964,
            0.2595787566506275,
            0.21683928929748864,
            0.061346384365973956,
            0.2031757501079172,
            -0.029512343765253145,
            0.19214895489689904,
            -0.0033338492292144133,
            -0.021381518214969683,
            -0.24579071895406826,
            0.1783158760903782,
            0.023157979655429175,
            0.01681410159576765,
            0.027512724386073426,
            0.020621219827866372,
            0.002416768799297699
        ],
        [
            0.15971631964645194,
            -0.0664349067145189,
            0.07595700640921117,
            0.2746078277694643,
            0.0743394350262781,
            0.2279596282243827,
            0.003955375846201873,
            -0.037582094617093977,
            -0.07535753664597321,
            0.08788269189958402,
            0.23451564936634806,
            -0.07131139700400531,
            -0.13175402866538602,
            -0.15356031626006447,
            0.2581137352490326,
            0.13852721083492656,
            0.05800688556692379,
            0.011892625772730578,
            0.016432599312258257,
            0.0073479034715552526
        ],
        [
            0.061945227255855766,
            -0.0841659228677818,
            0.33263449178453586,
            0.5813464498839306,
            -0.16566404554098077,
            0.08126656800184391,
            -0.1268366463157058,
            -0.21384089082162122,
            -0.08221837248685238,
            -0.147548979442922,
            -0.31547893854110076,
            0.6135226796242131,
            0.022344844473273562,
            -0.22415378676729122,
            -0.07025916618927243,
            0.0900830397686063,
            0.029887185072782523,
            0.07720298247766028,
            -0.019326609469573795,
            -0.025401131769587363
        ],
        [
            -0.23008363493360504,
            0.32940397435793134,
            0.1485251830108757,
            0.15425231486701746,
            0.12227141145185727,
            0.18963066422626867,
            0.28604020024857957,
            -0.06767337916792085,
            0.2402540204777321,
            -0.1644508998095475,
            0.12408506700036816,
            -0.13982267674432966,
            -0.05539224695019635,
            0.20551218779309938,
            0.09008061292536843,
            0.29192396604351956,
            0.022390132303960787,
            -0.06452152154251503,
            0.004716730708071608,
            -0.004933051498795501
        ],
        [
            0.1314652167544357,
            -0.20655556446127954,
            0.28399099537154604,
            -0.11107838522724811,
            -0.22021942532461009,
            0.12968164478822766,
            -0.13729434748573918,
            0.2499023778749421,
            0.23143985316096238,
            0.07005081600114879,
            -0.25178848075712373,
            0.09147069779429187,
            -0.22865342169999767,
            -0.07828084825754111,
            -0.2009267870373469,
            0.43834711481462507,
            0.01896816527162867,
            -0.02663876652861119,
            -0.04637336503043552,
            -0.05576154539756534
        ],
        [
            -0.16307515391969876,
            0.09346941945908177,
            -0.11025266589831698,
            -0.0712917680850817,
            -0.271705583912001,
            0.33450304321846897,
            -0.17721238839584796,
            0.2044350911610832,
            0.19500730174656364,
            -0.3147071136819017,
            -0.007984101797378265,
            -0.1471756569190554,
            0.29638250540068245,
            -0.12141273675635576,
            -0.02672518277560848,
            -0.07399982814515803,
            -0.003419188384682509,
            -0.0027144731503887074,
            -0.0012646087567813465,
            0.0033667997480810634
        ],
        [
            0.2505363359528952,
            0.06939779370989091,
            0.2536385750204399,
            -0.2275947745227223,
            0.27397528281314243,
            -0.05259780339286339,
            -0.124438206411186,
            -0.09053768060740529,
            0.2565498303043027,
            0.11820025555599985,
            -0.3817805728488623,
            -0.06307055209371051,
            -0.07217455582540883,
            -0.19068589815165343,
            -0.1380958219268224,
            0.1580823347816845,
            0.054043757030333865,
            0.05787087088251845,
            0.04048002882515059,
            -0.008850353434825759
        ],
        [
            -0.03095302100904666,
            -0.1123292826447091,
            -0.013251056060695508,
            -0.1699032477754378,
            0.07036445218508676,
            -0.10240967034200736,
            -0.20076650504717805,
            0.1650674038585697,
            -0.09109559539610433,
            -0.1592177290657577,
            0.04756572827623999,
            0.37456473628011616,
            -0.07726576938002098,
            -0.19728592537829873,
            0.20819748934951504,
            0.39705519069370837,
            -0.004674715393392884,
            -0.044990184191016025,
            0.02514826499775118,
            0.0009437007981486881
        ],
        [
            -0.10375634569570583,
            -0.11296791492667096,
            -0.06745149827444837,
            0.15323862818519005,
            0.09393640420537001,
            0.054860669565280094,
            0.01951970504044277,
            -0.09665021495272723,
            0.05098016174892563,
            -0.1502501297178399,
            -0.3682112999193574,
            0.003593141652796996,
            0.1993224505575207,
            -0.007797019940710352,
            0.13080988072248687,
            0.04440997222813849,
            0.03217042451807064,
            -0.0058594482745111,
            0.000371416238536497,
            -0.005888626343308261
        ],
        [
            -0.16396864737666417,
            0.21898219781157108,
            0.2558267306944037,
            0.18132357551829084,
            -0.30903688587873324,
            -0.08605002396216736,
            0.2922806474129256,
            0.0624618084036278,
            -0.07751432995615164,
            0.03893401934427798,
            -0.1582030605178064,
            -0.23759533836949362,
            -0.09248367593114187,
            -0.3335699506277979,
            -0.1851595089810774,
            -0.09508807030546812,
            0.03236546190422017,
            -0.019786999890624383,
            0.06708278019898749,
            0.034200657784522664
        ],
        [
            -0.23665424043843744,
            -0.17905038594587372,
            0.43406254136470496,
            -0.021381363481144562,
            0.005241895481987648,
            -0.2894017157709034,
            -0.20013054917844364,
            0.06158682440677219,
            -0.2574225141915632,
            0.23037961132843593,
            0.1751836761969793,
            0.06397623147964886,
            -0.08308785003685039,
            -0.043993211493762716,
            0.06087772926686474,
            -0.2979419848108006,
            0.015457151004372427,
            -0.023484922758665892,
            -0.0005060458736480039,
            -0.03569040632938367
        ],
        [
            -0.1594991332447252,
            0.0006721099671437392,
            0.21847148071598113,
            0.2682954178356628,
            -0.15550486765677216,
            0.009263384849177762,
            0.17093194024688585,
            -0.21875271693655976,
            0.2164111262465811,
            0.24255169067512722,
            -0.2195453301130838,
            -0.4098724201772749,
            -0.01401610820829927,
            0.0541802621635097,
            -0.2597032077035072,
            -0.07912533639455582,
            0.07506388918190972,
            -0.05863185445622133,
            0.08496741367547554,
            0.03900244211744167
        ],
        [
            -0.020537737170446147,
            -0.062193171092946864,
            -0.13059946153300286,
            -0.12015590909677695,
            0.12262012034935302,
            0.16598277980281093,
            0.21396062865660243,
            -0.03048792676555933,
            0.2090413525591094,
            0.15671031410438238,
            -0.35546554614646614,
            -0.04854471271394391,
            0.2274031643803066,
            -0.021258165090132234,
            -0.10014108108939657,
            -0.06627319886194004,
            0.051526581052712864,
            -0.019440079989153303,
            -0.11412523414897448,
            0.022057473000908975
        ],
        [
            -0.1481166836235051,
            0.10832701336362338,
            -0.22107919729244446,
            -0.3476050971752669,
            -0.20654039752609588,
            0.17606433528821352,
            -0.17591696051285083,
            0.053841271761831164,
            -0.04191948365914163,
            0.13784845714780522,
            -0.3432546551645295,
            -0.05146345342374517,
            -0.2549058339346476,
            0.06744395544881353,
            0.14906684145297988,
            0.10019569022040778,
            -0.03571133584838046,
            -0.04622014734118636,
            -0.001839151392543724,
            0.0021501477500996406
        ],
        [
            -0.1170452314393533,
            -0.11203200364745572,
            -0.38637082349488494,
            0.3677202479010023,
            -0.18984023418579257,
            0.04378196721332906,
            0.14710351658342807,
            0.07486399768134636,
            -0.21268778919341688,
            -0.2111740485587503,
            0.20917688633131815,
            0.28994527908802625,
            0.13232810540754877,
            -0.1522748039210519,
            0.056642345873156925,
            -0.3237362360925355,
            0.0022109273037576437,
            0.058432008429616066,
            0.04039287130428992,
            0.005203547535719451
        ],
        [
            0.21949415731306177,
            0.020407060299454896,
            0.15605810633361064,
            -0.10295605859455813,
            0.15504892692859418,
            -0.10955586125969169,
            0.041626907318643463,
            -0.26493007094469906,
            -0.143641017121696,
            0.06060384370179587,
            0.2917345391795997,
            0.0893941292079833,
            -0.0512370676679913,
            -0.1335598682319258,
            -0.3456051089692567,
            0.25418835563476627,
            0.03541947155038393,
            -0.022465507920295894,
            -0.029577558267532774,
            0.008694509040771983
        ],
        [
            -0.19106716377030003,
            0.24317178138755788,
            0.03860317696752262,
            0.1369817383871228,
            -0.3164458561946994,
            0.10761203680109173,
            -0.23246843014677346,
            -0.09623147651095275,
            0.3330033436698464,
            -0.10158518916263101,
            0.12722027435386726,
            -0.005027399510320504,
            0.127112115288383,
            -0.13367127526570502,
            0.09456937581385891,
            0.049814310124485214,
            -0.03979805993150742,
            -0.02795447401692682,
            0.02741071080935677,
            -0.04107289907657189
        ],
        [
            -0.21513554856651032,
            -0.06170418098830216,
            -0.46122930628060343,
            -0.3538147308002561,
            0.15744236448632404,
            -0.09205114901264103,
            -0.16890305891138913,
            -0.0904133405016187,
            0.3145791719396932,
            0.15937331525671453,
            -0.0074315669849652575,
            -0.0030367629593940474,
            -0.1802183379902396,
            0.10432981430581541,
            0.24448652949371108,
            -0.2329076329547068,
            0.000533923988964936,
            -0.006301331728908247,
            -0.009370601148500367,
            -0.000665020355797483
        ],
        [
            -0.14860597000776166,
            0.18791341904067257,
            -0.11130953029278694,
            0.3049546077780493,
            0.055697270524493414,
            0.0688004372731395,
            -0.23065878318557395,
            0.030509713257088036,
            0.07918436600071665,
            -0.11931074763771293,
            -0.16611848511346008,
            -0.002907102139701481,
            0.10386618917644454,
            0.05774450145541594,
            -0.20312277733475273,
            0.3185960908326396,
            -0.0018205737524370985,
            0.055629256622903835,
            -0.056613438940244266,
            -0.0014749731764230468
        ],
        [
            0.11545023403216927,
            -0.11903792024622838,
            0.09471711654023413,
            0.019653018618560607,
            0.08478862822636912,
            0.22010490350689313,
            -0.14089763125353494,
            0.11402745161101453,
            -0.07995064156373913,
            0.2175914078026251,
            -0.030974796214053125,
            -0.0371757312578807,
            -0.056598974964292,
            0.2202100083294232,
            -0.2310079988064635,
            -0.024351318587787985,
            0.0049738760887206674,
            -0.0346961155033196,
            0.040372375561214945,
            -0.014307025849875343
        ],
        [
            -0.3834597730633559,
            -0.17281153090649962,
            0.13153194490724404,
            -0.12256524243233294,
            -0.3155214871540652,
            -0.29673805722503,
            -0.09737886037334063,
            0.10015123152940988,
            0.5029049077167396,
            0.08580104719662603,
            0.15049878780182818,
            0.189215828326177,
            0.10120974213739405,
            0.3352571070696561,
            -0.04449214183615752,
            0.004856157679519317,
            -0.02773885015558925,
            -0.022353110269346756,
            -0.005955040830265816,
            0.002395346440277371
        ],
        [
            0.15776698015677668,
            -0.1614755662323578,
            0.18618726883550463,
            -0.016613936520905908,
            -0.1433487841838603,
            0.01858297367010995,
            -0.1762931854620529,
            0.13427465851939763,
            0.030898548283564004,
            0.07669152237782818,
            -0.12730064693339047,
            -0.29947495311744793,
            -0.16019921133908202,
            -0.01763453692725635,
            0.06019868268805874,
            0.23232801220632854,
            0.0002347961535612312,
            0.028042049543192733,
            0.030142034028169555,
            -0.01374006836376863
        ],
        [
            -0.1431572747564661,
            -8.435231814693903e-05,
            0.04092675624515619,
            -0.19422364839585804,
            -0.12353093596324606,
            0.16997727697743345,
            0.06476320250011541,
            -0.03924317380392704,
            0.15483560687995424,
            0.25881199008901773,
            0.13658849449891008,
            0.36843655502531186,
            -0.1569098681028654,
            -0.1323986011741527,
            -0.13834081166663728,
            0.23493237498780412,
            0.05679382645201915,
            -0.050845448638096105,
            0.018060612070020937,
            0.057636045301866744
        ],
        [
            -0.0010957586686730018,
            -0.04465479775166347,
            -0.3204176806679887,
            -0.010604760272144666,
            0.17971950130869788,
            0.17593531080494365,
            0.2706037036069627,
            0.2521297127063966,
            0.2725530133454266,
            -0.07989024186043796,
            -0.291186447689034,
            0.34872740497651433,
            0.13995605184172388,
            0.041489399651496076,
            -0.20431016744328617,
            0.2124528952285515,
            0.013000433610309893,
            0.01727997348836666,
            -0.03457534234519424,
            0.07897401210676273
        ],
        [
            0.10192832849188727,
            -0.18750380220698676,
            -0.07361561661351496,
            -0.09434272350318589,
            -0.1178587776315137,
            0.2043813190716728,
            -0.04192623850608014,
            0.08382616055985596,
            -0.06539847712957704,
            -0.28217015586720173,
            -0.07788065004266027,
            -0.09509376815686309,
            0.0811470730741125,
            -0.26406095073868396,
            0.021539249796196,
            -0.12249639238168411,
            -0.005149263844733598,
            -0.02651529153850702,
            0.011236068068810763,
            -0.00839825524305425
        ],
        [
            0.33706141141999824,
            -0.15624901617761566,
            -0.09778593893410478,
            0.19030347240839254,
            0.34823214842073297,
            0.08463283454955935,
            -0.12364023751806395,
            0.13106952617552567,
            -0.33993348520320504,
            -0.011562873649941517,
            0.025664310254965933,
            -0.003002454484510997,
            -0.3722442361490776,
            0.13612345864099584,
            -0.08357953339669151,
            -0.06234788852055224,
            -0.016238244319389535,
            -0.023589453024962417,
            -0.007840826059770097,
            0.002190162639369092
        ],
        [
            0.03611273270028164,
            0.18741606382336315,
            -0.12955618263103574,
            -0.21476878743896213,
            0.0027451953666390843,
            0.056741193646201754,
            0.19125411952468982,
            0.14065523104697536,
            -0.12466240734494542,
            0.09196165524084587,
            0.17244606208236776,
            0.2234137427632527,
            -0.2023618997112878,
            -0.17318956322338383,
            0.08395582916525693,
            -0.04536138422400508,
            -0.00634697428821675,
            -0.0068205836782973045,
            -0.02284992934105082,
            0.021469593198615456
        ],
        [
            -0.043120441045192213,
            0.11816611711570375,
            -0.21493031489575568,
            0.042306820442088784,
            0.11723105593705423,
            -0.15654851663279423,
            0.15606077324039916,
            -0.2399936579128154,
            0.06559251209425584,
            -0.11590819401803781,
            -0.22301935715134577,
            0.1691283883320533,
            0.1820750836492294,
            0.2760469754086036,
            0.14135079534473405,
            0.14942581838126395,
            0.06975810104663037,
            0.02134235794089056,
            -0.04854629771444013,
            0.014710547669342697
        ],
        [
            -0.054493739897782424,
            -0.12720668124745432,
            0.2883741177771269,
            -0.1361236515230383,
            0.2540690057045112,
            0.004951429708784249,
            0.22421200366528704,
            0.09000017362671517,
            -0.21221683709295366,
            0.05164350319503336,
            0.12345865851327788,
            0.05442398470842906,
            0.11798989922773089,
            -0.019745162870459347,
            -0.15023948080742605,
            -0.20491199749572966,
            0.050591897955013905,
            -0.01723522723067802,
            0.020765168944561957,
            -0.06247512201036876
        ],
        [
            0.26555349536429756,
            -0.1151105634326571,
            0.2425411864105814,
            0.28642652024296156,
            0.23296919139151934,
            0.08836236190358894,
            -0.08736589863467788,
            0.28247306947495254,
            -0.1782416933274233,
            -0.07625225676508789,
            -0.10475182168967755,
            0.059234107684653925,
            0.2461194446731165,
            0.2608637163992934,
            0.29730262886069786,
            0.18519331176448678,
            0.04101255987203715,
            -0.014116239059218636,
            -0.04164032232655822,
            -0.06652934601376825
        ],
        [
            0.07627267382636449,
            0.12140633553115011,
            -0.02882558621741028,
            0.3192874853268117,
            0.02293972165767184,
            -0.09199182528338486,
            -0.3546365111020417,
            0.060943487019452555,
            -0.19684490457239,
            -0.22790401681538222,
            -0.005149549779298279,
            -0.07019192691052199,
            0.05318785467986335,
            0.2005693914116191,
            -0.0014655223857937072,
            -0.31935170981528016,
            0.026767440367692696,
            0.01620452567364928,
            -0.010832975200371754,
            0.01996834086438618
        ],
        [
            0.09021195438658428,
            0.1936610269557994,
            0.08422330281549173,
            0.05218065375698849,
            0.05537216959724018,
            0.23846198423052906,
            -0.22219422514181514,
            0.2620824585429753,
            0.030470214984248963,
            -0.0642328496714409,
            -0.028800167351757885,
            0.22155295437408937,
            0.12081679186609703,
            0.02155345444897485,
            -0.08540300967370917,
            -0.026488799143747434,
            0.04640942190933569,
            -0.03226628035041541,
            -0.04229789760166329,
            0.06600650704942244
        ],
        [
            0.0949717597208912,
            -0.09227766335365752,
            0.3816549019741473,
            0.13851944443754896,
            0.2266708893496196,
            -0.06025475467660897,
            0.12980064920360898,
            -0.22260675093087287,
            0.09754749266320487,
            -0.25434165721132374,
            0.027579705645714863,
            -0.17159995429052433,
            -0.07246881818660311,
            0.023302286369742443,
            0.14342415543483442,
            -0.15691453735593028,
            0.02167994503076188,
            -0.012797416840736426,
            0.029890919786009683,
            -0.0521675268808648
        ],
        [
            0.0344963891281458,
            -0.23192457655212145,
            0.30057513698039,
            0.279219974335903,
            -0.01281833547436646,
            0.10207611122118097,
            -0.03431158217563509,
            0.252691297701083,
            0.009373818991345729,
            0.0005634569674310259,
            -0.016460351566432985,
            0.3503002728363016,
            -0.12545114097995863,
            0.1015386233241746,
            0.12869902057622953,
            -0.13632032125000862,
            0.04838377434531949,
            0.04582246801991005,
            0.015483556887935852,
            0.01571266296761785
        ],
        [
            0.1895633276594167,
            0.1319898886989525,
            -0.34993126084496534,
            0.38227512634671695,
            0.16795465391334471,
            0.21407395384545705,
            -0.02384737778654835,
            -0.21951520439692976,
            -0.17295957650775154,
            -0.153390142631942,
            -0.24820006365889866,
            0.19695338617804733,
            0.13517433574995102,
            -0.16100754622786465,
            0.12437141965436273,
            0.20033630878457612,
            0.0012307368219224755,
            -0.003172213525252596,
            -0.02412890969057207,
            -0.002642639968778721
        ],
        [
            -0.1884532069440763,
            0.18567407811562026,
            0.16153391352598084,
            -0.38702329415277853,
            -0.26720557547307866,
            -0.11124847754149317,
            0.164367426149147,
            0.06541853564277206,
            0.1370316239538993,
            -0.06074699007745935,
            -0.1147081339013411,
            0.08920273173078018,
            -0.11428549626584501,
            0.2393683302546085,
            -0.04840009875262745,
            -0.09565723517913116,
            -0.033260781022723014,
            -0.005920536112951441,
            -0.08312579532364082,
            0.03699463611148893
        ],
        [
            0.001672065693708925,
            0.08701507508946506,
            0.259308749092516,
            -0.45469445879395703,
            -0.08683694933893052,
            -0.10631876831186096,
            -0.1518007604257695,
            0.15310743653415532,
            0.129294317006315,
            0.04649508430629168,
            0.0733086544109058,
            -0.0677915971421358,
            -0.16888989889152303,
            -0.10044540992160586,
            0.13602109969120577,
            0.01797167520045947,
            -0.031582589869823346,
            -0.05094587264611776,
            0.06272136125164958,
            0.00033003040175516205
        ],
        [
            -0.14144274585578864,
            0.30829949326252054,
            0.037679137511063776,
            0.02793614302703398,
            -0.1860187546783256,
            -0.25017599839900534,
            -0.12600477820839195,
            -0.04031601214751912,
            0.17467949698359625,
            -0.23431831932463237,
            0.2205248379375204,
            -0.21260494677280262,
            -0.20352218867819305,
            0.13059004067944435,
            0.23682537611408402,
            -0.14084417120898163,
            -0.015598736420213987,
            -0.0011190964720032863,
            -0.015486145211974762,
            -0.03695478956866238
        ],
        [
            0.11870467326105484,
            0.028983420798270598,
            -0.18846067526642563,
            -0.17125435453094945,
            -0.14301896040944004,
            -0.175777506617908,
            0.35615182671804446,
            0.21916028284828218,
            -0.018425879629432193,
            -0.09094009335220028,
            -0.005117889631872952,
            -0.0592232189072014,
            0.08250801006136506,
            -0.04043348746828367,
            0.27144097189880784,
            0.2666327031946145,
            -0.021913789385871307,
            0.013845507166205962,
            0.020471435811384678,
            0.0350338485689368
        ],
        [
            0.11570349428141245,
            -0.14613281145479112,
            -0.3019239313631927,
            0.2518794145907144,
            -0.3286414702236384,
            -0.22838635391172207,
            -0.28945292150619834,
            0.07275469401841642,
            0.10252848422075857,
            -0.1733116024401405,
            -0.14117994954218777,
            -0.12003880208584383,
            0.3244743655298024,
            0.016345242325505122,
            0.09097947283956526,
            -0.12065657412162213,
            0.0027842125427034402,
            -0.0245464809392017,
            -0.003044019295325854,
            0.003857192426679947
        ],
        [
            -0.1517067410898438,
            -0.1454323280638915,
            -0.2425487967445581,
            -0.14701083247496835,
            0.06003135137902933,
            -0.11053942479973448,
            -0.30028420282113183,
            -0.10047312483008812,
            0.23746372490030315,
            0.058208715323747044,
            -0.4176795943207738,
            0.18357589110866543,
            -0.20094783189822193,
            -0.19802865058169397,
            -0.09396811006988173,
            -0.2707331304108419,
            0.013139884052761577,
            -0.06567909973976378,
            0.03365344245003892,
            0.0034610296022141445
        ],
        [
            0.1291236255114425,
            -0.17470299905523953,
            0.07306447519508008,
            -0.48081078276957784,
            0.13024540527917847,
            0.0910181999026607,
            -0.031800380122386285,
            0.015532196123556906,
            0.19258763357381287,
            -0.06569437410685437,
            0.15396916983407105,
            0.16253054509107548,
            -0.15316045861328983,
            0.0428638306569639,
            -0.27791342666590635,
            0.08472333687606387,
            0.058798652926852255,
            -0.04596541756346213,
            0.02288081552916256,
            -0.015359266585019689
        ],
        [
            0.08097163165803536,
            0.17073739892530498,
            -0.15488887514949365,
            -0.058723292789138154,
            0.13282930927395997,
            0.07296481261066012,
            0.04182717552729289,
            -0.07672274469281776,
            0.19924787601464497,
            -0.2822667195538859,
            0.008211752684172943,
            0.11155784548516572,
            0.1681868854922446,
            -0.07286884681638131,
            0.0390675888000465,
            -0.2007530163424679,
            0.02675332687561741,
            0.009058397422971029,
            -0.023034951566747522,
            0.005433550962522135
        ],
        [
            -0.009835009913681563,
            -0.08863057242746654,
            0.015599498728226425,
            -0.2995552759251884,
            0.2616701233359471,
            -0.18915504616935783,
            0.16840082248701826,
            0.0009710097846995743,
            0.11539259222533,
            -0.2022924269784889,
            -0.0017592724301723672,
            0.019697502761358093,
            -0.22430832811638315,
            -0.0021288651336532063,
            -0.16041376064355045,
            0.05038250234499528,
            0.0069227571768802525,
            0.03402273257721334,
            0.010096884900173077,
            -0.023563671938856695
        ],
        [
            0.07603225353128344,
            -0.16352553223165864,
            -0.2064547174173666,
            -0.4106848931782062,
            0.0213685201586585,
            -0.05072567446549467,
            0.09743135441871507,
            0.37355255616897853,
            0.11547478654329064,
            0.03423637724085519,
            -0.2323682873619427,
            0.314579372679527,
            -0.09377045840844314,
            -0.18507061154963111,
            0.1430340033655102,
            -0.19476862838747455,
            -0.059158466526502966,
            0.007169227984791312,
            -0.03019905113666829,
            0.03289700846552823
        ],
        [
            -0.10151443165129619,
            -0.100616346693546,
            -0.0787774063669534,
            0.24232797746381876,
            0.1649312108877204,
            0.28066397866300186,
            0.08844601882951576,
            0.09296773125355276,
            -0.024297542095203347,
            0.1480401491574696,
            0.11810103748928721,
            -0.15742855171942474,
            -0.14266295107787075,
            0.1987409113066224,
            0.2945473631602209,
            -0.18853128710337375,
            -0.07335200777777001,
            0.1148140579000408,
            0.04136026013930097,
            -0.03121272487461895
        ],
        [
            0.10429525415767146,
            -0.059490754027645074,
            0.014336357284345621,
            0.17113560130686561,
            0.22292459198913392,
            -0.1502359982765623,
            -0.04994926286523722,
            -0.09663739194630776,
            0.14208170823595614,
            -0.16162966800719625,
            0.12324938311416367,
            -0.09266258499619029,
            -0.2956409308965856,
            -0.10924051876369985,
            -0.3006697003523085,
            -0.18244507196612414,
            0.015522274772468266,
            0.036521756872496924,
            -0.01963731256082645,
            0.08445398094154834
        ],
        [
            0.2630189355671486,
            -0.00808912674510987,
            -0.46994317122153184,
            -0.22789120216515485,
            0.19208942723398242,
            0.037306270097495306,
            0.15562629630809693,
            0.07208223566128183,
            -0.15312807242962492,
            0.13782439697106239,
            0.02164395509366689,
            0.37289825023963186,
            -0.0940399386940311,
            0.1288595419960396,
            -0.020263581900436648,
            0.10727880104388181,
            -0.01489814426776699,
            -0.015473751422020293,
            -0.0150915777855353,
            0.013611103899498784
        ],
        [
            0.03615283780215241,
            -0.2268955690011072,
            0.000807045558282998,
            0.2417914754846387,
            0.161168537557015,
            0.14594131707568833,
            0.16891804855854767,
            -0.2032403560700284,
            0.01639655943140506,
            -0.12474929705683502,
            -0.008001651367958882,
            -0.1376869997176047,
            0.15864106320010304,
            0.048861255270533914,
            -0.16640447276105058,
            0.290802996848965,
            0.012085367768388195,
            0.03332996194566683,
            0.00023881559659928378,
            -0.03159944330347115
        ],
        [
            0.11598781373734593,
            -0.36928400566367287,
            -0.27650654861356877,
            -0.04070177284079768,
            0.09633418952754329,
            0.08678771969522767,
            -0.044464065442783064,
            -0.048617084088529446,
            0.02660214893249268,
            0.2443623174980528,
            -0.030501122834857626,
            0.14345528654554116,
            0.0037132777987893624,
            0.1667799821773922,
            -0.15141716118149384,
            -0.15581203018345,
            -0.02615088211199595,
            -0.09768790189306943,
            -0.037456268454856806,
            -0.008241920278548217
        ],
        [
            -0.0946484340411659,
            -0.06747138409617072,
            -0.4294948511387931,
            -0.301716209019502,
            -0.1941062907642957,
            -0.28005893888214745,
            0.12399086908448496,
            0.2354862656631067,
            -0.03313861160234371,
            -0.15405511238056183,
            -0.31355557740406415,
            -0.13554494213346435,
            0.021831076301930763,
            0.2928272771863899,
            -0.22911433718608243,
            0.03907710120895843,
            -0.043445703134602935,
            0.04459815053240667,
            -0.023696271339948463,
            0.031353250691576906
        ],
        [
            -0.03459588224078409,
            0.11465887476267028,
            0.007260500935038244,
            0.045666820797623506,
            -0.07429854774743404,
            -0.10721910866703632,
            0.0981402205715245,
            0.14887671870725308,
            -0.06796206653815773,
            -0.16260212479888286,
            0.06493226653847642,
            0.09653768272783682,
            -0.01814437656153208,
            0.19967528273039148,
            0.32139105873731305,
            -0.16425098420136663,
            0.029844457756486014,
            -0.04660116951061746,
            -0.05548697324490329,
            -0.02917579137951264
        ],
        [
            0.07304324762975871,
            0.2298236810411105,
            -0.2968111181436781,
            -0.4301081397475916,
            0.037562543125889976,
            -0.07247444546819667,
            0.0752225879664443,
            -0.14783259474376687,
            -0.10747808250267335,
            0.20108886709889512,
            -0.2394997394006809,
            -0.19124365779777278,
            0.020368795319012034,
            -0.15450276332401067,
            0.08334780565810282,
            0.14305521944500244,
            -0.07147445243602708,
            -0.057259038291569725,
            -0.08817896949499093,
            0.050257464925549535
        ],
        [
            -0.0757902297514937,
            -0.24145159525810805,
            0.12612576786005755,
            0.3254536038409339,
            -0.14154796974385256,
            -0.2651301426289937,
            -0.1491243003866197,
            0.1335206917028837,
            0.007098999322457116,
            -0.260311265509277,
            -0.1172881044121593,
            0.08615429759670995,
            -0.06954410376551962,
            0.22094886141920622,
            -0.10061547723476205,
            0.21186999055306105,
            0.019151906980270205,
            0.051449377205377754,
            -0.032877314268559034,
            0.04263387181597653
        ],
        [
            -0.12884024920770581,
            -0.03618731601087938,
            -0.04022785322761628,
            0.004001890122421443,
            0.011284706197448544,
            -0.13858020804144455,
            0.14948557913610516,
            0.10478827550325603,
            -0.059615912433300895,
            0.22888452773475454,
            -0.2652606113050926,
            -0.022091653896062144,
            0.0371287882831351,
            -0.2005161216168547,
            -0.21089747328508485,
            0.10443722872935716,
            0.00828203305519637,
            -0.02883716558351335,
            -0.04151901331246825,
            0.01866247363679716
        ],
        [
            -0.1251213335406294,
            0.08691649988478536,
            0.2859158195631519,
            -0.20647851293950095,
            -0.017526635325986067,
            0.05156743228865956,
            -0.2801435690716463,
            0.00044949891290237706,
            -0.05799410201936601,
            -0.1219422354965871,
            0.4733269850176866,
            0.0987390756023383,
            -0.07935559066096365,
            -0.22336016255191177,
            -0.1636250117552133,
            -0.00974263081250375,
            0.0055796799628309215,
            -0.056265020030585894,
            0.024307571432898332,
            -0.02157924743870162
        ],
        [
            -0.10955292036261825,
            0.08387991625999199,
            -0.20108057796615736,
            0.08880175980616768,
            -0.06932740685907314,
            0.24619255847125515,
            -0.05213994541523175,
            -0.021153799571499043,
            -0.15488529557923464,
            -0.15712546733745145,
            0.3490759342760979,
            0.05900308870670156,
            0.09724134800452812,
            0.19778747032626226,
            -0.008305427144597827,
            -0.1697385305472265,
            -0.03845260816959739,
            0.03121765797119388,
            -0.014719550393306836,
            0.014046912335436165
        ]
    ],
    "h0.bias": [
        -0.14573680950543963,
        -0.2073979079723009,
        0.028322858261780104,
        -0.1922824397338887,
        0.03634889083888114,
        -0.1513528099600958,
        0.1849503107746531,
        -0.08545739714752734,
        0.27959340287719586,
        0.10592622332400979,
        -0.03090206503686949,
        -0.10663433558149678,
        0.02040881024572079,
        -0.09360293223460991,
        -0.08324308624141755,
        0.1684809043828244,
        -0.09628792477400326,
        0.4333378864861972,
        0.34202950172510643,
        0.2596988681631126,
        -0.21716960038974406,
        0.12786853930996808,
        -0.17840881681466164,
        0.019367705054095474,
        -0.18152224951199672,
        0.24540967935707825,
        -0.0016696716787727118,
        -0.31562201964808034,
        -0.04165816287266235,
        -0.04373521495047773,
        0.2417018703818019,
        -0.007920203388319636,
        -0.1537021727272875,
        -0.18847096327717505,
        -0.21158878643351978,
        -0.17778474559453777,
        -0.3476312661282702,
        -0.2249393260873875,
        -0.0829964590599205,
        0.12302644340162981,
        0.09445639448883868,
        -0.15934653963995216,
        0.1742924087248153,
        -0.05165455868134773,
        0.08016345462496216,
        0.20856972350046554,
        -0.15898110945227398,
        0.4930290978389808,
        -0.2518394597580784,
        -0.0010662449797652976,
        -0.004939651311939804,
        -0.20566255193974867,
        0.2016927187962619,
        -0.05889108684924705,
        0.31951715087312405,
        0.1229127445648311,
        -0.014327711726200596,
        -0.09527103865081207,
        0.16295452576649905,
        0.10382091040152487,
        -0.06695074616315944,
        0.4133102825761276,
        0.3659496394593415,
        -0.33105502316494595,
        0.2506586344489789,
        0.13455656932873594,
        0.038791221715498314,
        -0.09615470615065018,
        -0.21980673417031438,
        0.1693724423042788,
        0.0903015035169473,
        0.33155308689518076,
        0.5009785144327075,
        0.36910604254222595,
        -0.15806980239860552,
        0.1287736898147491,
        0.13801301112044626,
        0.1573261944946835,
        0.2618154284975841,
        0.12424333819836207,
        -0.12468430268085219,
        -0.11510525118083265,
        0.06134098572584822,
        0.3891503181743163,
        -0.031965496210899495,
        0.04461445914284827,
        -0.18567964538618217,
        0.40756779625411305,
        0.21358935817475339,
        0.20292055065086115,
        0.06838384744148616,
        0.17935033629332994,
        -0.1801598022179168,
        0.12223522666771103,
        0.1942381181039077,
        0.3143878551750747,
        -0.003875061378133262,
        -0.07751947979094724,
        -0.22954134859434305,
        0.1737052149035839
    ],
    "h1.weight": [
        [
            0.0239396618755539,
            -0.12375897657658304,
            0.030302104939887383,
            0.009289845316981009,
            -0.1310502121341,
            -0.025131907598565113,
            0.0657744263103637,
            -0.12173889034170508,
            -0.11366318152884382,
            0.11216792545028333,
            -0.04907013715002066,
            -0.04101271007433152,
            -0.039311319470071014,
            -0.006571180374504856,
            0.0793642024172723,
            0.06688409800618703,
            0.09121017906602485,
            -0.09295748993037903,
            -0.027569162122999112,
            0.04957723343275046,
            -0.04127817115955502,
            0.09376377164567855,
            -0.06952329656532462,
            0.0017661334968583078,
            0.053655357641409045,
            0.011029511593036959,
            0.07270806657248707,
            -0.06988093161311093,
            -0.0645819754700651,
            -0.07332743906155623,
            0.06418935637382293,
            -0.0829095629060651,
            -0.1674950667332885,
            0.10407313338900483,
            -0.10005973994546709,
            0.041799478752169744,
            -0.019946198296488995,
            0.01412993675107775,
            0.003444216589508978,
            0.08342655434806812,
            -0.04588373736182277,
            -0.06634454940275808,
            0.04786857813229949,
            0.014733578236601616,
            -0.08432913797290027,
            0.12240862900549812,
            0.038413894869963945,
            0.013516974495162955,
            -0.03494649692900463,
            -0.0424261072935308,
            0.11141128630206813,
            0.06503785704663166,
            -0.09449292504548568,
            0.0722380162886205,
            0.027118174346267766,
            0.08933808241208585,
            -0.0688840621100819,
            -0.047125630501125886,
            -0.007691960215736993,
            0.03126785280413415,
            -0.0783944037020992,
            0.05015703094596202,
            0.05171122810944917,
            -0.010168711278080868,
            0.012858409686582598,
            0.0626589072674533,
            -0.05927900552253776,
            0.06781120423160088,
            -0.06435404746000543,
            -0.007530644202724305,
            0.08742299884306706,
            -0.05575692478938591,
            0.03400787921386539,
            0.12138516914288859,
            -0.06877413798439302,
            0.06526666914926522,
            0.09565003052893133,
            0.08822465484401562,
            0.1072575817117183,
            0.04827169162863771,
            0.015610925693295285,
            -0.05494989280435367,
            -0.07651253093458375,
            0.12556999601794827,
            0.0488652124742641,
            -0.026468338572378847,
            -0.06745404676359784,
            0.1280999309758197,
            -0.003125009293107718,
            -0.024510638825458564,
            -0.041018002948597254,
            0.05552115516640221,
            -0.019946705176413754,
            -0.08456717896522947,
            -0.0306723415435835,
            -0.05569585160358743,
            0.03929836733462005,
            -0.06088216536914959,
            0.03436447760981177,
            -0.07448723509971117
        ],
        [
            -0.031174309797499987,
            0.09395198390742976,
            0.03429199181784894,
            0.02329795544502721,
            -0.012133991886825358,
            0.02425442844510992,
            -0.1307898913464133,
            -0.01239187985110584,
            0.0280173941210829,
            -0.07527728677229345,
            -0.013372191128130328,
            0.029623500137323417,
            -0.03382460993042147,
            -0.07465331917763168,
            0.10702629256904551,
            0.08345009286491384,
            -0.06248858558575073,
            -0.0893275529669057,
            0.08289263959029616,
            0.06579010298948879,
            -0.09943673389333645,
            -0.07884463731329945,
            -0.02158118862912932,
            0.12992564162794132,
            -0.052225970754419884,
            0.034505269739637925,
            0.023653799443160765,
            0.10934951483828487,
            0.01970706824916025,
            -0.06480128861119597,
            -0.06056257862390423,
            -0.1540488612882093,
            -0.04740288792723317,
            0.12411704730362245,
            -0.10150678104523787,
            0.09128554554640787,
            0.006945320722128368,
            0.05819037935868324,
            -0.11539522470407658,
            0.05810807259570094,
            -0.09313783990763616,
            -0.028715715726520562,
            -0.06356877734362387,
            0.03265132870957298,
            0.011662764317899619,
            -0.003376312959714522,
            0.010404142707583669,
            -0.05350771000240086,
            0.028586377179884846,
            0.007889455431360957,
            -0.016469418046219313,
            -0.1039020966470652,
            -0.03473613444852124,
            0.0525798184086235,
            -0.11908836207808263,
            -0.10182125340747432,
            0.03588072005354009,
            0.07492793363792732,
            0.06084104568288431,
            -0.08723495795250122,
            -0.04447636420353347,
            -0.08841547658249375,
            -0.04060510950523605,
            -0.07531996422991152,
            0.10088434815385451,
            0.12581746383689063,
            0.07309148708319468,
            0.050269764219942815,
            -0.13577222073039855,
            0.048210524550856344,
            -0.1242891035761177,
            0.048313711681463686,
            0.03439450506628247,
            0.04043370265594154,
            0.0859640863783014,
            -0.025684830916746546,
            -0.06610691116880378,
            0.051516431015066054,
            0.0028443019866106435,
            -0.0541728706959277,
            0.0031076940661905967,
            0.10987385505231183,
            0.09570038855449663,
            -0.029127333902208154,
            0.060564121193516965,
            -0.08147272927075143,
            -0.007862610508380408,
            0.11046391866679905,
            0.033566961039198644,
            -0.07736701413709217,
            -0.01551096378032943,
            0.03295250655568698,
            -0.08661384490755858,
            0.10279932735503826,
            0.12000548290659124,
            -0.04158219748791188,
            0.022053565566186636,
            0.059988577613936375,
            0.09831517366340316,
            -0.07116511145336128
        ],
        [
            -0.11750608679151667,
            0.015952940070869222,
            0.055790222995935355,
            0.062323099621707824,
            0.1231864957336569,
            0.018003794425343427,
            -0.005628194973518137,
            -0.11587664888041156,
            0.04245778954337271,
            -0.013491443953402035,
            -0.23620978587281585,
            0.04748240874420085,
            0.04839419355006973,
            0.05020022639087637,
            0.03729143764888968,
            0.13901235390351954,
            0.11370146016275431,
            -0.14906854746515033,
            0.09812982035935511,
            0.017651135171924362,
            0.003607623553159595,
            0.0496257062802492,
            0.13437591167700638,
            0.024660455952775818,
            0.014697449212059384,
            -0.14335093605609667,
            -0.10821488260012872,
            0.14698726216275818,
            -0.00753548747566575,
            -0.024170253933885482,
            0.05256728325055821,
            0.1289132021927959,
            0.04041238243090454,
            0.07272900962427897,
            0.018521711597861763,
            -0.00541208197597111,
            0.07137591754340358,
            -0.10449853909095479,
            -0.08757814598886676,
            0.06728721538827508,
            0.08242552940975234,
            -0.10005094247113802,
            -0.12238455362327201,
            -0.20570282905134815,
            -0.12087786292643087,
            0.028302413465064822,
            -0.07149563610047156,
            0.12131969983389963,
            0.0003769917948453426,
            0.07826876137353501,
            -0.023133854537349043,
            -0.11551531371482544,
            -0.11659034302943795,
            0.043524291086116745,
            -0.02614226444852234,
            -0.049577032664024114,
            -0.00913722446410468,
            0.09278634696238748,
            0.014683455570608999,
            -0.09182815557730038,
            0.009149869248651092,
            -0.05145526975192094,
            0.018813786878984606,
            0.043526850057746855,
            0.040996436946650026,
            -0.1149256470696125,
            -0.029686254976419003,
            -0.08880864488357859,
            0.11107817835190513,
            -0.08476150481695069,
            0.10458411303702309,
            -0.041193298762479465,
            0.04104667227261397,
            0.08200240567646978,
            -0.07535286729920251,
            -0.048897765074320566,
            0.051466575085293266,
            -0.13533849303264914,
            -0.023719384317270525,
            0.01745030025174306,
            0.055292931243635504,
            -0.09405975914648419,
            -0.004591020546428497,
            -0.008018012109814383,
            -0.04971107093882556,
            -0.03184251663216388,
            0.09464515150629817,
            -0.039798598815252044,
            -0.024446985557688285,
            0.04415414624019307,
            0.02432539255400415,
            -0.05329484242600094,
            0.15471805956513762,
            0.03205379263647516,
            -0.043948228854977345,
            -0.06126752790516736,
            -0.04856164833939598,
            -0.04889112334884256,
            -0.05985438877600009,
            -0.047393965620731525
        ],
        [
            0.31913259064604554,
            -0.018731908480125434,
            -0.05458759786821557,
            0.02200261246973401,
            -0.10825205747408057,
            0.049598653040968374,
            -0.016849940036347405,
            0.07737632645826227,
            -0.2564962108666808,
            -0.20805856006914644,
            0.15902347603183525,
            -0.14462750867947796,
            -0.032963412643341225,
            0.3232688383863734,
            0.061641007361192324,
            -0.3367164778956158,
            0.007889859157592905,
            0.06084788666772083,
            -0.09997638896045644,
            -0.09378132949509313,
            0.02781834825065886,
            -0.03697965352928381,
            -0.024081858226853183,
            0.06600486796384311,
            0.06962562721700913,
            -0.041104912702121424,
            0.020715134768403292,
            0.029226640764670676,
            0.03362772953703155,
            -0.06527002647566203,
            0.007328901786599847,
            -0.00572079789101796,
            -0.019177557114707422,
            -0.009889901063057054,
            -0.04124232901541246,
            -0.09555409776524472,
            0.26611949087742814,
            0.1648572224633063,
            0.008902380616130922,
            -0.21589127487405116,
            -0.06294528430662089,
            0.052495014139112124,
            0.09138907581689013,
            0.14887619219814982,
            0.06000810543178562,
            -0.019096837933508328,
            0.19117324811136924,
            0.0266618604579488,
            0.14582093342254665,
            -0.00979450302829672,
            -0.045352984846642866,
            -0.017958582707398012,
            0.12314535920981358,
            0.0066865910283449214,
            -0.09953338863010482,
            0.07218666591087557,
            0.14354313692090342,
            0.12113998910857182,
            0.03711230747762901,
            0.04329764821337278,
            -0.12000361472088944,
            0.04131421463664193,
            -0.061900003748135785,
            -0.07346001684417006,
            0.05119792120810037,
            -0.08263827282198632,
            -0.12486785592948131,
            0.12572462575304766,
            0.12921384014235096,
            0.23332937552138153,
            -0.04633094498240975,
            -0.07931201803895388,
            0.012070249242066717,
            0.015168307164541284,
            -0.0034436863100699043,
            0.07530719838176494,
            -0.03726059172320725,
            -0.05957029290525402,
            0.08482354425247715,
            0.07867701102002912,
            0.08777966173719032,
            -0.011533868897596042,
            0.02444565164855663,
            -0.06918663310603158,
            -0.019977353287682017,
            0.04477880236862486,
            0.06274925842974187,
            -0.0009785456818823908,
            0.10632572212579677,
            0.011599885725856289,
            0.06355081817392176,
            0.09270779277459482,
            -0.06898520232037095,
            -0.1433776783302973,
            0.06966720056876682,
            -0.1093081021725924,
            -0.06115307064359403,
            0.061769351053575026,
            0.030137671498802816,
            0.03020903096759795
        ],
        [
            0.04529721265915601,
            -0.09357980717879422,
            -0.20505136458861214,
            -0.09825338191078525,
            0.025695742243877814,
            -0.24154097363989968,
            -0.03916720601884187,
            -0.08584655689117396,
            -0.2093721579022078,
            0.03596178436143744,
            0.06358009203062713,
            0.05930865197496286,
            0.12993797602804597,
            0.09212647502315503,
            -0.05665427406606899,
            -0.18959578602605234,
            -0.05649678245920514,
            0.03407849605229415,
            0.053083696258208794,
            -0.08132659084380456,
            0.09845675498716133,
            -0.046786964674248824,
            -0.060161641847226104,
            0.006330718497331069,
            -0.016024397359352266,
            0.13404675848935596,
            0.05786044629153597,
            -0.012617985972595218,
            0.16957151010767504,
            -0.005293588869210394,
            -0.06789875081216151,
            -0.012912200635094705,
            0.11198177770195501,
            -0.11705821246432556,
            -0.1148127406094896,
            -0.07448109550119049,
            0.035420287264566974,
            0.08892268176474909,
            0.10575123038225244,
            -0.0635463624884714,
            0.08648302024944735,
            0.055354716555577665,
            -0.055195014281279445,
            0.1500706350880375,
            0.06600556534933735,
            0.06959608011163669,
            0.04390341573642813,
            -0.040535490951794186,
            0.19237505516102077,
            -0.018521134458942316,
            -0.005593331158212464,
            -0.08028185252493598,
            0.006574975118867285,
            -0.010477520107721143,
            -0.16366456469601043,
            -0.12036788258430167,
            0.12114427626870042,
            0.03506302743860363,
            0.15842485863599087,
            -0.12069670705425131,
            -0.14803170701767912,
            -0.01010480692039657,
            -0.05244662616532364,
            -0.11585251686142405,
            0.024590284624745787,
            0.035011823598877286,
            0.05140040964160541,
            0.16795728255018916,
            0.08977145843004151,
            0.13969188867816812,
            -0.07656776588235698,
            -0.007434726298830929,
            0.0388513154340764,
            -0.07181273052786849,
            0.14760482562654803,
            0.030554091348252602,
            0.029232506038822575,
            0.09544290251954882,
            -0.15925196002934913,
            0.13587798993919675,
            -0.3560638891923657,
            -0.014128149805500789,
            0.09765264864594088,
            -0.09187791818947358,
            -0.05687005227889185,
            0.09928429885173803,
            0.10398339763784387,
            0.05563231478955841,
            0.07454383238305337,
            -0.028519421329034105,
            0.10777093823551574,
            0.032697921217975864,
            0.022361490121379127,
            -0.07379926518071869,
            0.01582603006807666,
            0.03546131204758925,
            0.08593486699245205,
            -0.11132462349390565,
            0.008905639004974228,
            0.06240502347156107
        ],
        [
            0.12927460512679084,
            -0.01891255181184696,
            -0.028415048991323598,
            -0.01619880937733441,
            -0.0055762465429937515,
            0.07492407277781105,
            0.02151163358470341,
            -0.01059349771729432,
            0.05424568014375896,
            -0.018007052242811582,
            0.029815706497287396,
            -0.0930468871338259,
            0.02144203620343906,
            0.14991144636205425,
            -0.010946630656340902,
            -0.10812410273065862,
            -0.10179172338897505,
            0.018728387580692913,
            0.01630094847447308,
            0.021718073476065546,
            0.12342320828628332,
            0.08398904919844859,
            0.03654241114975504,
            0.10352885717332214,
            0.06637987529844196,
            0.16406807836737655,
            0.054751618606459086,
            -0.04520426011916099,
            0.0801560871003503,
            0.020005023638680595,
            -0.11829048212926713,
            -0.08970216409443127,
            8.408414425686297e-05,
            -0.020634480501813345,
            0.0002763688120387643,
            0.04169098334404915,
            0.12670023177543402,
            -0.07546939025616045,
            0.03261857165801984,
            0.11146370682753463,
            -0.02242048991163035,
            -0.0645862927661706,
            0.051135623879202355,
            0.11711571008316105,
            -0.01688056089839673,
            0.1027515471715682,
            -0.044955635536898075,
            -0.010234528568723483,
            0.06287810321500516,
            0.08881600476356373,
            0.014080325899765806,
            -0.026344067143797372,
            0.06042290226799963,
            -0.03175843736395043,
            -0.06048569456346451,
            -0.08484472112440089,
            -0.04527936813304121,
            0.09438758201266581,
            0.021004524782600176,
            -0.03354266596938635,
            0.07941774741813293,
            -0.053334856702427234,
            -0.046694929665380136,
            -0.033684152829512065,
            0.08822957104800802,
            -0.059081927855646546,
            -0.0666584803313672,
            0.004317687569664576,
            -0.059905524186399994,
            0.07578932152622968,
            -0.027903991666124076,
            0.026062604542642982,
            -0.006335824969297301,
            0.05629078555169466,
            0.03622897749146457,
            0.06606655640088388,
            -0.08564367068822747,
            0.0921505063070874,
            -0.0031950442986174985,
            0.03609707680369396,
            0.042076299736487716,
            0.06604441852838076,
            -0.0033148904590782733,
            -0.03010571774205615,
            -0.0663874158700215,
            -0.08806004149936685,
            0.040220631259823614,
            0.07547596626470074,
            -0.11949224407314908,
            -0.020136510677868404,
            0.027588375717423612,
            0.0289141979477285,
            0.08379186754764101,
            0.08323461838169711,
            0.023987682565427847,
            0.12453136707419545,
            -0.08600100659830834,
            0.05513249819359747,
            0.061490440535108014,
            -0.011871070602834202
        ],
        [
            0.02349993448826892,
            0.22325436993082012,
            0.041308682790043225,
            -0.16146030770702016,
            0.16668446250291302,
            0.009738710139555106,
            -0.010977105124170107,
            -0.059506228051491916,
            0.014563068910692886,
            -0.17959170299691263,
            -0.11829681587268778,
            0.06534597025792559,
            0.0538052192811693,
            -0.10248636078017023,
            0.017971130463180548,
            -0.14261340933863637,
            0.003985564626149304,
            0.12947896070144432,
            -0.037191173519870016,
            -0.08371043198954875,
            0.12176107655428339,
            0.10355429113808877,
            0.06334705408145772,
            -0.012450960871485969,
            0.17640081392219298,
            -0.03730117715326211,
            -0.03745969028993301,
            -0.059793833185665723,
            -0.044724950335835595,
            -0.1539541365064063,
            -0.013962865144976135,
            0.09287111473788351,
            0.11036619352468026,
            0.0627133309602332,
            0.06090613702606116,
            0.08569692740242123,
            0.06609320461091754,
            0.06812843084651986,
            -0.12583358043546666,
            -0.08822796953014342,
            0.0026752254276549343,
            -0.19351852270202316,
            -0.12127868685353702,
            0.01748214978493552,
            0.12552876596326715,
            0.06863357999283877,
            -0.034842231648770684,
            0.07973899891663078,
            -0.06393443424495959,
            0.01753597864490282,
            -0.004719002264460302,
            0.1256165163961158,
            -0.006814783276046522,
            0.11662981760810422,
            0.09698945378854505,
            -0.012076695674733476,
            -0.037988722054740305,
            -0.045287792156328596,
            0.03767462975798004,
            -0.06735785103180032,
            0.08059873626814548,
            0.04791015700232308,
            0.08648197136346489,
            -0.13849314888293274,
            0.12784378586876094,
            -0.011919180620475485,
            -0.013180083146766487,
            -0.08774693563036144,
            0.04637504623211206,
            0.1094407644982498,
            0.11066971012178979,
            0.03507358400913642,
            0.055915790200393285,
            0.07184675593273784,
            -0.09475440540075666,
            0.033362922067897344,
            -0.02369534320824,
            0.0028731349698757143,
            0.009509106099914066,
            0.07481426020115545,
            -0.08017779760971072,
            0.11761570104238399,
            0.06971990885652914,
            0.07573093883962362,
            0.0033883393083919706,
            -0.009316334749620295,
            -0.05196500592406424,
            0.08360314546168555,
            0.07044551378128254,
            -0.05436085519107486,
            0.10300339000039631,
            -0.0806739204049803,
            0.15702685937877475,
            -0.01510804549136728,
            0.10198524131648862,
            0.14489105149390882,
            -0.014185768305948525,
            -0.07807049110541402,
            0.006576730291241282,
            0.028760746593436994
        ],
        [
            0.005421796716736052,
            -0.005238455417219196,
            -0.002468056040048348,
            -0.16246516256431354,
            -0.03935440655198235,
            -0.060404937274583945,
            0.07360877504229153,
            -0.01838065063564018,
            -0.14798966439050426,
            -0.0619480198196051,
            0.01722619465324984,
            -0.026813862355785447,
            -0.07193773740219672,
            0.006231306248411662,
            0.0008751708290334779,
            -0.13342488829141697,
            0.08441842871828704,
            -0.024579660188591028,
            -0.0040772487177778175,
            0.0594171313703566,
            -0.06496048993268923,
            -0.08309755481005363,
            0.06769752113772895,
            0.08551223494981099,
            -0.14395734630520193,
            0.042226052267999956,
            -0.00010184020304278697,
            -0.049370151225806166,
            -0.04502458240713146,
            0.06968699942185032,
            0.11850365282936083,
            0.008646941855529855,
            -0.045917846565157024,
            0.08008479465987957,
            -0.036493144133011024,
            -0.04234741301599863,
            -0.07106353922287406,
            0.012475015130652124,
            -0.006066463554740248,
            0.04328937713879438,
            -0.058485689776581175,
            0.025293816826601534,
            0.06364532444795679,
            0.08778282901798311,
            -0.0013571217423847888,
            0.07656927377327805,
            -0.00621739594714913,
            -0.04913616727294412,
            0.03813170511968723,
            0.0467204003284015,
            0.025097428169684688,
            0.04768286998593893,
            0.020090034665557394,
            0.048703628529163205,
            -0.07185582517221281,
            -0.0932169638098236,
            0.09959315255358786,
            -0.02883319266691728,
            -0.04163290218421298,
            0.1332584382004245,
            0.04193118888242061,
            0.0672221528733437,
            -0.06450584162733504,
            -0.09883907026378462,
            0.042647379447457015,
            0.056128805927602485,
            -0.08679682476876294,
            0.04762956881047081,
            0.07503999490901599,
            -0.09292571187186961,
            0.10774476624975263,
            -0.12894035558722905,
            0.003225976918988743,
            0.0553413020854192,
            0.040888989755152615,
            0.0438844270470766,
            0.058897294111187985,
            0.08847644280789944,
            -0.0001977006389628398,
            -0.04214605397015432,
            -0.04450407389240854,
            -0.0353974304335887,
            -0.04246015388021348,
            -0.1175600645305221,
            -0.011218767441994378,
            0.03686634626629442,
            -0.015286207102264226,
            -0.027619261184247016,
            -0.0037458197076374916,
            0.08968766193071046,
            -0.043023488375645576,
            0.08982804684392007,
            -0.18835728905230936,
            -0.1755940733473154,
            -0.006648146101353756,
            -0.017367109901342017,
            -0.05054093985455422,
            0.041090930327560504,
            -0.003576630825182464,
            0.08173355176731227
        ],
        [
            -0.11657900124543807,
            0.032437566929197324,
            0.051020811062692385,
            0.02070338148763831,
            -0.09429642518446099,
            0.012327223827823825,
            -0.0014638864897941809,
            0.027058867414269844,
            -0.055211962006272854,
            0.00019742517548987108,
            0.07028844152764537,
            -0.09287370359448391,
            -0.004741655944665849,
            -0.14601656818266093,
            0.08802657396645931,
            0.04282447924519407,
            -0.1409971652729648,
            0.007903201383605308,
            -0.013374884671793869,
            -0.09417554245948788,
            -0.01632022725591655,
            -0.21108802117091813,
            -0.09454050085330544,
