{
    "h0.weight": [
        [
            -0.363591596087948,
            0.07056564581517463,
            -0.09309878795018128,
            0.30705985892861687,
            0.48343836055779865,
            -0.6978513614582713,
            0.5051384862798954,
            -0.7454536037526515,
            -0.24418516239333146,
            0.6763101403252263,
            -1.8804052573506842,
            2.1464854856907896,
            -0.20408843274187285,
            0.17217959828069726,
            0.5382002696366585,
            -0.6438329537117845,
            0.27011012750998403,
            0.3217395066994554,
            -1.8838213451379757,
            -0.5877379126518256
        ],
        [
            0.13810872011526,
            -0.47867439824770064,
            -0.5694956275550245,
            -0.17001389342423437,
            -0.5200050855745348,
            -0.6323515380575101,
            0.7887955546087582,
            -0.19427179448497367,
            0.9238142602228733,
            0.7678831984651374,
            1.6087474540733302,
            0.2150949402895876,
            0.3915615088663426,
            0.13746117177344724,
            0.015291467161318364,
            0.180516554175863,
            -0.14653647028332936,
            -1.1429237589953858,
            0.28675384668550147,
            0.19692003422748816
        ],
        [
            -1.66747777185598,
            1.480069511288926,
            0.007517017324809955,
            -0.12131629706087092,
            -0.529991446782255,
            0.5274292251702256,
            -0.34279378824181533,
            0.30063870505002005,
            1.4740523510149202,
            -0.16293081266787862,
            0.2711414079725563,
            1.4615181706170841,
            0.14360888484856052,
            -0.621527741681861,
            0.0984547228427161,
            0.457586552299322,
            -0.005811775102093661,
            0.27664922627733485,
            -0.06653037840478485,
            0.5540682244023193
        ],
        [
            0.24563954666564283,
            -0.46539882352193646,
            1.0520460563244163,
            0.5313234873972545,
            0.24422049243203295,
            0.3439414676509729,
            -0.016703828238376423,
            -0.1448170336766103,
            -0.847118011382397,
            0.9864312751388192,
            0.5390112805180607,
            1.243905342241909,
            -0.7361188422115484,
            0.7723819663066418,
            0.36518748283255253,
            0.2692275695881571,
            0.6455050876218527,
            2.3356341310185935,
            -1.6174493947217223,
            -1.615229598609008
        ],
        [
            -0.19985261436026014,
            0.11350463480594068,
            -1.4453550697542061,
            0.4078597612478472,
            0.6404922197995321,
            -1.4917951473166007,
            -0.8040461274996566,
            0.44547901881355734,
            -0.4108102549755581,
            0.968306537368306,
            0.9197362883913757,
            -0.3022707497049764,
            -0.21135469873088153,
            0.21883444002195165,
            -0.15198237925389765,
            0.8867447261529222,
            -0.40589552328481737,
            0.9507656213689765,
            0.12405529734609977,
            -0.37540779089428
        ],
        [
            -0.1921864070376979,
            0.779223506347084,
            0.13457041198262792,
            -1.5448820289074388,
            -0.012499080887329872,
            -0.9000299347352843,
            -0.19845752602941755,
            -0.35946728717035226,
            0.9359358954766791,
            0.23044968205909994,
            0.5993776460738276,
            0.3854918128263779,
            -0.588273194028732,
            0.2624001122532816,
            -0.2628903013585211,
            -0.21346052151474082,
            0.07598061848399629,
            -0.28593386405510257,
            0.9042144189261999,
            -0.5272220565693057
        ],
        [
            1.360283375894661,
            0.13300084786690625,
            1.1329245359255606,
            0.14045957635227976,
            0.041580814609011196,
            0.06929704211449259,
            0.014611106052054955,
            -0.014945246820881787,
            0.04727760539215101,
            0.07039974273628577,
            0.11508996479363637,
            0.08504193358186786,
            -0.04294027772041712,
            -0.07920718238348072,
            -0.010915418323888027,
            0.019977077760006037,
            1.3688990490333337,
            -0.38743657517811886,
            -0.03204214106269259,
            0.29747539330471157
        ],
        [
            -0.24505451525567776,
            1.596641247142805,
            0.042938826317599633,
            0.3518732962030218,
            -0.13606002709431367,
            0.05036623748800483,
            0.9154709874274091,
            -0.08708681309817255,
            0.041017273602361765,
            -0.22015227255007608,
            0.1501825595076244,
            -0.7001377373956138,
            0.7684269219869381,
            -1.078305475611408,
            -0.045550224856193096,
            0.18515465941263934,
            0.024151255262452622,
            0.5352161364319463,
            0.19984875884548234,
            -0.14545762373762466
        ],
        [
            -0.22657492777260504,
            -0.4667230884087781,
            1.184455267045474,
            -2.3215704589241963,
            0.48429017116174106,
            -0.3720208339033525,
            -0.10107678827189245,
            -0.23894280980210575,
            0.2964785607600641,
            0.7954835982924944,
            -0.7076471022478915,
            0.12424539698843923,
            -0.00048592849701798243,
            0.07260637191134622,
            0.26046895945724285,
            -0.10225182854537972,
            0.4137533230473156,
            -1.0211425172172799,
            -1.478731607185632,
            0.2674043355007117
        ],
        [
            0.2969451188701191,
            -0.12868192597972866,
            -0.31344361825335426,
            1.6458585477001004,
            -0.17268825364057702,
            0.3046545036597325,
            0.1013513509582646,
            0.06970462318692232,
            0.20516245098979355,
            -1.4200471134089963,
            0.675394069580247,
            -1.7412007983206181,
            0.12755087623115627,
            -0.6060711808054093,
            -0.02011570429392575,
            0.09728758013519037,
            -0.5152380500370922,
            0.6091947352083641,
            0.39471710684938066,
            -1.2686179363665302
        ],
        [
            -0.44078974915763447,
            0.6783965047501184,
            -0.012833662526230069,
            -1.4533901113855063,
            -0.18720010002261583,
            -0.1261970172080562,
            0.36085344200256203,
            0.1879577282121908,
            0.31890984391001925,
            -0.2663507176052137,
            0.13695709890551785,
            1.7333553110426507,
            0.4482641156907447,
            -0.15498314144194952,
            -0.35213909542048977,
            -0.033592935294181885,
            -0.07432738940726544,
            -0.706306078194034,
            0.2574136449473212,
            0.24091826798647856
        ],
        [
            -0.9371515047855432,
            0.19783454480838975,
            0.016421519642556077,
            -0.5726781154365251,
            -0.17315917994852406,
            0.6194046342236742,
            -0.39915660839335204,
            0.4698925825240755,
            0.5644297654611257,
            -1.2415464314856226,
            1.9244941788599899,
            0.02983466918133677,
            0.3941264397094995,
            0.19483187431045368,
            -0.3941133569140947,
            -0.6006071458711805,
            -0.25366569132187694,
            0.2750735535878191,
            0.3184310372448878,
            -0.16686216257257153
        ],
        [
            -0.9274614547923216,
            -0.6961922105103041,
            -0.012025632795063886,
            -0.3071384722058523,
            0.2118878655580287,
            -0.22576229782791976,
            -0.5743626834985245,
            0.9029277086148437,
            0.24685166708072992,
            0.5910957757909316,
            1.5270058402744446,
            0.005742371184938611,
            0.6861480325057753,
            0.1127875891313375,
            0.36874109288485274,
            -0.25836747154156814,
            0.15905442176949158,
            0.08296038508892521,
            9.681755668598928,
            -8.654414951550653
        ],
        [
            1.1851955108595487,
            -1.1488697652077897,
            1.1438087984690442,
            -2.4206840769884095,
            -0.10568821043119846,
            -0.26533957751829734,
            0.4887564666782458,
            0.8250377161146619,
            -0.28354331721520576,
            -0.06255540487651003,
            1.3738397352411018,
            0.6626980502932633,
            -0.47596622345396233,
            0.5267227592715195,
            0.3100427446576265,
            -0.08052593553257546,
            0.12379441008696432,
            0.12468042594320015,
            0.7851620796925158,
            1.3341560543943722
        ],
        [
            -0.0400724806718829,
            -0.008403035756974157,
            -0.006973451563649698,
            -0.05048439000963789,
            0.02193385157461148,
            0.009720790270120822,
            0.007865547870316835,
            -0.03310285170925641,
            -0.40659777734338554,
            -1.661708480424053,
            0.0757334109990528,
            0.6220416127710605,
            -0.012847154768416837,
            0.010670153798400047,
            -0.01947117787996516,
            0.007740618555822862,
            0.0011661709478273962,
            -0.11654341216828877,
            0.2025579022562666,
            0.8660157356314154
        ],
        [
            0.5307525814294898,
            0.17850252217129922,
            -0.5586278965006393,
            -0.5142910813277869,
            -0.06682929990063113,
            0.12133769414629912,
            -0.42938777352337865,
            -0.29279648782607814,
            -0.6965026565404224,
            0.15067506466758473,
            -0.565324977275471,
            0.4660617758667548,
            -0.28882991750272696,
            0.5954717428822088,
            -0.5067794897126522,
            -0.38931188996016025,
            0.01725811493246798,
            -0.27200276767416715,
            -3.6568965508018216,
            3.170253110299381
        ],
        [
            -0.44370447732812585,
            -0.10377259593116041,
            1.1143345851237314,
            -0.594603304321419,
            0.20150995847228548,
            0.5382542592335254,
            0.3468579390955671,
            -0.18059674601680914,
            0.07842929335261245,
            -0.5158930856477053,
            -0.30588314355686635,
            0.878476440437547,
            -0.27626587068203085,
            0.7852106769637809,
            0.49800198337415263,
            -0.821356013894114,
            0.8518683660511491,
            15.22080968786846,
            0.29538220419716404,
            0.013317500321563012
        ],
        [
            -0.011915071684240235,
            -0.03151839247698796,
            0.04434046105551371,
            0.07148719930222033,
            0.008021009272221259,
            0.049789637478958614,
            -0.019541639292691607,
            0.026419993568507123,
            0.5437338334240962,
            2.2251632151931413,
            0.5017046948848475,
            1.3696028745057016,
            0.01577916935324424,
            -0.025751570524544885,
            0.005372152876666815,
            0.026517048001473396,
            0.02100716386724298,
            0.16051487901051972,
            0.6914808149537419,
            1.43551923459113
        ],
        [
            0.009181908253651415,
            0.006250608364905938,
            0.01004554952892075,
            0.03871870433720266,
            -0.009489467629572687,
            -0.0011398651127549446,
            0.024415634395930183,
            -0.004810708150425076,
            -2.052122700187265,
            0.7770700255766203,
            -0.6977504045978323,
            0.2586559506012715,
            0.012646357778949643,
            -0.005552692061330064,
            0.001382252207618738,
            -0.001364378284884486,
            0.014237916986118648,
            0.015519036664045607,
            -0.7683401688616948,
            0.3363584261892445
        ],
        [
            0.3234358511279051,
            -0.6179137303051117,
            -0.7670799914519097,
            -1.705002064928264,
            -0.1460023069098663,
            1.0555708561468011,
            -0.27586978719097205,
            0.04248480449647916,
            -0.17921809664090538,
            0.29759298391815003,
            2.5617032836906057,
            -0.16382958849518886,
            -0.40086881399477875,
            -0.836058331106909,
            -0.29142658516433123,
            1.202120196383647,
            -0.48947317119357875,
            -0.17665778589606834,
            -0.44011918057224353,
            -0.6383494848939865
        ],
        [
            -0.9157395308879165,
            -0.20133936983978,
            0.11542463482737989,
            -1.3997946127891543,
            0.734033165208195,
            1.0818803012562757,
            0.20380505527258577,
            0.2520312466631626,
            0.17709793813605298,
            -0.8080059378537712,
            1.230104062627699,
            0.8605236637642604,
            0.038533693229784095,
            -0.06488168384601255,
            0.2573078442508203,
            -0.11992434780856687,
            0.5498592698059136,
            0.15022893618740166,
            -0.1991847023165976,
            0.21063187634406716
        ],
        [
            0.3456416644494734,
            -0.6995893760132775,
            -1.4022499407750786,
            1.6609418225616766,
            -0.13876782048065756,
            -0.8489850940807857,
            0.856758710734162,
            -0.13686341118366202,
            -0.6927021006616199,
            0.1786366661105469,
            2.6729490039235557,
            0.7948277965762134,
            -0.11743624145168835,
            0.6462560565819748,
            0.20437021400507238,
            0.05002015515787897,
            0.6266413933481145,
            -0.7222128225308346,
            -1.3286931812351916,
            1.401821001268511
        ],
        [
            0.15516062466687722,
            0.9459156836791308,
            -0.1387107695761686,
            -0.1998633260638897,
            0.47064612302503833,
            0.18448583264020874,
            0.14732083446743663,
            0.19057760099843682,
            -1.1103838430854518,
            0.14341617545759705,
            0.019888221495495028,
            0.5176536752477405,
            0.06546931746554892,
            0.6929766808045651,
            0.18057679137907184,
            0.08030518672976883,
            0.11180556972869672,
            0.252864343946753,
            -0.4598341449261057,
            0.28528044249783624
        ],
        [
            -0.4097026841335308,
            -1.582806015576163,
            0.44378931732336635,
            0.15917226931361486,
            -0.4379394766798001,
            -0.943977943657782,
            -0.17906914382278954,
            0.20293297426789816,
            0.7964419142355127,
            1.4310035193836927,
            0.05789033101453658,
            0.8953126058202424,
            0.3907538742108577,
            1.0486996385128498,
            0.25243357777199277,
            -0.18481293993613737,
            0.05457819563605683,
            0.16958371530992966,
            -0.030349450192475088,
            0.3035367997794599
        ],
        [
            0.11448132890681703,
            0.6244244649890334,
            0.21819747103165157,
            -1.3850262732599874,
            -0.24612873959866072,
            -0.5033149444795005,
            0.4012682326280634,
            0.03622904581316027,
            -0.36642755071298855,
            -0.7223828622788876,
            1.5012056393476476,
            1.0341563146831805,
            0.05354482927816128,
            0.22032257325235463,
            0.3111667860130719,
            -0.9750459306262734,
            -0.4160033670540479,
            -0.32068256654919086,
            -8.764955465106338,
            -7.508247899372923
        ],
        [
            -0.0386017646509165,
            0.7962092840278719,
            0.6787605937488322,
            1.0793906065737753,
            0.827854095125178,
            -0.6857070448823394,
            0.3222921193421648,
            0.6093009372713004,
            0.11757742876635283,
            0.6588142006134653,
            -0.14906597731606153,
            -1.5979917146189875,
            -1.28379298244088,
            -0.5247498554165395,
            -0.21918191662591088,
            0.6123355412401923,
            0.17649068802126383,
            0.4573071924592279,
            1.0998865498787167,
            -0.5789189850301445
        ],
        [
            0.1592880316455263,
            0.4803862849149358,
            1.1428259885447565,
            0.2827047305351185,
            0.25070735135457234,
            -0.7257013329658496,
            0.5916431486175394,
            0.8291092258861813,
            -1.561922280400913,
            0.2939083642458203,
            0.548942583447608,
            -1.234594501862759,
            -0.012786032719692973,
            -0.20021458426233824,
            0.8203020684187314,
            -0.31165109644894123,
            0.9161185677096622,
            1.0897770838772682,
            0.8100367692710411,
            -1.3144226599910527
        ],
        [
            0.06395161677753848,
            0.7580568245351421,
            0.24727500791185975,
            0.2820944093766749,
            -0.2871699756135253,
            0.31355150392486575,
            1.0143820228346103,
            -0.035232009551284686,
            -0.4110730848874533,
            0.5065342124464749,
            -0.5389449605457032,
            0.5695484574983939,
            -0.08496663146771696,
            -0.6017768892512205,
            0.41706071769601893,
            0.28535199804480477,
            -0.23934722746199263,
            0.0818906467049188,
            -4.16725537720655,
            12.002128091227615
        ],
        [
            0.007555110441642361,
            0.0008612038885190918,
            0.009183291147541342,
            -0.008152079095595004,
            -0.005958499304777833,
            0.004113651794184685,
            0.015932311965003203,
            -0.007500936177149437,
            -2.061102890055053,
            0.7725233148443187,
            0.14022733812342172,
            -0.06502370134269485,
            -0.0032667859741645836,
            0.002223179947415391,
            -0.0006413103252348541,
            -0.003583435542231165,
            0.004893527266324609,
            -0.033728516508343055,
            0.24159608334586186,
            0.0036113533678616074
        ],
        [
            -0.797483395971099,
            -1.3891269098284191,
            -0.8617124358407041,
            -1.6648187243098558,
            0.023657434775059886,
            -0.1593767437673616,
            0.08116457726211868,
            0.05130971087733562,
            -0.037785972383238234,
            -0.007733689875925614,
            0.09196255477562415,
            -0.005082192242099588,
            0.013314435216071318,
            0.037282033048053484,
            0.009461048649094101,
            -0.03740296300676355,
            -0.6135628025760433,
            -0.8436998334762322,
            -0.05757379148330499,
            0.6703591290864507
        ],
        [
            -1.2569467647007424,
            0.428079297871231,
            0.5618563168556236,
            -0.15389068047480864,
            0.013001136335560532,
            -0.013078713784746213,
            -0.006431165535370052,
            0.015003471795189679,
            0.011247029949857688,
            -0.04510476888384475,
            -0.057454516353957236,
            -0.027113929984922312,
            -0.003804829383207783,
            0.03968167163366981,
            0.003577758375414842,
            -0.00971646564191636,
            0.7457523003132986,
            -0.24967101661626365,
            0.046134585164859035,
            0.03656991998202369
        ],
        [
            0.19899541031398285,
            0.2194576402404269,
            -1.084510013670772,
            0.7695422854645573,
            -0.1576310604494408,
            -0.3211927900593253,
            -0.2568268452297424,
            -0.09784618918583915,
            0.2473239601981592,
            -1.17199037925297,
            1.305215758552262,
            -0.3178786864007604,
            0.2237862957997373,
            0.2697293656390847,
            -0.16565108581073765,
            0.7703883662888054,
            -0.9484655232168022,
            6.491243221877781,
            0.7018145026987513,
            -1.6087887979843833
        ],
        [
            -0.6523815075526044,
            -0.5665487062067295,
            -1.690050708413048,
            -0.48541707299144543,
            -0.48638282483754297,
            0.18360134926955546,
            0.012724150379524402,
            -0.39645922333023786,
            -0.03656241664293846,
            -0.7470254342976186,
            0.9726710306195407,
            1.096559347462026,
            0.7057503159921087,
            0.5693842911481972,
            0.006551239492299106,
            -0.3058048554826759,
            -7.673420336644221,
            -5.353627899412929,
            -0.2800783004009984,
            -0.0244127248232026
        ],
        [
            0.49231252793462327,
            0.17145391175725833,
            -1.2320301822085824,
            -1.164313031139101,
            -0.8488243091455699,
            -0.8518111595937726,
            0.16953283550853357,
            -0.34925463438342824,
            -0.4080185373322193,
            0.6523809468373496,
            0.06262288706509016,
            0.4975251810926643,
            0.33719723378712874,
            0.7264924503714664,
            0.266246542229894,
            0.45763720985846185,
            0.26162587520982855,
            0.0030710164231446705,
            0.28501549701124107,
            0.9235243801044503
        ],
        [
            1.430703266508451,
            1.2315698486503506,
            0.4649918169603571,
            0.35972739859200775,
            -0.023500008795001803,
            -0.018392824521978254,
            0.009088470983417517,
            -0.0011667514853566268,
            -0.005306920974526261,
            0.016669475148156948,
            -0.0029413569682678335,
            -0.0010355305437471873,
            0.0008168031079420294,
            -0.007630807348662844,
            -0.0016459981110334481,
            -0.004910503573202236,
            0.5533931214717677,
            0.5823351630539777,
            -0.06284557790756161,
            0.051222813329108004
        ],
        [
            -0.15204809790737642,
            -1.0055929296556143,
            -1.3222788687641385,
            1.6382484299619333,
            -0.5699793199695252,
            -0.37503204319634387,
            -0.9295560286731331,
            0.5879243701736065,
            0.7077612695738784,
            0.6880153437434537,
            1.7569466486019032,
            -0.7794723511395318,
            0.1161548772641896,
            0.5300609666954401,
            0.4109143147445456,
            0.06511462159643222,
            0.5986476513989298,
            0.16650046929437348,
            0.16705851482727624,
            0.8810821209357874
        ],
        [
            -1.5337311473882405,
            -0.7025738302173731,
            0.1432275395948336,
            0.0828093869858625,
            -0.5575274376995988,
            -0.04150807816186577,
            -0.017991257939488987,
            0.17755928722249495,
            0.6019888371704513,
            1.0784093073444556,
            0.1564997384974611,
            0.4099729516470765,
            1.245798588952917,
            -0.2656784604520766,
            0.10320688098201326,
            -0.08166563263435309,
            -0.06850789761598841,
            0.44301794325074323,
            3.345719857193872,
            -1.2334938433992095
        ],
        [
            0.7255176627688632,
            -0.0010603765104267799,
            0.30333123168753245,
            -0.5877778156796918,
            -0.39333934914821667,
            0.9808704039057033,
            0.07826614686389598,
            -0.19435557859285257,
            0.1630821476631389,
            0.4761109814203097,
            0.4616744845966976,
            -0.2044426910325246,
            -0.41963865576679354,
            -1.3153831309395783,
            -0.16145659413951888,
            -0.39097898213266696,
            0.15515020595511703,
            -0.5692786804533012,
            1.162765523428708,
            -6.331841437410555
        ],
        [
            0.17112473817995486,
            -0.42239047143769043,
            0.5884006714963079,
            -1.7233966046749534,
            -0.24369941440741644,
            -0.09361199996075058,
            0.31754601467609916,
            0.016654532789318964,
            -0.9737987100383343,
            0.6503088836184822,
            -0.19411468235814497,
            -0.8819633956216065,
            0.5509446499232861,
            0.41007638720720896,
            0.14835666728600624,
            0.031114288878891814,
            13.61624066752237,
            -6.730367357849831,
            0.16150311306568313,
            -0.10623907912200689
        ],
        [
            0.09049505285075628,
            1.0676899677894427,
            -0.29481382472237716,
            -0.2574887080239125,
            -0.15900004854928315,
            -0.1961717139630851,
            -0.26053028698992275,
            0.6249671942197413,
            0.14028966164824044,
            -0.8168603178271787,
            0.22941783372737343,
            -0.5677789729995214,
            0.14059409619901103,
            -0.1660709185924134,
            0.5320476455899376,
            -0.6729952222360068,
            -0.17367813086595982,
            0.05173495230909031,
            -1.9838790580028247,
            4.623362353987053
        ],
        [
            1.5635667862744607,
            -0.8666552828517895,
            -1.6639181477229543,
            -0.7238012474449462,
            -0.4497951571322186,
            -0.7007207419962478,
            0.18394373573076475,
            0.037698055617904916,
            -0.14442116334496086,
            0.349952230891846,
            -0.3329923695544504,
            0.7421358355559204,
            -0.7410380297848358,
            1.3315754182980495,
            -0.2869467272774155,
            0.04977573793223801,
            0.6266213032781288,
            0.4126677771060666,
            0.0200768845642957,
            -0.5625213360846546
        ],
        [
            0.2247747002239979,
            1.0115855928726156,
            2.0128130571856913,
            -0.09224665881644138,
            0.5721955955907031,
            0.2823198311949011,
            -0.5271596784626529,
            0.19219555056167004,
            -0.8330937411853871,
            -0.5842979113628004,
            1.609348651332017,
            1.3650277509997757,
            -0.2032659317393062,
            -0.2741573261558662,
            -0.1482983843962966,
            -0.012683640204452102,
            -0.12626741602865701,
            0.058013853699148826,
            0.2930890851521813,
            0.09639791055169221
        ],
        [
            -0.47121758407442005,
            1.1316876877157225,
            -0.5417385338892515,
            0.6935263084206104,
            0.44610601691725477,
            0.2570328270428611,
            -0.25266946289394693,
            -0.26080120662133954,
            -0.03547043041616113,
            0.12268707980763746,
            -1.7440942793849907,
            -0.6227239661589962,
            0.2054068986367752,
            -0.5165217959878111,
            -0.17672322425351128,
            0.3216186733342562,
            -0.07583789850474669,
            0.29510108780378047,
            -0.9545071363749494,
            -1.638440339633433
        ],
        [
            -0.11257386595003215,
            -0.6638332587578228,
            -0.27442562628526584,
            1.4339179184999797,
            0.6500845130536194,
            -0.6705855440095588,
            0.5891039019898014,
            -0.02446128435128514,
            0.06086869001735947,
            0.0035374586331021734,
            0.2517891632915355,
            -0.4370978478984001,
            0.013777465607150837,
            0.325515221971116,
            0.006729595010558107,
            -0.636864353259425,
            -6.792436267004589,
            4.052861182697592,
            0.20088075796766627,
            -0.12787536161589982
        ],
        [
            -0.6470583514922271,
            -0.045264382674086674,
            -0.20640585265737563,
            0.23716404304117655,
            -0.4367838982204098,
            0.936929365484081,
            -0.42245407766790755,
            0.3741688971008803,
            0.8883289598266655,
            -0.5669099792952799,
            -1.1768322305194285,
            -0.5656843509074727,
            0.49204111417588076,
            -0.27167172891293323,
            0.04321185009415137,
            -0.43594190026942137,
            0.003214335884495246,
            1.1949486025189806,
            -0.5796181437503716,
            0.15959795534783458
        ],
        [
            -0.46378489961629016,
            1.6256681270563753,
            0.6487977547561011,
            2.0831661319195924,
            -0.23336046123553897,
            -1.1687729079294047,
            -0.10340392158450991,
            -0.13329659038571165,
            0.39131889636262857,
            0.7400591563519482,
            -0.7887973843148147,
            -1.126820617458568,
            0.6328906682061985,
            0.9074751618694811,
            -0.045398451676912074,
            0.2582803179199876,
            -0.4088887842400368,
            -0.0533682180144921,
            -0.14378524010332364,
            -0.35169257470840337
        ],
        [
            1.790745819436463,
            1.5754527168620918,
            -0.1993280371457048,
            -0.24229837806776988,
            -0.03823740165767893,
            -0.021770017993464737,
            -0.0007254226451732129,
            0.0003850817140803814,
            -0.005569810595956417,
            0.019711143070846267,
            -0.008412787579539952,
            0.013893762011160911,
            0.005795081727502857,
            -0.014470410252924027,
            -0.007916599701432976,
            -0.002598842731838383,
            -0.20386007778432857,
            -0.13264352481406058,
            -0.06246724816599957,
            -0.04045824932269492
        ],
        [
            -0.6623886915113821,
            -0.5963141508542815,
            -0.12712378582700967,
            -0.6566047659005774,
            0.10916326649700614,
            0.3197059730482354,
            0.1217812983616744,
            -0.08747157111743264,
            -0.6367147294993695,
            1.5201211205669942,
            2.0244082181111867,
            1.547181291346872,
            0.08087306927132384,
            0.21839268603138648,
            -0.12511657013370805,
            -0.19423751615265866,
            -0.1813431271406286,
            -0.188485562081388,
            0.05687861279205038,
            -0.385425587770861
        ],
        [
            -0.2947817663327089,
            0.14350778277649612,
            0.34175531238241635,
            -1.7705122141279883,
            0.14290115600526673,
            -0.4956654547462159,
            -0.20445025729154376,
            0.03707983199599103,
            0.11600717885926735,
            1.107961817983879,
            -0.992001517598157,
            0.93515167339915,
            -0.3890551917200469,
            0.9813648496398218,
            0.09301291421823879,
            -0.02866118414398345,
            0.07006332105780119,
            -0.7912281398100637,
            -0.04066241274945583,
            -0.14199596591119076
        ],
        [
            0.5422940631626484,
            0.14956762383575842,
            -1.2456948696820955,
            -0.3263189682520767,
            -0.20980659156129933,
            0.035491648560442034,
            -0.44347656665992374,
            -0.3539017401919356,
            0.06077228572906768,
            0.5843332287972717,
            -0.8247119253142821,
            0.18409841293231768,
            -0.5950443281855462,
            0.04498238941607154,
            0.4231663614222628,
            -0.5285592995466598,
            -5.331880688192803,
            3.563562680080408,
            1.1409520906212354,
            0.4984972360298204
        ],
        [
            0.019459216678178883,
            0.45602091237956727,
            1.4684806454225916,
            1.975929303452606,
            0.2323685289998931,
            0.9010539361459321,
            -0.4579618097327345,
            -0.35475088307370184,
            0.1176892581147125,
            -0.5242170528026272,
            -0.370328373290173,
            0.32223991947807606,
            -0.5383320341363896,
            -0.6094369436691018,
            0.2028938754549303,
            -0.4380094343548157,
            0.17352595137241228,
            -0.12281399409176727,
            -0.010336988995485394,
            1.8150795980414351
        ],
        [
            0.027677308945717405,
            -0.8902178517727022,
            -0.4512541815967124,
            -0.5850733272166826,
            0.22129281601845086,
            -0.729761044347461,
            0.4100157839908219,
            0.13965473437432707,
            0.017636307370295503,
            0.7235187769556035,
            0.8660082326049235,
            0.5375674430149724,
            -0.5212680153885327,
            0.4032937403844594,
            0.022749825192592468,
            -1.1406163537950194,
            -12.054514702305877,
            -7.587518230015199,
            0.2395464622941843,
            0.1417795989316274
        ],
        [
            -1.0469726829594517,
            0.6247751925560457,
            -0.5653228331539843,
            -0.16225961940704822,
            -0.36344651906848163,
            0.001609768231328186,
            0.41451473424478685,
            0.12238214416085173,
            0.3700047748825465,
            0.1582030255845334,
            1.5183799703790855,
            -1.6720980492397597,
            0.36446690361655,
            0.3401355077928679,
            0.25778073429267795,
            -0.2626056774010665,
            -0.05592024131449809,
            -0.49488728986270203,
            0.5525156302395868,
            -0.532795294869263
        ],
        [
            -0.06579695940998609,
            -0.052942825112876846,
            0.061975270259728925,
            -0.08569540561848905,
            0.05392169633616666,
            0.06351846586920792,
            -0.010286442444991382,
            -0.009936595546729968,
            -0.6758420607808304,
            2.3245490840687313,
            0.1894022025175566,
            -0.6790683995996654,
            -0.060248131203565244,
            0.033109469007467404,
            -0.03202807460403991,
            -0.0334290894277657,
            0.019650061381916786,
            -0.007165464545326587,
            0.4206927901245784,
            -0.8239754852243271
        ],
        [
            0.7094761064450222,
            0.21006485259116356,
            1.5156888701284406,
            -0.9775754426276007,
            0.4821185230745428,
            -1.4342261916263106,
            0.25078352220599726,
            -0.564101471449329,
            -1.1236773020963657,
            0.74056158393716,
            0.8854049257796737,
            -1.0521284094938357,
            -0.5062422201484116,
            0.6243045959546711,
            -0.14247500203363248,
            0.21344448391476867,
            0.4037799385697075,
            0.3638652458043964,
            -0.10773373812862683,
            0.05863895669952171
        ],
        [
            -0.10307452544634674,
            0.9364147546446943,
            1.2732917209855943,
            -1.341425243846039,
            -0.35544343261587374,
            0.3963689943254356,
            -0.09926720549314079,
            -0.2994790342814993,
            -0.4995159537645137,
            -0.23539561022164263,
            0.14071652137453527,
            0.9932462714051421,
            0.32377411367989556,
            -0.06413203534249352,
            0.36710526995094245,
            0.1209762635782467,
            1.5781448917301335,
            0.9629469374535853,
            -0.137534323136823,
            0.2121439008285563
        ],
        [
            0.8697366637257271,
            1.3047560298383878,
            -1.2285079631964628,
            1.1003914285408807,
            0.3608905819544992,
            0.1595055324823756,
            0.16589366467979505,
            -0.05683390713995562,
            -0.1693133209193241,
            -1.282108410517215,
            2.1659456625274576,
            0.736101626368804,
            -0.9003795366981107,
            -0.04885146851433269,
            0.08291464734145887,
            -0.761656321424237,
            -0.45060168761381236,
            0.224340282720493,
            1.1336480602625638,
            -0.40146760684285965
        ],
        [
            0.6882281681928308,
            -1.4943306642486058,
            0.26254076245194863,
            0.21874889594524352,
            1.3743040225604783,
            0.3777224471028072,
            0.16391344265643493,
            0.27939623459436436,
            -1.260359721232115,
            0.6233862341607105,
            -0.7958280369659722,
            1.1109970755678338,
            -0.8347930690110049,
            0.4769498108226796,
            -0.19823017076335722,
            -0.14344528464980233,
            -0.09431180707433187,
            -0.13044166059166948,
            -0.9357883436356615,
            0.07720409061826944
        ],
        [
            -0.6787853302903845,
            -1.1193896624071231,
            0.36710758837243135,
            -0.7351360524236236,
            -0.2306092715397482,
            -0.05086031950620019,
            0.3189654517900939,
            0.18744360524437567,
            -0.1967666016151857,
            0.9931752534323369,
            -0.964572591191538,
            -1.090167853477054,
            0.9598484010641839,
            0.30936602740447683,
            0.12218595862167926,
            0.8347939877448379,
            -0.41027006041287895,
            -0.04510684828852112,
            -0.9080255211174701,
            -0.6409630087881086
        ],
        [
            -0.06390538757099562,
            0.021386654075640842,
            -0.01270459660720809,
            0.03806576673574405,
            0.034097549938863325,
            -0.007978897379300487,
            0.008305023819642172,
            -0.024288143088755675,
            1.7154980024541442,
            0.2072743652520602,
            1.475074492068478,
            0.15926867998724842,
            0.021896496061857982,
            -0.0022029099254708864,
            0.023180768160270836,
            -0.017363561378620086,
            0.02837793963853302,
            0.04720056565158294,
            1.2330300267229286,
            0.2528042001307758
        ],
        [
            0.7250673350111198,
            0.9211682121420851,
            0.04338341439278425,
            -0.7819686299975047,
            -0.04745905436556068,
            0.29822727014922956,
            0.30621941326708957,
            0.5855024571716436,
            -1.2576190953298307,
            -0.5603522862226968,
            -0.034215901697427026,
            0.8241599271295555,
            -0.06729483987644973,
            -0.6332105106497216,
            -0.004904673143168582,
            -0.0022875124682620075,
            -0.06115268097539724,
            0.38837919700999085,
            -1.553137562778187,
            5.32597313316324
        ],
        [
            -0.3942473911520617,
            -0.5044311617483938,
            -0.25006970544516705,
            2.20482428423022,
            -0.15971621431070473,
            -0.03272156852535794,
            0.6980659079474464,
            0.551514180532736,
            0.9768747007732191,
            0.25457251826025656,
            1.1542761414410514,
            0.9067985099335037,
            -0.3178153820880946,
            0.7274321588233191,
            -0.7115478956752856,
            -1.0144832441205278,
            -0.03080069346256863,
            -0.09880384187940681,
            -0.38743821782805943,
            0.1908186699886969
        ],
        [
            -0.19307136290083862,
            0.38993851920807404,
            0.6348116135399627,
            0.23348243130641547,
            0.493426889588149,
            -1.053470970028162,
            -0.7712005778538504,
            -0.20548436737759962,
            -0.5684050211542369,
            1.157398073535652,
            -0.4768968933971615,
            2.205586113357915,
            0.3193428370085994,
            -0.06804247371238524,
            -0.061295168162787086,
            -0.5441324389523345,
            -0.12622419482877278,
            0.03135770180480831,
            2.573256045135052,
            1.0310232697628519
        ],
        [
            -1.3523727774590635,
            -0.07614154844646726,
            -1.8366054543281902,
            -0.09644961735396693,
            0.20240274885102605,
            -0.40331096590368465,
            0.03881093253576006,
            -0.15387899532982519,
            1.3463745836348142,
            1.2364947708945322,
            -0.2096340383264232,
            -1.3952050155392137,
            -0.44791314103028235,
            -0.07385529953668177,
            -0.023903027780514584,
            -0.22758617311047513,
            -0.21887369710947285,
            -0.19871488270283327,
            -0.7907133130710279,
            -0.10837264295141938
        ],
        [
            1.4018569778971839,
            -1.1462383325692787,
            -0.34625478898259265,
            1.0143740969115773,
            0.2531600813932055,
            -0.3924203504437421,
            0.17460527155675082,
            -0.2305723643375149,
            -1.1267800843192868,
            0.26008122707166526,
            -0.6546138117990152,
            -1.234564646802489,
            -0.18308835248431157,
            0.3335798938996943,
            0.035589893708448096,
            -0.3380574095216919,
            0.22414210763165435,
            1.029571529639811,
            -0.39285796304116355,
            -0.19898243130908624
        ],
        [
            0.6170612582836797,
            0.47045991249954144,
            1.0073904567986383,
            -0.26738880175527646,
            -0.40585774898041377,
            -0.28194158025925303,
            0.29753758447369,
            0.03998828057236606,
            0.39647435248979124,
            0.4756317754704401,
            -1.1659907448832008,
            0.4356504560932605,
            0.02859293222461031,
            0.758300810555751,
            -0.14047339195902314,
            -0.7773633920249333,
            -0.0472976469360176,
            -0.12429878466860217,
            0.8690627731503002,
            -0.2770336927227732
        ],
        [
            0.628711789739939,
            0.8115324027658125,
            0.25800239958654453,
            -0.8867265629460834,
            0.4250664911314067,
            -0.7298267426051226,
            0.20204431523339159,
            -0.22443239615348776,
            -0.5586184333161427,
            -0.9103102911413752,
            -0.2724928568539124,
            -0.2590736840314958,
            -0.1581840683851592,
            1.4975182638964912,
            -0.35732020970793243,
            0.27598475797049093,
            0.28636576543576653,
            0.1812112953138863,
            -0.33907231958478407,
            0.08606822215251772
        ],
        [
            0.6701787536495559,
            0.6469679050624787,
            0.41783478958347847,
            1.753797492211229,
            -0.7508055436036327,
            -0.1562540765030775,
            -0.24928468623868202,
            0.339562823799049,
            0.4336582261788968,
            0.09329474853207516,
            0.1259953551317944,
            1.1928202871498428,
            -0.4107745161858567,
            -1.1846407629917657,
            0.9548257522273741,
            -0.21882282481294602,
            0.48191285176748044,
            -0.06484711852965067,
            0.16538432395127853,
            -0.19789828338929202
        ],
        [
            0.44094374158598815,
            -0.3893802814327798,
            -0.12115779937233871,
            -1.1778200643676797,
            -0.7498381861094287,
            -0.040420516738084895,
            0.7250110407871233,
            -0.39519065909867923,
            0.20645228688613773,
            -0.6086170351628478,
            0.17833715735815098,
            -0.279374603587046,
            0.2812647536047648,
            0.3368109890864636,
            0.24902207165516782,
            -0.24249089415645647,
            11.085053670435556,
            -2.5473176621372406,
            0.07889190889674536,
            0.25314139818227316
        ],
        [
            0.0163727424941616,
            -0.011633656111429478,
            0.0070445560933340215,
            -0.030081477596931867,
            -0.01724686582188924,
            0.02960109270290807,
            0.004615233712982284,
            -0.010533622651064651,
            1.5929829599555114,
            0.4078505327380217,
            -0.5572638845456719,
            -0.1686298641809175,
            -0.009231957105180398,
            -0.02654119940916579,
            -0.012575866089878039,
            -0.0042773858357787325,
            0.0016259770775121638,
            -0.03687171062618681,
            -0.7956448661257138,
            -0.21444626513710804
        ],
        [
            0.5301566638391497,
            0.4233731000302279,
            2.3690037256635277,
            -1.2528129481181047,
            -0.17819688182900395,
            0.09202777574128887,
            0.8688363666150748,
            -0.5452964391007965,
            -0.4006608228865972,
            -0.06399042316721383,
            -0.5260968482968452,
            -0.9512320990761093,
            -0.1391212482178294,
            -0.39972378248285556,
            -0.6576883971172773,
            -1.0151735836008646,
            0.12999919286550785,
            0.3582476829765229,
            -1.6635434431114544,
            0.8780973982941024
        ],
        [
            0.41829019287831876,
            0.18799593829478406,
            0.0031446223600581176,
            -1.0414918462209382,
            0.7410814772438996,
            -0.6080586835220075,
            -0.9526460158095589,
            0.6330125961897367,
            -0.7060854944865103,
            0.27284207771479635,
            1.5867432596260647,
            -0.6965394942299167,
            0.23227744162436254,
            0.09592792759134063,
            -0.3462618006370542,
            -0.2722508325424763,
            0.1090664031798045,
            0.24637614456542112,
            -0.4783295691814537,
            3.547368262857821
        ],
        [
            0.39914672640489485,
            -0.7091928868557551,
            0.28694414024754766,
            0.41418227205850405,
            -0.29845026889046505,
            -0.6298852995210374,
            -0.3474691681902399,
            -0.12408328706136385,
            0.3394652420275064,
            0.15167254862491106,
            0.6047555066966392,
            -1.395024850050459,
            -0.758528456135498,
            0.8794910994338716,
            0.44625484354101286,
            -0.2056245308626858,
            -0.3925310076960505,
            -0.09393793304784437,
            -1.0781094966888074,
            -1.0323645663479406
        ],
        [
            0.0786390689550168,
            -0.22765681045289188,
            1.7401975237240235,
            0.8695733796370922,
            0.4498218125119483,
            -0.4761412427171263,
            -0.1615242018885193,
            -0.6239191483889679,
            -0.0037328011289329216,
            1.2294319994959104,
            1.4257174446771,
            -1.7038338503456338,
            -0.5304227015586062,
            -0.10661544075840185,
            0.8572402520311985,
            0.29557154352397214,
            -0.8511613540585726,
            -0.16384199100780394,
            0.218004165348091,
            0.11965357994451259
        ],
        [
            0.7565640841686739,
            0.009066127429643018,
            0.17751542235067613,
            -1.3103242874289698,
            -0.22123209349305797,
            -0.3779145859689091,
            0.17544502419180705,
            0.6972465441064346,
            -1.4537373264078282,
            0.3329051851327216,
            -1.988814654885134,
            -1.0288264475334405,
            0.573018676622344,
            0.21237932469374202,
            -0.0379102803730279,
            -0.11723518988706542,
            -1.4654197131698845,
            -0.4952543337995004,
            0.12963810064969414,
            -0.011175865303734435
        ],
        [
            -0.8092516972602385,
            1.1077966008909264,
            1.6337383854955732,
            -0.06627691026247644,
            -0.45081579154815754,
            -0.06021419756326344,
            -0.3778529773391494,
            -0.12172107042880859,
            0.5603809999455805,
            -0.7372200695823918,
            0.4987677625553264,
            -2.0922486961511897,
            0.4450651924205239,
            -0.42999728973642687,
            0.08855062564623198,
            0.08113672911405607,
            -0.0067290391512494375,
            0.07004198488980182,
            -1.1142777024707464,
            -0.5167955619319091
        ],
        [
            -0.2238017906683226,
            -0.2529919622572615,
            0.6656438605576209,
            -1.4847956004662834,
            0.790380975594855,
            0.46093766771392863,
            0.07274150412226126,
            0.39475840933182377,
            -0.42168773933572684,
            0.8234440939271243,
            -0.9340286689987843,
            0.19364923309720108,
            -0.33933634675429114,
            -0.8240166565378466,
            0.6766831347090858,
            -0.29237962566044784,
            0.003969989626004038,
            0.009558360393503263,
            9.44421146941078,
            9.007917191787575
        ],
        [
            0.314864108400101,
            -0.516380144904224,
            -1.3726200646662319,
            2.298280380415323,
            0.5567334058398307,
            0.6712201329118145,
            -0.21323169912830656,
            -0.10850247567208153,
            -0.6043444560457869,
            0.4648731018184132,
            -0.33979397749014445,
            1.4516972699534298,
            -0.1805996330547091,
            -0.6384798585676226,
            0.08731986153156074,
            0.2163704263673197,
            0.1822638551845317,
            0.22374213212127816,
            1.9744441423422179,
            1.7653674350923163
        ],
        [
            0.1435742570472081,
            -0.8559861768893946,
            -0.8735712023542368,
            1.0395748857318847,
            -0.5553850784861625,
            -0.030687706805717654,
            -0.0702324894308703,
            0.5350220897109662,
            0.32745076994482425,
            0.042091658922349076,
            1.160040238867342,
            -0.20456443595866855,
            0.13886872254328086,
            0.4470100371778358,
            -0.07352548862755082,
            0.27790139566222843,
            0.14546173266506476,
            -0.034006897782432585,
            6.845660152213106,
            -8.323219772612763
        ],
        [
            -1.2237135889578241,
            1.1536081278730534,
            -0.2147654577443001,
            -0.22776159718310532,
            0.8976886613536254,
            -0.9447142366508825,
            -0.3139791234167751,
            -0.24442888611651337,
            -0.6597203022814612,
            0.4033312080205917,
            -0.546668057452053,
            -0.8211297451752447,
            0.21624015017917675,
            0.5374235090867958,
            0.09280849449126896,
            -0.8331292702476049,
            -0.013019573096424758,
            0.13363366541779606,
            -0.9325633145630232,
            1.0092498233103375
        ],
        [
            -0.49816554958776477,
            0.7536686627758598,
            -2.3902778031772747,
            0.026114655827174028,
            -0.3032856771828774,
            -0.5999616313416345,
            -0.36824185536193543,
            -0.7019022215719064,
            -0.05475459527728227,
            -0.021815514414458073,
            2.50036878863243,
            0.07511988546316252,
            0.061589127614092555,
            -0.640093118721128,
            0.45662503011137073,
            -0.33626350722648213,
            0.21476297464609498,
            -0.041106675170576014,
            -0.02978651197082737,
            1.0978997299341682
        ],
        [
            0.13325147347669425,
            -0.4044889810954049,
            0.4227054870974722,
            2.2178449750869773,
            -0.39890922781959387,
            -1.144129935088968,
            -0.19055106524423157,
            -0.3673119130274383,
            -0.3869090686467049,
            1.1289342363176005,
            -0.6079778616048227,
            -0.6075469387697096,
            -0.6107550185774241,
            0.9746085902725888,
            -0.14918765461368017,
            0.6088588227203832,
            -0.1541489499352263,
            -0.09460480992801273,
            1.1354758556565008,
            0.8591090594263456
        ],
        [
            0.3175707265551612,
            0.14884915227011095,
            0.7380208996777472,
            0.33050270086927663,
            0.7580380458230641,
            -0.13762791255146667,
            -0.046199298376328815,
            0.8637832388719427,
            -0.20305344420826874,
            0.33672498611109475,
            -1.3132077164879834,
            -0.10148927319899867,
            0.07811073317250099,
            0.6158691603901566,
            -0.09878242161889624,
            -0.5568039848583077,
            13.514016280467361,
            -1.5893805981881066,
            -0.28738603248797623,
            -0.11785595099985972
        ],
        [
            0.3097801698673228,
            1.4187360906388657,
            -0.30060782765665345,
            0.7946347163714192,
            0.4323934895725278,
            0.6443956083193819,
            -0.31741962426149206,
            -0.017641154275553354,
            -0.5481474123053951,
            -1.3256920280212552,
            -0.17948961009922124,
            -2.069730954875119,
            -0.08332992283280499,
            -0.31444694820350766,
            0.07060061235627049,
            0.27244979893285726,
            0.016633449665540426,
            -0.40571711362084995,
            1.7928510202927659,
            -2.139441393352629
        ],
        [
            0.6643480273273151,
            -0.7018642626952947,
            1.4926695196574642,
            0.40848891883393396,
            0.3006254151985094,
            0.6478002903512327,
            -0.0390019391959205,
            0.14477966865164948,
            -0.8561991637424193,
            0.40679201145997473,
            1.4530225776450425,
            -1.2091087709043908,
            -0.10029554474380493,
            0.4843694158762066,
            -0.14093314957957104,
            -0.018176656760425854,
            1.6655799513338545,
            3.134153687988577,
            -0.2561702608385275,
            -0.0875912503357164
        ],
        [
            -1.2862472435811323,
            -0.11700513702082593,
            0.22285507025567838,
            -0.21819926306787135,
            -0.7581285172728185,
            0.12437973462103413,
            0.5562332302746267,
            -0.2520296716475915,
            1.2764829784056226,
            -0.5484914209097882,
            1.1388120523333385,
            1.5800920234256317,
            0.6187682223618131,
            0.9997239212990101,
            0.7083396484879348,
            0.18175896258538726,
            0.19065884301114983,
            -0.002877428324420659,
            -0.7693348413452323,
            0.3031762191713864
        ],
        [
            -0.11948789744623119,
            -1.6068327829538143,
            -1.2205834033286547,
            -0.0906103020119598,
            0.735325783539857,
            0.39155902650456686,
            -0.1011620855442067,
            -0.03465688493690892,
            0.061244781219814345,
            -0.09995467822522155,
            1.1015114963072967,
            -0.3058822386309201,
            -0.5251656159901517,
            0.987676431055835,
            0.11334902464547177,
            -0.3446331217481191,
            -0.3255899483700086,
            -1.2015386174598601,
            0.19181389244219416,
            0.5013294032506229
        ],
        [
            -1.0831946037316844,
            1.4301932327184466,
            -0.644887275852681,
            0.8630841738566069,
            -0.002362009896837196,
            0.0036650122959078386,
            -0.002599943598730077,
            -0.012182658765686631,
            -0.005391676913916685,
            0.018085013912814307,
            0.02108986110284527,
            0.07774237986315922,
            0.004230923088839825,
            -0.015652749992704964,
            -0.015254997630688053,
            -0.008665138812454986,
            -0.8429143148136411,
            1.0654222672331406,
            -0.017691308236448565,
            0.11201996488734146
        ],
        [
            0.2788900914098016,
            -0.572720409548409,
            -0.4275448886000861,
            1.3102732858281354,
            0.1428405401862214,
            0.3572721584170475,
            -0.35007656261810643,
            0.21798793175157136,
            -0.51002460923387,
            -0.8865600781885244,
            -0.24158972927236674,
            -2.5628536836933806,
            -0.1185909570515701,
            0.012692824528456836,
            -0.08037922511468472,
            0.45107950173369005,
            0.19945707936084195,
            0.41067668116538875,
            -1.3476971362549695,
            -0.14582990989990396
        ],
        [
            0.23651922085405733,
            1.1495141443072143,
            -0.05070176668749116,
            -3.1918023785428353,
            0.6548777025449715,
            0.5250249659175619,
            0.0364607411094465,
            -0.26869730340643105,
            -0.5550147444971494,
            -0.4091819184293354,
            -0.47225773123956627,
            -0.36951107519541326,
            -0.6823298721628892,
            -0.9844641212936317,
            0.2640281886196137,
            -0.3218962746766725,
            -0.19660078235208925,
            -0.4803970385848267,
            0.9579056076039661,
            -2.2938604940915597
        ],
        [
            -0.9000148267580831,
            0.04862178026677623,
            -0.11922195792694841,
            -0.4299255805178453,
            -0.06799708533551485,
            -0.805640983039821,
            0.8442179648170193,
            -0.17948596036031256,
            0.1704107546640631,
            -0.6402000109464208,
            1.7011615448372475,
            0.8262813631797276,
            -0.2642195335076082,
            0.6478343898267785,
            0.36260565137834677,
            1.0440357249149304,
            -1.7733801438659733,
            -3.256778722908766,
            1.4156315641208508,
            -3.4779011865769403
        ],
        [
            -0.23675509913987666,
            0.26790129132036733,
            1.5421276480045412,
            0.7578642142359282,
            0.01825191223754709,
            -0.05633121125009117,
            0.07253678030173613,
            0.9700396096878775,
            0.6053667837486365,
            0.9789642771244969,
            -0.4753867592517447,
            -0.6862191900413535,
            0.013065390726877122,
            -0.18287620680710254,
            0.21220964814838578,
            -0.6116679115478529,
            -0.33976690967108725,
            -0.17400895925440946,
            -3.941665422968926,
            -2.86982598214357
        ],
        [
            -0.9271697858293294,
            0.2414117453873638,
            0.8722877193125305,
            0.6514522212972566,
            0.09247625959180956,
            -0.5255869068084156,
            0.12058017434467898,
            -0.49205694612926465,
            0.18990768316102344,
            0.011209225579267158,
            1.3083106932182715,
            -0.7319937971712632,
            0.4245659377509461,
            1.0151479963028227,
            -0.40263694866830846,
            0.0035492498165117796,
            0.07694347427291519,
            -0.021697992050063536,
            -2.2076562928126453,
            3.7737399219678727
        ],
        [
            -1.2743582935134241,
            -0.16003311240866788,
            0.9757978110683516,
            0.2827855549023182,
            -0.08044268946599532,
            -0.08965338043931424,
            -0.023024382369473458,
            0.0004854406873438519,
            -0.07335145193106773,
            -0.11423873648760682,
            -0.09383281359761235,
            -0.12298349904225496,
            0.06746080666643932,
            0.1022908512703329,
            0.00014325947187013264,
            -0.015063941866058316,
            0.8327587103222589,
            0.5451586089498698,
            -0.054573353775017146,
            -0.4690785886791267
        ],
        [
            0.3186163754883797,
            0.20292073952878753,
            -0.6943462306615092,
            0.15748869764788043,
            0.564200724633198,
            -0.9524819906147509,
            -0.33231406532009394,
            -0.10588006341074616,
            0.38103923015107033,
            -0.11729955828805655,
            -0.41868141787528335,
            0.4341608885700047,
            -0.5629708635593869,
            1.4496587123313345,
            1.16420303555063,
            -0.3152832127404374,
            -0.03604374289386823,
            -0.19692149967349293,
            0.605689685322952,
            -0.12390767802108223
        ],
        [
            -0.4917441635086279,
            -0.7876463390659021,
            0.4238266954604172,
            0.46802582331954234,
            -0.18794729494310122,
            0.42761634253039343,
            -0.6900618057035188,
            -0.9060860580238886,
            0.8022771224456648,
            0.6213846450242885,
            -0.2741415799465573,
            -0.644680674755213,
            0.5620997804215856,
            0.6373392331193305,
            0.0008893176708268018,
            0.12516498822755984,
            0.04028927651862746,
            -0.0378213814916905,
            -0.3552339466320205,
            -0.5755651888415847
        ],
        [
            0.13924722850652013,
            0.6095147484015091,
            0.5088541340819419,
            -0.4856663676906118,
            -0.3346639011979317,
            0.6603092748856074,
            0.45291298043706313,
            -0.046832828738058954,
            0.04264751808290915,
            -0.8640939324058812,
            -0.7982135598680272,
            -0.7248925728088347,
            -0.49797829962726364,
            -0.22447307000443206,
            -0.048538532351902614,
            -0.0430651663791589,
            0.20065571575808044,
            -0.14433284157712706,
            -0.051667687957302616,
            -0.422336926236502
        ],
        [
            -0.6320996217215815,
            0.4297252213680329,
            -2.204871715359279,
            0.9920114699932292,
            -0.1683326840563333,
            -0.4835719727786625,
            0.48246334747359504,
            0.7127891729193555,
            -0.04412411015813926,
            -0.26625786093966247,
            -0.3777101883032754,
            1.3033273297971988,
            0.7626560564145336,
            0.5175223969038424,
            -0.018518327232320712,
            -0.06510707255192347,
            0.18170907993297591,
            -0.0032995056314096874,
            -0.23022428075118678,
            -0.03222729917089182
        ],
        [
            0.1960735133770246,
            1.8643458459978435,
            -0.18591290376350764,
            -1.080382273375569,
            -0.015114339662537368,
            -0.13594381992013285,
            -0.005235910098278682,
            -0.005147069122246086,
            -0.03378505769806336,
            -0.06326496663444964,
            0.04522847785973339,
            -0.18418712659585684,
            0.08091936042899626,
            0.03387317877058146,
            -0.03720255095134964,
            0.007885398181939868,
            0.0378800546768599,
            -1.2487287619528693,
            0.031987558236214526,
            -0.11769381991555425
        ],
        [
            -0.6853267161110502,
            -0.8248817756186574,
            -0.43249349192712666,
            -1.9947995440615185,
            -0.040947378128538756,
            -1.45159231836792,
            -0.25700091161717736,
            -0.8714594849683057,
            0.7043711074395814,
            0.8556514213556696,
            -0.47911666221769617,
            -0.21432597549647808,
            0.09304291652501215,
            1.1483445011167601,
            -0.7522601739394192,
            -0.2701580485560146,
            -0.2362540318659878,
            -0.141380865437108,
            0.13688756173483366,
            0.4590181907649635
        ]
    ],
    "h0.bias": [
        0.2755857083605526,
        -1.7725433455158917,
        -0.19471484437044848,
        -0.7544650768515988,
        -1.1653548468809345,
        -0.11613537808641287,
        -0.1350448541703652,
        -0.6881244542909807,
        -1.7493028554552428,
        -0.7156244204001175,
        -1.0227170798672323,
        -1.2247889451096834,
        -2.0288438010073038,
        0.1919950260816392,
        -0.013435589379497756,
        -0.7894051164388167,
        -2.2486751031382783,
        -0.34075213112130337,
        0.1985194927120439,
        -0.6772367792899915,
        -1.026881206470897,
        0.44692101749891383,
        0.10809343268310423,
        -2.047318443904138,
        -3.7945090650594375,
        -0.17723351381896754,
        -1.5394686696314663,
        -4.412216876328044,
        0.189808395591557,
        0.3470932509690547,
        -0.09415561414813131,
        -2.1238367756044707,
        -1.727887961761059,
        -0.39349591755123325,
        0.002747895480945236,
        -0.8535162583286018,
        -2.3844239918920325,
        -3.078056867074829,
        -1.7159844963679294,
        -1.6828951947789377,
        -0.9231521234703451,
        0.9034820854125879,
        -2.0110268029576113,
        -1.4169760560441065,
        -1.7127942517687,
        -0.6730227723623159,
        0.19115891825751324,
        -0.4219166350107834,
        -1.2419891806306353,
        1.5785661205713009,
        -0.3732291056329047,
        -1.7163135212447214,
        -0.7009293391199813,
        -0.28578797140310885,
        -0.5628709258601031,
        -0.864697650267964,
        -1.4620145154040718,
        -0.5403274001904335,
        0.11636894391524191,
        0.12272289135464885,
        -2.619327286928377,
        -0.29148979523607027,
        -1.6139872330922138,
        -1.0836583847698533,
        -0.5309288183103915,
        -1.65841249245414,
        -2.134223190257128,
        -1.5901807726991992,
        -2.02002608075437,
        0.13228210023924442,
        -1.5226514111756575,
        -1.2561057221872076,
        -1.9506903514874998,
        -0.8856390275096964,
        -2.3032086018720346,
        -2.252775724481169,
        0.07003510250294348,
        -2.4972062531090287,
        -0.6980036396387351,
        -2.0619892692109487,
        -0.15509005289964473,
        -1.7088598770817627,
        -1.9971313565694093,
        -1.1592453457197505,
        -2.304379165884367,
        -0.6216066342679163,
        -0.9611422802638273,
        -0.11043411473194668,
        -0.2587723573111201,
        -0.5074148622067977,
        -1.398750549625639,
        -0.8751337570757284,
        -1.0262471127814494,
        0.01929917284149237,
        -0.5320029562752238,
        -0.36071059510243897,
        0.03652233760343136,
        -1.7656095589478527,
        -1.78413808305062,
        0.49827882319510103
    ],
    "h1.weight": [
        [
            -1.6901912149689933,
            0.09576188691025384,
            1.2690376797492688,
            0.7093056172063377,
            0.24783407604806315,
            -2.1333974881010898,
            1.0518989120703077,
            -0.8792389264487136,
            -0.087039161701652,
            -0.06038422963550784,
            0.14779953199673507,
            -1.734679336416857,
            -0.18595082533689794,
            0.015681245079472488,
            0.3632095938179519,
            -0.17069729199356673,
            -0.08583909638243024,
            -0.7859334179155256,
            -0.05441826380918432,
            -0.6089947349778505,
            0.21938656317094038,
            -0.14337243610264588,
            0.22557908702177815,
            2.4691754034978834,
            0.09796991427314844,
            0.8197011045298327,
            0.4951966536573154,
            -0.2014933079483012,
            0.5357576396143862,
            0.3930625422889783,
            0.45018630533539605,
            0.07510195088812553,
            -0.03774752531558036,
            -0.7780073577143981,
            -0.4329561532855113,
            -1.245518271213211,
            0.3979666775824803,
            0.2030754247447228,
            -0.18968364768979715,
            -0.3361879389268004,
            1.11580811046772,
            0.7441637056033837,
            0.33502855086665984,
            0.1397257027554351,
            0.530158141173979,
            -0.5768507514753455,
            0.5103518988995488,
            -0.9466140504639192,
            -0.25049507251592135,
            -0.2205202323786068,
            0.08867298539846502,
            -0.01598047085301104,
            0.4684022867013946,
            0.6600257277595027,
            0.7289587854356269,
            -0.26115042647589776,
            1.104461404388535,
            1.7852126396506038,
            -1.3911372756946168,
            -0.976464773864223,
            0.8150874339618238,
            -0.7427529086872188,
            -0.15652337911645725,
            -0.25463864597695246,
            0.18364731431571585,
            -0.8952023493225572,
            0.15101740837414376,
            -1.0184984131639925,
            0.08100424999355661,
            0.11066028232296961,
            -0.36056863735779343,
            -0.4068485973218321,
            1.1955812446044034,
            -1.1513049922934304,
            0.06022653173513964,
            1.6876631295394446,
            0.09184190743845132,
            0.19225378502804435,
            -0.03884981718670205,
            0.3000822134870172,
            -0.7380670819619527,
            0.8495678318406321,
            0.07094932552630984,
            0.257155461749759,
            -0.9280134090261386,
            0.8281376505184419,
            0.48006947258988286,
            0.5607722588726067,
            -0.8616842406464265,
            0.3196899179443507,
            0.020149560200657717,
            -0.3236473312778949,
            0.3745369220904468,
            0.1904256938599065,
            -0.13505206248955678,
            -0.8223628742638679,
            0.27270539744316535,
            0.21214920569618714,
            0.4731351050699824,
            0.5868149209399689
        ],
        [
            0.6465124759719332,
            0.014214635057540777,
            -0.090141707040801,
            0.5149493968823623,
            0.20632660501931407,
            0.42023170150260153,
            0.4787355295005677,
            0.5714969182444961,
            -0.8084718216597102,
            0.8443598845640069,
            -0.18480920681661628,
            0.13067015686464334,
            -0.07267867600842658,
            -0.2666370002220412,
            0.07603138572963956,
            -0.03388248406107746,
            0.08402941264506913,
            -0.518359696959067,
            -0.3532498540869818,
            0.3126995790250827,
            -0.388682731623339,
            0.2950619983875736,
            0.041568705873452724,
            -1.3153206684638872,
            -0.08713892000050329,
            -0.2454715840206673,
            -0.05460296168489176,
            -0.014163096657979475,
            -0.270008866636989,
            -1.3519524957825602,
            -1.360491504948514,
            0.20773683880092664,
            0.1036525198750367,
            1.3919625074422795,
            -2.4946108518781194,
            0.4255332364717759,
            -0.2968650507351133,
            0.14952178896620497,
            0.17521441166055954,
            -0.5589195502728644,
            0.7176365648577171,
            -1.0156675521287437,
            -0.3074114343409935,
            -0.2773009216996988,
            0.6391416585425863,
            0.26334257411523754,
            0.09202322410114476,
            -0.006981822052709632,
            -0.4320668272324661,
            0.6235905159151756,
            0.7264968833514523,
            0.053752416142742454,
            -1.705086027106054,
            -0.5859389374266039,
            -0.39226468620269506,
            -0.5795261800624003,
            0.6268998838731724,
            0.7757970252945423,
            -0.4855067313138066,
            0.7429418272749573,
            0.15965261526795524,
            0.2501915372253443,
            -0.3838214477406878,
            0.7339723133836871,
            0.1320682562888668,
            -0.6172059552728673,
            0.6062536182037318,
            -0.07914428051495932,
            -0.2583291174192591,
            -0.8317243682411639,
            -0.33865451991219947,
            0.5739602658163838,
            -1.8385219322798407,
            0.1385694875177357,
            -0.11404356260029623,
            -1.019789374105158,
            0.020883584358156154,
            0.15142398418170522,
            0.1347950107349324,
            -0.6119843004689758,
            0.19819472127227433,
            -0.34743254776886456,
            0.04377429959010795,
            -0.36373709179527536,
            -0.15026741565219398,
            -0.5291952588621177,
            -0.5474515884611075,
            -7.321293377176633,
            1.0061443561581638,
            -0.1563458462554879,
            -0.1488056920799556,
            0.17715757392983514,
            0.20611863500897076,
            -0.3425305715927186,
            -0.04983936820628357,
            -0.3582121838955,
            -1.5891445696816173,
            0.6029406566621716,
            0.4568966124143712,
            -0.251941538390602
        ],
        [
            0.4391506766204932,
            0.4298334854197711,
            0.9476682122484898,
            -0.17703934434393717,
            0.19164719829118748,
            0.5103211213740317,
            -0.0402843775427123,
            0.5866597686586541,
            -0.039122021306514355,
            0.060765319439209584,
            0.9866546789321515,
            0.4201473769637662,
            0.03697674927578178,
            0.45693499072278804,
            -0.07198613086598443,
            -0.37390992928098615,
            0.06528163031262435,
            -0.8723347291068813,
            0.3780721343827236,
            0.2423310186505258,
            -0.4973083402778871,
            -0.11084904219237,
            -1.1995002052364783,
            -0.9171338434948013,
            -0.11585252333017465,
            0.5212053341343161,
            -0.6852417722860223,
            0.025523181633895293,
            0.3994502983889314,
            0.21512588154439444,
            0.015174853720361,
            -0.06716765709524518,
            -0.20107219767458523,
            -1.2098830390077497,
            -1.5022682119653818,
            0.2014235308474451,
            -0.36975140614509056,
            0.24075089715619158,
            -0.014353173552803106,
            -0.3917013659840654,
            -0.5433583280738846,
            -4.071329540914805,
            -0.7196535539280194,
            0.0011938398384514519,
            0.1257833968527101,
            -1.4039288970466057,
            0.6239794015273832,
            0.05802237199469855,
            -0.3323587173256306,
            0.09031749781423157,
            -1.432177270415974,
            0.1397385750620997,
            -0.6080631902784231,
            0.39440822942972315,
            -0.4424561096574051,
            0.11717256522679112,
            -0.8110176044642667,
            -0.04572533595095654,
            0.570250654134545,
            -0.05544567122955892,
            -0.27719084941811933,
            0.3239121239735019,
            0.04187066525442774,
            0.716098333851988,
            0.6384986471272489,
            0.41221335747087295,
            -1.219386617790532,
            -1.5095074285250403,
            0.2070347479009004,
            0.5961719124023048,
            0.8487023499981894,
            -0.2462168841437159,
            -0.25534511394417797,
            0.04478273339331293,
            0.030073635273562934,
            -1.0941385249866946,
            -0.04794944953771885,
            0.2742018452554889,
            -0.0901225964983835,
            0.10190563391359908,
            0.6294129264190547,
            -1.904572589138426,
            -0.0327699916849827,
            -0.6994880015956642,
            -0.36362986204719794,
            -2.4179681752438955,
            1.1247235305562242,
            -0.5835416273945605,
            -0.2741474666718251,
            -0.5105954282931068,
            -0.5036879471507303,
            -0.25437681868668227,
            -0.31995041697550647,
            0.20778418527996403,
            -0.8717564185037302,
            -0.2562180688927899,
            0.5075374143670403,
            -0.279503173326665,
            -1.2615021568240068,
            0.5937746459576032
        ],
        [
            0.27692333336646763,
            0.22725187028538918,
            -1.9884684602399862,
            -0.09907583041726661,
            -0.3982423895873766,
            -1.1815630177635106,
            0.21505242315956238,
            0.025475868713934428,
            -0.008324150783825385,
            -0.05649132037934021,
            -0.3035706540341678,
            -0.3630447334715955,
            -0.020839457621119255,
            -0.5492714498947738,
            -1.0814383262743206,
            0.36865653016592287,
            -0.08888700896992068,
            -0.09546895324770459,
            0.37453487679562664,
            0.45664205149989323,
            -0.2507899964967433,
            -0.31957187288867067,
            0.6649935268238985,
            -1.8898198051876405,
            0.14977721286605855,
            0.9214207874236529,
            -0.12883038067093025,
            0.17744344181948915,
            0.28321186749086225,
            0.6452126912360867,
            0.8350499055570028,
            0.29051530085442123,
            0.2424393116648899,
            0.5671168946256953,
            -0.07404432575709444,
            0.21110213427516075,
            -0.043311219310935435,
            0.1760074396589687,
            0.19144565730993804,
            0.4235851969975958,
            -0.8490041036098954,
            -0.6628640462106683,
            -0.19710782893098616,
            -0.23324425058163278,
            -0.9264836736521699,
            0.28155971626526616,
            0.9825485793497124,
            -0.4385000275008289,
            -0.8138093335120036,
            0.15533835251441183,
            -0.7833388457336193,
            -0.1345743715773401,
            0.3848052772925297,
            0.27365748573651705,
            -0.4234373293187203,
            0.19066950808179198,
            1.3183333059454028,
            -0.1845352928065671,
            -0.03658748624757627,
            0.5678782371403709,
            -0.7108147444991646,
            -0.8851452179295569,
            0.09953287854082211,
            0.6015120699353604,
            -0.32294144226822513,
            0.5958543466257469,
            0.31773981138720037,
            0.03609333885227859,
            -0.04069501155798022,
            -0.7373789094423752,
            0.591292945963958,
            -0.24903619134678115,
            -1.4415210927123332,
            -0.2528553454267778,
            0.29249298861449324,
            0.5165195937047082,
            -0.06402856337141245,
            0.6613929978842351,
            0.09704238923606753,
            1.390972234232584,
            1.2163638621499726,
            -0.5031434420201237,
            -0.03613737564582305,
            0.6152757308326362,
            0.10244510964074666,
            0.4274461274383165,
            -0.6844501226531267,
            0.3932018223932566,
            0.5612948613332989,
            -0.7626736150607544,
            -0.14646062577243887,
            -0.5897563647874051,
            -0.19921065260064358,
            -0.4052144519254553,
            -0.8480823912318374,
            0.12306029033215525,
            -0.3692575929124928,
            -1.3645331687333053,
            -0.14544166687925522,
            -2.856530337343541
        ],
        [
            0.07656821720932129,
            0.4713698104572139,
            0.19773573773974198,
            -0.5972013064985503,
            1.2403004004107154,
            1.640585171412344,
            -0.8004663734451544,
            -0.6585226446458169,
            -0.14192087679874218,
            -0.23372045121445909,
            -0.9545387836193593,
            0.7153328388977034,
            -0.03839044556810922,
            0.1488871419190328,
            -0.26179095163838184,
            -0.3440921684396594,
            0.3814908150762961,
            0.09171381190265922,
            0.7792688066326275,
            -1.8494204056195114,
            -1.8501433666654226,
            -0.6616924920817384,
            -0.26741783413648856,
            -1.3614466781759587,
            -0.5445453097501258,
            1.4656421219959896,
            0.04643697010013983,
            0.09965083969611198,
            -0.05217050603077802,
            0.4003002044740851,
            0.0021439420623997154,
            0.33757927893087364,
            -0.48079401686402856,
            -1.2512835011424477,
            0.2451282372933167,
            0.12064768221334911,
            -0.4551511446181708,
            -0.5299254516494611,
            0.12052415614319978,
            0.49288110231720267,
            -0.16201895628760005,
            -0.34575656388664183,
            -0.7524677787546331,
            0.07092458978410669,
            -0.5729156090236497,
            0.46691690997381646,
            -0.5825389621044464,
            -0.8103192868025402,
            0.4583932290068702,
            -0.04147336597051281,
            -0.5623299309663397,
            0.16773528772257623,
            -0.020218539516626284,
            -0.17353328136398255,
            -5.9587949845003605,
            -1.0653242289797726,
            -0.3413485540967849,
            -0.3989742697429997,
            0.8995883134750491,
            -1.8525490656146204,
            -0.389930231897584,
            0.2663080984844233,
            -0.9258215322490688,
            1.270477336856138,
            -0.429882443587395,
            0.8228357020503302,
            -0.9581269930556475,
            0.49823379319624045,
            0.24615378923689687,
            -0.10760748269151554,
            -1.4516062669915966,
            0.19371964841315686,
            0.4109364012046736,
            -3.4698265922959317,
            1.2346820572960218,
            -1.0581253301736484,
            0.2179831493333767,
            -0.04680097765549575,
            0.16391677153950937,
            0.3997681467176203,
            1.1559333569604038,
            0.7462994788077237,
            0.136617206137291,
            -1.050634598814189,
            0.30337875929887886,
            -0.9532209879258362,
            -0.5591702387499825,
            0.5789702810038482,
            -0.7216166790035321,
            0.6677631950165172,
            0.47233121054176286,
            1.141622212758938,
            0.525463490754309,
            0.6526592504654114,
            -1.7202969929842586,
            -0.5724585906047904,
            -0.7846017939613682,
            -0.7730635615223009,
            0.7479362483248636,
            -2.455032943912624
        ],
        [
            -2.821639752909539,
            0.4566303908123041,
            -0.2452865063813848,
            -0.046364139392074594,
            1.156951799708516,
            -0.05249531230315597,
            0.056968432627631446,
            0.10565855152342206,
            0.3482023710816857,
            0.391968742169216,
            0.16315021462754306,
            -0.04013376315500212,
            -1.7866394753797492,
            -0.26089315053317075,
            -1.5208786642310146,
            0.414752488212936,
            -0.5753566007460122,
            -0.4838350587327642,
            -1.3577908515529422,
            2.25205231210699,
            -0.7099763540800894,
            0.4477275167065479,
            -1.385177624579896,
            -0.3314491399771706,
            -5.965673916235132,
            0.6619579737178057,
            -1.2044522477526336,
            1.0887678474402134,
            -0.37717555333419317,
            -2.705961835518124,
            0.15479495332847332,
            -0.0975012981724339,
            -0.4822351031501163,
            0.6115185961962514,
            0.3632363388991577,
            -0.1923045772687391,
            0.919290658823949,
            -1.5441665925894568,
            -1.775491898146781,
            -0.0309365256519173,
            -1.4731659917466018,
            -0.27945249617879014,
            0.79359249823389,
            -0.35335480351628534,
            -0.09210008140218659,
            0.9910122243523263,
            0.0425917203921488,
            -1.4611914889793567,
            -2.4675434235053757,
            -1.7642414115904501,
            -3.34564578237021,
            -2.5235768443189666,
            -0.8695322653782515,
            -2.04350228459672,
            0.28922930838214356,
            -0.07469061646333841,
            -0.9431427247031591,
            -1.980679687949386,
            -0.4579119287598786,
            0.5969161539737348,
            -0.2774560410813739,
            0.26887685156163527,
            -0.8512713890218583,
            -0.4485975543928422,
            -0.3044603740799507,
            0.17622532184761397,
            0.17499712665493847,
            -1.3200344100878016,
            0.5872704619154526,
            0.22336244821017529,
            -0.20209292995116052,
            0.9185414201093024,
            -1.3815569938356247,
            0.6959801185940674,
            -1.926752404525189,
            -0.15074024678897924,
            0.24003400791814863,
            0.05716791379867984,
            1.728324419929037,
            -0.7591196875877085,
            -2.5966048296797863,
            -1.3571257521759206,
            0.47988453162406786,
            -0.8173824377593748,
            -0.2219407404810239,
            -1.3431279250432422,
            0.4801994559719886,
            -0.2853892497513039,
            -0.766437783305224,
            -0.8353561490762215,
            0.6395593047901398,
            0.10188221501193644,
            1.0606300607259382,
            -0.6058215883083988,
            0.05015328042827484,
            0.3162322671953173,
            -2.4326118372600427,
            -0.5784982816346224,
            0.48411558893418255,
            -0.18836424300951296
        ],
        [
            -0.31114750937730745,
            0.9139939700589575,
            0.8244482614054202,
            -0.1058945340922216,
            0.0010238855878606592,
            0.4748203864512897,
            -0.856331312955727,
            -0.23969282702148473,
            0.9818589898070403,
            0.15725178240218027,
            1.4257712159334741,
            0.19531347571212757,
            -0.042046939311788295,
            0.4403408896845974,
            -0.17843950593934277,
            -0.48656387092472,
            0.14215149475970357,
            0.01595061438403337,
            -0.5236327069119475,
            -0.5037810188558824,
            -1.4163216261465645,
            0.745558022264745,
            -1.4166239527735631,
            0.6341948236539792,
            0.001410568981394924,
            0.7728256476781411,
            0.001239400797749688,
            -0.20746310680133012,
            0.293651195688543,
            0.25166900131296654,
            -0.10779742803583355,
            0.45722718876578977,
            0.054197496315210945,
            -0.7477993334946604,
            0.016137860065400567,
            -0.2565385073103423,
            -0.41834331155802457,
            0.06709616041518277,
            0.33897604870078113,
            -0.30820521817888785,
            -0.06035993239933722,
            0.3911269677870845,
            -2.5079146708626965,
            -0.3706188448698406,
            -0.07195071111284912,
            -0.7016135259897354,
            -0.7273886687749077,
            -0.2316435518875055,
            -0.007035225020634251,
            -0.18803290013578988,
            -1.6890607776562345,
            -0.027495320185694356,
            -0.5995484138682923,
            0.1501730793529746,
            0.7994248203250319,
            0.8434621601585854,
            -0.665904272927463,
            0.035972134897511714,
            -0.1297121704717241,
            -0.7156090747679961,
            0.3746376020493922,
            -0.24697462259197375,
            0.22334708768083608,
            -1.0479903478751227,
            -0.24434244135188216,
            0.7850455584069517,
            0.5296136009991989,
            0.5709469883494855,
            -0.4683555515941321,
            0.5364232024738238,
            0.8573621965197544,
            0.32499003617694905,
            -1.5876226375142681,
            0.8965724498489388,
            0.4062777683891264,
            -0.2439006658081429,
            -0.01263892565277568,
            -0.5556159352953911,
            0.0984008398592027,
            -1.7680823800434566,
            0.2540515961096567,
            -1.8195358340800842,
            -0.05847007913067431,
            -1.5470068895480151,
            -0.3498062137999345,
            0.2683892319007935,
            -1.7988382218733527,
            -1.0585849686293858,
            -1.2480128859784865,
            -1.076953514561809,
            0.1410938838184318,
            0.09511075711194959,
            0.4727154329699057,
            0.26471398662696854,
            0.6532615161441364,
            -0.4232657426593412,
            1.0969648190240362,
            0.29781229430320577,
            0.644736404253778,
            0.9026368031268992
        ],
        [
            -0.5403180208922632,
            0.8452480224766319,
            0.1321175172356865,
            0.1740235029286246,
            -1.528753580081478,
            -0.2108773254843232,
            0.052361740249275916,
            -0.5475941768523055,
            0.11153444775816608,
            0.2773416797249772,
            0.08238273234394301,
            0.031166794648149365,
            -0.3159489393386988,
            -0.8642860205071226,
            0.21666683172217097,
            0.1769932206799078,
            0.26839207146681365,
            -0.851745045904159,
            -1.5131038496926563,
            -0.09189229628492664,
            -0.7385319452534548,
            0.02680821417128094,
            0.36962229331392543,
            0.09297474143282897,
            0.06732371995117024,
            -0.47383333926225313,
            -0.9280656415790546,
            0.10627227784735914,
            -0.572736940656531,
            -0.6386654837035275,
            -0.6101171066473218,
            0.46284018905474855,
            -0.22858414012628478,
            0.2757551983472935,
            0.5541873596825461,
            0.982560578237846,
            -0.5068447904126582,
            -0.1148815378891788,
            0.23333371275888412,
            -0.18700065426038207,
            -2.1929565015229637,
            0.6478991911536923,
            0.4181003498486678,
            -0.07017816797134886,
            0.1706179011190193,
            0.9513430551809892,
            -1.65525313904072,
            0.1116600166102843,
            -1.1059873852282942,
            -0.41252060403885815,
            0.6092213672103591,
            -0.02045644869763707,
            -1.2420158901390983,
            0.5699295133745426,
            -0.056361472867536073,
            -1.5656171047948206,
            0.4199688683990875,
            0.8461430484584523,
            -1.7014889226612124,
            0.2406967390940422,
            -0.029457785465461506,
            1.8312431123155628,
            -0.17795910960950173,
            0.35755425104655725,
            -0.46260231440756294,
            1.1536757830956201,
            -1.3292335245607496,
            0.775508595386792,
            0.10948159600517252,
            -1.0472230154241295,
            0.4287635492923891,
            -0.3769133654383182,
            0.41245789406258054,
            0.3878213689729687,
            0.6756519125264833,
            0.9255923004034015,
            -0.009060771465086137,
            -0.35478758646798475,
            0.4265956954618341,
            -1.4541332459106746,
            -0.1692546351376644,
            0.8355602642998408,
            -0.32276919146088345,
            0.10547855111117405,
            0.48286646776290976,
            -0.1747227362287886,
            0.8887066874816746,
            -0.41849168386496066,
            0.22820580879686994,
            -1.463813982498364,
            0.23690564116361568,
            -0.06792424525448526,
            0.11269848466861263,
            -0.2226108086422966,
            0.5673965411743654,
            -0.5972670251952327,
            -1.6112034133960549,
            -0.33807872391788946,
            -1.3590052984602894,
            -0.2648107397722701
        ],
        [
            -1.1646460195913027,
            -0.4517244455048799,
            -1.433803189045848,
            0.22517104156741635,
            0.9205862789893157,
            -0.4974631764558712,
            -0.9267954769839833,
            -0.379841967329791,
            -0.2043733987735537,
            1.089645702751271,
            -2.137677169759372,
            -1.124068476652572,
            -1.1858335441715044,
            -2.2276982243615655,
            -0.23564603115008673,
            -0.21556268968408338,
            3.4705291561294014,
            -0.7143213175802998,
            0.4243599687393146,
            -1.8376349401931193,
            -0.3805517114927536,
            -0.8801575134697136,
            0.5253583544098693,
            -1.0025627099807544,
            -0.6125734140939485,
            1.0009697458661435,
            -0.9364718044986007,
            -0.291421575927039,
            0.300884046798803,
            -0.4613942449767211,
            -0.15309316811780355,
            1.212699493680085,
            2.5182875568072625,
            -0.04546758378483221,
            -0.4597599830039614,
            -1.3984383294464366,
            -1.2798621965497303,
            -2.212670564060886,
            -2.320614744958975,
            1.2169857807786155,
            -0.08673703886082752,
            -0.6401615707330092,
            0.10841568955524036,
            -0.12010452302716317,
            -0.4190651897282279,
            -0.12842500561545628,
            -0.03727685509441967,
            -1.2591924004293464,
            0.7034091685445257,
            -1.5235981021120486,
            -1.2041409386064692,
            3.3169140559062886,
            0.6584397969646576,
            0.007081332867861588,
            -0.2915194515355987,
            -0.6604498266460566,
            -3.115225437317142,
            -0.9499234913545528,
            -1.3193449823954477,
            -0.25242525014367145,
            -0.22918003712918308,
            -0.7113544898590902,
            -0.18686422410919853,
            -0.16760910931012438,
            -1.625853721729612,
            -1.4854898292373748,
            -0.9695830072041847,
            -0.2833050927032919,
            -3.1202904840879957,
            -0.7683885666900708,
            0.32755555427582256,
            -0.013671374361321391,
            -0.25883524530581886,
            0.05333568601577377,
            -0.6584987976237862,
            -1.2476931447224704,
            -1.016652086044127,
            -1.2271841619481725,
            -1.070166054552264,
            -0.7565185192631754,
