{
    "h1.weight": [
        [
            0.031941424496769795,
            -0.1209485103717137,
            0.1473522377383658,
            -0.006381766486782519,
            0.09021761808824039,
            -0.1627122845527718,
            -0.026263894231387773,
            0.01970519026610468,
            -0.07639987271709914,
            -0.11682044252244066,
            0.13771757072007076,
            -0.0866727054596539,
            0.04820291813753157,
            -0.002126857404888516,
            0.009341637360308193,
            -0.032845693522300844,
            -0.1396141823923422,
            -0.0558252262044353,
            -0.16450363618170205,
            -0.002730452351724552
        ],
        [
            0.06477730362616445,
            -0.18675898510887287,
            0.10643211723322878,
            -0.06007733130537778,
            0.006545054860772311,
            -0.180342045867574,
            -0.06193018736589417,
            -0.013339559276516985,
            0.17925492525378664,
            -0.22029681431699116,
            -0.08359308933504139,
            0.06330018659463948,
            0.06493004822582905,
            0.009031522063427224,
            -0.11618430635099869,
            0.01563124733306217,
            -0.05998480583561139,
            -0.05965625750791749,
            -0.10040916877064035,
            -0.09638487267612272
        ],
        [
            -0.1324910576811481,
            -0.14253874479914133,
            -0.015581353122745072,
            -0.14787126338796677,
            -0.034541491467663124,
            -0.12903505806032908,
            0.10394124114836316,
            0.07681311216693738,
            0.23826138829479573,
            -0.09042921820970512,
            0.07330766031064645,
            -0.0822438134512444,
            0.16482922133268232,
            -0.03307107235053802,
            -0.03048803589042239,
            -0.10905923508524294,
            0.004188217776494333,
            -0.033761988832644516,
            0.0022630602167487256,
            -0.0029433225319069486
        ],
        [
            -0.24751754296867795,
            -0.10147247143364257,
            0.07781873810690602,
            0.056747179749578505,
            -0.05693414012279641,
            0.07847035256096059,
            0.011907174166302279,
            0.0015706005036557318,
            0.2499197314350162,
            -0.04194432236789092,
            -0.09576503362759778,
            0.011787215434023652,
            -0.184966745298674,
            -0.12093182607108578,
            0.09462812176390248,
            -0.10604534451560364,
            0.0916603623612312,
            -0.004519442005000498,
            -0.014206204567272476,
            -0.0496551912630517
        ],
        [
            0.19179313948293888,
            -0.20493058910503706,
            0.01758081570074299,
            -0.09842709141609889,
            0.011272619584543413,
            0.09203991019437943,
            -0.129627354389642,
            0.002526820788154558,
            -0.01927468499321935,
            0.09177685842162477,
            0.06300634361272003,
            -0.002551223002621652,
            0.20898033745759514,
            -0.07647266409493046,
            -0.15114584248138593,
            0.06086824249075335,
            -0.14476509310251498,
            -0.11132045530373601,
            -0.17542769599054,
            0.055633476203030795
        ],
        [
            0.022211943337129236,
            0.004835767816769704,
            -0.20487742212553497,
            0.08086706984954742,
            0.12780814156388373,
            0.15162380818202426,
            0.12195521097464411,
            0.0035100037469361235,
            -0.24332524442055695,
            0.19891529319642212,
            -0.05935382471067154,
            -0.18335392750446128,
            -0.14661441998546013,
            -0.045704179001936664,
            -0.003964534671518075,
            0.10004429922188791,
            0.04884009068537447,
            0.14923269943082557,
            0.1161324729456747,
            0.12860917131486416
        ],
        [
            -0.13991193479317282,
            0.10408962843491575,
            -0.12207992965588811,
            0.06657542772785202,
            -0.0073212946787078355,
            -0.04423338232997047,
            -0.07997435911929689,
            0.01281046042762773,
            -0.17191444793882968,
            -0.0017973593057756883,
            0.03995298713752542,
            -0.09969707847735579,
            0.21776706213801358,
            -0.20896336649577293,
            0.014181167981196549,
            -0.02738854240850014,
            -0.07043689263708142,
            -0.03644025551631645,
            -0.14544951426991992,
            0.038618599526127104
        ],
        [
            -0.09169646277210257,
            -0.2425176773198141,
            0.04821357356814952,
            -0.1345013037667893,
            0.0929337294741891,
            0.018009558694379268,
            0.09178833790841072,
            -0.10871118936924638,
            -0.12111381941809854,
            0.15809721347184233,
            0.006433521855769809,
            0.02437189428539099,
            0.1586581657660117,
            -0.1803131010660283,
            0.1147107903121144,
            -0.07548231363155278,
            -0.013006298134391154,
            -0.04839298539271849,
            -0.0241908865598896,
            0.02449917685929137
        ],
        [
            0.13652635387578874,
            -0.14202879638468316,
            -0.04669440768869003,
            -0.07216352068920308,
            -0.011405748459542375,
            -0.10924310977290362,
            0.006780896343035223,
            -0.13040106053814815,
            -0.208327134894492,
            0.03831995193039441,
            0.09821086849098212,
            0.05845425508336087,
            0.15206553749451146,
            -0.14117922981250033,
            -0.04176122164857378,
            -0.06835311313323815,
            0.10449409535742739,
            -0.04293666439832198,
            0.10752893284652225,
            0.18496603757993008
        ],
        [
            0.18256813506055466,
            -0.15333995784908597,
            -0.06804079885614513,
            -0.03390361539841332,
            0.024347378802984227,
            0.13593145496547576,
            0.02714624063409201,
            -0.10130746786845778,
            0.20642703389954875,
            -0.15282670296509523,
            -0.015002978041487366,
            -0.09428821639599552,
            -0.03979718147546826,
            0.012159152525469868,
            0.09657551364587302,
            -0.02202931480108528,
            0.04359560998793666,
            0.23326841062526957,
            -0.09370059499392147,
            -0.09077280630352072
        ],
        [
            -0.03504583349851684,
            -0.09679564017772276,
            -0.03829573474634396,
            -0.08703858732764835,
            0.10625441729326013,
            -0.03755731697314549,
            -0.021021167597555533,
            0.11024523140518017,
            0.164318866498519,
            -0.14043730248783665,
            0.0646264045895052,
            0.020404251188126266,
            -0.014128461122454954,
            0.037399643385047684,
            0.11145624058927052,
            0.022338087106381514,
            0.16155084939063502,
            0.10341191780359672,
            0.10807021286091231,
            0.09988102711854233
        ],
        [
            -0.19525747447330774,
            -0.031166728695145928,
            -0.1582496171306053,
            -0.18386082633202033,
            0.10967336383323623,
            0.15972575745199522,
            -0.10956507183734017,
            0.09050051115467497,
            -0.17965554857485672,
            0.21606404732331122,
            -0.0489286330603492,
            0.1363044316683726,
            0.2117707776980336,
            0.17185402308900571,
            0.055383460554724304,
            0.048317051588384355,
            -0.04294698209746921,
            -0.12858571416588477,
            0.056619785190526406,
            0.02686855568433654
        ],
        [
            0.19358823028050534,
            -0.1436519745901819,
            0.056803777683336235,
            0.08128868988103936,
            -0.1796229852071705,
            -0.004451704891034287,
            -0.005742193205159755,
            0.020502866412228187,
            0.09476999546985947,
            0.24547441762636343,
            -0.01206945278556572,
            0.09405775157295944,
            0.06447589717005037,
            -0.10935549403096433,
            0.011066744429171412,
            0.02475198119001585,
            0.06240104539609502,
            -0.06970653203221322,
            -0.10255451339962544,
            -0.1422178573546156
        ],
        [
            0.1643819197455162,
            -0.20957215764832862,
            -0.06549905870479848,
            -0.01100438342996338,
            -0.07497431631288136,
            -0.11955985765283376,
            -0.016488421918908067,
            0.04685604059641414,
            -0.11101853346042122,
            0.037286350985856184,
            0.07851076673010822,
            0.03775397478311836,
            -0.13452656075125136,
            0.0419090306088531,
            0.0595866684105198,
            -0.029910958910622645,
            -0.09131511710674536,
            0.0052068291572318764,
            0.056705560037546815,
            0.008590233760324407
        ],
        [
            0.017761596018695456,
            -0.07210304286827444,
            -0.07985511388901514,
            -0.13843907349881981,
            0.20126814238042257,
            0.030760563472255836,
            -0.11664063178667701,
            0.038075750783996505,
            -0.2409726109490885,
            0.13551324110094132,
            -0.030195089340693874,
            -0.11744776150348987,
            0.003964649733866889,
            0.2236474126852062,
            -0.05838077520416546,
            0.08057716323135188,
            -0.05200059019574642,
            -0.10142946737580648,
            -0.09527749608051436,
            0.014441835701428405
        ],
        [
            0.12947393705811436,
            -0.2424106062028768,
            0.05317349352571129,
            -0.10246707949034738,
            0.05576862448955673,
            0.02521550294492377,
            -0.07807195718870093,
            -0.10760387061642147,
            0.15735589089598462,
            -0.06239346754234881,
            -0.12611884359356784,
            -0.12540873999100405,
            -0.15698454024586977,
            0.10342597693632481,
            0.02516429554271575,
            -0.11463162177743137,
            0.021271608487235874,
            0.10550833367260365,
            -0.1467460950208523,
            0.15844330726334838
        ],
        [
            0.10317302026546733,
            -0.14368297655746956,
            -0.0728125872437551,
            0.01861611591450933,
            -0.11524331102750238,
            0.005040511356127704,
            -0.03527601030021732,
            -0.007253191289588063,
            0.13077235272041055,
            0.1782071279051627,
            0.02654728296478293,
            0.09965007447219452,
            0.10448436252370753,
            0.11043312490911587,
            -0.12670608539660327,
            0.10945629642145088,
            0.12378967310961543,
            0.14271996370547263,
            -0.0024009523343739773,
            -0.08561433858425913
        ],
        [
            -0.03201826323094864,
            -0.003396652277454043,
            0.09263323630397508,
            -0.0037496179712577316,
            -0.045100594647080376,
            0.05617812616176916,
            0.029435353829657177,
            -0.11671388332804494,
            0.01729349113517006,
            0.09022750401268453,
            0.04056898186012074,
            0.007089951307987346,
            0.21155486126200024,
            0.013770461752218799,
            -0.10396581198425071,
            -0.010138437387529632,
            0.18106460935831808,
            -0.08850041850901631,
            -0.23281858283227946,
            0.1495003433763685
        ],
        [
            -0.24025461258835001,
            -0.23982194208896745,
            0.006906914348765289,
            -0.05290259595078067,
            0.11107290620066015,
            -0.20174708010031633,
            -0.0052709101489014035,
            -0.10143799960397133,
            0.12461033939103144,
            -0.04961797018673506,
            0.11612488292597399,
            0.13378287404744,
            0.04064120918686948,
            0.007872084457604525,
            0.05879083483636002,
            0.0721779850470446,
            -0.09315121307645041,
            -0.0756280909609571,
            0.05866886776094394,
            -0.18201925957683873
        ],
        [
            -0.025392138982484103,
            -0.056603068776987474,
            0.021690998692515655,
            -0.0971907898252508,
            -0.18564297816796774,
            -0.20013219835438742,
            -0.19993136959408048,
            0.16226377142904977,
            0.05017666374532483,
            -0.031620628225614414,
            0.05102385045963282,
            0.06625813214835397,
            0.028961975614118125,
            0.08352760477131498,
            0.11244000705627316,
            0.1374455217444074,
            0.005637244068352533,
            0.02664782436788271,
            0.06422140450355796,
            0.1310574194765953
        ],
        [
            -0.1762339159588812,
            -0.10878473216029962,
            0.08883027306824971,
            -0.08783804964404353,
            0.174353711437627,
            0.07654667306705126,
            0.060490833643603935,
            -0.11181587092735207,
            -0.2093716668678567,
            0.24722776095761517,
            -0.040537362914754654,
            0.06589516477577465,
            -0.020415961748365713,
            0.1415198997910902,
            0.045932266504220075,
            0.023420173690259203,
            0.006242029152451145,
            -0.0574346542790722,
            -0.191861775680327,
            0.08199547778924267
        ],
        [
            -0.10187528547739558,
            0.1110756849640997,
            -0.05161984563145633,
            0.06983798054671911,
            0.20141445859380808,
            0.06987410357102848,
            0.0940782946561999,
            -0.026031736722030165,
            -0.08365477788645458,
            -0.20786321755859266,
            -0.0908507854085915,
            -0.025126738732811234,
            -0.1519820520953431,
            -0.025602644231543258,
            -0.010660701401749328,
            0.07452349022624101,
            -0.15016033096294235,
            0.07324656285895645,
            0.12631384622902103,
            0.08020975919871964
        ],
        [
            0.0752927484837483,
            -0.07289204674992038,
            -0.0185986571909289,
            -0.03604331268199604,
            -0.06458326621500596,
            -0.18801600471277977,
            -0.09357636972110463,
            0.001329931780319281,
            0.21397426713137396,
            0.042600294447444745,
            0.15697611557825983,
            0.04839112001415835,
            -0.17836382360183137,
            0.21342141342375798,
            -0.1322278119448099,
            0.13618297815983718,
            0.1358410500231175,
            -0.12145482640659641,
            0.18555073820356827,
            -0.10954367403450892
        ],
        [
            0.07034161976168507,
            0.1770460313778538,
            0.147819005230974,
            -0.14682759883269522,
            -0.0019112031485294721,
            0.21279274695251363,
            -0.16022411213452029,
            0.02047200451852386,
            -0.20968205663323075,
            0.028941232639613467,
            0.05488587082478042,
            -0.01783800174149511,
            0.14763700467049734,
            0.040643960022903644,
            0.09718776337823103,
            -0.13762246451074547,
            -0.023906494431501803,
            0.0821642530817273,
            -0.04569002843642973,
            0.1677212931092376
        ],
        [
            -0.2032352277134652,
            -0.19002981133277094,
            0.003699580434874809,
            0.028989314383049355,
            -0.15104812311593407,
            0.10792649540612319,
            -0.04103789278498583,
            -0.03041291776995452,
            0.18124201277951557,
            0.18966244487070053,
            0.019882823276385145,
            0.04986861282751994,
            0.061331360016878916,
            -0.019783198993737556,
            -0.04344116709061223,
            -0.06627133391963112,
            -0.005625984903834505,
            0.004549445224681476,
            0.058826164528734376,
            0.07017083687589176
        ],
        [
            -0.21194842624538351,
            0.05944116948102368,
            0.1245551302817005,
            0.17960264798156883,
            0.0037682200160881834,
            0.05350589516527738,
            0.0804302097093441,
            -0.13127283069553086,
            -0.1821832438825816,
            0.013680190040418502,
            -0.19845007060593206,
            0.13391026153058602,
            -0.16903056885824702,
            0.004246978946918712,
            -0.02238128531479441,
            -0.09816812925021277,
            -0.04077093048172817,
            0.1344158654221859,
            0.04966424337219948,
            -0.03465094042318558
        ],
        [
            -0.13666386232056704,
            -0.15345602082666554,
            0.07058320651940789,
            0.013047299758668491,
            0.15252940072948318,
            0.050953491072870304,
            0.09872430088632524,
            -0.051133147379102344,
            -0.10577829385502072,
            0.10808368129599374,
            -0.03236841543223985,
            0.0011007365308530765,
            -0.2045194992274444,
            -0.15511438303846495,
            0.024759356709152608,
            0.12372590252121529,
            0.056133348743017376,
            -0.010987693981542031,
            0.15094958760279403,
            -0.09794612990810665
        ],
        [
            -0.05089258611360837,
            -0.23546429540343805,
            -0.1585171593029272,
            0.027331341119731952,
            0.03892028381284405,
            -0.14282817159305317,
            0.04329455089277044,
            0.11931320246696281,
            0.05346006409894011,
            0.13910160846634925,
            -0.1307929564326354,
            -0.09264836870288713,
            -0.10625662376353648,
            -0.16470628371442605,
            0.09351735429142065,
            0.10934159218161103,
            0.04464517952230467,
            -0.01046760501586401,
            0.042127595717373886,
            -0.017008322361775876
        ],
        [
            -0.1963065902692345,
            -0.05998680995946559,
            0.030331754197594842,
            -0.07778686925216316,
            -0.14306930035346788,
            0.05558020518301511,
            0.01680402802369981,
            -0.07180683672548892,
            0.13998438143251432,
            -0.10208233359703442,
            -0.08047395027860693,
            -0.05786808338291701,
            -0.025342650012531092,
            -0.10328031116230556,
            0.0738569834764249,
            0.11270231397237701,
            -0.03645451511059529,
            0.11056684740644653,
            0.1363911969258995,
            0.05236948156523626
        ],
        [
            0.08594756674831877,
            0.15369843947891662,
            0.12525189345874232,
            -0.09916514380312584,
            -0.018930340551218772,
            -0.07232748685398939,
            -0.035292587432459985,
            -0.05580044226878743,
            0.018869670149324155,
            -0.1038614447193651,
            -0.08747298046219304,
            0.07063904733634543,
            -0.1693274686264371,
            0.08348806562023182,
            0.18481037276650067,
            0.03907485873767025,
            -0.09878181282927828,
            -0.06007983319434854,
            -0.05657001733837935,
            0.15351877956170776
        ],
        [
            -0.0751964697748016,
            0.017368121832459626,
            -0.08560585808852024,
            0.02660477836187738,
            0.026640689855488942,
            0.08743101611576641,
            -0.12591054486333367,
            -0.012882005952470257,
            -0.13663531222092556,
            0.14588730916947684,
            0.0034232860008813855,
            -0.022514910402797565,
            0.17705824701792336,
            -0.11771002876229918,
            -0.026640598891614485,
            0.11970781338075973,
            -0.09095707162098961,
            0.08369991302260676,
            -0.14702374339661686,
            -0.08014623340497161
        ],
        [
            -0.21239152165882766,
            -0.04242289342027112,
            -0.05051888067760958,
            -0.042027623783557067,
            0.020783023347525086,
            0.20903065759808567,
            -0.001478964099682005,
            0.10822287694145584,
            0.07350584597382125,
            0.0681871715271943,
            -0.04377167325527621,
            0.0016752872759895525,
            0.15104295184234115,
            -0.024214308882512126,
            -0.05478811132935175,
            -0.07830233617581087,
            -0.11373112829818385,
            0.12097049713081916,
            -0.013166745177775057,
            -0.04893395566623977
        ],
        [
            -0.007365906753901275,
            0.17138199554352232,
            0.07066297783247834,
            -0.08416746701856055,
            0.09503372610620531,
            0.05063765559028951,
            0.0026380736827715775,
            -0.08758151156023145,
            0.19647531649073444,
            0.034697950597021236,
            -0.09100431223794603,
            -0.09205959014567608,
            0.1328842455734095,
            -0.0997996620311756,
            0.08541356966688904,
            -0.07389758856707311,
            0.018315721424704876,
            -0.07660107002842977,
            0.07487727307860712,
            -0.08681873453634564
        ],
        [
            0.042184495407274224,
            0.06252966540509097,
            0.10286382284138257,
            0.12504006595447145,
            -0.08914723601780979,
            -0.0067089108327217945,
            -0.011526068607958653,
            0.0347498743547785,
            0.25291108774534604,
            -0.2298929172189137,
            -0.009400219897167982,
            0.07242659994011015,
            0.21111123123696035,
            -0.07595445310242302,
            -0.06224541375134575,
            0.017127610572428245,
            0.024736004879488703,
            -0.03174832974302149,
            0.16501954189015303,
            -0.04152199944076124
        ],
        [
            -0.14468047495251746,
            0.07891320401038346,
            -0.0334217502219529,
            0.11308215794677969,
            0.18399363311659775,
            -0.201477269828105,
            -0.1481638855357938,
            0.039055677878304135,
            -0.22683398057933948,
            0.2153169433869424,
            0.026371127572855813,
            0.03789254861364026,
            -0.04517951508184309,
            0.10646585058710312,
            -0.16389831483331632,
            0.029174940033287043,
            0.03797142732089501,
            0.12083863274682823,
            0.13821371869298246,
            0.07005568317794908
        ],
        [
            -0.17519608476126833,
            0.11411346384282138,
            -0.14556182414146115,
            -0.09034551415964132,
            -0.09609907853048454,
            -0.05054972861221748,
            -0.010286099317673674,
            -0.17220242638112515,
            0.12554252638163546,
            -0.1634234282496886,
            0.09815145947602955,
            -0.04787933352180488,
            0.11890263261492924,
            0.1891386327983194,
            0.10200135891180158,
            -0.0850256723383275,
            -0.06556622740178385,
            0.15777302759807052,
            -0.0650776333785256,
            0.042489075318285066
        ],
        [
            0.21113623394454267,
            0.0991058633531325,
            -0.07469515861983354,
            0.023761934469523804,
            0.11471583462339735,
            0.10669029395609098,
            -0.020200745267597082,
            0.08488809103310758,
            -0.005916995261926063,
            -0.22063140096948936,
            0.0699799883647836,
            -0.029884471433710445,
            -0.07943998948460518,
            -0.0041252671423823006,
            0.08381516595669973,
            -0.1122472971369211,
            -0.09141964758939265,
            0.14219524164197678,
            -0.004363887294407821,
            0.09584300879001578
        ],
        [
            -0.026637613009572635,
            -0.10081241247074256,
            0.042531994008166596,
            0.003286000306561196,
            0.09298520746620462,
            -0.03547465803810463,
            -0.013506313756394384,
            -0.08487626389946883,
            -0.07409156403791854,
            -0.13118157597401423,
            -0.04375771240050168,
            0.02767267746435041,
            0.10125172938928848,
            0.14479592544981887,
            0.11221141083619558,
            -0.13449439864133964,
            0.013050452333575753,
            0.04966532682707448,
            -0.1130357222537329,
            -0.012700437405817618
        ],
        [
            -0.17835751562672558,
            0.0017529694198300525,
            -0.028647337610913533,
            -0.10413691772924882,
            0.14802863158413418,
            -0.14674984625903553,
            -0.04814089900019105,
            -0.07379404835901379,
            0.05215428217510277,
            0.1458722824090738,
            0.003818213964770146,
            -0.013448763122474724,
            -0.16229480585864964,
            0.05651090015736295,
            -0.06162058362935967,
            -0.07647965781912625,
            -0.03550773732554819,
            0.08041548632580109,
            -0.06464572719625972,
            0.15164826750126784
        ],
        [
            0.09600165792489516,
            0.0471214263598859,
            -0.07075153231910405,
            0.0630704512409964,
            -0.15508664969605887,
            0.2146813092761155,
            0.048956689318340595,
            -0.004451736148458765,
            0.13487441076421883,
            -0.09734427673651794,
            -0.022433264417971558,
            0.1454966164702151,
            0.10398208235231868,
            -0.07510032372131954,
            0.11487395419392202,
            -0.03314655757907352,
            0.027463744296806494,
            0.11581631389190349,
            -0.053254464729089186,
            0.09738709043845001
        ],
        [
            0.2042243072497071,
            -0.24477223864339953,
            -0.11297972705661463,
            0.03844932598307422,
            -0.18239547982443066,
            -0.11288383791411265,
            0.009451314070490997,
            0.020819805687880444,
            0.06301634385936694,
            -0.08549497077864833,
            0.02013802192904325,
            -0.02200307003925149,
            0.09403526209281428,
            0.12519504792197897,
            0.16789040322932544,
            0.031301933252170074,
            0.032072103452381366,
            0.001983831014029317,
            0.012440872361911482,
            -0.02683352861736298
        ],
        [
            0.20592091759534928,
            -0.039305687061931605,
            -0.13128277553206777,
            -0.03933074584243101,
            -0.04745890733736929,
            -0.043916406164127446,
            0.017251382242002122,
            0.041276298014368946,
            0.09456550415702078,
            0.14786923782509895,
            0.0737016460458574,
            0.10758397094425337,
            -0.08615327272726513,
            0.11480812924609826,
            -0.04575990593197995,
            -0.15141227472202345,
            0.05194333752504554,
            0.08177201856525912,
            0.0730602671386136,
            0.08559315487363746
        ],
        [
            0.23456110395596605,
            0.05180086632401856,
            -0.06801289848753225,
            0.172538598418219,
            0.04289671526046035,
            0.046632633525051634,
            -0.11925086075052505,
            -0.02949737431359198,
            0.050230090473829266,
            -0.10369980092742237,
            -0.02833042862174304,
            -0.06856934069189541,
            0.16629273277772857,
            -0.0904133459569123,
            -0.1615565573090454,
            0.13303900852012174,
            -0.030191138588535834,
            0.04376687430656981,
            -0.15698298223071921,
            0.10279224977552003
        ],
        [
            -0.02761128001079251,
            0.10157193298995015,
            0.037593635429359146,
            -0.0011748292831916705,
            0.12357098550394956,
            0.196844938037149,
            -0.008465480878791714,
            -0.028985623819441177,
            -0.1485610055874219,
            -0.09646912543207174,
            0.15800018212758687,
            -0.01104721119745769,
            -0.036763198870469985,
            0.10355338163338601,
            -0.007622611245607387,
            0.002615712992586091,
            0.10754920548151506,
            0.1484800538128059,
            0.049805003042029616,
            -0.0371193428713967
        ],
        [
            -0.23484251138582693,
            0.04269167474257963,
            -0.10261323100340362,
            -0.008090990959529936,
            -0.04655266478964521,
            0.1794820655552705,
            0.08345209275882606,
            -0.0749957617764486,
            0.19964541836854907,
            -0.21700254983096146,
            0.013775299940698676,
            0.0827565361371265,
            0.11721230922140626,
            0.12868861635167028,
            0.14138552753072228,
            0.08557075648026027,
            0.019527407372084353,
            -0.03556399794365541,
            -0.10790514984257253,
            -0.0308204651005345
        ],
        [
            -0.12380075542239899,
            0.023510073859266584,
            0.10793112994400521,
            -0.09607585447824472,
            0.13531893618116966,
            -0.11322793759401581,
            0.19246921628039754,
            -0.09683691820339065,
            -0.09255535277405515,
            -0.07029755795167733,
            0.15238504248494222,
            -0.05693370619015612,
            -0.016928459777345365,
            -0.17885301088179828,
            0.03859909263017858,
            -0.1266298958870829,
            -0.18639281001680755,
            -0.10296937916348267,
            0.16424366085770725,
            0.09029080429833651
        ],
        [
            0.0947339758024749,
            0.009617006586481213,
            -0.1012373059527389,
            0.021290795225934106,
            -0.17545557333889356,
            -0.09687659560791269,
            0.08793373995428233,
            0.049952127055976715,
            0.23307181699007648,
            0.08612041202142535,
            -0.11508143222120674,
            -0.10187636504365098,
            -0.14956114573802784,
            -0.05828494781371942,
            0.025742328664438496,
            0.09875655985161716,
            -0.15753917966096942,
            0.1520805757548763,
            -0.024051998609868532,
            0.12387580745776754
        ],
        [
            0.0020239740499273617,
            -0.02102775928637903,
            0.015114047999146542,
            -0.07909158977695045,
            0.12601791365077994,
            -0.20540688150867226,
            -0.047173762304364715,
            -0.02002431936641184,
            -0.17593180017052756,
            0.009854174757967642,
            -0.0841411384024762,
            0.07823040877490593,
            0.1717545438418692,
            -0.01490988970114988,
            0.1697726001826712,
            0.06427928460944325,
            0.045135745854083247,
            -0.07245136172418971,
            0.10706492034997979,
            -0.019585092775708055
        ],
        [
            -0.09062072252009398,
            -0.24398936344515643,
            -0.003197655787924362,
            -0.06969640861491315,
            -0.11153679184853213,
            0.06062560368849096,
            -0.06863901885232089,
            0.09602774187099543,
            -0.22060345965914097,
            -0.040207707382168396,
            -0.00279629783168052,
            -0.12059055570801089,
            -0.01619346360507256,
            0.07532610466937666,
            0.0484094678597973,
            -0.12683500636328995,
            -0.07608581530900227,
            -0.10429048099566615,
            0.01884935917435393,
            0.0529216049150902
        ],
        [
            0.19331253236673826,
            -0.1641774973625743,
            0.0022821559293512072,
            0.03069594501720476,
            0.16666489985408556,
            0.16978864813220057,
            0.10831708447533081,
            -0.15649282441160428,
            -0.18145532687887794,
            0.054199429889680156,
            0.11438313834823025,
            -0.05637309160904288,
            0.21528306576965353,
            0.037745381155486944,
            0.11468356881645354,
            -0.01908434672609744,
            0.05115042955518941,
            -0.16850259959490932,
            -0.07580354573775067,
            0.0488394784529002
        ],
        [
            -0.09978014126071838,
            -0.22910214981782676,
            0.09468088362155053,
            -0.030066493920193307,
            -0.1554175505657553,
            -0.0028178273214998126,
            0.04948161585675458,
            0.024364482823303783,
            -0.12602306503315552,
            0.13959313093700879,
            -0.05031528705760204,
            0.05783330755651248,
            -0.015598086082751426,
            -0.03537770229139989,
            -0.13743343573127784,
            0.026692112823209876,
            0.1490770291723758,
            -0.11602958245992365,
            0.04117283678643518,
            0.1321332688842556
        ],
        [
            0.09430562653090459,
            -0.00012065354147004115,
            -0.05665002777090231,
            -0.02171796312114636,
            0.11864059614914321,
            0.14172093766561822,
            -0.035925290200704,
            0.11075930265586945,
            0.14107455258904028,
            0.05962547531542802,
            0.10720935951814987,
            0.026945721704178374,
            -0.10873249636891646,
            -0.08681793844407307,
            -0.09320563920184606,
            0.13564068866009638,
            0.1924723602840774,
            0.03719321450068707,
            -0.029895811935519066,
            -0.04521835162881853
        ],
        [
            -0.2591737145419629,
            -0.19595272802142194,
            -0.07585675461548663,
            -0.039199858018474115,
            -0.04581393385721465,
            -0.17052450996937402,
            -0.03297238677055489,
            0.09571480365987946,
            -0.1942057522299987,
            -0.12481563437211499,
            -0.007779851999892449,
            0.037366200332043305,
            0.18624669485941844,
            0.1990947011816097,
            0.1254525855817732,
            -0.10101358733952857,
            0.06710742733099072,
            -0.08825782486838422,
            0.13515801749971906,
            0.07786160659347638
        ],
        [
            -0.020327312389521245,
            -0.056277952829962626,
            0.014132656599886937,
            -0.18861463312140592,
            0.02800315963414839,
            -0.10106679148519425,
            -0.022756941360710593,
            0.15155601796572102,
            0.1299765612509064,
            0.1203755923808863,
            -0.05159791121520253,
            -0.1451800729913987,
            0.16608802558809782,
            0.12413332349930052,
            0.12095018907720043,
            -0.17710449205438983,
            -0.04076243946983774,
            0.03418281435346996,
            -0.16652468816468532,
            -0.11328754254747897
        ],
        [
            -0.1251746709407211,
            -0.164160679373875,
            -0.05481966227679036,
            0.11011497440587605,
            0.004073755893733177,
            -0.03567365920631828,
            0.16617104987192552,
            -0.08021129063518362,
            0.06731115444961475,
            -0.07709681625400219,
            0.022843080756240426,
            0.05033159684245478,
            0.16098340410897274,
            0.1804951148195858,
            -0.02909517557566421,
            -0.052268752596269175,
            -0.09954462705770162,
            0.1601073479355441,
            0.09057154003591876,
            0.05181964354359778
        ],
        [
            0.14977052972075214,
            0.04272439799423539,
            0.09213033354383128,
            0.15821763656897073,
            -0.14164624452152783,
            -0.16278606613777002,
            -0.0938766213250838,
            0.09837926080024052,
            0.008148968031303905,
            0.12906396453886626,
            -0.11317329738776029,
            0.014002975550851294,
            -0.0028459302609480878,
            0.0391003303534288,
            -0.0042796135099619145,
            0.0688104911631451,
            0.01936180471454695,
            -0.0231192808802572,
            0.14310207095879973,
            -0.14030647219079254
        ],
        [
            -0.055080552552536244,
            0.01676468270125145,
            -0.09307109658018477,
            0.005406960663388477,
            -0.014269998189857717,
            0.17673740065183796,
            -0.11613749539686706,
            0.05820946371939736,
            -0.011244970559630087,
            0.12658355547533312,
            0.06138098814806319,
            -0.007429365463088049,
            -0.11557195918626059,
            -0.030842231249908435,
            0.17100713055625594,
            0.004755978070994879,
            -0.11679542263745506,
            -0.1745210468454885,
            0.054354856315900625,
            0.013130679660503053
        ],
        [
            0.2346626778864207,
            0.2776056638391342,
            0.016619332416754798,
            -0.06878790675283485,
            -0.04126679426547883,
            -0.13984772593237252,
            -0.0036921996059881574,
            0.07312590710950313,
            -0.17741837163804106,
            0.11017506397799647,
            -0.086596906512233,
            0.08874734962993173,
            0.11535711216480468,
            -0.14866515618560672,
            -0.0967652459897682,
            0.09973029901460624,
            -0.02585654318646958,
            0.0039739445790372,
            -0.008163257731057935,
            -0.02975559882475676
        ],
        [
            -0.12747979695868683,
            -0.05544326974521374,
            0.06281656788258175,
            -0.07910202014673945,
            0.11499599450721683,
            0.20430605342289226,
            -0.07769690100631399,
            -0.007266978730046558,
            0.18347062707685835,
            -0.15463666773591445,
            0.07967435404992597,
            -0.021450779064298802,
            -0.18717374166956036,
            -0.04824713551679019,
            0.05926927587159932,
            -0.11100361369600709,
            0.10272524058808997,
            -0.050080636101940426,
            -0.08775609746410927,
            0.09866214872750906
        ],
        [
            -0.17079598538463656,
            0.052194728823221175,
            -0.07907853778095926,
            -0.06851504081695067,
            0.021785393800944186,
            -0.21342465032873398,
            0.12912952913205342,
            0.07226983537343812,
            -0.23431803766017642,
            0.1131924750834556,
            -0.044366830650250585,
            -0.0139038706538185,
            0.019024431954295772,
            0.18016876640780874,
            -0.1210733489590689,
            -0.15196560386253477,
            -0.07349466522433318,
            -0.21174106250984617,
            -0.13342499063995514,
            -0.1114793194602897
        ],
        [
            -0.0009976667749838641,
            0.04517737007588726,
            -0.12591093568072478,
            -0.06910017248480957,
            -0.22866324676938676,
            0.13512766998737638,
            0.03704578164636567,
            -0.04243251987419757,
            -0.1820514590660684,
            -0.15036877017629519,
            -0.01919880365795444,
            -0.015813897828351423,
            -0.1737784338136535,
            0.05420860043135061,
            0.02003561736821894,
            -0.07892170147175942,
            0.04216600592162871,
            -0.06948650809954576,
            -0.15526427895308406,
            0.035519613433469585
        ],
        [
            -0.0006791147700181366,
            0.02206331741367438,
            -0.12614236593029024,
            -0.008189760456867281,
            -0.1314441221829767,
            -0.14654455596592797,
            -0.01951526324079099,
            0.019127104982117737,
            -0.2190933793849297,
            -0.2490081386513249,
            0.01373845605833643,
            -0.03754721623945914,
            -0.14794448216300346,
            -0.19807898661705864,
            0.054508385364565606,
            0.13303987877936707,
            0.09163519583981639,
            -0.05882730092500848,
            0.13515460683778938,
            -0.13335950654893455
        ],
        [
            -0.21089569441141007,
            0.24579110093007944,
            -0.00736768040410272,
            -0.07870234386137728,
            0.13689272397190888,
            -0.08859307765141163,
            0.02761379224890275,
            -0.02140665443762456,
            0.12892964254330724,
            -0.1268815737745268,
            -0.006287706702179665,
            -0.11843927954715998,
            -0.16871163557855678,
            0.06086291681595384,
            0.038581859106237446,
            -0.1149389651407516,
            0.023544674882780902,
            0.08498196258500981,
            0.051560213627060494,
            0.02091026325875816
        ],
        [
            0.25568366629881484,
            -0.20202637747356364,
            0.11124520129610643,
            -0.03753271827174018,
            0.01416298519896937,
            0.18612769875929663,
            0.055081217324622345,
            0.1193659303024311,
            -0.20487490330876915,
            0.1337537554450764,
            -0.07625301530968061,
            0.09609146724528812,
            -0.09174310875977214,
            -0.1435392540185723,
            -0.05689521198498942,
            0.1351721580640529,
            0.026757632679867218,
            -0.0011756774316542592,
            -0.019931222084279353,
            -0.19174074822425746
        ],
        [
            0.09433710113498986,
            -0.016757581646296434,
            -0.003722284863802963,
            -0.03529203862459106,
            0.05226357179008807,
            0.141617757756984,
            -0.03831062888278137,
            -0.07780110059354566,
            0.15855154680253555,
            -0.0556374804210497,
            0.05999626518831937,
            -0.004399523266778648,
            -0.19310011533443588,
            -0.045541593238349234,
            -0.05955172301633127,
            0.020340732450046597,
            -0.041367461393942984,
            0.009583171842568303,
            -0.08289559933324267,
            0.1569442462993873
        ],
        [
            0.2365700372716284,
            -0.0005558369428501295,
            -0.06125308012763293,
            0.12337334611423052,
            0.10028075388262042,
            -0.010475966119329778,
            0.02180181293867035,
            -0.10372467826847559,
            -0.05907555252974642,
            -0.12726573120210002,
            -0.03221478334361718,
            -0.07831247546301773,
            -0.17393797215284063,
            0.08362541427044062,
            -0.10222650789073207,
            -0.09220740623714886,
            0.18747312835418514,
            -0.12082683252600701,
            -0.003700707323662452,
            -0.0566526701415303
        ],
        [
            0.20144584898357717,
            0.15425505585531338,
            0.04250176907266487,
            0.07593820561759511,
            -0.08725436677267889,
            0.1613660994635164,
            0.10322891494610993,
            -0.03595826702972687,
            -0.09153688924229489,
            0.20262821864414898,
            -0.05724587428028798,
            -0.0635078503366847,
            0.141187693877506,
            -0.07649099288244798,
            -0.020806551776834437,
            -0.10262456547312575,
            0.10924191912803462,
            -0.09281902124437574,
            -0.0522689344741456,
            -0.05715928195925398
        ],
        [
            0.044030834138720484,
            -0.11299521561770287,
            0.11604012099718998,
            0.0519067436622769,
            0.0635002694892337,
            -0.030906282997066874,
            -0.009824510746891207,
            -0.08140100963611774,
            0.0631622108879058,
            -0.05238759975154607,
            -0.17349227371412942,
            0.17695226995250488,
            -0.024260272578319517,
            0.14908847889589785,
            -0.07723045399954827,
            0.06976553316141225,
            -0.08922942433390957,
            -0.06234636078214518,
            0.22244552565174588,
            -0.11042574866602371
        ],
        [
            -0.16374195695353125,
            0.01825908729241215,
            -0.03277521054508385,
            -0.03649287250501419,
            0.08879548165339847,
            0.14935847026737994,
            0.005696330352370321,
            -0.09455935204293206,
            0.17231273413555398,
            0.06563342207683999,
            0.08225276666895472,
            -0.13489661628679406,
            -0.008006782331624539,
            -0.21208359624597742,
            -0.008849660897326708,
            0.159568184612055,
            0.22893033437665036,
            0.1812210443431483,
            0.10976711051287386,
            0.10277305428778846
        ],
        [
            -0.09541889187848558,
            -0.15857259159145046,
            -0.191505494777821,
            0.11795407755946855,
            0.10881088143749917,
            -0.15267320143961746,
            -0.07006951761608066,
            -0.01130822173976281,
            0.19109857701391264,
            0.03774984479303787,
            -0.10332285984319427,
            -0.09403925590440573,
            0.1761510201723875,
            0.07429197505597168,
            -0.002493759119128206,
            0.07195542658149034,
            0.05319098728470405,
            -0.10860859713737644,
            -0.14293992992326857,
            0.12265974865353894
        ],
        [
            0.11384477725688694,
            0.13477413307037478,
            0.11860256452551611,
            -0.051383172511797734,
            -0.006763644035150164,
            0.07692913107735452,
            0.023972552762219306,
            0.09081345835607506,
            -0.1851614821826369,
            0.004082135757518538,
            -0.009466903827774148,
            -0.19595977491362068,
            -0.004854576251961471,
            -0.10428814858011454,
            -0.03927774303989737,
            -0.1182181101979327,
            -0.05400963952374531,
            -0.03158287101988009,
            -0.17572669918027922,
            0.0720974402402071
        ],
        [
            -0.11568262526082745,
            0.15722720790232664,
            -0.05886132817780433,
            0.03156394135103327,
            0.026608772860888464,
            -0.12878752282293734,
            0.012041835171516644,
            0.007366578796144231,
            0.06447090971675871,
            0.033309412368457525,
            0.009641000744024289,
            0.11317982692489303,
            -0.042124023267714694,
            0.12317658632882786,
            -0.04783987480110825,
            0.03441249532193415,
            0.08237731400072998,
            -0.07448691375784014,
            -0.11288493218877277,
            0.022809622364691064
        ],
        [
            0.24346762125403829,
            -0.16339961236287284,
            0.02081555176057627,
            0.022069183083189853,
            0.14899178975567717,
            0.0015247721501813359,
            -0.08738452400358124,
            0.1092929814088077,
            0.0016038500385617284,
            0.10454946900593158,
            -0.07146474904094602,
            0.0783655455978737,
            0.01935609266439254,
            -0.11727524395819336,
            0.14506996328409527,
            0.05130447410248887,
            0.1760866416040322,
            0.011874647328400165,
            0.09133600596446888,
            -0.11151021270855496
        ],
        [
            -0.06183367462864134,
            -0.2022707768870201,
            0.13843648877734496,
            -0.0630986871860455,
            0.12173973695709439,
            -0.0389533867182468,
            0.08248567575894075,
            -0.13125277151804818,
            0.015926739346578407,
            0.265253433430607,
            0.16356698650906898,
            -0.006580286364813883,
            0.13383943625990527,
            0.1467189931395475,
            0.18979874599377458,
            -0.11287364365183024,
            -0.08377027810685539,
            0.08240889135145522,
            0.10955345701552491,
            0.05260627740025213
        ],
        [
            0.0035571317292869805,
            0.014597084673939097,
            -0.05813943861197775,
            0.02354309963267115,
            0.06042154489554659,
            -0.183118435355012,
            -0.12870407719365262,
            0.027744145682829298,
            0.24252767960377467,
            0.012041906724095545,
            0.07849068707773357,
            -0.12884268457039189,
            -0.1307353030465138,
            0.1342866074162512,
            0.12892893494022037,
            -0.06508419904228524,
            -0.16218170855508549,
            -0.12729061706844777,
            0.13959540861312814,
            -0.09713341027136677
        ],
        [
            0.11550847112000673,
            0.07528936601363634,
            -0.01688374156112002,
            -0.039663810922844836,
            0.18538765737922502,
            0.15872490208747936,
            -0.09474246382889742,
            0.08582511046168935,
            0.09961862092967488,
            0.02708120779878926,
            0.037124534569204844,
            -0.08764333204136444,
            0.11462221809507507,
            -0.11585598068526197,
            -0.04580698068207855,
            0.1002268683206871,
            -0.11677691033726717,
            -0.10833023181397199,
            0.008204496022496233,
            0.031214178302650764
        ],
        [
            -0.13089395256607284,
            -0.10427431608186008,
            -0.03916059453158105,
            -0.0038023687290913415,
            0.050915635052153387,
            0.09192337531986275,
            -0.11791053315819576,
            0.05480093673320819,
            -0.18623893603672534,
            0.0032239502807537425,
            0.046144478057927256,
            0.07460818506433375,
            -0.05116654543198698,
            -0.09661382312203101,
            -0.10363168551852232,
            0.10043313394310542,
            0.05942730897944516,
            -0.0700088307113015,
            -0.10310778075540346,
            -0.06521733726166594
        ],
        [
            0.07286922854695778,
            -0.13853249225641287,
            -0.13631484070453861,
            0.02850955274258504,
            -0.1912577993771836,
            -0.01078831317330044,
            -0.1215601272408892,
            0.10634559019814693,
            -0.012024979281150448,
            -0.19107258213611367,
            0.04054078851204501,
            0.013214836980516823,
            -0.07445794510503835,
            -0.016667902927481375,
            -0.15741964164483493,
            0.06190751064206682,
            -0.0662756350229569,
            0.20726221676240186,
            -0.0005220290970730619,
            0.02518359005313689
        ],
        [
            -0.11429037545168422,
            0.09037918470845359,
            -0.016629545759902425,
            -0.010800245018195213,
            -0.0076694019932782255,
            0.16648520332269903,
            0.04443288896432839,
            0.02707679434277851,
            0.053871667382385476,
            0.170242366358897,
            0.07353733913175864,
            0.09557287590118903,
            -0.19542839422479621,
            -0.11232761378955025,
            0.15592746086836384,
            0.0011027175512704364,
            -0.07855542079216526,
            0.016795082579897203,
            0.03224467838570901,
            -0.12451889295391802
        ],
        [
            -0.08205939014158933,
            0.05535947309317776,
            0.04248491519975057,
            -0.09860661294001968,
            0.05692059942918388,
            0.18901993738648806,
            -0.08957145041575142,
            -0.059459702963762615,
            -0.2311210039627899,
            -0.22493521912728778,
            -0.02203620406542809,
            0.09052347451199864,
            0.00915250622601916,
            0.05712715807174541,
            -0.17988848335676455,
            0.05449803537769395,
            0.08114431211665848,
            -0.05881044504988472,
            0.08232875592270326,
            0.02474828463002027
        ],
        [
            0.02049817508107427,
            0.03512296311871586,
            0.08989538773198881,
            -0.03352554294737636,
            0.01015288319761653,
            0.2275547024902701,
            -0.08477104030396963,
            -0.0847244284070431,
            0.221949913936634,
            0.12378180939965082,
            -0.12310267464508597,
            -0.032832908184119006,
            -0.16682408363537882,
            -0.03792411660460877,
            -0.09634745838325726,
            0.03177817914677069,
            0.09732899103650751,
            0.055463803363816296,
            0.0851706516698957,
            0.04627038241195904
        ],
        [
            0.030047943460882746,
            0.14622659294400414,
            0.08960345814349545,
            0.032642629197601025,
            -0.021622241728708348,
            -0.1109743725877526,
            0.1460049770123074,
            -0.11631262130771158,
            0.15860334350562977,
            0.048994611204112776,
            0.15553787338631883,
            0.11645043807043871,
            0.14358967542778606,
            0.08819975941362405,
            0.00012364146409916924,
            -0.13649576972438804,
            0.18036950262266468,
            0.11594261434999482,
            0.1381712466230146,
            0.06745985576392413
        ],
        [
            0.21489020969094974,
            0.01647616181998824,
            -0.09010777906488385,
            0.03444892186751905,
            -0.08234562037479683,
            -0.1380200540516061,
            -0.14497133622796898,
            0.052339776769713325,
            0.011303219469043606,
            -0.10099761729609613,
            0.017871824709848903,
            -0.05342149176521164,
            -0.1900882519575756,
            -0.0776242172772084,
            0.11539061944070866,
            0.044062852177352604,
            0.11565446655252093,
            0.11015811415392109,
            0.0811941171253526,
            -0.18058767420527821
        ],
        [
            -0.10314680800160483,
            -0.005403779109924517,
            -0.17388106535411402,
            -0.013734384835708059,
            0.19735543003510664,
            0.014709403720189406,
            0.040531301385905605,
            -0.11875021651360354,
            -0.13611831033877372,
            0.15579409437353955,
            0.09805054824797117,
            -0.09629571983371282,
            -0.17255162796258544,
            -0.1645146597751807,
            -0.1388042789926705,
            -0.1369416834567872,
            0.054572061913483634,
            -0.16746519935953336,
            0.07761602919310331,
            -0.1965534900649716
        ],
        [
            0.013118171515439,
            0.04445242226026358,
            -0.15164353836536568,
            -0.15399613344941265,
            0.020222722403308843,
            -0.0763068799021106,
            -0.0257131443500529,
            -0.09869143073441794,
            0.24448972777786107,
            -0.10550907592557386,
            0.14685350954352497,
            0.09097770119033054,
            0.18224692888237784,
            -0.031166461071455508,
            0.15583523527760246,
            0.12080175100906129,
            -0.023716584264538956,
            -0.14105489920472988,
            -0.1824358928312562,
            0.0520119116153028
        ],
        [
            -0.06427806038177805,
            -0.1036699726800589,
            0.050895017156537506,
            -0.12129572590776874,
            0.0431096187939122,
            0.11425539913667962,
            -0.06645049415032872,
            -0.022976814807705657,
            -0.20493445477900862,
            0.1614487302341927,
            -0.021435386777474294,
            0.002671180819604398,
            -0.13476619388274272,
            0.02653172989743834,
            0.1287677683113541,
            -0.09328414058434777,
            0.06680511662967141,
            0.15896987332195395,
            -0.03846664783438827,
            0.08681179352169191
        ],
        [
            0.23164220223284568,
            -0.027178025094925645,
            0.22330602345551254,
            -0.14332197136915498,
            0.13622403719468978,
            -0.10953960300510408,
            0.10793519663790734,
            -0.09650836216216256,
            0.17568489671210394,
            -0.09334501359016635,
            0.103531620401605,
            0.045511075195491656,
            0.02849382610529144,
            0.19636470566853892,
            0.11965977984440906,
            -0.10688443804039376,
            -0.15571239821829647,
            -0.031748723540682325,
            0.08601083656850407,
            0.11599510906655765
        ],
        [
            -0.1398709653449174,
            0.1586912610157909,
            -0.031970216079498,
            -0.06562507331197644,
            -0.04499986911346675,
            -0.0878850139281082,
            0.004046468001078336,
            -0.09877561383813657,
            0.07496592773591772,
            -0.05036300983126316,
            -0.04661602450226462,
            -0.026989651702906292,
            -0.1816296039145518,
            -0.1413416557032334,
            -0.11899779268025107,
            0.14637500657285757,
            0.11260911600315572,
            -0.0494755082846508,
            -0.055852388644424635,
            -0.13113722188417992
        ],
        [
            -0.14144996384397038,
            -0.2446719946615263,
            -0.1581435745931389,
            0.01831060052814538,
            0.06546043607250983,
            0.15171925791598975,
            -0.0895606520189932,
            0.058579530902161406,
            0.07814101527751893,
            -0.11783239156773698,
            0.013579083741133077,
            -0.11036584126472679,
            -0.21701883926055215,
            0.10300810733250382,
            -0.11221964108972325,
            0.11101853517624098,
            0.050449426409098,
            0.04145502210157334,
            0.11391828631532758,
            -0.1669584316820863
        ],
        [
            -0.11638255259912093,
            -0.10966010406506922,
            0.04412491067524514,
            -0.026037166692595808,
            0.0660191665526494,
            -0.13133542274089482,
            0.10061278536205287,
            0.06348591020715345,
            -0.08883903944550159,
            -0.2410354192701486,
            0.02883061464513597,
            0.007037180672229515,
            -0.051601306331143286,
            0.11726896386590244,
            -0.04644926741504992,
            -0.058519523530237386,
            0.034021390850736126,
            0.05477021523033324,
            -0.1010031041883274,
            -0.10850396639811047
        ],
        [
            -0.01718255954538624,
            -0.030943263474337675,
            -0.08884875276917806,
            -0.032540626636579945,
            -0.17944962770142192,
            -0.15722988901296103,
            0.08731792157688456,
            -0.17056055901750258,
            -0.021419261722904315,
            0.25885077793248934,
            -0.01915778747316931,
            0.04517637015946192,
            0.1475671822443893,
            -0.15154979983945216,
            -0.0006798744922628595,
            0.10496731495329926,
            0.12264749182535876,
            0.1933556472161737,
            -0.021554567854622245,
            -0.12078190511825475
        ],
        [
            -0.11111884379947838,
            0.20940840570982677,
            0.013162151198673285,
            0.1543490543130676,
            -0.14635433559659672,
            -0.09408557133504043,
            0.08866624812300432,
            0.06304350258925771,
            -0.1848048843032874,
            0.055444119061761145,
            0.16946961843759673,
            -0.0854670504039967,
            -0.03765244093045699,
            -0.14406012337171326,
            -0.07952755673895373,
            -0.11754550180001838,
            0.10515710718719551,
            0.02169283038298951,
            0.09367886840949717,
            0.14479865214600654
        ],
        [
            -0.0003577089666510111,
            0.022182965807071818,
            0.026304908133288594,
            0.1188429900159052,
            0.06570024208828727,
            -0.0034476618196513185,
            0.04544031900347413,
            0.05323423051683741,
            0.24876303831554242,
            0.1443544304700775,
            -0.003977564466293592,
            -0.02517981534281028,
            0.000958634817703818,
            -0.04772643790249413,
            -0.03686541784675912,
            -0.05771860243790119,
            -0.06457027197635334,
            -0.0745759244508356,
            -0.15944665504648153,
            0.10999105952414753
        ],
        [
            -0.13288385827634464,
            0.2124806984225697,
            -0.06950705050922804,
            0.09409376523195001,
            -0.041295285526936606,
            0.03798928173153175,
            -0.09292638092168423,
            -0.0032425573816439526,
            0.21164170051626385,
            -0.022388891911966184,
            -0.11205115757064116,
            0.030024641205376866,
            -0.04854045708158686,
            0.08535776074049733,
            0.08332899313625056,
            0.0768857064909435,
            -0.014959584408996507,
            -0.09837746676408461,
            0.06186106466532995,
            0.10867992809096443
        ],
        [
            -0.1464977050896732,
            -0.10919052891981174,
            -0.04254086471546665,
            0.027159191603324185,
            0.17530916986976053,
            0.1353674326911543,
            -0.010592449009220626,
            -0.004251335962732688,
            -0.19862999266606735,
            -0.23945969913736953,
            -0.09982476625932027,
            -0.14953611205864067,
            0.15436521968125866,
            -0.1909340546775015,
            0.007715664106833859,
            0.002232061820718138,
            0.12269524450635517,
            -0.10026927763626349,
            -0.05466517130993227,
            -0.0027561415008113235
        ],
        [
            0.043474733266038235,
            0.13494446081882297,
            0.029189234107538344,
            0.09504997845047314,
            0.16984896231283705,
            0.21253960042600603,
            0.033311585022304885,
            -0.15900317143586642,
            0.07577089420187963,
            0.17805575653984598,
            0.0004153452177026534,
            0.07141927738864255,
            0.029317755911792167,
            0.10733724572514468,
            0.09779188652111402,
            -0.0006720224015191094,
            0.20842020992240495,
            -0.046333687108499416,
            0.08438943727043514,
            -0.001154418456602469
        ],
        [
            -0.09900589182316627,
            0.04838193594667534,
            0.09367933758017519,
            0.05114963773403158,
            -0.010645288992315701,
            0.034003842646236626,
            0.030163513760538208,
            0.14783933064976074,
            -0.12516314997490197,
            -0.1067768303175045,
            -0.08277034744951257,
            -0.0039746879770479705,
            0.06704362026201076,
            -0.05687802038106495,
            0.13032615346164206,
            0.08577658474491091,
            0.07567627574267913,
            -0.01799895774723926,
            -0.13153126744413643,
            -0.13826069308649724
        ],
        [
            -0.23074919470420197,
            0.16006508859491655,
            -0.07368796391789988,
            -0.03722622506594198,
            -0.03053151345404829,
            0.03095040116848573,
            0.05762005509131519,
            0.0031014029542373784,
            -0.10709277968439745,
            0.06529035896056706,
            -0.08220587000896884,
            0.0689277492011554,
            -0.08557974930671722,
            0.007405571271438433,
            0.08162448750419309,
            -0.02697034672623762,
            -0.11300569906115696,
            0.1159527342994493,
            -0.06264569286139549,
            -0.08697286202645958
        ],
        [
            0.04519360747566907,
            -0.17790653141873095,
            -0.0500217205715221,
            0.12203583610249927,
            -0.01713361795035195,
            -0.17504808167703728,
            0.014807254104312093,
            -0.011081191961759683,
            -0.16963694388543996,
            0.04498055193046237,
            0.12426842661180204,
            0.018186809973228982,
            0.19117110732263856,
            -0.05330495824719618,
            -0.17799996668114404,
            0.022517803848900925,
            0.13609924506572785,
            0.15234285672569672,
            0.17695756916893887,
            -0.061028847469818855
        ],
        [
            -0.2500783005444745,
            0.12882646907204076,
            0.16150060896656487,
            -0.031711577922162254,
            -0.0642714480555917,
            -0.05752565345995072,
            0.060076220902818785,
            0.09689696123967648,
            -0.10540642187963058,
            0.20172944851955518,
            -0.016113358768249472,
            3.6407446110513805e-06,
            0.08183521118504376,
            -0.06782842439153992,
            -0.08942505099471809,
            0.07567703966525303,
            0.023530201129204557,
            -0.1368398323107994,
            0.059562465720639744,
            -0.03678329935612582
        ]
    ],
    "h1.bias": [
        0.05633530307999369,
        0.1644348723734912,
        -0.07342205961136548,
        0.22392067434758847,
        0.021411865486447437,
        0.19800780696903292,
        -0.1031792682068684,
        -0.17016996102794973,
        -0.06086594408371899,
        -0.007877072244618937,
        -0.01158707497785373,
        -0.19724845922141893,
        -0.015178233009855694,
        0.20727178802486357,
        -0.1400536680866412,
        0.06703875644409053,
        -0.08199905701370687,
        -0.005996956086803745,
        -0.10917763925558598,
        0.0829851979380883,
        0.05310317748346129,
        0.15647406332147687,
        -0.135680724544017,
        -0.16882627156021313,
        0.2004486644275733,
        0.2347983550500807,
        -0.030140016266969546,
        0.08519134661514065,
        0.06289544589920043,
        0.03693856513897879,
        0.061071448399622356,
        0.13460276690754977,
        0.15902621109167314,
        0.08237074480888872,
        0.06136514274845279,
        -0.108408109053012,
        0.003953031941083631,
        0.07878272020235458,
        0.10693019016858855,
        0.058740226903237845,
        0.029373525119356734,
        0.13962091172660246,
        -0.09737970062836986,
        0.1877462428365265,
        -0.07367926959882576,
        0.2095921606048571,
        0.10539217606462423,
        -0.0436180180854482,
        -0.01198243704720834,
        -0.07571472259207429,
        0.21716465054562817,
        -0.0702393456001203,
        -0.17400564727145668,
        -0.1057278847443793,
        0.03586422936635338,
        0.16270848424493253,
        0.0035652293463294847,
        -0.07106862884255465,
        -0.15981879058454138,
        0.136643824394896,
        -0.10533987230861136,
        -0.13007706881659875,
        -0.11468017869589936,
        0.2197252833574495,
        0.16512537925869938,
        0.23035053917099824,
        0.10116543041304404,
        -0.1481238327396869,
        0.0826241920476175,
        0.05891983110959944,
        -0.0012538754172076248,
        0.1853987874021163,
        0.1288151963763423,
        0.08320230831507344,
        0.09612339325788978,
        0.024955385032662283,
        -0.07617242530368051,
        -0.18996089554555892,
        -0.07611127642627896,
        -0.11787623372951496,
        0.13528313838060352,
        -0.08930243560670312,
        -0.15981288022085754,
        -0.20492274420650528,
        0.13286101439514814,
        -0.06521986116308724,
        0.17591809122765145,
        0.15965328231317927,
        0.24632364389695333,
        -0.06990815918699035,
        0.16153452225268397,
        0.090693734293018,
        0.30618489159919027,
        0.10757290899173116,
        -0.14500436849849382,
        -0.09938236617186386,
        -0.11435688484438701,
        0.2173835761322664,
        -0.05376938489599948,
        0.04425727382779147
    ],
    "h2.weight": [
        [
            0.09373595161712892,
            0.054918521648872703,
            0.07303227276369205,
            -0.05040582420832521,
            -0.01501995712151351,
            -0.05049019623248395,
            0.006286317583432552,
            0.057622291142760136,
            0.05406522338397459,
            0.09399320017785212,
            -0.09717801986248714,
            -0.12335844507103533,
            0.08029259595080594,
            0.09067724169430236,
            -0.06895553138640441,
            -0.07827007523837543,
            0.028728885936648928,
            -0.006996768755517957,
            -0.038770759514994195,
            0.015882927282481488,
            0.024885744989593665,
            -0.03152810108139135,
            -0.08613032098319579,
            0.025246576970038643,
            -0.04697880271498747,
            0.03634806947279315,
            -0.005521129607208657,
            0.04980822284524164,
            0.013491661800427037,
            0.03792752909442011,
            0.02439450665360746,
            -0.02116429066359721,
            -0.006002623922488434,
            -0.04505989262688083,
            0.09145685798045451,
            -0.10942920994074835,
            0.0576472268071907,
            0.09819328149857576,
            0.05649425546907214,
            -0.07486329111104394,
            0.08828690272123067,
            -0.07346087135588061,
            -0.05829787759997699,
            -0.08506188816325576,
            0.0678423172814951,
            -0.017813478364807064,
            0.008291631811170081,
            -0.037923588333093415,
            -0.057317487530323466,
            0.07805135183406192,
            0.006987347838624379,
            0.009060641018524829,
            -0.09649951181193109,
            -0.0728167907232493,
            -0.10215851435012345,
            -0.06818956955385369,
            0.04625400710982983,
            0.02938394729213397,
            -0.08164318466910672,
            -0.06488230998061717,
            -0.06749615133259003,
            -0.09650694196703759,
            -0.05002090742912811,
            0.061254807254686974,
            -0.05885705345000615,
            0.09308583930275222,
            0.07835660261728988,
            -0.031377981137633564,
            0.029152484059399252,
            0.051751367615125846,
            -0.03792049642293938,
            0.07357001315716753,
            0.0779852624579743,
            0.006393875193506535,
            -0.06678813472446567,
            0.07356673714824144,
            -0.03934596752742986,
            0.0033190901679346204,
            0.007566768705055919,
            -0.00040395131226709016,
            -0.09139936032037155,
            0.014948247850159298,
            -0.05547460264089732,
            0.06981832212257064,
            -0.07130773675484596,
            0.07512016399247111,
            -0.03784268738614287,
            0.001220894813420535,
            0.1096922798757723,
            -0.06478135044454007,
            0.003344864367986151,
            -0.09045014448143825,
            0.04784380651871363,
            0.03567467980438992,
            0.003058949712380329,
            -0.06116184731441636,
            -0.01187695233186806,
            0.003306081403169878,
            0.06689812752301424,
            -0.11370737431200102
        ],
        [
            -0.07197982468393001,
            0.01432274461564345,
            0.03808706776844142,
            0.056192316023061475,
            0.05851258970884932,
            0.05748781275825285,
            0.0628772950416006,
            0.02735968864474605,
            0.057795024770902675,
            0.009059832842486357,
            0.005352755232466904,
            -0.022343973586138714,
            0.007277122977946656,
            -0.07873601531811625,
            0.0024876905579445706,
            -0.053375370778796144,
            0.11238941807541358,
            -0.03793845829865153,
            -0.01930111990107467,
            -0.05556372917904509,
            0.06166060202160524,
            -0.13123715895369162,
            0.01753832009320458,
            0.043341939582973624,
            0.03789577266864191,
            0.02566802236214129,
            -0.05209194249660825,
            -0.06598830468891403,
            -0.08944442081639647,
            -0.028624204274703028,
            0.010311896979994063,
            -0.06632196909797651,
            0.06532730547136112,
            0.0250048991288617,
            0.0376284900592678,
            0.002203400412797887,
            0.01232466836879899,
            -0.005100591492068088,
            -0.0011416430105292044,
            0.0408514559864424,
            0.025501655664746364,
            -0.005719369481511029,
            0.006906501257746261,
            -0.10548010815687965,
            0.025520066376062665,
            0.07485492387812195,
            0.06541623822604202,
            0.018453363128913845,
            0.022193292768470232,
            -0.09779380352142632,
            -0.035434056781104,
            -0.015373742262620912,
            -0.0930141300631465,
            0.022977400352054117,
            -0.025543716167703383,
            -0.05427103395585693,
            -0.06734606547689634,
            -0.09602337196715238,
            0.017985639789689336,
            -0.020105671580530903,
            -0.04823889017711813,
            -0.014977305325089294,
            -0.057206188606507856,
            0.04809376419832163,
            0.02119921855256337,
            -0.08426247009184738,
            -0.06338217316389073,
            0.033276425356344445,
            -0.05666049848957837,
            0.08163016700236095,
            0.07079097612170182,
            -0.01409189083572916,
            -0.018117558337578596,
            0.11359683586666651,
            0.1171284596194141,
            0.09009397880339937,
            -0.09282024771384699,
            -0.014497421113628783,
            -0.03183696070288861,
            -0.09579335080806604,
            0.009999851989249246,
            0.07895997310962506,
            0.07037175598598114,
            0.052064066467095105,
            0.036945858139350474,
            0.015899369032543194,
            0.06639402775240734,
            0.014218106690430913,
            0.10163591547402126,
            -0.02799630268112414,
            0.10545024364607282,
            0.015128931481374527,
            0.09916901930478014,
            0.009412372455680657,
            0.06713675180518672,
            0.1243984608123332,
            0.07154760323701667,
            0.05882163626447039,
            -0.1089147794530261,
            0.09142016593150774
        ],
        [
            -0.07167719195569075,
            -0.0244507874206578,
            0.0009649653771875154,
            -0.07892231058328113,
            -0.06414132464701378,
            0.03474499147988335,
            0.05918730748986214,
            -0.038610010211331466,
            0.11787984733366871,
            -0.02232199675251794,
            0.0030421407939919603,
            0.014624116724092466,
            -0.02943731357401774,
            0.008847146984678119,
            0.045615441112213384,
            -0.08851116088508941,
            -0.022112041218218415,
            -0.023004890694092655,
            0.07940810220725993,
            -0.01495767628097055,
            0.03797468034606938,
            0.028829390778294765,
            0.09060563646647682,
            0.061251111232171994,
            -0.07521056193863132,
            0.07396788672642572,
            -0.06926341026205912,
            0.020896967853598177,
            0.08961321188381773,
            -0.006976005323698667,
            0.10229860387375773,
            0.011941888499924221,
            -0.05401858077525263,
            -0.1371320443902805,
            -0.06786639612912512,
            -0.06672293972327899,
            -0.08399598950299522,
            -0.06826771690289801,
            0.02384235696518721,
            -0.005787260360050797,
            -0.07432317476111573,
            -0.0639200469352529,
            -0.006747811739778015,
            0.08718507223446727,
            0.0010029587858494393,
            -0.0024706615649755727,
            -0.04770586204110176,
            0.04996236257425497,
            0.07301630691741935,
            -0.041430144801576176,
            0.053295547423198676,
            0.08279919495117778,
            -0.010840971059163103,
            -0.05467849642296253,
            -0.08554379944455663,
            0.08992555216319575,
            -0.009168028325167159,
            0.0073228494825280524,
            0.01352604520028436,
            0.0567121645847731,
            -0.06714994276531043,
            -0.047052312949036515,
            -0.017035650814067122,
            -0.03500579817247003,
            -0.06856009882809709,
            0.06475207952799936,
            0.06551700416984406,
            0.023599573197367742,
            -0.08951401055997875,
            0.04850865797671755,
            0.09098406715324008,
            0.04929580860020633,
            0.10101030717113509,
            -0.004370025458208532,
            -0.08533618902777626,
            -0.08937278575289113,
            0.06930178983506431,
            -0.08270578870291688,
            0.010135316517688576,
            0.0021145497506564912,
            0.011007069566434045,
            -0.07437214387472457,
            0.03206495316008614,
            0.10439847505766314,
            -0.14452844103674603,
            0.10051173006240706,
            -0.06908909503266962,
            0.061695920258598505,
            -0.12492868362786036,
            -0.08835642389909339,
            0.08589938254372098,
            -0.057665938745315636,
            0.059900705587484386,
            -0.08916932488194795,
            0.05060069285236075,
            0.07228017147983494,
            0.011313605946289884,
            0.09594764159935712,
            -0.0030371067225571646,
            0.04274915882574082
        ],
        [
            0.051398080589934635,
            0.022107504356344686,
            -0.08054438956210629,
            -0.08536814685789305,
            0.004952778277794403,
            0.061842991000243576,
            -0.060013963898053545,
            -0.06773820983807212,
            0.1124711615291182,
            -0.10299231298394235,
            -0.0018970300771128487,
            0.041885089873936174,
            -0.005437772824125404,
            0.05875941972034637,
            0.08641534951740651,
            0.03377413075058148,
            0.009999656303191353,
            0.05332169510904147,
            -0.09733079958345855,
            -0.07912908585255422,
            -0.027235621279125582,
            0.01596458817772547,
            -0.022762145378124522,
            0.022352450519347217,
            0.0034611375910613335,
            0.09676404400275433,
            0.0863453757380666,
            0.052533753986451284,
            0.05875442982752062,
            0.01484557209261951,
            0.05950376523673741,
            -0.01871183270677798,
            0.040683251208366085,
            -0.02546813762560527,
            0.09965064439058258,
            0.04873936986703788,
            0.058468663704404795,
            -0.036635791514718484,
            0.022002108660558472,
            -0.022421878483208,
            -0.01874491156418866,
            0.055547773791805165,
            0.035714597164406885,
            -0.0025431653603306664,
            0.05177213708658003,
            0.1016314094428479,
            0.046161343345823364,
            -0.07176097285286802,
            0.050849639498874034,
            0.007146474559056078,
            -0.0820428107741487,
            -0.11176175025795261,
            0.06212194024290196,
            -0.05184795177150587,
            0.04108626018425301,
            0.01393888103365761,
            0.10494193377624705,
            0.06859294352102902,
            -0.10656895618792454,
            0.0940147668095646,
            0.011367679466625532,
            0.1160142539479994,
            -0.11861984140960302,
            0.09484118390573092,
            0.04165386650025943,
            -0.013073261794277572,
            -0.08535193348295374,
            0.027605843409143706,
            -0.021531487378161386,
            -0.003137550701169866,
            0.0768774761105335,
            -0.035081811240647666,
            -0.07759564321160001,
            0.07716734404824696,
            -0.07722652779212434,
            -0.001516454876487111,
            -0.0835124068145334,
            0.0861307998980015,
            -0.013217394013589583,
            0.05290222528587175,
            -0.014270375819226062,
            -0.09400133127829992,
            0.06520021033415238,
            -0.03676609273544265,
            -0.09139064752656549,
            0.11231561183819072,
            -0.018927247079406427,
            -0.059068302744649775,
            0.006987129617077788,
            -0.017215757870097714,
            -0.07317552377635443,
            0.0056909441995558205,
            -0.03313511674753218,
            -0.05598613720021438,
            0.03215922050997511,
            -0.00479862107917475,
            -0.03827040919484154,
            -0.08582196125234916,
            -0.011995239319859508,
            0.031033200232145088
        ],
        [
            0.007511681629015344,
            0.09414423384214327,
            -0.034980172386402025,
            0.002328879864827657,
            0.036658883339168516,
            -0.12527737761245725,
            -0.06658686402655664,
            0.050303311564266866,
            -0.03777654639859839,
            0.1053652027176758,
            0.10247695528076393,
            0.06377885790589548,
            0.0680390516138938,
            -0.05894042036300118,
            -0.07822614401379355,
            -0.029335919175750756,
            -0.06306250498255246,
            0.02874195947061603,
            0.0949997365738411,
            0.06950835175703315,
            -0.1073986079038664,
            0.038015428763775026,
            0.02572308200935972,
            -0.0961595782630852,
            0.030512351239236755,
            -0.11424913956093304,
            -0.011330672032998262,
            0.10374782944644173,
            -0.03785888602055867,
            0.045985207701901065,
            0.0595868226406046,
            -0.005509371307726433,
            0.09522387147555181,
            0.06517859150358049,
            -0.11690990541798454,
            -0.07674524172814161,
            -0.08992124355586817,
            0.02464458013117882,
            0.14307715678564364,
            0.07293331787014902,
            0.03139596723295023,
            0.04121071141852635,
            0.07181021890743815,
            0.04363893795384579,
            0.06073637970056972,
            -0.04600099069030288,
            0.13248340576851375,
            -0.04534189860833147,
            0.07528285369529815,
            0.027429885745765457,
            0.0647323173071946,
            0.0803991117212373,
            -0.07747942087422628,
            0.068241625094712,
            0.0788530839504643,
            0.02287228830277103,
            0.08355425474235054,
            -0.10534860683746725,
            0.07769381528504965,
            0.009423816201108262,
            -0.0340213208974187,
            0.03991874005141196,
            0.02012171892509137,
            0.03954038020824163,
            0.08418815559410395,
            0.0781546555566106,
            0.006725129959400033,
            0.08275568957088746,
            -0.020916384415094177,
            0.08379468098320603,
            0.04342976901945177,
            0.021606974118997938,
            0.011234502573608316,
            0.031987626046580724,
            0.014146031967755705,
            0.00196514818662679,
            -0.08723340287782261,
            -0.028608494373164477,
            0.011205004304798524,
            -0.054221123024509044,
            -0.031906269041809654,
            0.08004964839505455,
            -0.09776044589501559,
            0.060196203100164665,
            0.06725922625122131,
            -0.049867121407590316,
            -0.05544148301063103,
            -0.028026026995080548,
            0.14732459155999697,
            0.10328812842030267,
            -0.028307620541591975,
            -0.01463667631778039,
            0.05522463714593975,
            -0.058264817776189595,
            0.0783441053258192,
            -0.04614088377545301,
            -0.017824517689997404,
            0.035926593816611466,
            0.06999738849618692,
            0.01510326824747469
        ],
        [
            -0.05953519421443633,
            -0.06657163406631154,
            -0.008449913898287175,
            -0.08646494208697258,
            0.006397711431036565,
            -0.03722152615480918,
            -0.025258768506750233,
            0.07160549756385802,
            -0.025256169535595972,
            -0.062272232690960085,
            0.06373545631525043,
            0.04951843988473581,
            -0.08904104340887713,
            -0.10806087432951882,
            0.010785450139769275,
            0.06511823674193921,
            0.04270085254275258,
            -0.06426853067502915,
            0.004380849755370974,
            -0.11700392433485383,
            -0.03446182855448437,
            -0.05765550907646801,
            -0.07736689803047632,
            0.06770596071727619,
            -0.04159167703513786,
            -0.10256504349674146,
            -0.09483027780114485,
            0.04365473072737019,
            0.03561867699064949,
            0.03522679862673415,
            0.050101439334487914,
            -0.023468337083904,
            -0.005324728773089346,
            -0.050742714530413985,
            0.012747266426191235,
            -0.06818478872641455,
            0.04150303244299601,
            0.04422173879854269,
            0.013785427525667915,
            -0.024919881865918904,
            0.02700588820585417,
            0.04783533850201059,
            0.08545947605888705,
            -0.059323802467172664,
            0.019837577533223905,
            -0.02713220357895886,
            0.018128912971602285,
            -0.010078994330942954,
            0.03937143466710824,
            -0.027448495145040375,
            -0.06326195362989614,
            -0.003827895061808378,
            -0.07173417428900566,
            -0.027093801263765434,
            0.02160231503698982,
            0.0807704198990702,
            -0.01931527042154886,
            0.05014673989271139,
            0.07326055579129878,
            0.07577920153565283,
            -0.03684621463501028,
            -0.004407864821118647,
            0.06208501833623199,
            0.014853581200503146,
            0.03281003922745046,
            -0.06019434254333624,
            0.04228772666249788,
            0.020591304660426576,
            -0.0741321203456584,
            -0.07866662555556797,
            0.01598621641367067,
            0.04446928499931612,
            0.06436371746174999,
            -0.06312735585734863,
            -0.04792855480043353,
            0.0368523896014271,
            0.018919819204409206,
            0.03490271065510229,
            -0.016692782681518574,
            -0.06722209341944185,
            -0.08244378216332132,
            0.017237791816112073,
            0.034889371432850536,
            0.06835703389471777,
            -0.004319732931435726,
            -0.04365962397664446,
            0.027241320670055656,
            -0.07986565974732543,
            0.030840914317177063,
            -0.05432748337078736,
            0.03183996853561045,
            -0.01633143457720274,
            0.04353908188354182,
            -0.0011588701143372211,
            -0.033848082413472966,
            -0.04219199167636963,
            0.0409357587429318,
            0.0023771548366312983,
            -0.020938372501055406,
            -0.03715647303925137
        ],
        [
            -0.10691919791934584,
            0.08091924626390294,
            -0.012461157445031415,
            -0.032366270927767296,
            -0.0628347800033186,
            -0.020363270144923035,
            -0.06170193326928243,
            -0.04422434587773732,
            0.057392500490140476,
            0.011065580152841146,
            -0.02219588466757492,
            -0.04316149442054991,
            -0.025568144031170165,
            -0.09365822713689197,
            0.011202748812393469,
            -0.0035239308401585913,
            0.04904657958545964,
            0.10342906531113656,
            0.08733154497512596,
            0.024623040314262472,
            -0.03193086965649697,
            0.023939079242248314,
            -0.03471046653811422,
            0.08057371756358822,
            0.09936929341673562,
            -0.11628578689437873,
            -0.052273265248598974,
            -0.0461029045287804,
            -0.08676036494592271,
            0.049736761551284266,
            -0.004872434374745674,
            -0.027660297051823917,
            0.0714535726856964,
            -0.02629978086872366,
            0.037057920309985865,
            -0.09171100634801614,
            -0.030746409541274142,
            -0.08492651829511229,
            0.07842397276268442,
            -0.016613010295297017,
            0.10326285360858338,
            0.012528242683515297,
            -0.054138092384177,
            -0.06238688936723378,
            -0.01020082390508121,
            -0.11086605936592057,
            -0.022846788318342925,
            0.013637400898521583,
            -0.0025414326019701943,
            0.044789007196664496,
            0.052749177999754066,
            -0.04060715792999891,
            0.07588901442330057,
            -0.018393129898529436,
            0.10865175678804154,
            -0.015533052181834012,
            -0.005831637284420232,
            -0.009571643227846162,
            0.02686777277637525,
            0.028049340073052927,
            -0.0009125747379685115,
            -0.10111700785015054,
            0.05805359144250902,
            0.025829298815249813,
            -0.004559237832846205,
            0.024141590644574322,
            -0.05633211086615578,
            0.05018017903804354,
            -0.028302174886692334,
            -0.03712012565319083,
            0.032454418434943004,
            -0.0639717797619143,
            0.045842146853465104,
            0.02179999572118003,
            0.006300061911359535,
            0.05615500300643839,
            -0.10287680658990687,
            0.0324709587606384,
            0.02339255633445335,
            -0.0362313184547888,
            0.011541762633272017,
            -0.07801031617238763,
            -0.05837350102253061,
            0.05490733820311071,
            -0.005458627109452926,
            0.09067246623579535,
            -0.05871891495303247,
            -0.020561730545419887,
            -0.008389747003601792,
            -0.08053759726370749,
            -0.08255679607645272,
            0.028513339800365776,
            0.01299158653462396,
            -0.08453266241864343,
            -0.06077955810566311,
            0.05911092263927398,
            0.04779920255250162,
            0.08025998843782739,
            0.0687984070101236,
            -0.03511086884904812
        ],
        [
            0.08674480264011354,
            0.024456283457843443,
            -0.01986638100376819,
            -0.044206432739173046,
            0.09955063698484014,
            -0.07448064618362195,
            -0.13057331062243901,
            0.07925812176385545,
            0.018998608627818308,
            0.06188479062802675,
            -0.04799123308000042,
            -0.08481526050941837,
            0.03681781879226131,
            -0.0912779870461127,
            -0.08302982419136257,
            -0.06135679752419105,
            0.014010931244697841,
            -0.07830450511447308,
            -0.07022037537365292,
            0.04289118544771867,
            -0.030736849652254122,
            0.07183372373576705,
            0.06930663756553748,
            -0.04724575455670089,
            0.06893524319596028,
            -0.055035150611595765,
            -0.07799638325117776,
            -0.0030598277226633695,
            -0.11010756034437874,
            -0.06668494142236778,
            -0.1045564861137873,
            -0.02213103061273064,
            -0.05066869598582021,
            0.018477848427740088,
            0.0005773105310833924,
            -0.041884147529095514,
            0.038100894698732,
            0.062348102566714456,
            -0.08133698550215188,
            -0.09203103404936383,
            0.07045866008545035,
            -0.03062586722173021,
            -0.0936200175418591,
            0.03438164297035474,
            0.015172913697207741,
            -0.031290465862587796,
            -0.08157562008804828,
            -0.08793019176377677,
            0.015880691069762806,
            0.008138485849728285,
            0.02255943913517167,
            0.017997041186813223,
            0.013356626956828547,
            0.05034486855662137,
            0.053981132878347056,
            -0.09985092112797744,
            -0.01918854151811027,
            -0.10394899468624666,
            -0.018404993207025686,
            0.07539718730051889,
            0.08279157928957734,
            -0.06012558197587243,
            -0.0973155644169018,
            -0.05174448383088064,
            0.1085647871388247,
            -0.001226065862005239,
            0.051830927631444895,
            0.011122610453444174,
            -0.014012366605993835,
            0.07448358437738022,
            0.062293479546616494,
            -0.10708875619582549,
            -0.07979771801178394,
            0.03714979663660166,
            -0.10878935790602864,
            -0.05235313042333754,
            -0.03252155306618033,
            -0.06110038295390568,
            -0.01394889405570414,
            0.1027866922030211,
            0.024439726468594648,
            0.06342795181667536,
            0.05891476904518516,
            -0.051697322833063275,
            0.08014678731769702,
            0.02704084970572421,
            0.05703590993694632,
            -0.030164324024856692,
            0.07460727581811807,
            0.08578203557021992,
            -0.08272104763596734,
            -0.07234278547312893,
            0.061530176831464806,
            0.04849113151662362,
            0.12450762594917972,
            0.0389264208320298,
            0.029506723082997052,
            0.052912253945003644,
            0.0043427073514969335,
            -0.06811814262546609
        ],
        [
            -0.09458500467034311,
            -0.11615697222032392,
            0.08067374377862556,
            0.0007364658643043316,
            -0.06960424652349502,
            0.05666771775866581,
            0.037038976013449305,
            4.215146132501438e-05,
            0.04639070849225759,
            0.03418955102738004,
            -0.09080458229794647,
            0.09362596047389535,
            -0.13102194743713846,
            0.06862024963580404,
            0.011394909394185075,
            0.0199255608258914,
            -0.04743596213707653,
            0.0037438356889608116,
