{
    "h0.weight": [
        [
            0.27649692903712614,
            -0.517290748654866,
            0.05811635754897008,
            -0.141297272749575,
            -0.10070136223213685,
            -0.00018388371731315478,
            0.10495419600974087,
            -0.03070750084685701,
            0.21160140428777083,
            0.1717020874484257,
            -0.14281311410779624,
            -0.23535214521737305,
            0.16531416238420102,
            0.4720571729188486,
            0.1289354206053649,
            0.09448318998695614,
            -0.8890814994740877,
            1.0640700888492216,
            -4.608348939303939,
            -4.010591029812031
        ],
        [
            0.49048933890717544,
            0.5785182924993925,
            0.329812996933773,
            0.4559532730267524,
            0.7035376533566349,
            0.2505640639395149,
            0.25193258996170653,
            0.11824858946343707,
            -0.7619704487399257,
            -0.24590576073268602,
            -0.10696919218241284,
            0.04906235308796769,
            -0.3500853247276723,
            -0.4484657967452592,
            0.0756454133324446,
            -0.22557730846816412,
            0.09170580847341801,
            0.09438956976767933,
            -0.0010015358218271391,
            0.027844790252292032
        ],
        [
            -0.7888269723976082,
            -0.2140711119082949,
            0.05077775767823322,
            -0.4551755833357106,
            -0.18907082039050133,
            0.6279180894081035,
            0.19921760868546848,
            0.23217618602129056,
            -0.2747270945269556,
            -0.31677956523262757,
            0.0629284153946225,
            -0.06135104883249359,
            0.4889918412756824,
            -0.2175459050404578,
            0.11880321092838653,
            -0.35019017869755903,
            -0.0066146790227754335,
            -0.10083249158767903,
            0.05350225737553669,
            0.010301688605728224
        ],
        [
            -0.4026956655725374,
            -0.49619950881269204,
            0.6066918678791196,
            0.5563220180787366,
            -0.3331468568855027,
            -0.35172563739829105,
            0.42625058574186286,
            -0.5807628618010914,
            -0.13110950233216792,
            0.20382941857986717,
            -1.08021588590444,
            -0.15291161296131067,
            0.12400841930439606,
            0.13030991032706235,
            0.17788606827309397,
            -0.11430074756726596,
            0.1087259990693538,
            0.11500293645146713,
            -0.2363729611016252,
            -0.05115942076568595
        ],
        [
            -0.1227998273671152,
            -0.33376094410805157,
            -0.6938781687668347,
            0.5794343503095968,
            -0.188706067767604,
            -0.638060994673301,
            -0.24561281634048227,
            0.31419645708083416,
            0.156156019323091,
            -0.058917626914212116,
            0.47294737451963553,
            -1.0720438496397087,
            0.20065894630236913,
            0.4446158057617097,
            -0.1140734147232105,
            0.1597187053300656,
            -0.09995997663922544,
            0.1742451686395196,
            0.11000361076545469,
            -0.2249198548948647
        ],
        [
            -0.0590756896259171,
            0.08687227528383175,
            0.0013541615878695926,
            0.10788993992638543,
            -0.8821295982474283,
            0.8092538587310975,
            -0.1186766218278441,
            0.11560150661731132,
            0.9806720797817449,
            -0.8660099178451427,
            0.23446912456689847,
            -0.2039906644903551,
            -0.06147127780374183,
            0.0018665040860161904,
            0.05298226003703676,
            0.0037080000707838292,
            -0.006265727291694943,
            0.02801563548044111,
            0.07396522150635265,
            -0.06075202406145735
        ],
        [
            0.39694147816101055,
            -0.2629656616926065,
            0.04665124965244598,
            0.3600599980343514,
            0.007203283379373117,
            0.28687453674875957,
            -0.3073791966807718,
            0.14629999100666666,
            0.21981669497034412,
            0.07529912744893466,
            0.2979223948328176,
            -0.36704793190654994,
            -0.6372702751279549,
            -0.020800957224871873,
            -0.2708423348759059,
            -0.018268730927624703,
            -0.0030046233956229004,
            0.06795236092330453,
            0.05653073473922823,
            -0.12045734052198669
        ],
        [
            0.04445193482979197,
            -0.40742886844586224,
            -0.15187600828618994,
            0.5161057342078494,
            -0.17830244830160058,
            -0.27508710883471665,
            -0.11872963625872975,
            -0.07163283129785758,
            0.19370247634524326,
            0.23246457046395258,
            -0.7679137966492119,
            0.10235881337364289,
            -0.1877095064907092,
            0.38829793977631444,
            -0.08227643438950452,
            -0.18648540807772812,
            -0.05199809924091761,
            0.15438397604174825,
            -0.16024793345435268,
            0.034471420899412616
        ],
        [
            0.060307887419802024,
            -0.2266585242420993,
            0.44621928569857033,
            -0.2083056409384304,
            -0.2260121362146022,
            0.2023849911451218,
            -0.04239119559183634,
            0.045967511703642626,
            -0.02448467346798407,
            0.04097304943495502,
            -0.039877101365098595,
            0.028751668051563383,
            0.17800916543853942,
            0.17016197049049497,
            0.23515583886354596,
            -0.06670938087655942,
            3.3357305802386703,
            -2.7686799490336753,
            -0.1559594735008516,
            -0.010930082171773632
        ],
        [
            -0.46763015288210713,
            -0.3967895281733477,
            0.28154875366914406,
            -0.023574601295425154,
            -0.14919134219721364,
            -0.2791646325142771,
            0.2832216850016227,
            -0.21603542124062983,
            0.7059349539838982,
            0.5074230340590341,
            0.8462132179963077,
            -0.19182146930256377,
            0.564160317001276,
            0.4146577255982779,
            -0.14539752012730017,
            -0.22519885722077274,
            0.05139672386223568,
            -0.022612505518226952,
            0.17592482474911644,
            -0.0425316235815522
        ],
        [
            0.4585063704781436,
            -0.05577824291984109,
            0.25590363280464234,
            0.28495315019784956,
            -0.15266122005695898,
            0.022944977293561614,
            -0.01982957271042151,
            -0.10994165973313147,
            -0.30581130164663045,
            -0.07493313609924186,
            0.6818511829359186,
            -0.24994140195797152,
            -0.43880091960569784,
            -0.04647034673586999,
            -0.16112954705014423,
            0.056451939160469686,
            0.08022458103061025,
            0.08248107484557499,
            0.1744271968912235,
            -0.07554929344377054
        ],
        [
            -0.398456058995476,
            0.631351582212255,
            0.5187928837557579,
            0.657809734814167,
            -0.35502494158620274,
            0.1381991094105127,
            0.11421856726867108,
            0.22356803174331985,
            0.5297552518232881,
            -0.19480394317826294,
            1.3351519215005254,
            -0.1107299334103931,
            0.0878160556576308,
            -0.1660235579822242,
            -0.18855926465859918,
            -0.23964568193844132,
            0.1354504887383292,
            0.19185452759108088,
            0.2749132728476222,
            -0.023144363358086666
        ],
        [
            0.06453597458104651,
            -0.046245470007264304,
            0.42011082805927685,
            0.15202757358274255,
            -0.23718700234595658,
            -0.12694854738819786,
            0.13402106780755144,
            0.08229918050519412,
            0.03917383060536787,
            -0.34557978626283425,
            -0.11786437012047184,
            -0.36384870362125066,
            0.25972947125910734,
            0.4277816603040505,
            0.309551365710384,
            0.20194516822590355,
            -3.755770745430697,
            4.123286620836346,
            -0.7632187930394887,
            0.035786888893543624
        ],
        [
            -0.2291857011811019,
            0.07354702456692966,
            -0.855763453494646,
            -0.1746002002483944,
            -0.8074254344348479,
            0.3007288857555443,
            0.06607872590665843,
            -0.05233436095149926,
            0.30595715312842875,
            -0.23161879335610408,
            -0.6931620758644313,
            0.37226871031799696,
            -0.31266717434135216,
            0.37551219507876377,
            -0.15374766659082548,
            -0.0007702386543476096,
            -0.18466451133775263,
            -0.05231193791112653,
            -0.1187525677261718,
            0.0848952034152993
        ],
        [
            0.19249394635904707,
            0.28080411027202606,
            -0.5334307608186002,
            0.5862688013873164,
            -0.2679680049821437,
            -0.4290053600131615,
            0.3574197974833678,
            0.024833175245235223,
            -0.3904571577060531,
            0.47360892405776245,
            -0.13810835319797424,
            -0.34337132106372803,
            0.5024738210456648,
            -0.6586400821509922,
            0.2120402774279392,
            0.06111702794954759,
            -0.12015311622967241,
            0.132685909317695,
            -0.038252494100423085,
            -0.07808456363000509
        ],
        [
            0.20178963450154228,
            -0.4343919552677209,
            0.6732372126404994,
            -1.0191960575090733,
            -0.5807191039523387,
            -0.017991999310546642,
            0.021385777581481368,
            0.1538544538688525,
            -0.02201565511838306,
            -0.6824614311820019,
            0.007749179434629836,
            0.5490046959310297,
            0.3925412243022934,
            0.45142755886159014,
            -0.03882718065634454,
            0.01437117862937315,
            0.1594761081045206,
            -0.21753435819505282,
            0.008818874426360597,
            0.11801925330806903
        ],
        [
            0.025761108334050518,
            0.16491518093249702,
            -1.1487328297424755,
            -0.485699999570078,
            0.2867256862947553,
            -0.3403142459412642,
            0.18091043652467773,
            0.25176957808293016,
            -0.3810125758148958,
            0.2559465504132307,
            -0.10124793632771124,
            0.23044659722631114,
            0.4275350839329833,
            -0.2334028728290498,
            -0.38514473554198664,
            -0.2043166231286492,
            -0.23982276336584676,
            -0.06686987099374747,
            -0.032655739220038095,
            0.07452241915103246
        ],
        [
            0.8552235743039904,
            -0.6967335432819765,
            0.13640131711670506,
            0.134871554124565,
            -0.1984555215898333,
            -0.24893099472418095,
            -0.020583002097225477,
            0.09518641516451296,
            -0.8427572802900413,
            0.9880070319227112,
            -1.0132259693026835,
            0.4769069363323,
            -0.5178680712482212,
            0.10558559856325772,
            -0.32924853645336793,
            0.05628565681617659,
            0.05384629824428756,
            0.031287764217386535,
            -0.21185167830853538,
            0.08134281794057775
        ],
        [
            -0.06721320490534333,
            -0.805228117740112,
            -0.0588746138896193,
            -1.10106079041925,
            0.01891921051817265,
            0.05530670384726398,
            0.011113993950411622,
            0.027035967634312534,
            0.07071810104263526,
            0.02443981821248669,
            -0.0004429785395416833,
            -0.011780054806017936,
            -0.016684722448129952,
            -0.024196843753203544,
            -0.06598587351805812,
            -0.03435995066811873,
            -0.013221303500939125,
            -0.22374836452422134,
            0.007653756176457349,
            -0.010325063548209047
        ],
        [
            -0.18269164534094592,
            0.01797461769569856,
            0.13496102323179954,
            -0.23098914620295588,
            0.12618864908349628,
            0.0681253137866141,
            0.04830669257640283,
            0.22901018007006657,
            -0.6338309043994578,
            -0.010256126501280192,
            -1.6393126006235994,
            -0.24204206455865346,
            -0.2251932774921772,
            -0.30833763070530285,
            -0.25749844624541285,
            -0.14999038700223433,
            0.0260983863180487,
            -0.01992825577491046,
            -0.32019722564702824,
            -0.035086033517447025
        ],
        [
            -0.016620353265883146,
            -0.4515931565050654,
            0.4034186236802842,
            0.45611723969889845,
            -0.226239669206377,
            -0.04321158929667962,
            0.2603103442831677,
            -0.17329274155047003,
            0.9521310155442226,
            -0.17012014526893235,
            0.2504121584140802,
            -0.6263926932369761,
            -0.8489654188727592,
            0.0181813011484437,
            -0.20874504273070074,
            0.24127030751355868,
            0.09644725681234273,
            0.1016151016892417,
            0.08506466194383543,
            -0.14947467662352165
        ],
        [
            0.4028131079765838,
            0.34938419332207377,
            -0.12414304138868897,
            -0.39294566105656276,
            -0.3412851923470214,
            -0.13845397849853713,
            -0.09083543265802811,
            -0.19015009885511736,
            0.6983356687687278,
            -0.4899117060209933,
            0.9781224356934356,
            -0.23054097717210673,
            -0.2856267955711594,
            0.1986534606982071,
            -0.0915189673131906,
            -0.2447416636798783,
            -0.05416287666359235,
            -0.07221324076972621,
            0.2190804641453326,
            -0.05704141947509388
        ],
        [
            0.1462762932120601,
            0.2415854535142066,
            0.7435486106918471,
            -0.28095360016094045,
            -0.03919524126598368,
            -0.2849213733447376,
            -0.3085950264926385,
            0.12049838076716947,
            0.2737221360167263,
            -0.3669953289997589,
            -0.4247307087577756,
            0.5585693921441358,
            -0.2956195363927422,
            -0.06645984403915776,
            -0.4074349680578359,
            -0.37301723607958004,
            0.1380325098827838,
            -0.06659867974239912,
            -0.09983018418228844,
            0.09985351053410645
        ],
        [
            -0.23081060016955893,
            -0.04231667595389274,
            0.2550225316800786,
            -0.7820358472430969,
            0.08359306648146354,
            0.4111919429408072,
            -0.16509158397497883,
            0.45251558762178123,
            -0.18890983484970594,
            0.0004696352764370946,
            1.0071518849695134,
            0.2892908300078349,
            0.2648977116575107,
            -0.6116988291204695,
            0.1082604187280641,
            0.25667199561588233,
            0.06513138234034703,
            -0.15991133129584836,
            0.1808652818574182,
            0.04507060279600265
        ],
        [
            -0.2338437432117557,
            -0.2501450154824725,
            -0.09809771656350663,
            0.9672586043056871,
            0.20465221881719692,
            -0.30089892216957054,
            0.2567256662287975,
            0.08897496093553865,
            0.5129862575336198,
            0.5140871307445539,
            0.5282249389001935,
            -0.2943954592962758,
            -0.7844593867644051,
            0.40671395603678057,
            0.09497044155423569,
            -0.06381314612441216,
            -0.020375811396190786,
            0.15662770401137557,
            0.09449103721933563,
            -0.04133255649179779
        ],
        [
            -0.702583766344283,
            0.35130805256569725,
            0.4501638744398987,
            -0.6797743472780469,
            -0.6345706184864575,
            -0.39565873168659826,
            0.40609371848309606,
            0.30432439601440375,
            0.8230318586189688,
            0.6721396595849173,
            -0.16543990484865537,
            -0.46597114493826364,
            0.17877728278475066,
            -0.27200074777271716,
            0.02850111495339165,
            0.15705489524419278,
            0.10105634861754238,
            -0.1351199464176674,
            -0.04044244997213669,
            -0.08165510369889946
        ],
        [
            0.39158071708459563,
            -0.35038269479546047,
            -0.2864025980249719,
            0.4844042218270812,
            -0.3213910279875056,
            0.09913792765794321,
            0.0778522702285685,
            -0.09349281581858333,
            0.6916586464961963,
            -0.2781504538085758,
            -0.709582673025676,
            -0.9582565964223692,
            -0.3252351350303817,
            0.5653113531852089,
            -0.5344688088104934,
            0.42018123154041687,
            -0.03738971991341848,
            0.08807077712847144,
            -0.10575474064264642,
            -0.22150023611384012
        ],
        [
            0.23649339544966516,
            0.11292673842204387,
            -0.3265674637805227,
            0.6814981842317337,
            -0.5317935901425985,
            -0.8016711516187858,
            -0.2414160983908964,
            -0.16986121710346044,
            0.19097550365218793,
            0.6260222467966174,
            0.5655347199875554,
            0.05906177339753447,
            0.20131761879740218,
            0.3253964956575351,
            -0.3098785192193403,
            0.20649078381969957,
            -0.045917682262879636,
            0.13197303341217378,
            0.1454931362326735,
            0.02839797072096774
        ],
        [
            -0.3542117078090452,
            -0.3654013671847376,
            0.27542158139429707,
            0.07818810901597224,
            0.2872995422986269,
            0.15192095675505057,
            0.10188323540180538,
            0.1823815107713204,
            0.16978127315251088,
            -0.053789951095306765,
            -0.16502983596658738,
            -0.20628362416254015,
            0.05770054584847245,
            0.1570850459601416,
            0.01996719785926696,
            -0.1086282293410632,
            0.43370035436293536,
            0.5403131887666168,
            -3.79410727836747,
            0.27117484753879134
        ],
        [
            -0.2729375048532434,
            -0.35936377293617305,
            -9.093481107087112e-05,
            0.19719504694849097,
            0.31204333878305174,
            0.14191861691211502,
            0.4479961609813371,
            -0.10142213384880763,
            -0.22012439071843057,
            -0.5687206743000451,
            0.05499229556645558,
            -0.11734355860650551,
            0.13361083134710675,
            0.2766378931913885,
            -0.3390622450899972,
            0.15049648023885867,
            -0.05247814488284444,
            0.016843560122704035,
            -0.043593551436722944,
            -0.017613274619177378
        ],
        [
            0.6041137432128901,
            0.03263376209665067,
            -0.12819480690482848,
            -0.8705631874899673,
            -0.7970264546149418,
            0.41424656462034165,
            0.12876068104209404,
            -0.2250168577927101,
            0.3063604243357731,
            0.07932892920255266,
            1.0461816573971774,
            -0.5681715470439498,
            0.26390022248055556,
            -0.6064476071599593,
            -0.14659470544347836,
            0.3622876333136514,
            -0.017175342190891885,
            -0.1777950991700996,
            0.22855513774922698,
            -0.11728004370526596
        ],
        [
            -0.013407622075112506,
            0.14704623523683302,
            -0.5442613516223668,
            0.06633478690930693,
            -0.0714458872499927,
            -0.29850950568761137,
            0.24633170863662318,
            -0.3180948321646129,
            0.082339683755156,
            0.768910028105598,
            0.023781483512459303,
            -0.45459695965819474,
            -0.16494732265363635,
            0.12258143821193408,
            0.17824421038002763,
            -0.19237419835162967,
            -0.12975209704736915,
            0.036510558258427486,
            0.012175263540119555,
            -0.06136240247887539
        ],
        [
            0.9426644993817038,
            0.23558703853377783,
            0.06370052208109495,
            -0.05877905281936749,
            0.3569874756978127,
            -0.009483350125697744,
            0.6011771259488803,
            -0.19227660017436465,
            -0.03042611414644274,
            -0.48743428446501075,
            0.4388678982724192,
            -0.3162429866269644,
            -0.712843428243928,
            0.39670544735429264,
            -0.06601757078855865,
            0.37793444062684883,
            0.040349785149857195,
            0.002321010906301891,
            0.1376890215037366,
            -0.060485862100725075
        ],
        [
            0.20708124047024884,
            0.04743427091446961,
            0.0043565390181023265,
            -0.5911651833291568,
            0.5617487665425006,
            -0.38206849664525644,
            -0.0034761535813573052,
            -0.23339155327522826,
            -0.5893003144693014,
            -0.09374066448254555,
            0.1495886211659561,
            -0.6988259899052677,
            -0.19907570625580892,
            0.7358079217811028,
            -0.25269073985246626,
            0.16422116895128516,
            -0.007416072629476376,
            -0.11067831259354385,
            0.018350093346639097,
            -0.16320977815868387
        ],
        [
            0.10347663257909966,
            -0.35136082525433077,
            0.7208880914090592,
            0.5429216194192661,
            0.5611024011921971,
            0.3686898261706439,
            0.037638090894389284,
            0.2748052135040473,
            0.0945850551128507,
            0.07522254687038238,
            -0.08582573989243539,
            0.1473896794438615,
            -0.2732659797905344,
            -0.4667631322604277,
            -0.3933059962747505,
            -0.2245560552057193,
            0.11801579009588083,
            0.14258812465170978,
            0.010317904422776823,
            0.039130506228107036
        ],
        [
            0.7795095915908141,
            0.27985506198171656,
            -1.1232154902269345,
            0.19447088046169164,
            0.011679945088358649,
            -0.16896579802180298,
            -0.046714979765279586,
            -0.6134096860284525,
            -0.08074507128991897,
            0.1989247976750527,
            0.5450238054451745,
            -0.20001338297127788,
            -0.5092476596485261,
            -0.5428822385518898,
            -0.4760754862798037,
            -0.29469768106218425,
            -0.23966662596316973,
            0.020326990867408565,
            0.10031591509233206,
            -0.026734849570626298
        ],
        [
            -0.1611725570202952,
            0.24072573684641502,
            -0.1396016222835865,
            -0.2191048964026428,
            0.13538338034782071,
            -0.03708565749807112,
            -0.053793006888683506,
            -0.07537477813753972,
            0.07484546046618039,
            -0.7285122153613445,
            0.09850582993872403,
            -1.8492652682334714,
            -0.08423496056328465,
            -0.2021185425490533,
            0.06468917250053009,
            -0.12277878182691569,
            -0.008537885476588387,
            -0.016250117741055455,
            -0.010684590836361732,
            -0.37719115952910204
        ],
        [
            -0.017502376378422693,
            -0.21613561028717526,
            -0.6184523914256108,
            0.6970560026750477,
            0.36440026793259583,
            0.2523979219185606,
            -0.09553119729916579,
            -0.14630670871895735,
            -0.7914234496866949,
            -0.5262103425562349,
            1.0048153746283288,
            0.7766370265604683,
            0.09634708015877934,
            0.231189550175444,
            -0.10818376907679146,
            -0.16773462313145082,
            -0.10927559350526848,
            0.1328058417202085,
            0.18141841872247838,
            0.1663723547777562
        ],
        [
            -0.7030524230091727,
            -0.2372203050130711,
            -0.2675652057022537,
            -0.30112619216507314,
            -0.5222116166657857,
            -0.643517834970554,
            -0.3419424888658523,
            -0.16322435017225476,
            0.8500986802059142,
            0.7329276325121717,
            0.18655395401209593,
            0.1558618708499598,
            0.19427118598797502,
            -0.16633498519373002,
            -0.05126582429143378,
            -0.05845401495525827,
            -0.0858389561537949,
            -0.03265904157689684,
            0.01258764614066141,
            0.019563195601056124
        ],
        [
            0.10298078695586102,
            -0.19295565017848065,
            0.218472177117992,
            -0.28195101961234764,
            -0.13250358210936153,
            0.4015445157978281,
            0.02242011530631713,
            0.23034924525171838,
            -0.05835661006305844,
            -0.09524858396247753,
            -0.5306508541221714,
            -0.49379845351746415,
            0.06740328965141851,
            -0.09619632636717715,
            0.09917094794830152,
            0.04576728711785721,
            -4.555882530069512,
            -3.357450346204356,
            -0.7869327720569925,
            0.3710547470117563
        ],
        [
            -0.27978714186096837,
            -0.009608218632025819,
            0.11176531070719828,
            0.060336109604345725,
            -0.5482391902157747,
            0.12489837779364553,
            -0.5054207707976972,
            0.1994043294025945,
            0.30405128634502104,
            0.31161060590407985,
            0.35378476527461117,
            -0.12038832447404157,
            -0.30055427045019106,
            -0.01891359041904549,
            -0.29827474412785787,
            0.1442021898748321,
            0.0163429455046854,
            0.019689287148088947,
            0.09304530916315322,
            -0.021611081042990903
        ],
        [
            -0.1366216046945029,
            -0.01714076537831461,
            -0.8303973543252521,
            -0.4585193672050887,
            0.2563888184573402,
            -1.1208839979596348,
            0.17786417895664397,
            -0.46252349566399614,
            0.3864670061209161,
            0.2349934805069022,
            0.4235673175527369,
            -0.08947686575370364,
            -0.08471575314488346,
            0.39750411017093884,
            0.33980807268870483,
            -0.09509976935262673,
            -0.19094945160711183,
            -0.0807222769724932,
            0.06623281100272337,
            -0.05303507740766763
        ],
        [
            0.25373130314658393,
            -0.11474737909400631,
            -0.3597867739939189,
            -0.19387447570970318,
            0.4046298154337898,
            0.15884117016956667,
            0.06877184095583502,
            0.31773846132319505,
            0.33406973797239337,
            -0.14414937855339485,
            0.6699260518654603,
            -0.26132776411373965,
            -0.10742243817446633,
            -0.10391629334743947,
            0.08347604933735248,
            0.23613536716884598,
            -0.047436267132568766,
            -0.03136206865886821,
            0.14040078029406217,
            -0.04944894345018827
        ],
        [
            -0.34830247873339654,
            -0.3569840618809426,
            -0.9153236088165144,
            0.36782928475244536,
            -0.64272383748864,
            0.09049638282228176,
            -0.13954361816530916,
            -0.46886200478562445,
            0.5838813497378589,
            0.7172824005446796,
            0.4712880842618704,
            0.10699391600238209,
            0.39195618527037407,
            -0.3397073023056354,
            0.21688704482177767,
            0.41478505299201296,
            -0.18246061271266106,
            0.11365707242055183,
            0.11446746878025836,
            0.029707959560758793
        ],
        [
            0.415203749817522,
            0.1809623596986248,
            0.3045722920897406,
            0.9862037259360216,
            0.19234738375445057,
            -0.08962887922600102,
            -0.1972097755434117,
            0.16128289518312533,
            -0.6030667913719527,
            -0.0365880254095277,
            0.05980923384340734,
            -0.6832178627511628,
            -0.3697689029891822,
            -0.006735097461770445,
            0.1557451802491016,
            -0.3000298285964587,
            0.04524841546008421,
            0.18024040410238376,
            -0.01262761032369456,
            -0.1705356320681364
        ],
        [
            0.9240478372179096,
            0.066091631460593,
            0.4904385546887092,
            -0.3659695386098776,
            -0.2318436532284569,
            -0.45903296882280803,
            0.46140218832547475,
            0.03101923265848823,
            -0.09917345573758111,
            0.08277104800159663,
            0.10662720656566409,
            -0.010865680933985877,
            -0.4960622655421958,
            0.1649880791881338,
            -0.10887357976617147,
            0.30195266313713487,
            0.12096133180137981,
            -0.08639187230436093,
            0.005014452301849546,
            0.021969185802917
        ],
        [
            0.11993003079170012,
            0.018384002531525476,
            0.7985102588103163,
            0.7986798876128678,
            -0.3167667186196967,
            0.054082674693160776,
            -0.13013982659165976,
            -0.02864818403420077,
            0.5407126201876116,
            -0.23737298200794166,
            0.45369443086294586,
            0.4578960373673227,
            -0.31923298805961375,
            0.1586693287149255,
            0.37470904430593144,
            0.21303051944159973,
            0.18410785778382546,
            0.15429801060774528,
            0.0833846279811448,
            0.10829181054819109
        ],
        [
            -0.3474658556920105,
            0.3460838031226206,
            -0.6418987261273218,
            0.8189763941464206,
            -0.013142151669865864,
            0.4562649081832434,
            -0.032994954313440274,
            -0.32186641192559423,
            0.312183806816149,
            -0.5617590586065252,
            -0.8736054683989727,
            -0.18652308007688662,
            0.11875131775851498,
            0.16076103279183845,
            0.34598669877623356,
            0.4546054816397752,
            -0.1187282549177222,
            0.15410642361418778,
            -0.19127507770005672,
            -0.04228198487839363
        ],
        [
            -0.26971116299854364,
            -0.08928890292131018,
            0.525652837427691,
            -0.5976162819292997,
            0.3020175515638971,
            -0.35391016360821653,
            0.07012511870782343,
            0.0655124933753477,
            0.18988187179379415,
            0.366658177171358,
            0.038082969016818645,
            1.0573455860243475,
            -0.5190424090556561,
            -0.050697565534727033,
            -0.2561453769294179,
            -0.19896515048278274,
            0.11740013383496926,
            -0.11561973283345833,
            0.020510167193419564,
            0.22379953424584645
        ],
        [
            -0.4792202440907245,
            0.43071309192812096,
            -0.5569236487608062,
            0.012887926853623843,
            -0.3668851751338584,
            -0.8448232210311141,
            -0.27907476592075947,
            -0.12397393391421194,
            -0.3382682497084127,
            0.6920308771218899,
            -0.5235605763124354,
            -0.05889862174324934,
            0.7377639468733056,
            0.05543407707247293,
            0.372068069916498,
            -0.25087959524037423,
            -0.1412143774734215,
            0.03281387384892878,
            -0.057207731361227844,
            -0.028979728325981582
        ],
        [
            0.9060839608484913,
            0.4737568446896771,
            -0.5595860710049007,
            -0.140488173411487,
            -0.3162627447770758,
            -0.547720256823242,
            -0.2749719078289675,
            -0.014181716388771403,
            0.10696959754085808,
            0.4515894948306477,
            0.07529002459811934,
            0.34667979901926893,
            -0.4009557489125762,
            0.004457116588538461,
            0.10555377009896162,
            0.1339984114689475,
            -0.13138961340985328,
            -0.047634452984098644,
            -0.0381995065774207,
            0.061213106474310365
        ],
        [
            -0.380420970270524,
            -0.6146615671939903,
            -0.3451697727807284,
            -0.33289743495872937,
            0.13180088510913338,
            -0.20132449152112294,
            0.3597315653148469,
            -0.039740708679324575,
            -0.04369497494227971,
            0.2855763950462711,
            -0.08155143721878236,
            0.9801187240199936,
            0.35195589834044616,
            0.31170934405850614,
            0.049095043839263934,
            0.21374225051162035,
            -0.0718163621341554,
            -0.048997289839164626,
            -0.08550957441504135,
            0.193769101963997
        ],
        [
            -0.04542317965500267,
            -0.2508658221493677,
            0.6185127813434707,
            -1.0639464396648692,
            0.18002066264593847,
            0.09291459523808922,
            0.11609054208999187,
            0.06942641720356142,
            0.06388760781405065,
            0.6366713057447395,
            -0.5985686210432755,
            -0.22665539479586547,
            -0.017417061056994032,
            0.03491488547547688,
            0.11192376141733472,
            0.07351667818440456,
            0.18407271547590714,
            -0.2675715827353575,
            -0.0907802962099138,
            -0.04646990851294784
        ],
        [
            -0.004365124013780087,
            0.3648585424231807,
            0.011933523315766416,
            0.8149107283270725,
            -0.0359382831233531,
            0.3296635873246157,
            -0.054372343327628254,
            0.27086038393348355,
            -0.05189270791339121,
            -0.72720482624718,
            0.3123591863290153,
            0.4005626043706495,
            -0.5356450310929715,
            -0.14314490250045675,
            -0.4197006733976157,
            0.1388584240080847,
            0.057688525637859936,
            0.16806828241817823,
            0.07433312347998054,
            0.10242930568489073
        ],
        [
            -0.04125822266430176,
            0.29845712676697145,
            0.5619066028500916,
            -1.7274767018552295,
            0.19468685007307934,
            -0.5043199830623635,
            0.015364440092933702,
            -0.4183554386827091,
            -0.2890715070307655,
            0.4093721544005484,
            -0.5443861257681225,
            0.4132376266331096,
            -0.10217872981352545,
            -0.2721815625393036,
            0.02833391298053797,
            0.18845750662018704,
            0.13341196446921913,
            -0.3641264668597356,
            -0.11552208213147608,
            0.09069007782875275
        ],
        [
            0.3951345698766539,
            0.32219187161544816,
            -0.3765182228305535,
            0.0319815626392933,
            0.4692426893337517,
            -0.4671147320850442,
            0.23894735693085375,
            -0.408507147984842,
            -0.37223344334967906,
            0.17880684820163403,
            -1.050936671411499,
            0.8436029688208327,
            0.09558232124922376,
            0.47215673460402097,
            -0.30048940319314105,
            0.2384000326516689,
            -0.0885005535884157,
            -0.028281373138331036,
            -0.2248700000533334,
            0.16455821046266225
        ],
        [
            0.31010854189822334,
            -1.1930604872985953,
            -0.02897041103754719,
            -0.002327385067893207,
            -0.09853998330576232,
            0.02066277848452698,
            0.023622775981314834,
            -0.005490135005731769,
            0.056150735960170055,
            -0.020304861189749418,
            0.02233028342817576,
            -0.14695201287913612,
            -0.3009556303528569,
            1.256359595148706,
            -0.10582660598305924,
            0.19544180948678166,
            0.006918053283875778,
            -0.01798391509654056,
            0.020597761199394,
            -0.029365352113080275
        ],
        [
            0.6527326970596969,
            0.4012047105648252,
            -0.03309318771191219,
            0.07023021495368797,
            0.34210198161188515,
            0.11507584277115179,
            0.0933333282452309,
            0.25106197697120264,
            -0.5022244624918798,
            0.7250936295826053,
            0.27505990475571895,
            -0.18041319049229165,
            -0.870697632765202,
            -0.7188882895214703,
            -0.2794014715373393,
            0.3549086767418849,
            -0.014038255226964565,
            -0.01347021446580095,
            0.025236404038348047,
            -0.008431923273803455
        ],
        [
            -0.3622432592692247,
            0.2939611335532881,
            0.06329640883374692,
            -0.6210325878997737,
            0.5987094769144687,
            0.5386309390800128,
            0.3256342305503594,
            -0.15278568507555146,
            -0.4716524910783279,
            -0.417376209343405,
            0.11808937925776863,
            -0.4292719733852754,
            0.016489902082840995,
            -0.14007301474844774,
            0.07598449918184863,
            -0.35380704459738255,
            0.018247646786176977,
            -0.13804113209154872,
            0.028572177390098732,
            -0.13200219594129906
        ],
        [
            -0.16579690411053305,
            0.8700972621300627,
            -0.12495252828009204,
            0.17641915133646496,
            -0.23435288695184195,
            0.10813935648062564,
            -0.21068851809931816,
            -0.013269342135289018,
            -0.38858249430904884,
            0.36950600385688637,
            0.44439497642808146,
            0.23180074351079963,
            0.3249911499503524,
            -1.0370896552093345,
            0.37592184045521476,
            -0.20308250202658956,
            0.001695476628305948,
            0.056746470348294595,
            0.0926542731489075,
            0.02349134414903036
        ],
        [
            -0.24759346265699247,
            0.35815248956677836,
            -0.4777896458314621,
            0.4983676078239347,
            0.1509520593032095,
            -0.44600206603574166,
            -0.28447174942611336,
            -0.4286024369233045,
            0.22506736272665007,
            -0.2128867279166934,
            -0.28345179081263544,
            -0.3531491866433975,
            -0.5503289353972763,
            -0.4623175160321591,
            0.06490833369242263,
            -0.10718315731682894,
            -0.0749651604394943,
            0.09894979996138592,
            -0.036028998096143586,
            -0.06704312782480308
        ],
        [
            0.7456389751282756,
            0.536546704924404,
            -0.021160617761307086,
            -0.19164813991192078,
            0.13026321997187784,
            0.1805862359049528,
            0.03158283023902193,
            -0.17166394309554006,
            -0.44430998704002045,
            -0.19899944913801262,
            0.2965532519940756,
            0.032357360062063766,
            -0.6705751657591918,
            -0.8359620450275106,
            -0.4016764645722803,
            -0.031880927957661766,
            0.018852613628015123,
            -0.05156580328689228,
            0.03018872228502025,
            0.00029365326944720007
        ],
        [
            -0.03847461803147223,
            0.42373467258019437,
            0.5514027203097805,
            -0.3549536384493741,
            -0.04612316608140343,
            -0.011354209508809773,
            -0.2122054580414309,
            -0.352597903855064,
            0.5777596286193135,
            -0.38680986998881284,
            -0.04300575230888325,
            -0.43562563218131456,
            -0.9278066685883676,
            0.09126283075842549,
            0.35486762412037365,
            -0.25326364245287886,
            0.14285019166063975,
            -0.1026872319369709,
            0.01795833750223023,
            -0.06124806564939395
        ],
        [
            0.6482456656146398,
            -0.36063814105105163,
            -0.36733466436429896,
            -0.09786876081369775,
            0.09548138149118682,
            0.28472744745631223,
            0.2126201362315243,
            0.09508439280070262,
            -0.3804297062104022,
            -0.12614829211518197,
            0.6119463013975883,
            -0.5834352516445136,
            -0.023927844174040657,
            0.18905855877356445,
            0.03861197933153146,
            0.001937846884099897,
            -0.07819906659236599,
            -0.017681843514895233,
            0.10793303662163777,
            -0.10637700615540106
        ],
        [
            -0.06239924726671679,
            0.09628755489942491,
            -0.1778838410408294,
            -0.15539768246999405,
            0.09703583571821871,
            0.01512649046315888,
            0.03237514114174293,
            0.022374924403173867,
            0.5321107256300124,
            0.7612870844643443,
            0.7862122280771876,
            1.01604044391138,
            -0.03126001168649014,
            -0.07581118056554607,
            0.015078221306423506,
            -0.07014121401571144,
            -0.037442079620514525,
            -0.04258144157081319,
            0.17160521980833937,
            0.22211269364052333
        ],
        [
            -0.098607806196846,
            0.6158712933318407,
            -0.39946226716783545,
            0.47666216186363547,
            0.024604278943626393,
            -0.3608741983547189,
            0.4298317395972231,
            -0.13419047897477326,
            -0.38670512237068055,
            0.16512306025531906,
            0.17083508202504,
            -0.328855839627957,
            0.015970325663292175,
            -0.3806845457498248,
            -0.34441316682476436,
            -0.2226957995028443,
            -0.07617052472517356,
            0.11206657737276232,
            0.027694150439423613,
            -0.04015382492723114
        ],
        [
            -0.09916116592835562,
            -0.5530933491489199,
            -0.07523067464714185,
            0.04849585100918371,
            -0.5232744871388929,
            0.5394980230387157,
            -0.6088434380515177,
            -0.4781565091194722,
            0.5875685423079793,
            0.40066407071828297,
            -0.801133077301921,
            0.14757012096580874,
            0.08239239106609038,
            -0.31024556822794114,
            0.25859984936889424,
            -0.09623246493137803,
            -0.024546043553190077,
            -0.014329681698236375,
            -0.2139378136761582,
            0.00033794014171790716
        ],
        [
            -0.023836779763276156,
            0.03167636198352467,
            -0.0031871776064851753,
            0.09157032106417437,
            0.03085057182069338,
            -0.020201872330830612,
            0.02296669153146893,
            -0.02427521387169469,
            0.7011755988901142,
            0.9045649683173249,
            -0.09576752157629559,
            -0.2450568967111446,
            -0.0060640866462084355,
            0.038345313851133385,
            -0.018253682350120745,
            0.03449614116685926,
            0.00913861407760848,
            0.029796647775678413,
            -0.009530165151269098,
            -0.04642694754322332
        ],
        [
            0.5271399820152993,
            -0.13438577795172346,
            0.796773394926689,
            -0.2663299994376541,
            -0.05664554239468335,
            -0.010683818611937075,
            -0.017134116315968343,
            -0.02750220492033574,
            -0.013944758086890167,
            -0.012921209747348165,
            0.007988387588611109,
            -0.043834579763303176,
            0.010907367948389653,
            -0.003204577580870091,
            0.01867246846432331,
            -0.010497271636505608,
            0.16208522249095025,
            -0.06279490804968317,
            -0.01510533678437428,
            -0.004955747345565321
        ],
        [
            -0.28969221148973245,
            -0.6724271730729943,
            0.05126441177112392,
            -0.20906141136163767,
            -0.06601353676565157,
            0.35796381458938836,
            0.08178217622519912,
            0.10502441668201949,
            -0.5858566887532131,
            0.4770258775998154,
            -0.023930612820698537,
            -0.13166844674610256,
            0.05220176435796729,
            0.3169686753484452,
            0.004760226424752527,
            0.09491045219768916,
            0.0049602416718950385,
            -0.06200456202348679,
            -0.010308321328051775,
            -0.030153244087410064
        ],
        [
            0.0430651191332713,
            0.2867902463786995,
            -0.01993820425878272,
            0.9211920298639846,
            -0.5646071969765312,
            -0.44236410358879885,
            -0.0046482873847673795,
            0.02215198251889184,
            0.3598109891493465,
            0.2748946797539941,
            -0.4972932448647701,
            0.43798394766080484,
            0.25381936317086584,
            -0.09189893429198466,
            0.059722089829695305,
            0.07692355477642224,
            -0.005342621380253658,
            0.23369913569840195,
            -0.17815089265133546,
            0.07375806101581772
        ],
        [
            0.9887147922328882,
            -0.1846155169990058,
            -0.09528717122145666,
            -0.18045510898730074,
            -0.020824573382567334,
            0.4287167761871162,
            -0.1931056197005748,
            -0.032227719020961325,
            -0.320740310691491,
            -0.5201708469366977,
            -0.7583674008612236,
            0.14571413946969675,
            -0.45287472337418505,
            -0.03305516846760045,
            -0.05477540069538067,
            0.027546496996280558,
            0.021687918259105616,
            0.01895119820323593,
            -0.18525832361432218,
            0.02860318285358369
        ],
        [
            0.6562931224288854,
            0.027531909454894213,
            -0.7368652742515062,
            0.47217714365353936,
            -0.6983399420246069,
            0.28640822696449475,
            0.2118809463694251,
            0.13936298287046817,
            -0.1644966560364492,
            -0.3748282353759608,
            -0.2614773023941123,
            -0.3292750495936553,
            0.4963817165027156,
            -0.3987101329087651,
            0.1728116411909852,
            -0.6378448898201226,
            -0.13780623904400005,
            0.10385620434118015,
            -0.0393897457753642,
            -0.0723047171625869
        ],
        [
            -0.04554214738431295,
            -0.06641867945644192,
            0.20786415781672268,
            0.37108446786580185,
            -0.7341538528434453,
            -0.7950994275879446,
            -0.01229722447524989,
            -0.14187571894667902,
            0.8215449106670105,
            0.8302649290716202,
            0.24308694258169314,
            0.4499290440242626,
            0.00973431398916091,
            -0.29159830116667196,
            -0.25512958577546985,
            -0.2895141843314155,
            0.04096131553147924,
            0.10113961223320689,
            0.06550664824311617,
            0.12726136388272705
        ],
        [
            0.007028888151155147,
            0.2486999846275922,
            -0.046219317069083825,
            0.33854186277170717,
            0.5314374108395876,
            -0.758541355247017,
            0.18985864399660177,
            0.3546384265346175,
            0.11773281481289373,
            0.21334775794321464,
            0.09065927916472599,
            -0.1842565779772309,
            -0.7584095642617007,
            0.3205673296234406,
            -0.2154836465434955,
            -0.037272552388407605,
            -0.03753220642147928,
            0.08603851598437329,
            0.026602724394725465,
            -0.07834820438817686
        ],
        [
            0.25249839041339733,
            -0.4666914065227501,
            -0.18946432113146425,
            -0.07590276653794403,
            0.7605395873386012,
            -0.8202838809128432,
            -0.1526740647807823,
            -0.26033302957696514,
            -0.4840985799273672,
            0.880250483050413,
            -0.5921303453927416,
            0.3566918744524652,
            -0.5715056121176989,
            0.1915328806137287,
            0.0761572310444765,
            0.18801823755380215,
            -0.0236557266746691,
            0.027271357010771827,
            -0.11523067602760888,
            0.10042910531780698
        ],
        [
            0.23044770856447958,
            0.6306652754227154,
            -0.07319822678009266,
            0.9817090716468476,
            -0.2836391552013191,
            -0.3670502749914465,
            -0.2784071521045569,
            -0.5172321885096807,
            -0.43974990261810126,
            -0.03295658102128455,
            0.5728530944592415,
            -0.33783579729716323,
            -0.08636149349629253,
            -0.08771641907771144,
            -0.12938507283034043,
            -0.03285312565750318,
            -0.03557163934087747,
            0.21681781551292628,
            0.11435588431614506,
            -0.06263486498959935
        ],
        [
            0.02323925180863529,
            0.6201917453065611,
            0.23964638563350438,
            -1.0451728634354223,
            -0.4671102212502412,
            0.4175304073271319,
            -0.23078790406988364,
            0.11801640171607089,
            0.1840619318012757,
            -0.2969002782666431,
            -0.00020180992814251746,
            0.13169157401633874,
            -0.12191991395223684,
            0.2513870214514182,
            -0.35274661445593336,
            0.14517126912058897,
            0.05491088646750603,
            -0.21425489936743183,
            0.002913144713661713,
            0.044429693294743
        ],
        [
            -1.1058658040358653,
            0.44679553313629405,
            -0.9585025941461153,
            0.17308888219781554,
            -0.47628657869872604,
            0.10281298774641424,
            -0.050126722457271976,
            -0.11391683019845507,
            0.6769823605529108,
            -0.3805729531679289,
            -0.17718183105266844,
            -0.07874998490879848,
            0.803252875539327,
            -0.34881372184620646,
            0.015468872988033126,
            -0.2773225164798576,
            -0.19677830449423467,
            0.01919240037736544,
            -0.023540854884738425,
            0.0006409378173578132
        ],
        [
            -0.2584530393078293,
            0.7836145515923643,
            -0.3200527296947968,
            0.17207393443837415,
            0.38001719513360965,
            -0.04883122137173927,
            0.25319829323185106,
            -0.3236837408447586,
            0.3459873652158803,
            -0.25255037719508067,
            -0.20235631306413432,
            0.6165882681901954,
            -0.33854522459978076,
            -0.5635246108346723,
            -0.2350510414527694,
            -0.23143040616172997,
            -0.09121345582081544,
            0.05683128713325369,
            -0.03628669399718523,
            0.14060843268745404
        ],
        [
            -0.46667964633543246,
            0.44551640320193064,
            -0.3928014333619083,
            0.9991937443882377,
            0.1615326652987663,
            0.187716091844083,
            -0.10359431783516933,
            0.48341805810854926,
            0.11002688331976514,
            -0.06318877339201186,
            -0.42539052289169726,
            0.03914827377896879,
            0.34032896293327186,
            0.15491268551358467,
            -0.021377259091345288,
            0.08513253883929899,
            -0.09219930009927713,
            0.2003897240468504,
            -0.08758150376136231,
            0.018057593607586964
        ],
        [
            -0.9023621290573449,
            0.010700902660257224,
            0.6555404293012084,
            0.2591928519750612,
            0.11116876831560857,
            -0.32739921470566363,
            -0.18637455979984244,
            -0.3048845530534829,
            -0.3489958293983077,
            0.170936476549958,
            -0.20025068478097377,
            -0.024595110330873273,
            0.4514046427642129,
            0.29704320335880846,
            0.2661309332782038,
            0.32272472277568515,
            0.17692750795126244,
            0.07358487863967672,
            -0.009600466996564722,
            0.023733450255754882
        ],
        [
            0.3088728882419359,
            -0.56821280465071,
            -0.024561696428732627,
            -0.7742968207295132,
            -0.42552629560696037,
            0.13268104570959727,
            -0.2266791439419933,
            0.4317617463669125,
            0.20747961291210534,
            0.744209055915292,
            -0.18960232915874736,
            -0.47927514644955355,
            0.0715185208233614,
            -0.1560357529675002,
            0.06227036891228699,
            -0.0016406199419814215,
            -0.026407823577649488,
            -0.1828430574000865,
            -0.03257721149908943,
            -0.058674491752672316
        ],
        [
            -0.624029590628935,
            -0.3821214892797121,
            -0.9372486484175643,
            -0.5721771795714372,
            0.037053404353138225,
            -0.04668631500490134,
            -0.0030611105190153304,
            -0.044377183335786156,
            -0.0134898746633956,
            0.00889574585078689,
            0.0785254068263852,
            0.008834430668353188,
            -0.04776817957310326,
            -0.03984870175920296,
            -0.04744558046729986,
            -0.0085848654224934,
            -0.1904363746126054,
            -0.11816740795840412,
            0.017656371569792127,
            0.008670024846605956
        ],
        [
            0.026209529175313093,
            -0.6664067789396819,
            0.739221141890085,
            -0.2524271324788581,
            -0.11356375421751279,
            -0.8253020731646519,
            0.07161042372104866,
            -0.31640911654735226,
            -0.5345064443075891,
            0.929147956450378,
            0.49004092135627575,
            0.32672547191967716,
            0.05807105842279445,
            0.42472142583776273,
            -0.3111289561536035,
            0.4074248076616541,
            0.12625158752439572,
            -0.0710017231604662,
            0.12455729121191196,
            0.09590267483747336
        ],
        [
            0.01763485208647234,
            -0.9998835124807453,
            0.004744946633198797,
            0.170005460173593,
            -0.044413614101273285,
            0.03713234820429111,
            -0.035803844901336285,
            0.020657632883516464,
            0.043143390278875024,
            -0.012571797449562694,
            0.033734259736637115,
            0.026063431749784125,
            -0.02287778033538386,
            0.008768611797299994,
            -0.038446872901595985,
            0.01526006514655338,
            0.007684336855924641,
            0.01065450246763625,
            0.001084121084652958,
            0.009106482213993497
        ],
        [
            0.1756763756774567,
            -0.12716757409254723,
            -1.2165995546757817,
            -0.7716645193928908,
            0.15868614803272482,
            0.02675396330100257,
            -0.14331538208246777,
            0.31193508813938325,
            -0.40016510489040674,
            0.08201589364683434,
            0.8860417390554273,
            -0.4086641273301357,
            -0.545829160284192,
            -0.18932894714224158,
            0.14771926716053368,
            -0.1882292303149363,
            -0.24166455470591605,
            -0.15543398160322408,
            0.18443404952663778,
            -0.06884969181617571
        ],
        [
            0.42385468108368335,
            0.5070734314852212,
            -0.4607566461467694,
            0.04169328231200924,
            0.3318160854955042,
            0.23703533286663692,
            0.1567824913048772,
            0.07408876941101786,
            -0.27611294487204135,
            -0.13408163729349576,
            -0.6472176492275667,
            -0.14372335604127348,
            -0.11171478340323217,
            -0.34408443029509406,
            0.010562347180203146,
            0.2544317489730805,
            -0.09795792365896432,
            -0.009076565561097481,
            -0.15312157108154115,
            -0.036246856426512916
        ],
        [
            -0.5421505471758632,
            0.5395895855668883,
            -0.7599246524616079,
            -0.40430579501769043,
            0.09754830381069163,
            0.44359974429553084,
            0.034088456210976614,
            0.16601197855702024,
            0.19095631023754364,
            -0.6216681249823519,
            0.035177064954267874,
            0.32330520885764047,
            0.4706114778063309,
            -0.5636555283844247,
            0.2141485668238854,
            -0.08504591732726506,
            -0.14852198005694298,
            -0.07291390521500803,
            0.011878065315556081,
            0.08623488605323566
        ],
        [
            -0.3952515002899828,
            -0.0385034611349508,
            -0.6936783118276201,
            -0.07440411681987402,
            -0.002463847809900298,
            -0.31782973245806384,
            -0.1139712733200593,
            -0.36583575479385744,
            0.10062349620827611,
            -0.29563260979540495,
            -0.4962933935952307,
            0.32886272584171045,
            0.2520077009039502,
            0.5021116083512586,
            0.06973545001354248,
            0.013773335830859148,
            -0.1694709512818543,
            -0.030418356585988522,
            -0.13177083036884057,
            0.10634347465357209
        ],
        [
            -0.4747981439494867,
            0.34731347921561345,
            -0.9316297980911314,
            0.3110166869989011,
            -0.5639797813272037,
            0.19039317416675186,
            -0.05673079001143777,
            0.6398742755422814,
            0.7646107775397214,
            -0.5943979786444882,
            -0.02403943542367543,
            0.213904833859818,
            0.18658328555859363,
            0.14170068650077336,
            -0.4711319430609468,
            0.2617583858596806,
            -0.19883072965484866,
            0.0935783965810968,
            0.03402519412208579,
            0.0317044047530116
        ],
        [
            0.44403520444286343,
            0.384446125650481,
            -0.08275341673546795,
            0.01275130229754669,
            0.27871039120346436,
            -0.5181495113302674,
            -0.32473258260722193,
            0.11266251977878304,
            -0.7485838309350267,
            -0.16145413969081368,
            -0.011857194370729417,
            -0.6756468839826826,
            0.08655599097523618,
            -0.4297752548884146,
            -0.3294193832923938,
            0.22029533408876373,
            -0.044939668788515165,
            -0.01913669969232589,
            -0.028296280529186226,
            -0.15397121346361592
        ],
        [
            0.5021858561628878,
            0.6016390446756903,
            0.1296599125841534,
            0.10187706701258638,
            -0.7879656886285944,
            -0.6041396596382206,
            -0.253818763321615,
            0.0596867357010865,
            0.9064657947637279,
            0.46065053333645417,
            -0.3596389084990499,
            0.14695777725422426,
            -0.19502209443628227,
            -0.5249189693368603,
            -0.05655868015766504,
            0.2531657033824989,
            0.03198522917635583,
            0.04509983926195822,
            -0.06631735067198571,
            0.08835404104372217
        ],
        [
            -0.5931606653674671,
            -0.5487708828771505,
            0.16511405548046915,
            0.3321555164873763,
            0.18330260800622636,
            -0.017261405711953216,
            0.21914051292883702,
            -0.23495519265107484,
            0.4012349619551771,
            0.5194087860256703,
            0.08570004975069566,
            -0.4193803851615574,
            -0.1491078332404573,
            0.2451562903737338,
            -0.2138109133662367,
            0.30544578500842795,
            0.009458923999577516,
            0.10736770751058944,
            0.06410165208855766,
            -0.071845945827691
        ],
        [
            -0.15930516377038664,
            0.3500592181077884,
            -0.22295435187824816,
            0.4613523571868018,
            0.5086689405618028,
            -0.24222410451646836,
            0.4156206028466903,
            0.27662497023727217,
            -0.7185634580444049,
            -0.24425551240648813,
            0.21000135745012383,
            -0.13419825294410698,
            0.22255299685541308,
            0.15723915439268796,
            0.0015520684007152678,
            0.3995707852419883,
            -0.026835079415361632,
            0.130694662158349,
            0.06086411511458388,
            -0.006731768124893951
        ],
        [
            0.06044599013146679,
            -0.2842260052386343,
            -0.11094699812521353,
            -0.34424195056152135,
            -0.2573668842135048,
            -0.24129364853967505,
            0.24365735379258,
            -0.27850987556972817,
            -0.6706680900151561,
            -0.0659406025943419,
            0.5615031202502854,
            -0.47664336402482893,
            0.35050521321989253,
            0.4108000036585982,
            0.16545951909370074,
            0.041711018524927035,
            -0.019711748845863675,
            -0.06549620716588545,
            0.09908739461745868,
            -0.11643642670329396
        ],
        [
            0.08930657410337606,
            0.1534653841917964,
            0.33584137518308843,
            0.25122252341690055,
            0.1642526104385247,
            -0.03808607333419724,
            -0.016003621054708404,
            0.14135697711853273,
            -0.13907642796209874,
            -0.08859194552945816,
            0.0036437071623640718,
            0.11263577596047325,
            -0.16428304134790453,
            0.09929277936478247,
            -0.07860161208235761,
            -0.10279253023978929,
            -0.04955878401132552,
            -0.0022077961257239258,
            -1.2677588670190354,
            -4.6646474897865335
        ],
        [
            0.4270057956475695,
            0.21407880086833742,
            0.009858931759970583,
            0.05314650319655532,
            -0.33967108226629755,
            -0.1514475009101715,
            -0.05342059192326836,
            -0.09847458855220893,
            -0.06587847838594847,
            0.16231279388766462,
            0.23290355366563517,
            0.27318525362691287,
            -0.4198222487133728,
            0.09903795447783173,
            0.12722666196172375,
            0.03525733468092245,
            0.01857544551265553,
            0.013879328124278965,
            0.011984911122422162,
            0.06027506887863297
        ],
        [
            0.044982572915496094,
            -0.5141479198675036,
            0.20981743638814185,
            -0.2644440167972675,
            0.02271057355152615,
            0.008128520142589853,
            -0.21372269256923873,
            0.21524298031953445,
            -0.28655796984914694,
            -0.3421081833398841,
            0.08313392048867554,
            0.4695329262875051,
            -0.43564364898793034,
            -0.08990552755971304,
            0.19822160052102994,
            0.5719684484327733,
            0.018722773473219618,
            -0.08200028837224485,
            0.011178962469602125,
            0.12300379908676226
        ],
        [
            -0.18648327807696502,
            0.26851344763100193,
            0.31021154779169774,
            0.573004484240298,
            0.1620037246570443,
            0.2706229410101152,
            0.4017415976043004,
            -0.4524120547379526,
            -0.5567140294867821,
            -0.13225930853221654,
            0.12278142115192475,
            0.7053953839868486,
            0.2688070419413092,
            -0.43584928141905827,
            0.1952963305499363,
            0.32953808658787836,
            0.09523398339912378,
            0.13945056209688417,
            0.03127320722402597,
            0.12458849693122666
        ]
    ],
    "h0.bias": [
        -1.053098789309381,
        -0.9662737689721729,
        -1.3656137676398374,
        -0.09054880878705483,
        -1.8004541691992197,
        -0.6780334661746397,
        -2.2493039352004356,
        -2.376205328178875,
        -2.3711384850740505,
        -1.0867526103056961,
        -3.022259533161875,
        -2.400370397025452,
        -0.9145512962550642,
        -0.16951159703769667,
        -1.4963025242518204,
        0.4150640638660515,
        -1.408928357728487,
        -1.3915298011763841,
        -1.268677412376275,
        -1.0256424688483379,
        -1.0151350694357184,
        -1.3806229759489177,
        -0.26418436597534,
        -2.3767720610890204,
        -0.02686386299809458,
        -1.991235051053386,
        -0.09583078462496114,
        -1.7281333846413223,
        -1.3268795351488074,
        -0.6829536107903788,
        -0.07063669621937796,
        -2.199689265789528,
        -1.1405447998252198,
        -1.7028041641062688,
        -1.352263820332104,
        -1.0700688213790401,
        0.8122303518423257,
        1.0965054880738931,
        -1.0580217470476148,
        -2.2456943019687854,
        0.17154438281252432,
        -0.9094886816881342,
        -1.0678086160333806,
        -2.0772786614840975,
        -1.088642417196072,
        -2.2137262443740284,
        -2.218782505838276,
        -0.6630905991290965,
        -1.5609093196855568,
        -2.0004058942179532,
        -1.2439867243379632,
        -2.087188916235529,
        -2.001341346673629,
        -2.2376511057570916,
        -1.8394888697471636,
        -0.8321038946851596,
        -0.7462494348647408,
        -1.0195554649194185,
        -2.019850297889353,
        -1.5708632011160444,
        -1.7482188410002029,
        -0.5961374081442081,
        -1.4862900626393045,
        -2.0428709168202146,
        -0.456037847639351,
        -2.582003693955553,
        -0.8193761660078768,
        -0.5294204579087146,
        -0.33655158009626995,
        -0.5212592489923249,
        -2.171309339084159,
        -1.7410974510547528,
        1.0607959705025607,
        -0.49813011117802664,
        -1.6390677035994619,
        -1.2491074876942978,
        -1.1350369432314322,
        -0.8472016459075732,
        -2.09056589633154,
        -1.547496897654884,
        -0.9560146789519195,
        -1.2542950117917424,
        -1.8213182669777521,
        -0.49360454476827,
        -1.7375429057912406,
        -0.7368037802066015,
        0.757816533893491,
        -2.648032471409134,
        -1.9885125852085592,
        -2.4352662871219226,
        -0.4182047842281521,
        -1.5004902077229192,
        0.8272558403941064,
        -2.3198967122347716,
        -1.43696250995749,
        -1.7586867835011064,
        -3.8127745583797346,
        -0.937197175985534,
        -0.7405462005035146,
        0.12289543944930065
    ],
    "h1.weight": [
        [
            0.06405670981561554,
            -0.6979397610181443,
            0.17652259545091942,
            -0.31375398587286674,
            -0.026310648804236662,
            0.7068841972157442,
            0.21837597776400247,
            0.3044002304289849,
            0.0009706368496583377,
            0.22343802773091542,
            0.1286161557781101,
            0.1546965050004322,
            -0.007644215059764043,
            0.4784930227858071,
            -0.4562218221865143,
            -0.1369753479341116,
            0.1015092144054419,
            -0.6043647851930329,
            -0.4171846664860709,
            -0.5327971754232261,
            0.09951205506873141,
            -0.4718934484781783,
            0.1847977088309006,
            0.22363347404224931,
            0.39962191695504823,
            -0.3829201724717006,
            -0.26483591407975404,
            0.8446439134303346,
            0.06308536227016831,
            0.24288771213133556,
            0.028440622158135306,
            0.2786396124273447,
            -0.21737658565598045,
            -0.4314545803400649,
            -0.0886934193713654,
            -0.273872202710371,
            -0.1542551842137362,
            0.35120356815301107,
            0.47756273967860374,
            0.03279292897660626,
            -0.4770903191933437,
            0.03655536441728081,
            -0.09054227820419364,
            0.27913540589749164,
            -0.5675544913480773,
            0.2380864351244237,
            -0.23894299148834142,
            0.2328994653924304,
            0.4342998973513757,
            -0.053068069173058285,
            0.5092652993484423,
            0.04039338897498957,
            -0.11365123405205939,
            -0.5975918679596991,
            -0.7513519890533145,
            -0.4395612875204108,
            0.14158190178018148,
            -0.2896886408788025,
            0.5307299849796399,
            -0.30697693433012524,
            -0.3931765530164997,
            0.3236340655500603,
            -0.49125260055088044,
            0.23457102954197848,
            -0.09574444220023685,
            0.35678157617137873,
            0.27907214380394035,
            0.32902041828359224,
            0.28293067064422733,
            -0.044377942838392026,
            0.02715517638326218,
            -0.681699710144852,
            -1.2814181305636125,
            0.7394223673098114,
            0.21612422508984733,
            0.3111749183516555,
            0.18448888763391313,
            -0.5371265909729006,
            0.12543169351604996,
            0.9156782252586759,
            -0.1650041403714021,
            0.07991708859536908,
            -0.13417167938519603,
            0.1646062961253465,
            0.5554441079204115,
            -0.23339743635746465,
            -0.2187888601025832,
            0.00962231273079789,
            -0.18101563618205513,
            -0.31752271133385107,
            -0.9732981534915003,
            0.29509931836876385,
            0.12466917318206,
            0.5131545694734997,
            -0.13249271165677334,
            0.3986784651570856,
            0.044186781587429245,
            0.390931965533534,
            -0.1631670034775597,
            0.1648484140193001
        ],
        [
            0.04119963389633591,
            -0.4170529634727905,
            -0.06495633221814434,
            -0.17822816240504671,
            -0.38990148369916466,
            -0.9326337522754675,
            -0.44137065804035885,
            0.07465808499093597,
            -0.027534878030152775,
            -0.41163396735680513,
            -0.052706986427027244,
            0.10094624186849833,
            -0.020359310725593993,
            -0.49568590478193353,
            -0.23940511038639717,
            0.32995687780931054,
            -0.26180190546341797,
            0.21165254791764254,
            -0.04381733621937754,
            0.11231859000591547,
            0.5878959311077397,
            0.6322116326868218,
            0.057259487685794974,
            -0.8927367051094198,
            0.7756063180598424,
            0.32801989302612305,
            -0.3082873059185427,
            0.07831626385050947,
            -0.016329482882268407,
            -0.18251749759546337,
            -0.08506055393873645,
            -0.3067878635715213,
            0.3622979845811146,
            -0.0014248981591629749,
            -0.2542403420228353,
            0.06097797209055397,
            0.24656417547509232,
            0.4808651311458948,
            -0.26521548348282253,
            -0.010262170815339497,
            0.21641354421186465,
            0.33326345977314015,
            0.2888465965787893,
            -0.39187682635880494,
            0.15638635244546426,
            0.24022150016855406,
            -0.04576902983915114,
            -0.18137462641123056,
            -0.14610532819463232,
            -0.7192108452078657,
            -0.2557688762754249,
            -0.11332100112239983,
            -0.04974286620510155,
            0.12314438653253737,
            0.4576482420060366,
            0.1766921746835847,
            -0.9651854498517373,
            -0.08007896143403129,
            -0.24743283154009582,
            -0.2598233302743006,
            0.5439546581880768,
            -0.3696771284635767,
            0.4849338868789424,
            0.05552988299033092,
            0.325151536431553,
            -0.21194622644542999,
            0.08134394995224739,
            -0.29937318457416123,
            -0.2598097231175227,
            0.06756810780611373,
            0.41669108705691843,
            -0.2741367841703885,
            -0.47968800422753255,
            -0.2754718477333824,
            0.2913397649425121,
            -0.9883528657858073,
            0.558125408970054,
            0.027014546875657523,
            -0.6019078099513211,
            0.030837535860824935,
            0.11450763530059352,
            -0.18127995363391375,
            -0.04773647656306709,
            -0.0017271008382590382,
            -0.1270083817158733,
            -0.10987384951781602,
            -0.31735084422077064,
            -0.48098138744796515,
            0.24312641578480998,
            -0.043996848118455056,
            0.7477537248055665,
            -1.3249872104015574,
            -0.08397394308695162,
            0.26384214234600706,
            0.4393757549902897,
            -0.12010426953556559,
            -0.006543630596451104,
            -0.20547423379317048,
            -0.28781561928891725,
            -0.25316023868594956
        ],
        [
            0.017489651652143737,
            0.3825896219808802,
            0.32559182384755686,
            0.16107351482456,
            0.16367610226904403,
            -0.7608315914131658,
            -0.2140911956014086,
            0.5704272284446251,
            -0.015664424127937844,
            0.054043764429880146,
            -0.026588311443415828,
            -0.976777375206411,
            -0.024701042863262454,
            0.39160684891731545,
            0.10236022708832763,
            -0.5456297537968571,
            0.27192686839992114,
            -0.8245120188043864,
            0.6348080199713858,
            0.10774605522065364,
            -0.14873301549747786,
            0.28958275992372273,
            0.06726508251639564,
            -0.6046238658429409,
            -0.2639120190964543,
            0.5287223737560692,
            0.32911652735896463,
            0.7244498849937137,
            0.03246254893174269,
            0.0977818931260702,
            -0.14438463551821573,
            0.17642490905960956,
            -0.38839063328208623,
            -0.5124376149499595,
            0.3816182219704017,
            0.1733951920975492,
            -0.34810670121147885,
            -1.7640573510519937,
            -0.2658834033768831,
            0.036932828011403324,
            -0.7701704387406019,
            -0.5721659812871596,
            -0.4067970975812772,
            -1.0224681580492438,
            0.2049388060553185,
            -0.021110166204372754,
            0.010834465289351298,
            -0.897929679725744,
            0.3243020226306996,
            -0.030776185815034957,
            -0.302908658984254,
            -1.2008208438160286,
            0.19790667006990711,
            -0.8091883901662275,
            -0.7759285627389582,
            0.12072239132027542,
            -0.7877512535323324,
            -1.1949132904244215,
            0.3860627334274943,
            -0.09745172689771384,
            -1.4887434073449233,
            0.11337582882945914,
            0.817918093396756,
            0.17108524246031911,
            -1.0023053987497983,
            0.3116301210474937,
            -0.4069623945568515,
            0.5842651122464545,
            0.47738681333069743,
            -1.0175763748802356,
            0.13992444610447674,
            0.14395440060857395,
            0.3724520294989094,
            0.5678220322547021,
            -0.06794997220585969,
            0.35179113123986555,
            -0.3665919102078727,
            -0.6141544312844538,
            0.2553762793349028,
            0.7344512195044633,
            0.07225416583555883,
            -0.022546505705018458,
            -0.42934791393872807,
            -0.10691644013736311,
            -1.8214978885916024,
            0.4829741807780571,
            -0.4810634204374336,
            -0.04002245971240588,
            -0.03471944029045153,
            -1.2756453419389873,
            -0.22842288569041164,
            -0.22140286614835894,
            0.10803667907474493,
            -0.02236809433757023,
            0.28627917672255243,
            0.3801029693672844,
            0.09319547991881885,
            1.0493571177529726,
            0.00903283040011472,
            -0.051419160954932555
        ],
        [
            0.021006635410103783,
            0.4260066108372208,
            -0.2086868382970344,
            -0.135765373446387,
            0.1538161056284729,
            1.0813443458285144,
            0.0535078979575573,
            0.09529659146359995,
            0.013774445700050581,
            -0.37074644875065155,
            0.31770321955717706,
            0.2329502648407295,
            0.0009533629888208678,
            -0.1806531904360023,
            0.20831693132155818,
            -0.35206586457195593,
            0.06366210753642627,
            0.14615970443889778,
            0.98045129438788,
            -0.41541764388374425,
            -0.09331351951254592,
            -0.3387959609694688,
            -0.11743997812084485,
            0.3466240582797072,
            -0.19447489303071652,
            0.04015075856802832,
            -0.26776595379507984,
            0.16779469240990116,
            -0.012911649266940156,
            -0.33343839249655366,
            -0.19984603131955264,
            0.28424887755980527,
            -0.16919861945709927,
            0.2756383567777038,
            0.027915523284266427,
            0.04574199986412777,
            -0.6232501637311704,
            0.3120815465217677,
            0.13528571853614976,
            0.01424577014088066,
            -0.05000180819101375,
            -0.07681293015721642,
            -1.086542002188745,
            0.33955896967372023,
            -0.0011251579732290283,
            0.24384635168182953,
            0.24747518896287626,
            -0.09041548222385401,
            0.14347654046234193,
            0.2811531918962709,
            0.12023723319451622,
            0.22306485194662667,
            0.005133351200919826,
            0.24957454169542134,
            0.2595546830109118,
            -0.27835555037076143,
            0.5744413947601018,
            0.1644917060929851,
            0.2952534539370459,
            -0.008990128435920949,
            0.02893944552753451,
            0.5067981316810581,
            -0.08123109594509878,
            0.10446862753218492,
            -1.4967111061952287,
            -0.044534017054928154,
            -0.23520168694513677,
            1.8713903723988814,
            1.7082812197466364,
            -0.01151486436417092,
            0.13296388538159856,
            0.1751319833984073,
            -0.17706739441616914,
            0.13842558054944623,
            -0.046636556249195896,
            0.10213820465348261,
            0.14433947971150704,
            -0.43445811834952675,
            0.511625553046466,
            0.09464881992988335,
            0.11196691444050481,
            -0.35407533938366903,
            -0.11422153200701768,
            1.2207430921041091,
            0.18320920577806252,
            -1.2312328435937518,
            0.16159064550031804,
            0.028798405645183666,
            0.12558288260094183,
            -0.1698644547223036,
            0.07646805329171617,
            0.0364225022273762,
            -0.31915276557695044,
            0.39413156638166136,
            0.419580265981422,
            0.34700181750496756,
            0.0177255100305187,
            0.06458512053768366,
            0.06004453659569641,
            -0.056240967527052245
        ],
        [
            -3.6416428514551274e-05,
            0.0868275335520489,
            -0.07295098049806668,
            -0.4079590725601374,
            -0.19428413482061097,
            0.4715360189417964,
            -0.07116955346266537,
            -0.6326751190581781,
            -0.03470909984167409,
            0.2481305827977406,
            0.15133166790436323,
            -0.30068406979124007,
            0.019399959773689062,
            0.19119221226160946,
            -0.08568713121836102,
            -0.03139308536493694,
            0.4377834524989744,
            -0.5174417331406334,
            -1.7273909544996209,
            0.6163121659970664,
            -0.28012113659755145,
            -0.42432186529703464,
            -0.5632678029576079,
            0.267576526688709,
            -0.08364998432371623,
            0.41800402131313574,
            -0.13843487349210862,
            0.14511786790658296,
            0.013278158776506278,
            -0.34290356001191563,
            -0.5298016392118556,
            0.22739174597652334,
            -0.22762203506429646,
            0.5602498926997802,
            -0.5775454156254746,
            -0.18435748045134598,
            -2.4929765128265933,
            -0.0014154336636545153,
            0.46586052866537253,
            -0.016699042040962862,
            0.10594951049986426,
            -0.013284464563456548,
            -0.25073484474278984,
            0.10045567430104625,
            0.332571368358052,
            0.3358022521675272,
            0.17954730453517742,
            -0.14310249809115216,
            0.17485058661348943,
            -0.3154500677181986,
            0.006543377830870985,
            0.18449095584034708,
            0.7486098256542727,
            0.03935205978882915,
            0.22952080004046818,
            -0.05442246467683348,
            0.41350635348855425,
            0.1762469458291456,
            -0.1636345765930866,
            0.2565850576763467,
            0.04758260391270795,
            0.24909576916120407,
            0.1751194177691667,
            -0.1555553062691934,
            0.07381712283404089,
            -0.17720887759574006,
            0.3181234885897387,
            0.13219348837681924,
            -1.5398875457536867,
            -0.19653926668924648,
            -0.1416092941502925,
            -0.10956496304098577,
            -0.22554031111927775,
            0.33851424439340294,
            -0.07735760987183193,
            -0.2475830468761954,
            -0.31717238710795986,
            -0.06765052800077272,
            0.20621480898324301,
            0.09650591031235456,
            -0.19859895497620297,
            0.26155720242732866,
            0.27663313815352003,
            -0.4339254055281642,
            0.0074515564881172175,
            0.9382258541983988,
            -0.04480582206499732,
            -0.2759676825756782,
            0.17395194084971355,
            -0.17122839821794492,
            -0.2029220743879242,
            -0.2798545995056432,
            -0.06639266802540296,
            0.04875288762847769,
            0.04832642627296748,
            -0.14126680572349876,
            -0.024784488438151567,
            0.07749021590326259,
            0.03365239549919383,
            0.19048094127952897
        ],
        [
            0.00994478493396755,
            0.44080795144686663,
            0.06770718639317935,
            -0.13331643193009934,
            0.6443848715239957,
            1.077304382668535,
            0.2065798721728511,
            -0.3293107212330886,
            0.021313401425795672,
            0.23251741852456806,
            -0.12194447097135779,
            0.4760478553423654,
            0.0021899346853601425,
            -0.7970463962818628,
            -0.1125013406630207,
            -0.19331882280659005,
            -0.1891180759510931,
            -0.9238549765707222,
            -0.2677245037309599,
            -0.01715384465705794,
            -0.011555561510814506,
            0.3665774478955111,
            -0.16679150782288815,
            0.38447799921177067,
            -0.14721482684769202,
            0.25265918474304855,
            -0.05751940164159973,
            -0.1886052803982935,
            0.009772008608007,
            -0.09042856350870346,
            -0.09968620595699662,
            -0.2549985424005532,
            0.21985239291738493,
            0.4217102441112777,
            0.06831642680931367,
            0.27403900484359955,
            0.5632668801863909,
            -0.09335131377395017,
            0.5685550631138897,
            0.0210322857747141,
            -0.03004764144528622,
            0.11903068981351297,
            -0.13422505531481677,
            0.13422605514054828,
            -0.04754980303753483,
            0.16394312266951155,
            0.4697696724780028,
            -0.36238213177066925,
            -0.2654731475564076,
            -0.613084819069783,
            0.1066124802937671,
            -0.18263102972451456,
            0.04317494909882338,
            -0.16176025631170124,
            0.03103448863552758,
            -0.25744397085400467,
            1.0628004621167868,
            0.19782876922448905,
            -0.12338211299085111,
            -0.23472937277781128,
            0.31248721161955306,
            0.037333804429153634,
            -0.3060567251543455,
            -0.22769044873795588,
            0.4260775311213462,
            -0.3661964177386756,
            -0.07086226640036221,
            -0.9224328127695576,
            -0.5899206426793031,
            -1.8590563069965138,
            -0.4975346911482727,
            -0.3790034038152348,
            0.11793576296730902,
            0.2343542982843231,
            0.08433245587648586,
            -0.03182834106935139,
            0.10720016046634472,
            -0.7854257832054171,
            0.3881181690695872,
            -0.27884693676541183,
            -0.20585862502522015,
            0.08693685310945595,
            0.5052097002883221,
            -0.1870838143030353,
            -0.2887433221981558,
            0.38007774704005554,
            -0.5511077658994948,
            0.31434231264930074,
            -0.027440240168918054,
            -0.2971069335599099,
            -0.12667534733467967,
            0.023376877680963717,
            -0.4693335859785824,
            0.09817058995631693,
            -0.19125602766390748,
            0.5794747354951496,
            -0.02903712285069926,
            -0.7725718707534858,
            -0.14688518199782602,
            -0.32232460174142474
        ],
        [
            0.03713308878406573,
            0.46991240055694006,
            -0.3481660318598667,
            -0.07115589638116614,
            -0.2905696294403187,
            0.010096137863470888,
            0.018113811468939874,
            -0.3366424873357621,
            -0.01483217646418724,
            -0.8923161672168544,
            0.01674028807840847,
            0.1483858748632914,
            -0.0008830870670492192,
            0.05768801061141511,
            0.23346661654566875,
            0.08666066569867631,
            -0.0758920366620025,
            -0.04291510086906164,
            -0.4113975823051038,
            0.49274010739715957,
            -0.0675791498866928,
            0.038570471399970975,
            0.1242415648856055,
            -0.31786496927306584,
            -0.5398236435450986,
            0.09779818307535178,
            -0.15611804206492838,
            0.0587625288653322,
            -0.03168237110623682,
            0.03321132761354924,
            0.021004237379999586,
            0.4122531247193182,
            0.013112189897966543,
            0.5506686670220756,
            -0.15639241632302925,
            -0.15310126347379133,
            0.16076282632181987,
            -0.6560817905641041,
            -0.10332267402852523,
            0.0016266900016342874,
            -0.2848676231545229,
            -0.17416588287290816,
            -0.23110873831270015,
            0.10830687979135557,
            -0.20125460523955216,
            0.1729930898689497,
            0.40607038729460704,
            -0.20813872764269667,
            0.21319086046823382,
            0.3788672230945358,
            0.37571508416949645,
            -0.429331017288446,
            -0.008997784742455432,
            -0.17023227292220935,
            0.607398932283355,
            -0.18019204907038333,
            1.3393664105729148,
            0.17952348499952228,
            0.40824209508777104,
            0.07316290960823862,
            0.2957584554407988,
            0.8203140453212606,
            -0.1759312134825132,
            0.2120445207358172,
            0.7671860956961442,
            0.057954249114735755,
            -0.3847538398366708,
            -0.5131417779348723,
            -0.7845848026734313,
            -0.46587855930845823,
            -0.21298797507514045,
            0.14132428313299522,
            0.28032833411986485,
            -0.3484945219373602,
            0.13887382625706823,
            -0.1960476437676629,
            -0.015411393896186287,
            0.3932464995888596,
            -0.12859948701305365,
            -0.06979310240873439,
            0.08149683960329798,
            0.2884014255345775,
            0.0921824220194903,
            -0.5173923225853049,
            0.2177659044686256,
            -0.11406963978241631,
            -0.27634451867014687,
            0.345166783367936,
            0.41204511159689167,
            -0.1992662004243998,
            -0.20312569196686994,
            0.36430878874032224,
            0.0887845441894675,
            -0.2670065019017907,
            -0.4263791106680511,
            -0.04003814266096315,
            0.01844016059886749,
            -0.021772886269805065,
            -0.6341680889292824,
            -0.17692814752739552
        ],
        [
            0.0039447083675174565,
            0.45402632996825054,
            -0.818382335534104,
            -0.451577202527513,
            0.8233703694863413,
            0.11537354614079408,
            -0.23138489310403845,
            -0.9276245142950191,
            0.04646620302758504,
            -1.2867061910779374,
            -0.22678001367015682,
            0.2831005052500939,
            0.008241446622755296,
            -0.38767973355634894,
            0.41763000177320975,
            0.3949966872926324,
            -0.16293598048094357,
            -0.20540386999307206,
            0.138168253666684,
            -0.9264793122136561,
            -0.23456517597681276,
            -0.6688496123073888,
            0.47225298515739766,
            -0.6880843202083838,
            0.5747264939368364,
            -0.02820120671500417,
            -0.4940581874866171,
            -0.3697804102671248,
            0.06173963634856412,
            0.1420563225927408,
            -0.46472513287514194,
            0.9699865365660874,
            -0.22316533976059513,
            -0.35364944839719775,
            0.6206240739906506,
            -0.5862246827470529,
            0.5811640298369443,
            -0.9843250294677115,
            0.6211493176323362,
            0.018762467322083722,
            -0.24150975601071914,
            -0.47269761847059,
            -0.5455019919772752,
            -1.4086525098677583,
            -0.28194482180638847,
            0.3194288945725016,
            0.5280394098400174,
            -0.30195663693518837,
            0.44675691251548033,
            -0.7932580784719304,
            0.6218433208268717,
            0.4666881369896629,
            -0.05754328037257725,
            0.32244524921840695,
            -0.2265787252795011,
            0.18215239836265062,
            0.1707426443320677,
            0.08226409594839917,
            -0.25918387400371107,
            -0.5242240951670766,
            0.5728111910038238,
            0.49732650216024815,
            -1.0547625777742735,
            -0.23612674780793738,
            0.6916052987706006,
            -0.7214987159403147,
            -0.9938292166235619,
            0.18056849723898558,
            -0.027055476621432033,
            0.2426155282651445,
            0.18113704537162406,
            0.6425781042833415,
            0.08817560463547426,
            -0.5325375694122412,
            0.5659443371716871,
            -0.16307864019794532,
            -0.22072543308660997,
            -0.1828102600978639,
            -0.9424553642563326,
            -0.5473661089468919,
            -0.1336823329263097,
            -0.1882136860404382,
            -0.2736874972785518,
            0.14150299500855013,
            0.25486949615657367,
            -0.05063173147617028,
            -0.5317912005928057,
            -1.2289840515996615,
            -0.49799731018596577,
            -1.2074722891853586,
            0.09780759192977825,
            0.5032188792847218,
            0.0453247895363453,
            -0.5212803891508179,
            0.14731527104848466,
            0.28698156476741765,
            0.03112657432421182,
            0.6075945914510661,
            0.27840676739499826,
            0.6856528636380419
        ],
        [
            -0.01730809153342535,
            0.7249745488974936,
            0.4206421822653451,
            0.35736919386285004,
            -0.16218349800388332,
            0.11168772709277586,
            -0.15121793268067843,
            -1.0183921987132536,
            -0.10667440121976629,
            -0.01288648945410504,
            -0.11732378377612186,
            -1.564690354643755,
            0.006461201874580688,
            0.41204310823542145,
            -0.33140924401313193,
            -0.45504054659265936,
            -0.7492698852788923,
            -0.37821650924762024,
            0.19274860377195874,
            0.7711237420493167,
            0.49689676965066487,
            -0.38252327901261474,
            -0.07027597392429202,
            -0.05573968589506708,
            -0.4620126611858081,
            0.48797235841646924,
            -1.2152459326817047,
            0.7572505389475264,
            -0.06858336504217763,
            -0.07249552659391083,
            -0.8731440501849524,
            -0.7433572860091281,
            -0.9545637814937998,
            -0.6502057329532057,
            0.12183530578736224,
            0.24855908380004998,
            -0.47458750128948446,
            0.08823637326012133,
            -1.0998479269366968,
            -0.025222140098913024,
            -0.26034119363820946,
            -0.009544562697489947,
            -0.25709760678340143,
            -0.1545310156520833,
            0.15467819501098864,
            -1.7505246316848502,
            -0.6557366177451237,
            0.2510056779263831,
            -0.6618014710543081,
            -0.20451414917748023,
            0.3366775320666987,
            -1.1742551660653735,
            0.6928460905497246,
            0.04367629262314415,
            -0.07716978071603993,
            0.5183803759940151,
            -0.7500707623772295,
            -0.4277902527683849,
