{
    "h0.weight": [
        [
            -0.20301110715792653,
            -0.5281518737141441,
            0.1424603301243033,
            0.3119527326851824,
            0.013023485707282631,
            0.003953832610648402,
            0.0014452129290529246,
            -0.0016419700557176275,
            -0.0014861114641389124,
            -0.0020266184748038377,
            -0.0032664359607601097,
            0.0021083068155511135,
            0.0008051420679333717,
            0.0011918045944523828,
            0.0036938630950619144,
            -0.00017593903190369375,
            0.023479339849122996,
            0.0640297200004466,
            -0.004577098721911347,
            0.010307425299783738
        ],
        [
            -0.01343562174219632,
            -0.010119335257804583,
            -0.029881177562252195,
            0.018971502767784528,
            0.013835407724015902,
            0.007800900863607523,
            -0.004394198458367059,
            -0.009225683581582905,
            -0.5160448739978732,
            -0.1783614825327916,
            0.5644039945416226,
            0.06852384961209251,
            -0.02743269549089789,
            -0.0081880733361917,
            0.0045371726539516774,
            -0.008957282780663269,
            -0.0017626047597171205,
            0.006416660108654145,
            0.10793803274452107,
            0.01744485833956937
        ],
        [
            -0.00953886578893597,
            0.00020342418908923207,
            -0.010612007104408202,
            -0.0015474934934615818,
            0.012001808552273629,
            0.010549043223580386,
            0.003139792241608252,
            0.00765988569581357,
            0.48301167246902016,
            0.2270901966432656,
            0.46486921982469376,
            0.254016464345087,
            0.004223235003719214,
            -0.006129973630498501,
            0.0014370163013844427,
            -0.003214513855477705,
            -0.0018690205253949822,
            -0.0068936287188164904,
            0.1037227387456901,
            0.05513649647071287
        ],
        [
            -0.07881795396504754,
            0.19315432821353007,
            0.4481516311364377,
            0.38172409296479026,
            0.24493451724754922,
            -0.1455159724400391,
            0.16699336058739297,
            -0.10226635941008343,
            -0.006249057769636497,
            -0.14289527196447277,
            -0.07233535612817461,
            0.34942956703117467,
            -0.015812363642516702,
            -0.12248271080167628,
            -0.06344969133585471,
            0.1062898182968139,
            -0.004246593269946645,
            -0.009274203471732044,
            0.014377186389762101,
            -0.05026845507602131
        ],
        [
            0.014152673297191606,
            0.0037651175056692882,
            -0.011780890986348318,
            -0.022423253867253513,
            -0.013040261335918237,
            -0.0017272788412415082,
            -0.007906867765197076,
            0.0005201347360731823,
            -0.3661466467380593,
            -0.5596952131365951,
            -0.21101101692640936,
            -0.3939367304686336,
            0.02341851172158854,
            -0.010311508261613473,
            -0.0028180548789082096,
            -0.0036231976660272658,
            -0.0019203450974212004,
            -0.006550706207789143,
            -0.03131097257239812,
            -0.06064520804195588
        ],
        [
            0.10469621225470614,
            0.11392036849714034,
            -0.30036080743804316,
            -0.38491188009757893,
            -0.10999178330565158,
            -0.09360808704909038,
            0.0012573903758815136,
            -0.07387458392083987,
            0.04388309183833761,
            0.22485559162118993,
            0.2604666838124144,
            0.4262917523376367,
            0.04741485124110358,
            -0.04452355961527831,
            -0.012258191217872107,
            -0.15010901230748874,
            0.006215648720968554,
            -0.018929862192135178,
            0.025563592522038565,
            0.06390419313828144
        ],
        [
            -0.12376526978480062,
            0.0774380544539546,
            -0.20564255303151324,
            0.01654883091538485,
            -0.13470728255551978,
            0.036002067410944145,
            -0.05694755073688655,
            -0.1503661459871776,
            -0.05874436688919185,
            0.04627291826330121,
            0.004153475115629522,
            -0.37943691757210574,
            0.15841201715970457,
            0.0022948675408801453,
            -0.01662043094737557,
            0.06776714630586897,
            -0.0469196188281717,
            0.008733344852929389,
            0.006450455050791136,
            -0.053679227378905715
        ],
        [
            -0.044586937744137196,
            -0.20719686970877418,
            0.17515301394127653,
            0.24863061110102488,
            -0.2320907935152315,
            0.005591724002903936,
            0.10324880249902574,
            0.31531652357870465,
            0.0734492849025084,
            0.28569167584859406,
            0.16953100024842258,
            0.2695209476142816,
            0.15270072660306994,
            -0.02610657533420152,
            0.019013603497329553,
            0.04421969268073974,
            -0.022217738182632108,
            -0.01834699138860245,
            0.04666671249171482,
            -0.008605011625140909
        ],
        [
            0.08500830182387331,
            -0.0587385275994205,
            0.1921804311545455,
            0.05562690386935651,
            -0.07951652136576386,
            0.0798729686036406,
            0.06284653309653271,
            0.007174625260288483,
            -0.06078702136382377,
            -0.07808513831100637,
            -0.2826860837095381,
            -0.7245853363798834,
            -0.06258823554066899,
            -0.09207610306098757,
            0.09555295147637655,
            0.017363138042622007,
            -0.022885450696654375,
            -0.0015222599765383881,
            -0.027144546956093283,
            -0.05735598405728395
        ],
        [
            -0.1875832147990381,
            -0.40837234343161377,
            -0.01093847390562489,
            0.04102840207143397,
            0.21220818665525182,
            -0.3604594884616232,
            -0.009636956146410868,
            -0.02872980041716305,
            0.0585651496453824,
            0.4184391483015901,
            -0.00022365300211868235,
            -0.025154839006826125,
            -0.040262156182613106,
            0.2989888889577243,
            0.1169438920171696,
            -0.10413715895790905,
            0.012995877860343535,
            0.001013781813350171,
            0.008197902061384125,
            -0.029902020377632652
        ],
        [
            0.36518430273290703,
            0.10534856960580279,
            0.2564905270682692,
            -0.024715062062806055,
            0.009048473932419157,
            0.2855898844475215,
            0.1116834590828074,
            -0.10719116225077696,
            -0.13117288849234637,
            -0.09679535543875768,
            0.0793673029318943,
            -0.04398954541698278,
            -0.2697754331706706,
            -0.27449724839084055,
            -0.1903828076201759,
            -0.11648344284753417,
            0.01100367741244627,
            -0.02343408091220464,
            0.007311618382466264,
            0.01991820718848512
        ],
        [
            -0.308757357060119,
            -0.13501737628647337,
            -0.13726150498019618,
            0.1918305420377427,
            -0.24851455538747305,
            -0.04940569203720792,
            0.10649661047349682,
            -0.11912633942791682,
            0.1259387346265732,
            -0.005625768223009168,
            0.3927809328942748,
            -0.03202799874915155,
            0.2131831889068416,
            0.022628328501953426,
            -0.12803189417655603,
            0.04966754727836199,
            -0.005797622691697463,
            0.012228536774562225,
            0.016353476206724563,
            -0.0019016557765779596
        ],
        [
            -0.05539948059801515,
            0.44222921513627483,
            -0.022078576836539517,
            0.41446679233346373,
            0.0011388633785016772,
            0.001643506908794716,
            -0.0022398362685766655,
            -0.005097959482879534,
            7.3289445759930265e-06,
            0.00416061189536421,
            -0.015002541524420284,
            0.006166640616161023,
            -0.0038847411499129784,
            -0.0025003326198719685,
            0.004107944794740193,
            -0.005811606853135088,
            -0.013932119931589522,
            0.10270238065040703,
            0.0009532331111629824,
            0.0022486684669633015
        ],
        [
            0.17416480717624155,
            0.1650125424081854,
            -0.0026147078270323623,
            0.027000844379290328,
            0.14128047682435024,
            -0.13308234116373913,
            0.031615658268151214,
            -0.10212006960527574,
            -0.30252534843559475,
            0.34446356355627755,
            0.35466595859614625,
            -0.112940134694674,
            -0.11621054076695446,
            0.0415355997546571,
            0.15244401626436063,
            -0.06135117295390921,
            -0.016204715111062758,
            -0.00953202043380031,
            -0.03000402846541134,
            -0.0030035260352037404
        ],
        [
            -0.0014718438810610499,
            -0.001215325012625986,
            0.011306212890151645,
            -0.021669136291161146,
            -0.0020276974745488774,
            -0.0023810783913711117,
            -0.0026193301873913472,
            0.0004585030380465834,
            -0.3961486598816044,
            0.24138789171823116,
            -0.37002024541650447,
            0.16513923098836422,
            -0.0002116040488543873,
            -0.01762871204276958,
            -0.001937586516310982,
            0.0054778539391306495,
            0.0011146747176248332,
            -0.0037239269364680028,
            -0.1244534995419993,
            0.04661442327634698
        ],
        [
            0.46111978420772615,
            -0.07388879494392159,
            0.4295590614101742,
            -0.04891663920083222,
            0.009315141168572204,
            0.0038628921283637902,
            0.003862095863808156,
            0.006457697797152376,
            -0.005296653937961344,
            0.009180475998822123,
            -0.01309539602063316,
            -0.030291495191503634,
            0.004303734090504684,
            -0.007504085211950983,
            0.00045026016205008414,
            0.008276540643384487,
            0.0886915455508535,
            -0.015741355339941452,
            0.0023937044500305987,
            0.003388401976208599
        ],
        [
            0.3456232234861706,
            -0.5039197717665891,
            0.27737802910078346,
            -0.34903799419502196,
            -0.02026528553265771,
            -0.009856226094319432,
            0.0015420778568985857,
            0.007211909123910398,
            0.013258156417015953,
            0.014781220099746266,
            -0.049703805813239396,
            -0.01717652849916453,
            -0.012041700645868689,
            -0.018960092071801084,
            -0.007193314845947309,
            -0.0005167874629697918,
            0.08804986095803047,
            -0.08269890699596015,
            0.0005555526436724005,
            -0.0036313769521129973
        ],
        [
            -0.13997031976890736,
            0.013590424648715791,
            -0.4057559579078087,
            -0.03692569727034235,
            0.07355423343470659,
            0.023267995121074077,
            -0.0048070343997338736,
            0.2067421020058113,
            0.17349684003652938,
            0.09053300887038601,
            0.39836079837284644,
            -0.17653009480192317,
            -0.193453817542322,
            0.04561336970828201,
            0.08021820110804816,
            0.0513533860259306,
            0.020483218976783835,
            0.008749160371329175,
            -0.011401403567212387,
            0.03987410717413338
        ],
        [
            0.08355088357617506,
            -0.28619495523114347,
            0.14682555588096394,
            -0.11053061975062009,
            -0.157480135985164,
            0.2197308595774569,
            -0.26780935508611614,
            0.15633935027479312,
            -0.04012211831662838,
            -0.26457402798058066,
            -0.29176127791625184,
            0.23095645498897985,
            -0.0680100854082192,
            0.1549578827080079,
            0.11893092033501264,
            0.14532449798005584,
            0.04930861592224504,
            -0.0005778060198956353,
            -0.02884346101064619,
            -0.032921197927950695
        ],
        [
            0.07827659820433787,
            -0.04314593422026659,
            -0.05690559952849482,
            0.017720364336525744,
            0.05570651561326855,
            0.055477002944722756,
            0.2469985616920447,
            0.08484997198819837,
            -0.10151013050654421,
            -0.3177662423575369,
            0.17164191193201153,
            -0.3464397726215036,
            -0.2936225501464032,
            -0.048215566419837784,
            0.19144694894363465,
            -0.007990279775917734,
            -0.04380516223333853,
            -0.000873837350555049,
            0.022287970250165944,
            0.0029180004310935988
        ],
        [
            0.1799417170573987,
            -0.059908925735399556,
            0.19171190224469054,
            0.10548235358976189,
            0.26417105106823696,
            0.19987157691919574,
            0.021526665182393927,
            0.034200108538424555,
            -0.40020950694706503,
            -0.26983260263176967,
            -0.12197296758997185,
            0.11477634509516704,
            -0.0917912451403099,
            0.005746658886370561,
            -0.043145055108238406,
            0.0307104651821041,
            -0.03224593123811245,
            -0.010121660555142874,
            0.01754817726054162,
            -0.03583136610441844
        ],
        [
            -0.39929448202392215,
            -0.13634175965960446,
            0.2522346923418183,
            0.07760593003972407,
            -0.006243869989294634,
            0.008131825016232741,
            -0.0030790157418061985,
            -0.003068807365822652,
            0.0028173650826264587,
            -0.006555157663074147,
            -0.014976540684682784,
            0.0012695503539038135,
            -0.003065073709640446,
            0.00647291659136908,
            -0.00485199870262508,
            -0.004045845718068169,
            0.047236088042642524,
            0.017536676646279805,
            0.0034583994356115876,
            0.0065168333291497176
        ],
        [
            -0.14299384498718629,
            -0.1895321363434165,
            0.27161240830554806,
            0.5338959511618087,
            -0.16594861999241348,
            -0.12604682965987932,
            0.04322818616650421,
            -0.07322279788999586,
            0.17621476286630544,
            -0.036468185912494656,
            0.13694651174921696,
            -0.07922855797334645,
            -0.0890413094168054,
            -0.1656505198880691,
            0.17608056087200513,
            0.03241310876574998,
            0.015594926580954176,
            0.024830099577510135,
            0.005560274835509827,
            -0.0001883829539568954
        ],
        [
            -0.01846422651987845,
            0.15798133521722899,
            0.060661450385399024,
            -0.04816771592638355,
            -0.01944000291223511,
            -0.04444616764750166,
            -0.029387723343490303,
            -0.0030851168568759068,
            0.38140463821656234,
            -0.21015817582263613,
            -0.11187742928651485,
            0.43298871982086135,
            -0.4076951819524286,
            -0.16302812420813254,
            0.036641846384010815,
            0.05995247427629664,
            0.013474083997170924,
            -0.0015772219590505533,
            -0.002741837489187794,
            0.024257758625605287
        ],
        [
            -0.4281464055845749,
            0.06996273154806151,
            0.30086549619600866,
            -0.04039119456580355,
            -0.010748766622765764,
            -0.009874536700140797,
            -0.008402087936241332,
            -0.006379256078413517,
            -0.003139535654834284,
            0.005818243024143908,
            0.019122467596062193,
            0.016462679688823104,
            0.0038619175376105727,
            -0.002536990250340126,
            0.00048466065970768267,
            -0.0009853225678645686,
            0.08137713845209293,
            -0.019513046901078305,
            0.0022931989756482334,
            -0.0015755723738766065
        ],
        [
            0.01998838114544585,
            -0.05499156486481949,
            0.22242227595698275,
            0.0772683128858278,
            -0.06731105004548459,
            0.04299461009144233,
            -0.11463764065416514,
            -0.002444839951002813,
            -0.21863805945926837,
            0.2591402602641055,
            0.5010184320808625,
            -0.20892510150854876,
            0.17220791917383071,
            -0.050198873711686895,
            0.015901802159529046,
            -0.04965446265691221,
            -0.022405065169608072,
            -0.022535257508825905,
            -0.0019211701164163816,
            -0.01709888610838493
        ],
        [
            -0.09069529989915541,
            0.07294500222297218,
            -0.07777315642556731,
            0.11811547994882723,
            0.088010421557176,
            -0.28031208581547085,
            -0.0398601598297846,
            -0.009143496118323161,
            0.13305863230808399,
            -0.03646462942369909,
            0.4668014791917968,
            -0.2661837396818721,
            0.07033636528943302,
            -0.07878808176287186,
            -0.047154622223149034,
            -0.016735006354140835,
            -0.006305413052526868,
            0.024098580336106908,
            -0.01524983992037372,
            -0.025011073017080988
        ],
        [
            0.12980789005437304,
            -0.20000829243830617,
            0.2700803427010105,
            0.03364413030759575,
            -0.08240071824812595,
            0.11745854538550075,
            -0.003626044346917366,
            0.00451578858498088,
            -0.20783993708937737,
            0.5533951892561683,
            0.10421926153691427,
            -0.1316198254511742,
            0.03735836697436734,
            -0.019568652460477128,
            -0.028050726451287936,
            -0.005271241963164143,
            0.018832882419795985,
            0.002784696477459628,
            0.002493191397656814,
            -0.009226782449324799
        ],
        [
            -0.28068893008251755,
            0.08131202288164979,
            -0.3978699293880332,
            0.35944074384569996,
            0.06181273444020391,
            0.0606454473644209,
            -0.019818932040776966,
            0.06581426899722032,
            -0.14478316091767857,
            0.027947924944052866,
            0.2502664109459152,
            0.3962571248600518,
            0.18637430050510195,
            -0.03469043931981134,
            0.024067738480611847,
            -0.05606555991438874,
            -0.022874493555542535,
            0.07847197760293632,
            0.0009885535994727517,
            -0.0344848470185738
        ],
        [
            -0.1600600917515956,
            0.13984173593649651,
            0.22135358201629923,
            -0.028380221390409167,
            -0.16421062046321996,
            -0.07210151748669702,
            -0.14150067365100324,
            -0.02167101060718398,
            0.14272955509863533,
            0.012602596148469076,
            -0.5779880318103741,
            0.11189535506511006,
            0.2446758974195077,
            -0.044568729448060146,
            0.07576155788604204,
            -0.014018527217863576,
            -0.015133120669523945,
            -0.014794031773990638,
            0.005675757168485933,
            -0.02629241346506268
        ],
        [
            -0.20189368770551971,
            -0.24629337002710544,
            -0.30646296240495224,
            -0.039549885510405614,
            0.15091118777366644,
            0.21104237969885703,
            0.022925807744128945,
            0.02282967264065419,
            -0.03158501325210326,
            0.1894300160211532,
            0.3007249464736072,
            -0.23059917474951863,
            0.08464884280014973,
            -0.18588441627696245,
            -0.038455720117540323,
            -0.05074985358779846,
            1.110747501071545,
            2.7662247522934353,
            -0.004324008434770806,
            0.010531099426191771
        ],
        [
            -0.051852481246262884,
            0.2630133230426461,
            -0.4157413332634934,
            0.2507137438980622,
            -0.20498266509236646,
            0.0381433778096107,
            0.18727735592986822,
            -0.06211542564736325,
            -0.08476948915752562,
            0.01595632936428997,
            0.2988123960503336,
            -0.22609841662907187,
            0.0699126471776849,
            -0.27207833366356254,
            0.15203472235798468,
            0.13829411906201905,
            0.003772506819043729,
            0.020283086279563763,
            0.03515313756040121,
            -0.01729983407206872
        ],
        [
            0.21536859232854821,
            -0.25502208880259525,
            -0.13721229142393465,
            -0.14862190185615473,
            0.13973674732018845,
            -0.08230894494579495,
            -0.007925455686514317,
            0.08452355240167711,
            -0.04381721932110104,
            0.15188905882236234,
            0.11025951755636845,
            -0.019241394982242383,
            -0.12643408841082682,
            0.07201613987637415,
            -0.10578994805243554,
            0.030759950500887007,
            -0.005681271809980145,
            -0.003251256207823298,
            -0.023216157495551035,
            2.373969920215483
        ],
        [
            0.06535181331574101,
            -0.027649106773364445,
            -0.010505504605164235,
            0.016954913718317286,
            -0.06916081244212259,
            0.024957774200371013,
            0.006704674208704261,
            0.0016844437376125178,
            0.30497332723684334,
            -0.2949358117313437,
            -0.3705555026691873,
            0.32774003074630836,
            0.06027054837056138,
            0.004590379200868261,
            0.0018964180099901994,
            -0.01672710248091834,
            -0.004007671968959195,
            -0.005528284502092807,
            -0.09882370801995924,
            0.04899676523765986
        ],
        [
            -0.08538657723233094,
            0.03626772422427213,
            -0.01760283943752631,
            -0.3266299440680033,
            -0.25364359978701956,
            0.3054801944357026,
            -0.054053834425134804,
            0.04198676049571324,
            0.27230812798751036,
            -0.3344221995518535,
            0.4469787359186887,
            -0.38600371147894874,
            0.08007118490346526,
            0.00540463126729389,
            0.07861742194856729,
            0.028749184981754106,
            0.010418941768614215,
            0.004321886323004527,
            0.013247596986366373,
            -0.0003822448283631067
        ],
        [
            -0.008604273105932309,
            -0.002342600723077727,
            -0.0014400915073085451,
            -0.01147064165806441,
            0.007384528171078983,
            0.00422647238165564,
            0.004545964060901207,
            -0.005405055823404493,
            0.12753450638608382,
            -0.4714721668099278,
            0.11888789048613538,
            -0.46250278606859957,
            -0.00040027685695432963,
            -0.002098551234021575,
            0.006677856497951079,
            0.0003000858846342429,
            -0.014866837549427364,
            -0.006182576163657344,
            0.04452589171961531,
            -0.10549955340029939
        ],
        [
            -0.0784630336548629,
            -0.06973185618038016,
            -0.07858817389147162,
            0.18259375532212377,
            0.03084764117473324,
            0.06894995173992503,
            -0.04177509074869274,
            -0.05693891494362143,
            0.39684550206042557,
            -0.029522200922757504,
            0.5158852636543618,
            -0.16076456764992503,
            0.10750761555462109,
            -0.11436662398624642,
            -0.05161496066657013,
            -0.042059415522697985,
            0.005183578623086281,
            -0.018672820013339246,
            0.06213298453536852,
            -0.04512406022358081
        ],
        [
            -0.14947605588090987,
            -0.08111111588533776,
            0.46696052864777327,
            0.11214781559102277,
            0.2849991704833367,
            0.06630682834165577,
            0.02863826302611134,
            -0.20169501918112592,
            0.22649139210469713,
            -0.04137698028031509,
            -0.26907243705526135,
            -0.006901534917843641,
            -0.0018114589569216855,
            -0.06715952362118596,
            0.1085542756130773,
            -0.014928751068119294,
            -0.021782086283841238,
            0.024896327827908984,
            0.016097905923398825,
            0.020623789827677163
        ],
        [
            0.1625874088862595,
            0.42959361740174823,
            0.13987317843838412,
            0.33743223249404775,
            -0.006254576444528386,
            0.009249008730765885,
            0.0002385566549341566,
            0.00012931358639719733,
            0.0015198634962165815,
            0.00386137935428296,
            0.011109863627806749,
            -0.01005382131957233,
            -0.0010584890900568748,
            -0.004062642729795315,
            -0.003999972496570173,
            -0.0019478353301897507,
            0.026225274336437635,
            0.058240116465942585,
            -0.002272611895186419,
            -0.0014803129006147003
        ],
        [
            -0.057969942143758876,
            0.26987258785345747,
            0.10887027768583615,
            0.15893047112017322,
            0.2548375126402121,
            -0.05445468297693007,
            -0.1908868472279331,
            0.07460758080800244,
            -0.30881234340338704,
            -0.16555086101098265,
            -0.022474727961599644,
            -0.03556611043258125,
            0.03466309522718174,
            -0.03549477994868523,
            0.039269745416764784,
            -0.08902507674611519,
            0.023405590380990795,
            0.008300587606218006,
            -0.018287664325769077,
            -0.024188312083678373
        ],
        [
            0.17916654482224095,
            -0.1019332533500542,
            -0.24794886191890514,
            -0.5437838026501745,
            -0.20332614328342433,
            -0.04953732275294106,
            0.10938923753510676,
            -0.005088933000568464,
            0.2462011118504135,
            -0.017153148986002335,
            0.02779048845300218,
            0.1666743593834523,
            -0.3804200030452133,
            0.1160466284785884,
            -0.0447652629446012,
            0.018626083066164652,
            -0.01409185979810202,
            -0.02179539890229116,
            -0.01622992019915185,
            -0.027588371634099863
        ],
        [
            0.23826838042011714,
            -0.14679993269823216,
            0.28660541427100106,
            -0.11457141844087579,
            -0.15576715751343082,
            -0.026399563827036437,
            -0.06777321357072565,
            0.08536179546787312,
            -0.10674127742955777,
            -0.10414242195704859,
            -0.09048793892464858,
            -0.16697650409288095,
            0.02176187825519865,
            0.18847931030079473,
            -0.02231785651703761,
            -0.020237067694306384,
            -0.024288003768026967,
            -0.029848346840603272,
            0.05100532580632751,
            0.055932768113815416
        ],
        [
            0.15582395375004798,
            0.18501387550928722,
            -0.14876012392963456,
            0.6743667313764891,
            0.004296457071600344,
            -0.3845320205264945,
            0.05275502667585295,
            -0.00590428486895785,
            0.043846466750068466,
            0.08292703593289594,
            0.45909503681302394,
            0.2671324050956577,
            -0.2666073430056893,
            0.09999116118099564,
            0.0703491864831072,
            -0.08284544358601163,
            -0.0020652235510386723,
            0.009394324625206162,
            -0.03160532396420042,
            -0.0017764978373534484
        ],
        [
            -0.0028099284688970776,
            -0.027767236302367968,
            0.4939630000065414,
            0.20061593298457295,
            -0.24932077816339054,
            0.09462930152180281,
            -0.13463265945348693,
            -0.037625927434444616,
            0.21906996383279517,
            0.021752117436812927,
            0.2401396049378319,
            -0.1989433089719741,
            0.041903403440379426,
            -0.06470985319091647,
            -0.11794791166401535,
            0.01796991601311868,
            -0.03535723561484935,
            -0.008904671713856019,
            -0.08491490216078401,
            -0.1116252750787073
        ],
        [
            -0.07722719223132701,
            0.10568659746187128,
            -0.015415033074750825,
            -0.19489705987728487,
            0.131992352622989,
            -0.3772217933839894,
            -0.1400938093953094,
            -0.0338810478275813,
            -0.1479355463947234,
            0.24862643953998406,
            0.03126950810016807,
            -0.21482777417952298,
            -0.012263045064503411,
            0.020996365250936556,
            0.05544828353588498,
            0.13499076816675126,
            0.023708186835161914,
            -0.00046839855521492224,
            0.017023048231356013,
            -0.0036516140877499888
        ],
        [
            -0.48648281550427047,
            -0.44780399894491346,
            -0.2315616981239217,
            -0.20646635746714606,
            0.01680626776448341,
            -0.0005081613677112564,
            -0.004844432397018612,
            -0.006043497190188057,
            0.010625545116445628,
            0.016457088258686022,
            -0.01168802586853173,
            -0.003106685067581896,
            -0.007074552366157168,
            -0.017410807275918185,
            -0.0014229367267306894,
            -0.004406099199598731,
            -0.04161331847840979,
            -0.04248967227521616,
            -0.01202488910700357,
            0.005910053080958908
        ],
        [
            0.016270846076337334,
            0.008555868839534587,
            -0.03540236477595667,
            0.01903427956024684,
            -0.014979983717052819,
            -0.004448162892406682,
            0.0018387756282274425,
            0.0038146237592698367,
            -0.08700112775098345,
            -0.5529094741588032,
            0.07884833313472991,
            0.32467237936260435,
            0.0001012390581038545,
            0.018897133253692043,
            -0.006037720096493786,
            -0.00538971174374395,
            -0.0015748105684693925,
            -0.00632000785922979,
            0.022545933073209453,
            0.09014777038883076
        ],
        [
            -0.19973852425566732,
            0.14519399935274369,
            0.11743956711797059,
            -0.11913310164020405,
            0.0692801005470702,
            -0.20055547159408643,
            0.0780157829935435,
            0.07365044868008391,
            -0.18321129346549964,
            -0.1964499068350938,
            -0.48132878126661893,
            0.03214153130662211,
            0.2582109389205499,
            0.023294401232479132,
            -0.023245269986567913,
            -0.10609513335409851,
            0.020858454370267742,
            -0.012951111502567447,
            -0.026914580609778426,
            -0.024836228345506795
        ],
        [
            -0.14434582600103393,
            -0.004182301816585532,
            -0.15471570913054322,
            -0.15686345351933328,
            0.03329521005306154,
            -0.058119844414766704,
            0.014128075576634041,
            0.08398896294649018,
            -0.0799408522457004,
            -0.23563612676176945,
            0.2617604471472124,
            0.35750407135607865,
            -0.04986045832229215,
            -0.06618753675966323,
            0.006440159462932439,
            0.04490848141590389,
            -0.011772473921754555,
            -0.006835295047482088,
            -0.017200604941982334,
            0.053963721327252745
        ],
        [
            -0.02700491374399014,
            0.010877583353295776,
            -0.055044610136819445,
            0.049335498215064694,
            0.024079624130765007,
            -0.012149457593646263,
            0.007847136511557653,
            -0.004691220640531002,
            -0.1168441895747797,
            0.5454881615359134,
            0.0934627624201425,
            -0.6160044327624031,
            -0.026597897563785014,
            0.042119987285828185,
            -0.013823149717123215,
            -0.008786263528543881,
            0.010432504549417906,
            -0.0014312644254212557,
            0.021464562935603032,
            -0.10473134595366144
        ],
        [
            -0.16900804174578063,
            -0.1982322686522439,
            -0.43646983902666703,
            0.3035183325495382,
            -0.07343816081323529,
            -0.12878843825191313,
            0.38463293082029854,
            0.03129665080497977,
            -0.1765944768330576,
            0.13425805511625033,
            0.055375141343731206,
            -0.10456478921060676,
            0.24365322986683388,
            -0.019682246836382714,
            0.04068423383745998,
            -0.18277992446832897,
            0.00014535612067625444,
            0.04437155003741538,
            -0.00461683026247513,
            -0.02109192834071404
        ],
        [
            -0.11987465010236278,
            -0.02030868983655221,
            -0.4773057725354018,
            0.13656062711463973,
            -0.04626283422359281,
            0.1010844160481443,
            0.0211518463344575,
            -0.13650232484011307,
            0.050709222407656525,
            0.07930707380672437,
            -0.08718616011040428,
            -0.15511735794181816,
            0.13869939086790026,
            -0.19883456734676058,
            0.00918575883198092,
            -0.3531653861588771,
            -0.009614778324702965,
            -0.030719980447199376,
            0.021959555690334732,
            0.004531979132980624
        ],
        [
            0.061235908214995874,
            -0.26445653659724755,
            0.023836405312016827,
            0.28189766206604194,
            0.1719311494859733,
            -0.14524260598965222,
            -0.048787800222335045,
            -0.017836370520323108,
            -0.006307707788280692,
            0.23052153258972685,
            -0.15902890639792214,
            0.13532329071523613,
            -0.31768158972780763,
            0.15115241575497387,
            -0.04566313294809969,
            0.10297066321938622,
            -0.010812045270986413,
            -0.019692968731618327,
            0.010683189716249868,
            -0.01399630112030421
        ],
        [
            -0.39139787236225954,
            -0.1290053933353239,
            -0.16445618988282562,
            -0.3488885905369986,
            -0.03126480864624888,
            -0.0852649521649698,
            -0.022202739125866833,
            0.061590948219177516,
            -0.07839140170189529,
            0.2323480077009855,
            0.12841877019814052,
            -0.3253068825895005,
            0.18887789200224475,
            -0.15383499960786187,
            0.1036331562452125,
            0.02546261033000568,
            -0.021132324639706206,
            -0.013075698180051819,
            0.0034688451148876353,
            0.001190804502657766
        ],
        [
            -0.1530208188299363,
            0.1146097817422217,
            -0.17063510300707072,
            0.33113958350601364,
            0.178267025895237,
            -0.14397259860388723,
            -0.021090495427055368,
            -0.007347689786061987,
            -0.07198997454337781,
            0.1533484588904957,
            -0.4634113959999947,
            0.5306596382225892,
            -0.06550200441298386,
            0.018825900132839635,
            0.0969847809909957,
            -0.03871374304021596,
            -0.061887400499386895,
            0.00647522144635335,
            0.019286510042747187,
            0.0498392094212462
        ],
        [
            -0.3096480386965633,
            0.06198897910909126,
            -0.15329326450447356,
            0.28261180826639115,
            0.4223712319198182,
            -0.16687926301040193,
            0.07043639067579073,
            0.16146290970799515,
            0.04062922515222119,
            -0.22857865556195114,
            0.07830124578664874,
            0.029933162681862323,
            -0.05061710039422401,
            0.20611114201854508,
            0.15718150991160468,
            -0.17387061191082018,
            0.008192822335690651,
            -0.025660247175728925,
            0.019110780282414894,
            0.021967597784609095
        ],
        [
            -0.24241617068215965,
            -0.16677005285872054,
            -0.3176165687825366,
            0.2012602041163503,
            -0.002965580004740527,
            0.3141850013083897,
            0.0748542168169061,
            0.06694674502329313,
            0.2486109550705413,
            -0.2826092170269804,
            -0.25993408847688154,
            0.14338823262754402,
            0.04103715687496484,
            0.013963451414373159,
            0.04152484734316541,
            0.03943870341599495,
            0.007566459785599071,
            -0.009195242610075875,
            0.0032694542381434396,
            0.013762073851428866
        ],
        [
            0.18692613373513883,
            -0.3435506359828304,
            0.5195135776356694,
            -0.30723390509540394,
            -0.09908870145042668,
            -0.011767262152214684,
            0.021042690567377013,
            -0.13052955099411281,
            -0.05652355072994484,
            -0.0680280941275661,
            0.0415191860952331,
            0.17040143123021415,
            -0.05864855575128546,
            0.16071009629148023,
            0.03894859669530257,
            -0.03162444129759843,
            0.01532720834238651,
            -0.020573347610571727,
            0.02497149303795048,
            -0.04606706085388746
        ],
        [
            -0.0025949040415181573,
            0.004152069487971309,
            -0.4158249268520113,
            0.06414717433708864,
            0.146574460236226,
            0.06691816860870546,
            -0.05255920748532122,
            -0.2514587796595875,
            -0.19119734667788715,
            0.12677565172448213,
            -0.23652561699874375,
            0.408449611374062,
            0.09307043560519658,
            -0.11259647404531097,
            -0.06411927914160377,
            -0.044236705789190034,
            -0.020182202780828773,
            -0.010749778787894,
            -0.033457185499045576,
            -0.02011240483015539
        ],
        [
            0.17793568823847003,
            -0.4026565300216523,
            -0.2584796125706023,
            0.3749404558656754,
            -0.050680454610805205,
            0.1264990208561874,
            0.012050551479928931,
            -0.03944505948474916,
            -0.22217685430372114,
            0.027150121755176455,
            0.4129093083837541,
            0.3168322714397051,
            0.2542427630846675,
            0.11318706486981246,
            0.023368863189116303,
            0.044348155275922875,
            -0.014584093948124089,
            -0.002126039925032199,
            0.010874113730299824,
            0.006047350802236073
        ],
        [
            0.050265077839524976,
            -0.2104415617587811,
            -0.3705278438242959,
            0.01875042566058465,
            0.2980940486826042,
            0.2793156359897344,
            0.03661299979982408,
            -0.020059311257239094,
            -0.12101645493321322,
            0.02131112694338048,
            0.26599276866637184,
            -0.13400391749360804,
            -0.12376162163470623,
            -0.2636421131790424,
            0.059301300443361404,
            -0.07996526239462635,
            -0.0042646021826729715,
            0.002044366276356873,
            -0.0011474148240610837,
            -0.028668476485658165
        ],
        [
            -0.2414130386525968,
            0.20731143427690166,
            -0.0734558128272304,
            0.12916010882569265,
            0.08411765914049472,
            0.061863149044947274,
            -0.02864750201437593,
            0.09257094175743717,
            0.2840764941715247,
            -0.2907241000126047,
            -0.07278890715406966,
            -0.2356103233410508,
            -0.18621540040258475,
            0.079965797961505,
            0.01536341096390387,
            -0.05515991277396042,
            -0.01051303026832225,
            0.01115633761698333,
            -0.021411485750950025,
            -0.04964843354477564
        ],
        [
            0.20790636500958398,
            -0.07026553290937661,
            -0.06395536624655948,
            -0.06491711050398503,
            0.23849741989159204,
            -0.3505338440363046,
            0.0867961731737884,
            -0.07397153959859988,
            -0.11598690114164227,
            0.23705534757583385,
            0.1830586944115738,
            -0.24234008326370549,
            -0.016968652797029034,
            -0.017465615109190324,
            0.11036341993787628,
            0.00012230651889975452,
            0.010546811419819637,
            0.011383170104287991,
            -0.016582965763705004,
            0.011368962814990217
        ],
        [
            -0.3379771533504298,
            0.5602343659513492,
            0.13468897534489452,
            -0.26223080045309205,
            -0.007715820747520127,
            0.0014156081190698365,
            -0.005002396298403701,
            -0.0025763980863050236,
            0.0033305405146479223,
            -0.011443803722096357,
            0.0259710784052543,
            0.02036510818348314,
            -0.0053298313159551355,
            0.012976616550547854,
            0.0026663887104585063,
            -0.0033187970013140882,
            0.02178205959041836,
            -0.045503644170685455,
            -0.0012005713527370185,
            0.007526329910551566
        ],
        [
            -0.2512557134845486,
            0.19771439418589845,
            -0.5582300783498934,
            0.5308728836089494,
            -0.17468625458769885,
            0.11007203082078502,
            -0.060831135179400815,
            -0.049875537109189,
            0.12668207727853575,
            0.005018408132878916,
            -0.03475848111890519,
            -0.006029914278492428,
            -0.12377531592003002,
            -0.012102867177037216,
            -0.022068434731991632,
            0.00950640140163162,
            -0.051532804096839364,
            0.006941334873608589,
            0.01991019530176519,
            -0.011135519882567812
        ],
        [
            -0.05713628088279582,
            0.10617059814042183,
            0.02807361998281971,
            0.4191974310912006,
            0.08492938040827476,
            -0.3157479411071505,
            0.13487250341238827,
            0.009647066015333413,
            -0.07896264367026361,
            0.05039196176323938,
            0.19205634096665564,
            -0.2542706529764204,
            0.04994156823853791,
            0.2680548412150544,
            0.04275232307517747,
            0.24525884229675168,
            -0.02658643938631139,
            0.018997312634046453,
            -0.011485886322281862,
            0.02323151128743101
        ],
        [
            0.057629232921785394,
            0.1451024583346588,
            -0.259043847755002,
            -0.43321503360856684,
            -0.11508026882533992,
            -0.249386048059705,
            -0.07022311133356654,
            -0.06239186624916903,
            -0.16887952342443444,
            0.05598336730587065,
            -0.20507826875091986,
            -0.341384288021735,
            0.3338770048549054,
            0.04150690052673837,
            -0.05388616900736293,
            -0.05529965559331478,
            0.0018329257529337744,
            0.006982240882170125,
            0.03180932510848972,
            0.022741799858963303
        ],
        [
            0.08637924766921991,
            0.23821038591343005,
            -0.44579654313258416,
            -0.5576805061768308,
            0.11347091804845576,
            -0.16307252181020634,
            0.19443206005610159,
            -0.09515442141372346,
            0.20153815795937077,
            -0.14838742423752815,
            -0.18917253023630268,
            -0.5798645374244451,
            -0.1860777601925404,
            0.006209790275686693,
            -0.08446511897370955,
            -0.07750339925616147,
            0.0029882067253432327,
            -0.013167797750378761,
            0.029535687007914257,
            0.00038940539538419896
        ],
        [
            0.13772817928065392,
            -0.10749926509508406,
            -0.4431131757276216,
            -0.6463553949628099,
            -0.06895240467379504,
            -0.05109880772555504,
            -0.0041197919826353865,
            0.04423242238021274,
            -0.08022651668320327,
            0.19300005332533493,
            0.23480657548880982,
            -0.0868840301838941,
            0.046360276234396126,
            -0.26740636742525986,
            0.07013936321996428,
            -0.1582865135912603,
            0.03706685337302748,
            0.011739979290806309,
            -0.004867407103437534,
            -0.0031705465768766226
        ],
        [
            -0.01186168101687395,
            0.011148180282464523,
            -0.0040811894749335585,
            0.04801138430976692,
            0.01632219359441692,
            -0.006432623476669804,
            0.006512323455552062,
            0.008136512494015745,
            0.37381602300712413,
            0.33139845047150074,
            -0.38524603942049934,
            -0.465048801094451,
            -0.010332067630442103,
            -0.00986033496522215,
            -0.0022934377432963634,
            -0.008471107785619682,
            -0.006635612614307449,
            0.010063997552995458,
            -0.09865908179153826,
            -0.09165194233422402
        ],
        [
            -0.29644862200829997,
            -0.1722655317484624,
            -0.030557341387328144,
            -0.0020833885582642684,
            0.18195013102499047,
            0.1268887036335472,
            -0.0549632153584804,
            0.06512498396719793,
            -0.1313269855487579,
            -0.1695124363688601,
            0.04920185478336519,
            0.12872685085970414,
            0.17251866587814782,
            0.23825321855644896,
            -0.051119479443059834,
            -0.05828553761000722,
            -0.0069988131142515305,
            -0.016419563740805172,
            0.05082508271593733,
            -0.0019838965410605876
        ],
        [
            0.05341354599454136,
            0.25823086305611564,
            -0.15514159021106452,
            -0.23898955502259267,
            0.07323784864857391,
            0.018609886637177123,
            -0.17071163472540016,
            0.036982448621161804,
            0.1367313476255768,
            0.047265310275194795,
            0.22381723099829387,
            0.07938466517133531,
            -0.12867295213655405,
            -0.1626970658597047,
            0.030734691256766894,
            0.07985821103854242,
            -0.00869209382655464,
            -0.03679560561925796,
            -0.01374392012021367,
            0.01594593345787686
        ],
        [
            -0.025864860728553644,
            0.16633271754537707,
            -0.24714230014699273,
            0.012526377452857755,
            -0.033193334683646325,
            0.11968482853967143,
            0.014596018782646002,
            0.0927981458740979,
            -0.07036940999290427,
            0.33382104452319233,
            -0.46539122947862066,
            -0.5637156456979733,
            0.11701296512260756,
            -0.27234129214034497,
            -0.027857493217576777,
            0.037637645747620053,
            0.005933352372859852,
            -0.02231893144252092,
            0.013645921074424886,
            -0.004879767049697653
        ],
        [
            -0.06004338935388785,
            0.432874719567086,
            -0.1499400764223873,
            0.19087891595740925,
            -0.16664503934556957,
            0.2099503366085145,
            0.19920730483295374,
            0.013286110642853318,
            -0.11872228904769622,
            -0.44466406298834305,
            -0.2066393690970372,
            0.08482259132048639,
            0.1802711184749893,
            0.04600742515609091,
            -0.09366962618243066,
            0.05640509725217088,
            0.014625819568476927,
            0.004664285075938359,
            -0.04626490707546403,
            0.008514657151421445
        ],
        [
            -0.17822264864717638,
            0.17702381275408366,
            0.06257830612155788,
            -0.011415633389818283,
            0.2787401938854032,
            0.19684126085737155,
            -0.030476990336428162,
            -0.02826025731343143,
            -0.282364390726612,
            0.00852724939582161,
            0.15782447761102222,
            0.11441292599779461,
            0.11387515352591189,
            -0.4015874742351309,
            -0.020258969391630972,
            -0.07459987165267604,
            0.01831295797471142,
            -0.0030799879723063697,
            -0.006236865609503882,
            -0.005369418060984909
        ],
        [
            -0.3138030620133606,
            0.04239566735129612,
            0.4108784422433456,
            -0.41266677850860944,
            0.31282761153357536,
            0.002270314196613811,
            0.12631724171033049,
            0.0019596944580143045,
            -0.09928386055567752,
            0.2722714334275241,
            0.04573718636845812,
            0.22849931867819692,
            0.016147816765728597,
            -0.20236262129227464,
            -0.057069156967510824,
            0.05258130599398568,
            0.008962039882647045,
            0.0031302028742727387,
            -0.0046100034343775995,
            0.016748421786306783
        ],
        [
            0.1473746538077895,
            -0.01232480545378965,
            0.28918758709445735,
            -0.2406743437621944,
            -0.29595750987802993,
            0.2114286306107873,
            -0.16945394201916691,
            -0.00986703586248476,
            0.05418926147150812,
            0.21720703831760277,
            0.005260889830379091,
            -0.10657828336286738,
            -0.06577590681908492,
            -0.33336762538181597,
            0.13949774547177468,
            -0.06393212891919355,
            -0.021571568849079324,
            0.02361255925566725,
            -0.010499931094259177,
            -0.013795482806525167
        ],
        [
            -0.014278857119550173,
            -0.08797557763352891,
            -0.6024166613829882,
            -0.14609760348940073,
            0.32818813494335414,
            0.15664242347723292,
            -0.03764918526602423,
            0.06859327612648217,
            -0.3341986128503079,
            -0.05584019281389258,
            -0.5859743352140045,
            -0.11211061146453118,
            -0.003207604292670963,
            0.03540773881600929,
            0.12046210676792907,
            -0.05057053253456219,
            -0.005310423962991043,
            0.012463137309806005,
            -0.010898561444144804,
            -0.000459326140418364
        ],
        [
            0.14081221520713386,
            0.2724993379334937,
            -0.07242589294311509,
            -3.582523167532276e-05,
            -0.004027740924765918,
            -0.29636700132610083,
            -0.07327973394192631,
            0.13075433150954896,
            -0.11329753847608956,
            0.1925896327956868,
            0.2484486554580666,
            0.24526846152897702,
            0.004540813309866314,
            -0.09790680656872942,
            -0.08075047283314966,
            0.17049963216637198,
            -0.0011521693753505512,
            0.019742356219285946,
            -0.013496682048861284,
            -0.002202784553368647
        ],
        [
            0.04586040726495858,
            0.012671777342341027,
            -0.012941521743044035,
            0.3229783067539622,
            0.055231400439198705,
            -0.016148073585421887,
            -0.09250027578512435,
            -0.03753057601692395,
            -0.19110233788197908,
            0.2575243737423602,
            -0.06835541493067591,
            -0.4566823757421992,
            -0.01028114444264094,
            -0.05422222351726853,
            -0.03800968006710206,
            0.07243955362561455,
            -0.023293725947578673,
            -0.017613832480075406,
            -0.0034469905507923306,
            -0.018443087403992673
        ],
        [
            0.20919403930320515,
            -0.2274059421235516,
            -0.4431913328173313,
            0.5784761028059279,
            -0.0210019421356252,
            -0.06961698060480338,
            -0.04630266068367001,
            0.0733728112944129,
            -0.25538532989477813,
            0.006847639247004429,
            -0.5047350106017031,
            -0.10071425584271401,
            0.15385424180317142,
            -0.015330893142032296,
            -0.01875126313786466,
            -0.03921548560073506,
            0.002423348242882875,
            -0.0018127399969091527,
            0.009898539942801796,
            0.010068181273228359
        ],
        [
            -0.18282577587114815,
            -0.009409551837854345,
            -0.306182074752447,
            -0.07348917224032357,
            -0.353510480841698,
            -0.11826761664729807,
            -0.1318546033224593,
            -0.12819928910106787,
            0.5030054617176491,
            0.0970482133141758,
            0.21362554903538056,
            -0.0014930422112352996,
            0.07567331972337969,
            0.0069827562836627865,
            -0.07483577355156946,
            0.09041521415003885,
            -0.009929131186002962,
            -0.01345018089990752,
            -0.01534416720480743,
            0.03568136301745202
        ],
        [
            0.19194498887456257,
            0.011702417257915437,
            0.0981534178925909,
            -0.0021766663095621917,
            0.29809838225024476,
            -0.07208744060356428,
            -0.026688277369027527,
            0.03694637892643832,
            -0.3310538013306395,
            0.15736047227630748,
            -0.08296471534317161,
            0.018744616211253888,
            -0.23078311172336258,
            -0.19257374529023277,
            -0.008596803551862233,
            0.05546105914697824,
            0.021341719954320118,
            -0.004399754382858653,
            -0.01048932018303664,
            -0.051545367055778606
        ],
        [
            -0.011994141930235049,
            -0.16999673774000165,
            0.2619865331896182,
            0.06472983938537105,
            0.07922200297342537,
            0.06016019976048867,
            0.07061831245934008,
            -0.0002320891030786558,
            -0.30766139182209623,
            0.30140431528786676,
            0.38174467234307086,
            -0.3510653811413338,
            -0.020334553943624146,
            -0.257132969187404,
            0.15659710500453758,
            -0.13253170573447956,
            -0.018257257569085604,
            -0.028291702491570796,
            -0.044425984860100715,
            0.031861238560003606
        ],
        [
            0.07861014774998483,
            -0.5089636376412856,
            -0.06792486775517122,
            0.36801994725180925,
            -0.0055731264522127675,
            -0.007377288970027758,
            0.003651815472074002,
            0.008336280422212773,
            0.00047480097369878647,
            -0.0005907486952118472,
            0.015219753199843417,
            0.005895808117769565,
            -0.0027381146217137636,
            0.0029379088630271913,
            -0.007334834268183305,
            0.004389703020010631,
            -0.002339944846153493,
            0.09084720803825881,
            0.0028420274141202307,
            -0.006022020187831993
        ],
        [
            -0.03809955440423325,
            0.2268007885394598,
            -0.017479226041267455,
            0.18865334041271675,
            0.05599588129371685,
            0.1313985421077674,
            0.06737067394646218,
            0.15504359804872286,
            -0.00844323870209309,
            -0.3914705542553733,
            0.2820359818751009,
            -0.4572588336285878,
            0.16490776051610714,
            -0.07348247926531405,
            -0.05651336075332524,
            -0.10499234817856364,
            -0.020075004595674396,
            -0.01505084423348128,
            -0.0010493984993924115,
            0.0006474094706911854
        ],
        [
            -0.09368455141393243,
            0.011714257656493931,
            0.01617990030719393,
            0.2564812304014262,
            -0.13939770847678482,
            -0.27538770746758573,
            -0.015629928635645624,
            -0.010142388843975798,
            0.22530706173755116,
            0.22611450364928615,
            -0.5392021565025727,
            -0.2228142806346065,
            -0.1968611187828418,
            -0.09703860144537643,
            -0.007502963599416226,
            -0.05140571123512423,
            -0.0026483633509486507,
            0.010226683823017673,
            0.02195323879950516,
            -0.013149240123172128
        ],
        [
            0.002891066860814548,
            -0.013452537662676125,
            -0.021281687103249868,
            -0.013520971239393458,
            -0.005305863865050557,
            0.013309491148568943,
            0.0022969048543613245,
            -0.0010725044406294346,
            -0.27581764678567117,
            0.36711679424317956,
            -0.23382124758230866,
            0.3241203633538946,
            -0.009906773426630235,
            0.004452517252176488,
            -0.0018699572940493224,
            0.006055580439485893,
            -0.0007400992335610439,
            -0.0014006154640355247,
            -0.023819942285733545,
            0.06836371837829995
        ],
        [
            0.43808604605579304,
            0.3931408339914515,
            -0.1606787538836381,
            -0.17509382044238384,
            -0.01353148225569235,
            0.008991212062073557,
            0.005962605641900452,
            0.0004490490993412916,
            -0.0024473149876288033,
            -0.011644958022755818,
            -0.003075045948470832,
            0.013327771177649338,
            0.0011873743605726136,
            0.011068370000092021,
            0.004759504727819723,
            0.003949054684974783,
            -0.04515010349533769,
            -0.04880504469902186,
            0.007412323410988276,
            0.00028428263357422
        ],
        [
            0.5123685091301208,
            -0.29524710087877315,
            -0.2947324760820653,
            0.20036727275482438,
            -0.0024628726921717315,
            -0.02623489932543388,
            0.006157716517427155,
            -0.005390349830936381,
            0.008001377183811813,
            0.013315744888213302,
            0.0047324786207809865,
            0.003043841955134126,
            -0.00956926327276463,
            -0.016273455629041464,
            -0.006520457556149775,
            0.0005126858796400392,
            -0.06590241896557832,
            0.04272226837675015,
            -0.0046436488509485506,
            0.005347304182871674
        ],
        [
            0.19830041797937012,
            -0.23018600501508185,
            -0.47674090826954235,
            0.5931675337604109,
            -0.12005406630034586,
            0.13214811338841967,
            0.007084794094311433,
            -0.02323913066178901,
            0.22716165799940055,
            -0.06491327520982673,
            0.8392881687578356,
            -0.0855503589447183,
            -0.2802700481004518,
            0.14259067858224903,
            -0.05521619520930228,
            0.10030518686620368,
            -0.018212458547489672,
            -0.012643464392386797,
            -0.002519845583080468,
            0.023243583338573858
        ],
        [
            -0.029021992885571092,
            0.0215646330666446,
            0.04021315530319879,
            0.03205343354980478,
            0.035891447531415925,
            -0.02554013675080627,
            -0.0007771659520109658,
            -0.005929275309108143,
            0.3315125708368047,
            -0.4636528255618058,
            -0.3254813023435973,
            0.34452350264379134,
            -0.016077699506726988,
            0.016863793940129594,
            -0.0027495447790011657,
            -0.0014739682557469288,
            0.0012479911014414422,
            -0.0023417155842905845,
            -0.050619556627141946,
            0.0755024180964996
        ],
        [
            -0.05855974508462797,
            -0.04508591674147584,
            -0.09608076497127398,
            0.09622056303969562,
            -0.3018275314189052,
            -0.2996577235608633,
            -0.006872330486568428,
            -0.022584003656735088,
            0.25625205698214865,
            0.24092313589855377,
            -0.21286931966455291,
            -0.20157464728742377,
            0.11901070091258782,
            0.0868765839598283,
            0.03207073748259762,
            0.05916004542304045,
            0.009484762733885935,
            -0.02462236648512986,
            -0.012947090541395976,
            -0.014782486057393138
        ],
        [
            0.3239097721683725,
            0.165518954840744,
            -0.509573530194413,
            0.12358046499967743,
            0.001384674867561862,
            0.027416319687233896,
            0.01892206992172284,
            0.07672162517830357,
            -0.08377064104187106,
            -0.1820699004120955,
            0.11571128432107049,
            0.19311063385260416,
            -0.2278883340626216,
            0.09203181482921167,
            -0.0024137292039482154,
            -0.10786033660722913,
            -0.01698080162519241,
            -0.014587848777770553,
            0.004226425222013325,
            -0.010442012641558944
        ],
        [
            -0.496422947143622,
            -0.1661024569654293,
            -0.3567637570857347,
            -0.11997573122312832,
            -0.008565669280311865,
            0.006593557317784294,
            -0.004069421432526825,
            -0.0025466921074766553,
            0.004719545754724517,
            -0.005411747334896652,
            -0.003677840588139249,
            -0.008885739564087532,
            -0.004063656497233085,
            0.004787919386440288,
            -0.0018583337136524824,
            -0.0014982510786762482,
            -0.08502165753226992,
            -0.020602733034339498,
            0.00379176238926893,
            0.004484802949914692
        ],
        [
            0.029023773772004952,
            0.045951102626847644,
            -0.10296404382689894,
            0.0724780406974924,
            -0.039738248979869654,
            -0.04488709827616872,
            -0.008412237091648369,
            -0.005948305321510224,
            -0.0551606916503846,
            -0.4925947355509275,
            0.029893936158938098,
            -0.4580478440388938,
            -0.06182718719623255,
            0.054185917000590424,
            -0.027879930289222844,
            -0.002440383310648668,
            0.004335462846291607,
            -0.011348325480848246,
            -0.01880094146938424,
            -0.060407946893794924
        ],
        [
            -0.20395369977181985,
            -0.09329636616132614,
            0.3867061947315783,
            -0.2538042561705752,
            0.04525430665977738,
            -0.14258881422911554,
            0.044725719448950645,
            -0.17670448550315132,
            -0.12380009847482767,
            -0.07310063919269574,
            0.08214125596168861,
            0.5013363836039801,
            0.14302541600179416,
            0.04911188815163789,
            -0.05375486904925726,
            0.04053656136734835,
            0.0005667941976429732,
            0.013466229225692515,
            -0.007375261346844321,
            0.04655920484360654
        ],
        [
            -0.04590986747190006,
            -0.18249516585771322,
            0.3801209723230423,
            -0.26254004285043053,
            0.037371061054076296,
            0.3144246157353792,
            0.026304973486910285,
            0.03768307935682744,
            0.004441595209749507,
            0.06512936550108914,
            0.2800339896286914,
            -0.11891468643231295,
            -0.022404834959358903,
            -0.1099375876786088,
            -0.026495015867144475,
            -0.298070276263971,
            -0.02553043601043325,
            0.018020174994619036,
            0.002484911429243161,
            -0.04796157087791913
        ],
        [
            -0.29151062033470065,
            -0.3132526207062542,
            0.492637903028513,
            -0.0018815521530883325,
            -0.1984126295845868,
            0.2619615379616149,
            0.07818710056112393,
            -0.09504810393767332,
            0.21001147005742035,
            -0.20438716405032537,
            0.18876199816038858,
            -0.055326892999167356,
            -0.14865868975922397,
            0.0661150410717778,
            -0.036161363766879055,
            -0.14297927945142042,
            -0.0012975460753928024,
            -0.014858171693074072,
            -0.005681291194734536,
            -0.0339855062210327
        ],
        [
            0.024084045462443603,
            -0.015516009437871481,
            0.009614307664956549,
            -0.020483489445166432,
            -0.022888952405752987,
            0.01423836807209276,
            0.010437233348603971,
            0.002106710639001201,
            -0.46692490696194144,
            0.14699737335004998,
            0.42562835787303904,
            -0.17443439425829046,
            0.009518034381969137,
            0.0017364007189811254,
            0.0039726590824234985,
            0.0011266628614275322,
            0.0005474630332845394,
            0.005252082075079752,
            0.07922175524106355,
            -0.029028693762956286
        ]
    ],
    "h0.bias": [
        -0.07184044033097652,
        -0.018147424521424014,
        0.13531848591023615,
        -0.4257583166689358,
        -0.2732230126461762,
        -0.1325201883974412,
        -0.7811517049177304,
        -0.06446420411112828,
        0.09085788801490352,
        -0.3747781602018791,
        -0.14515262353169892,
        -0.5962070350434614,
        0.20819525911338446,
        -0.3431409676839773,
        -0.03343185301534131,
        0.11214390761070676,
        0.2619306883319394,
        0.2540042163752166,
        -0.36209930945711527,
        -0.381881822656324,
        -0.3413383520084196,
        0.006443924197647472,
        -0.8778557136347513,
        0.29846988453072404,
        -0.11070209369836664,
        -0.6813320684611586,
        -0.7555308973055294,
        0.04568427184089901,
        -0.2980511656395398,
        -0.617591192361084,
        -0.4296179722006126,
        -0.13000653001218182,
        -1.0818720776325388,
        0.039783601870882854,
        0.1042752840850964,
        0.15776494500651986,
        -0.15398907495400008,
        -0.420491705419171,
        -0.03898492535051813,
        -0.11403730146508888,
        -0.035131956418935004,
        -0.3268688965426923,
        0.4529035806916624,
        -0.877369833392782,
        -0.2356908956510642,
        -0.02496327942876237,
        -0.23192403026162273,
        -0.40577929930168805,
        -0.32101800680559184,
        -0.05580921896971747,
        -0.6668822312301843,
        -0.6738976841273909,
        0.001338655045493888,
        -0.0386055163200859,
        -0.22545328574876017,
        -0.12150731630174469,
        -0.14421005973950687,
        -0.2226264400275878,
        -0.5129544586235768,
        -0.5095752513142716,
        -0.5138341034168149,
        -0.01810157111252524,
        -0.17782711695785056,
        -0.1400334000824191,
        -0.1525412554543104,
        -0.19265454835824816,
        -0.29448926390135527,
        -0.6569695318917236,
        -0.738996724920024,
        -0.03734244515393367,
        -0.15290498685906426,
        -0.380805282731597,
        -0.5787924629918915,
        -0.30819319335115697,
        -0.2039714930782874,
        -0.2910199164952347,
        0.17184546185469854,
        -0.40500545994399495,
        -0.42698311066826583,
        -0.4417643946605853,
        -0.2744962776203416,
        0.22506103692814253,
        0.002550761160694685,
        0.1406611938555747,
        0.033052371455293245,
        -0.5058479921728409,
        -0.5167192986950038,
        -0.00787823829447052,
        0.03432265962473987,
        -0.0808995799960602,
        0.22807596298350766,
        -0.019672839288864666,
        -0.12082791273778906,
        -0.589858042189516,
        0.09147375341960547,
        0.08517717150297537,
        -0.2527219777666737,
        0.17711064831907047,
        0.2715571327851831,
        0.024554419073127158
    ],
    "h1.weight": [
        [
            0.06257382618738541,
            0.16237936662152966,
            -0.061523527633722756,
            0.05490365527810915,
            -0.25747015575211374,
            0.0018432612268456843,
            0.053322544401096995,
            -0.3020083170305575,
            0.010376651311834727,
            0.07074281828439007,
            0.10321969303116045,
            -0.024310478828114327,
            0.0254762371066123,
            -0.05604034683842248,
            -0.21902299380702192,
            0.07557513627516839,
            0.04705450937178205,
            0.06755787814178693,
            0.06498854192204669,
            0.14906892875641278,
            0.028215512760673113,
            -0.05689720296087837,
            0.03851570488208547,
            0.05400903551064276,
            -0.18530961953009983,
            0.09898186126582854,
            0.014773986851914127,
            -0.04139974482038604,
            0.05666023344884743,
            0.025596047344099173,
            0.003255140255434967,
            -0.14016515847102798,
            -0.04181231155047763,
            0.10992239638529175,
            0.15163934123289274,
            -0.016553628316854575,
            -0.025142942426212213,
            -0.04971162517277494,
            -0.01809590059408477,
            0.054572988058115494,
            -0.057782782423173466,
            0.03702169080491439,
            0.052456291245378074,
            -0.030394977372017285,
            0.04996191711052864,
            0.20345669854995188,
            0.007939329214206732,
            -0.1954549578675238,
            -0.0023394607276202625,
            0.23643125249241728,
            0.11336253402095638,
            0.19328056419587336,
            0.030655132116257203,
            0.2629836450370507,
            -0.02283601780515028,
            0.07458838159057209,
            0.09112847395989322,
            0.05975735039552095,
            0.048988577014640176,
            -0.06292094730035594,
            0.10614688887385242,
            -0.03088200935442783,
            0.07695258756293463,
            -0.10379787234939325,
            -0.24517363122835795,
            0.24671710727941962,
            0.22345418516163598,
            -0.23969212901751288,
            0.27392413536851573,
            -0.32493362705708617,
            0.03604129265167179,
            0.0984615682891913,
            -0.022794672183622095,
            -0.2845374211744511,
            0.13003877127272187,
            0.03512637058925959,
            -0.13868388538256962,
            -0.45975725735147055,
            0.027593740769523117,
            0.030111171124500357,
            -0.33520363789281943,
            0.14192396185581335,
            -0.013706305453713808,
            0.389236163932296,
            -0.23711794872620973,
            -0.11310637900931494,
            -0.3161653969209865,
            -0.2952493161956591,
            0.011558508402330497,
            -0.15881112978007444,
            0.279325419729497,
            0.1865372046621921,
            -0.4076496001518692,
            0.09969072444709265,
            0.07001462606870301,
            -0.061230088106017176,
            -0.1397662228958971,
            0.14916122636059648,
            0.15261815378887925,
            0.12681849717122812
        ],
        [
            0.095668990541537,
            -0.16835434002942978,
            -0.11881199972355112,
            0.10573223111673903,
            -0.0017329153038923599,
            0.035036871030072705,
            0.10801627027074606,
            -0.03371259688387533,
            0.017638670813596977,
            -0.3206097304248835,
            0.22463653653489488,
            -0.26426628965091714,
            0.04865883447365006,
            -0.15212113781634906,
            0.17112192400971088,
            -0.14564787930449996,
            -0.07988024462298038,
            0.07793105888993793,
            -0.24161832837420524,
            -0.24403845588067627,
            -0.08142081572573558,
            -0.035861147435727755,
            -0.037764980942678425,
            0.07347568588736382,
            0.16075272501439733,
            0.08630388908653344,
            0.39223208195638837,
            -0.06417243089519466,
            0.0272890657704917,
            0.06004124365938858,
            0.038201223751629716,
            0.20104245604971221,
            -0.027084934483665304,
            -0.0329312133018871,
            -0.07126708054851161,
            0.15534817920181745,
            0.17270160560835043,
            0.030872089225414345,
            0.10812214917297414,
            0.27953744073158926,
            -0.007354210887275846,
            -0.03199037663266292,
            -0.1062114519859471,
            0.14920307663588875,
            0.14080124007652006,
            0.06605006947946797,
            0.03844952400758334,
            0.10247893503559144,
            0.079140887597253,
            -0.25873670790352554,
            -0.03850527692112458,
            0.2678642937603482,
            -0.05767543755239764,
            0.15319641454187888,
            -0.04630887682746366,
            0.16441354129058913,
            0.041520208226194864,
            -0.4081342055626585,
            -0.09348970583014408,
            -0.15929249157227773,
            0.0029001648858735817,
            -0.11920840093585014,
            -0.2795586821352632,
            0.09889719035167951,
            0.03853140320480467,
            -0.19047194470997314,
            0.0707833674915736,
            0.18749150702343126,
            0.3302352892143119,
            -0.12868350464443482,
            -0.12485366648158461,
            0.0032684265316196546,
            0.08806326008965668,
            -0.12404181187730941,
            0.26036383061630464,
            0.04917587479512186,
            0.20160520716178734,
            -0.10157157161883994,
            0.07628855958369754,
            0.019601983954907067,
            -0.10633337857081858,
            0.10984975885847664,
            -0.01518813959096903,
            -0.15438933744036548,
            -0.22135914583198696,
            0.26838439941404246,
            0.031020605039905582,
            -0.14290592371333116,
            0.08091693262887337,
            -0.05914896944398001,
            0.01476169471070334,
            0.05135736612761563,
            -0.007775671490317732,
            0.08542092991244939,
            -0.0317091735207634,
            0.05616327945458275,
            0.08623020313590549,
            -0.03874281537925105,
            -0.15675591938823982,
            -0.11943185295121006
        ],
        [
            -0.010162831985965804,
            -0.21900659055820454,
            0.130346674860773,
            0.05813766835681901,
            -0.32446132552789736,
            -0.01833268540751693,
            -0.13082526347933818,
            0.06626983201762297,
            -0.25593641225150876,
            0.1229537472231473,
            -0.023910935225116045,
            0.10800293141328073,
            -0.11998518242511214,
            0.04473854953451402,
            -0.5696825866641089,
            -0.08408298686259479,
            0.0010757045093928756,
            -0.014035194441206716,
            -0.01779860442486107,
            0.034833551092108096,
            -0.10328161758085393,
            0.04728766010639363,
            -0.03932756153132263,
            -0.003935805358486914,
            0.005158849826265975,
            0.03614742597225237,
            0.11064968772026053,
            -0.0693878200439083,
            -0.03425475512536451,
            -0.03421375313817435,
            -2.5953197829805513e-05,
            0.013259155634304196,
            0.01335253711091497,
            -0.08153911714908807,
            0.07654299495984357,
            0.49117571596780374,
            0.07037015146095008,
            0.02045310684610508,
            0.03541267274321796,
            0.02737980884208017,
            -0.05781453122941002,
            0.06327594342879427,
            -0.08009411016537768,
            -0.0021773606972459556,
            0.044388895558675284,
            -0.1704062373918692,
            -0.15909049752419233,
            -0.09140346039077543,
            -0.0002933429436197593,
            0.08667592962858378,
            0.024363937635467858,
            0.06863308712279761,
            -0.09751548106311655,
            -0.01840345715992545,
            0.11516482282555547,
            -0.012121079266798555,
            0.03794394060642384,
            -0.05049432928540602,
            -0.08299054213245341,
            0.03513474091316415,
            0.0032643053088584496,
            0.06713795502472537,
            0.013079564363474587,
            0.08685240445860952,
            -0.06005749362810638,
            -0.04967973455607285,
            -0.11934616385269434,
            -0.03324355696363285,
            0.03702541081231278,
            -0.10117004171740017,
            0.008987323443883396,
            -0.06326478850484832,
            0.03292595461556487,
            -0.07997541713524166,
            0.04285124204724892,
            0.06385191804206092,
            0.040266821732138615,
            -0.09288393587667591,
            0.01656022170628349,
            -0.011996600693725547,
            -0.26349237023675504,
            0.10825636807063174,
            0.0424374481692878,
            -0.039617205605176585,
            0.04437412847435685,
            -0.060783935497083205,
            -0.02840068674691037,
            -0.08708088866865676,
            0.1423816870956722,
            0.15757676075343768,
            0.1314554620454826,
            0.06994546840422278,
            0.05252371271671234,
            0.029924924488639676,
            -0.045235625664071084,
            0.18876157776921212,
            -0.010611390083543063,
            -0.03626230659526342,
            -0.06284461518143272,
            -0.34319361311918795
        ],
        [
            0.2422300918879959,
            -0.13654337461302976,
            0.2514695770825172,
            0.044362087919386825,
            0.23399788657139958,
            0.050765631704537746,
            -0.017921690212931503,
            0.04683079484182597,
            -0.014251093506450098,
            0.09965282239472077,
            0.10260703490710531,
            -0.043479372211627315,
            -0.06026450996311322,
            0.04728401516468406,
            0.16993928675603256,
            -0.24624381654193925,
            -0.14385426392325218,
            0.041366276956324596,
            0.10913379686842584,
            -0.006749187157620259,
            -0.0005859311704314669,
            0.2404381853380242,
            0.11604208981476848,
            -0.021132016047391712,
            0.1850156798924531,
            0.019267490409288116,
            -0.04313772552994857,
            -0.018724774240131407,
            0.06215747073011578,
            0.03008941830135737,
            0.014746689824236164,
            -0.014023986330366046,
            0.019208110358674948,
            -0.18926048399516526,
            0.05581411206489637,
            0.2804039912432221,
            0.06978300729565577,
            0.0735274514655443,
            -0.21751187326041702,
            -0.024202704508567034,
            0.018558339122783426,
            -0.08188891969597813,
            0.06809877888524152,
            -0.01532002312887494,
            0.04226266307704242,
            -0.26162155780740776,
            -0.185146471421381,
            -0.06483283062960692,
            -0.0738882662909263,
            -0.11251174700512064,
            0.0024552500010878316,
            0.026199572572243746,
            0.04504709456125462,
            0.08227915204114776,
            0.08669421928851385,
            -0.09982529496558681,
            0.02742908615083043,
            -0.011573301223851737,
            0.0072761335487398805,
            -0.017312842748566776,
            -0.01587546717065376,
            -0.007865139198803045,
            -0.014857129595839104,
            0.06471179747944202,
            0.01275407337420061,
            0.0022371331433267477,
            -0.061657634227303776,
            0.07767361445960025,
            -0.01586982110198015,
            -0.1864265959711531,
            0.034084609420074345,
            0.09854012965317929,
            0.09466452139738184,
            -0.008788870521141698,
            -0.04746108146637052,
            -0.05322244603770857,
            -0.016491244764215134,
            0.05237184254116873,
            -0.06092584687108438,
            0.0014561825823182478,
            0.13234699264470026,
            0.06191749874594935,
            -0.016466932413375008,
            -0.021717530958123326,
            0.22477414223118158,
            -0.03149515069177101,
            0.05921261972342485,
            0.13502774138754195,
            0.29548878035407367,
            0.1859158113148525,
            0.05336778524532514,
            -0.14671621679039437,
            -0.01819661491879798,
            0.016483785347865345,
            -0.21078424436449172,
            0.15067457991320335,
            0.025873296788700557,
            0.05267856244436939,
            0.062420428841828315,
            -0.1437380957570356
        ],
        [
            -0.5645868785297534,
            0.09567884767316152,
            -0.006561605511149021,
            0.14741839371190898,
            -0.06439207186899698,
            -0.15912159872888212,
            -0.016999671297899855,
            0.23643586258527954,
            0.006782949728269551,
            -0.04331467175808919,
            0.09570740001697496,
            -0.12199347088833695,
            0.10887873132081319,
            0.15691147144664774,
            0.0486784442008169,
            0.05052143219977896,
            0.02387011144351965,
            -0.14851157225414008,
            -0.09256481394348608,
            -0.06228338165992105,
            0.157512730001375,
            0.15099421935496435,
            -0.27336891258452095,
            0.10078349424707309,
            0.18436429022948922,
            0.42257670494899835,
            0.33294011321544886,
            -0.13460293124457573,
            -0.0012880211082883374,
            -0.23190595001125647,
            0.003644292412840084,
            0.1921295260211032,
            -0.004420210728250595,
            -0.061854527247119796,
            -0.11579507746366026,
            -0.06551497571050394,
            0.044878886328476766,
            0.2952499687286175,
            0.05771989087345855,
            0.011453294605691564,
            -0.11174571272817344,
            0.0952834190988549,
            -0.022606483522519778,
            -0.008123371439832548,
            -0.19372030893275521,
            -0.02089853631556718,
            -0.10511508560829994,
            -0.30277412889123445,
            0.0837048528464868,
            -0.36870583581779176,
            -0.7634260257647753,
            0.21381703225719426,
            -0.00047419729016071765,
            -0.23445638336802938,
            -0.2830998602975475,
            -0.1442540526014249,
            0.24231468873199163,
            0.0021454710902104102,
            -0.09310672425740163,
            -0.5916928345091786,
            -0.16134461964811603,
            -0.14033486161592867,
            0.1775121999597963,
            0.0564660791389755,
            -0.06545068232135236,
            -0.11963374168406447,
            0.046952902819433595,
            0.18410781890803546,
            0.04476386615090973,
            -0.23010965188340898,
            -0.18606379920194302,
            0.05516726082688173,
            0.03457938276476797,
            0.1208597020456178,
            0.03891503548212503,
            -0.09045612350636595,
            0.29744039308295217,
            0.0730629142671615,
            -0.0964788256477381,
            -0.10162279018877286,
            0.030869909694417424,
            -0.07924215087123418,
            0.21869064513142766,
            -0.19915736180814117,
            -0.11855918054945175,
            -0.10841417790505593,
            0.24206878152808362,
            0.11501743818935799,
            -0.08004607697170228,
            0.1037661640457387,
            -0.43176969827507433,
            -0.007245524826841886,
            0.21957607773314783,
            -0.11377110171537387,
            -0.09625098069283791,
            0.035669734514819085,
            0.029978557283738286,
            -0.032287605994471065,
            -0.0032155160827434435,
            0.04844739679092744
        ],
        [
            -0.12584055374732311,
            -0.12692478631424892,
            -0.06992835328682914,
            -0.4003463301363487,
            0.30568467324879445,
            0.08201375966620235,
            0.1806031006647481,
            0.12397881294468324,
            -0.2794820820158893,
            -0.45453177714918847,
            0.06546098581839443,
            -0.3668115217722417,
            0.08669848095931419,
            0.25484899162336666,
            0.055467798729221265,
            -0.09243355737557032,
            0.1269332122043345,
            -0.37823268907171353,
            0.11951277861862969,
            -0.167003698865987,
            -0.17088478141698163,
            -0.34131663066964374,
            -0.9574305424816612,
            -0.4314454428488085,
            -0.3656875876155279,
            0.35018849723303075,
            0.2388575195010907,
            0.2755565231826814,
            -0.04271800033509951,
            -0.5234268680105377,
            0.005793090749861808,
            -0.22018119609733217,
            0.01077206806242771,
            0.13239410522837122,
            -0.12635019243412726,
            0.18237227159822056,
            -0.39415633774221137,
            -0.2985829173372251,
            0.11987208757157222,
            -0.031616270278548395,
            -0.062103971057978026,
            0.017759726919713347,
            0.12147569718905085,
            0.04408355687499768,
            0.500820347853637,
            0.15041648149858874,
            0.1360240108860735,
            0.08806241515936969,
            -0.010560779060548444,
            0.06840522075443839,
            -0.011343488484672634,
            0.4032654006847109,
            -0.09796027469874086,
            -0.5458584653735149,
            -0.2956719745870738,
            -0.17125937151224574,
            -0.4296941700430869,
            0.34181304517372985,
            0.18318431580650657,
            -0.04182905887197091,
            0.0006983699245173619,
            -0.41653764023143813,
            -1.2743553631935431,
            -0.5299059033962624,
            0.00659859356550016,
            0.3167508174108083,
            0.3480807551280874,
            0.22969279367859818,
            -0.07089166056858226,
            -0.1180516862142358,
            0.08206505249122233,
            -0.2578684356374634,
            -1.091957616907841,
            -0.40787278269722343,
            -0.01701738468625017,
            0.49386305570444555,
            0.0963663295963892,
            0.3370698432113465,
            0.07021372778281879,
            -0.11154531334189038,
            0.018457081727044602,
            -0.6792193249502346,
            -0.07709271948533741,
            0.02959273753449296,
            0.024143351560138488,
            -0.03306300761032337,
            -1.1813018597195932,
            -0.036801975199060144,
            -0.17815468204487853,
            -0.17246013670960222,
            0.1107455296102531,
            0.1639855537401224,
            -0.012178151725953221,
            -0.25327733351684084,
            0.133937233217191,
            0.29584121302661137,
            -0.011645059181072783,
            -0.05822602487857643,
            0.09713065493241178,
            0.10234775746514953
        ],
        [
            -0.2641468287183067,
            0.1821502756589286,
            -0.15571863424853857,
            0.0117129457502822,
            -0.1639398151149965,
            -0.1141454985017804,
            -0.09185159820709195,
            0.008746870054684752,
            -0.054755541483202934,
            -0.0703832963262918,
            -1.1956564590383258,
            -1.1327292630676051,
            -0.13922390426422374,
            -0.26594008930416313,
            0.10439299162603587,
            0.19888644372966136,
            -0.17691563749196232,
            0.0039988093861984455,
            0.2970456967538568,
            0.1918057363082468,
            0.3245858038484893,
            0.0643321350621555,
            0.08185550904328617,
            0.06588444109112192,
            0.16252895470419043,
            0.017600463332519113,
            0.1292713187558042,
            -0.0378759773024895,
            -0.049819391241208946,
            -0.16056046744028077,
            0.00321662713300686,
            -0.3257659913142773,
            -0.015359010437726757,
            -0.059021047664347785,
            -0.011434961913851831,
            0.19234127991232877,
            -0.04946087385535541,
            -0.0229577267576085,
            -0.0998870168398743,
            0.14590141620192457,
            -0.20118361717653274,
            0.137157227736996,
            0.19563940098673305,
            -0.0434574487294806,
            0.12856206036822176,
            -0.676449569250092,
            -0.1703612233627633,
            0.06757587878940258,
            0.05108844214835157,
            -0.4567312605942851,
            0.13733337882246946,
            0.13987986495738958,
            -0.05739624738361836,
            -0.45003159070122795,
            0.06062709800057985,
            0.3144725639583842,
            -0.034809670870034795,
            -0.29655821325180043,
            -0.10165786596731954,
            -0.003430824110668491,
            -0.07806498688792197,
            0.17450068196122298,
            -0.03224248207842722,
            0.30161592414356153,
            0.09549095109638282,
            0.13064416195667555,
            -0.010729861962903995,
            0.021012217417673847,
            -0.13912156447142487,
            -0.1079641460750968,
            0.08428153844781736,
            0.06979270367331143,
            -0.34855650225741325,
            -0.00011144162322511635,
            -0.3139955147182812,
            -0.13394483035893082,
            0.17192105279783862,
            -0.07983469625484234,
            -0.020129843130272045,
            0.11405437684403616,
            -0.19064287674455985,
            0.03333424673683175,
            -0.0014863657975806729,
            -0.1690766130210635,
            0.14436483456240584,
            0.09964766738679913,
            0.09995264774221108,
            0.08825629103853551,
            0.11825954755256764,
            0.04034945617419774,
            0.2458419682078735,
            0.008580569569698876,
            0.10852492694131169,
            0.010261322099434355,
            -0.07603483002955928,
            -0.2063232597950438,
            -0.6558276417901269,
            -0.4684619826513896,
            -0.33642310640992557,
            -0.12650907173443784
        ],
        [
            -0.039229348515930094,
            0.21271695120481812,
            0.13998464737985114,
            -0.0587338269997767,
            0.1788863974249547,
            -0.33737983435106383,
            0.13633784723375242,
            0.04523127641855141,
            -0.13202537640929196,
            -0.012492124255257434,
            -0.3132767512983196,
            -0.1485541243207092,
            -0.18411156304030007,
            0.1718270985460597,
            0.011924915666827199,
            -0.051521524389722566,
            0.08346011790759618,
            0.12896940780608665,
            0.01195896649886772,
            0.10463229600145751,
            0.019000512607247395,
            -0.06106050151125266,
            -0.15028296907580535,
            0.02157586368359379,
            -0.04531276205434904,
            0.031039122906345813,
            0.04972427540317626,
            -0.11673768670503946,
            -0.007012019056992645,
            -0.012621038022873211,
            -0.011292039042264963,
            0.2662226437250698,
            -0.005899941242113719,
            0.07487779372509863,
            0.024664286315682425,
            -0.18871301697252063,
            -0.05665929667844786,
            0.0044327647245041065,
            -0.12905774769225148,
            -0.17301784552793412,
            0.1479959303487535,
            -0.26904843124060224,
            -0.13530104110408647,
            -0.07533589017836469,
            0.019197221403673536,
            0.15274723202512552,
            0.19275477899672505,
            -0.09228852146019603,
            0.17114370559903144,
            -0.06907219476839656,
            0.11596393523133221,
            0.07015248626058274,
            -0.06519526916198687,
            -0.13442914146324927,
            -0.08152625991888339,
            0.09192447708789374,
            -0.0503755792987659,
            0.0530852926466218,
            -0.016388592428465278,
            -0.039649518902049784,
            0.020261153246547228,
            0.05674216455091061,
            0.286800104892674,
            0.05933190114423407,
            0.04911393551179441,
            0.03775526687097691,
            0.07101203582893414,
            -0.06772877194230634,
            0.2841093006932737,
            -0.013125263845903094,
            0.010780989600090387,
            -0.23546750538960434,
            -0.16386159905159028,
            0.17013356299916396,
            -0.15034567141679828,
            -0.06009686396613808,
            -0.005450208507370894,
            -0.15909244052736818,
            -0.05550843506135146,
            -0.0038270846675974406,
            -0.045649786187416164,
            0.039833835027835766,
            -0.07270926854292285,
            -0.09301702970291878,
            0.1658660889249257,
            -0.1377402914934884,
            0.16241197342979902,
            -0.04283010080550442,
            0.1403535344987873,
            -0.14303512572863566,
            -0.16954950251256598,
            0.07767011749154369,
            0.17628170875652344,
            -0.2020446413546457,
            0.048103989700197004,
            -0.013834874979925596,
            -0.12409202070053228,
            0.07032764526162062,
            -0.024629512537256343,
            -0.05246179065329919
        ],
        [
            -0.12932609359816216,
            0.14442223184712435,
            0.00331682087485275,
            -0.031217210287476777,
            -0.015003286228574199,
            -0.04992373487496672,
            0.06356360201306885,
            -0.017356573557575885,
            -0.05496291277913525,
            0.04757691005335285,
