{
    "h0.weight": [
        [
            0.08446540458290765,
            0.2867834079544338,
            -0.2075128772323349,
            0.49208479653568943,
            0.08528013159856716,
            0.17569852100903594,
            -0.1520226401651072,
            -0.26150717571151577,
            -0.11398195953827345,
            -0.3295017367642262,
            -0.0817034769963424,
            0.11207961381844338,
            -0.21115652265329402,
            -0.04315985990750385,
            -0.17462562174676705,
            0.5095673673335134,
            -0.1079628214653519,
            0.05649426937794114,
            -0.6481797082091488,
            0.28868301669511
        ],
        [
            0.18088171631623626,
            -0.023723668278320002,
            -0.004751301480123414,
            -0.4000388394676889,
            -0.2137853817213244,
            -0.2941421858912071,
            0.11412901349239953,
            -0.21634372016301,
            0.4077122415857083,
            0.144202439342929,
            -0.4168858602036237,
            -0.2786440109802604,
            0.0842930802480376,
            0.3330771733070293,
            0.326110515151964,
            0.17659445925590722,
            -0.05552918194663447,
            0.3212861050659838,
            -0.09764565267777202,
            0.07208619881107263
        ],
        [
            -0.17670251206505386,
            -0.0930928184821742,
            -0.9025886003556296,
            0.26231329043108703,
            -0.05255039455982305,
            -0.29983391882279153,
            0.2436514101973213,
            -0.18637808205214232,
            -0.16911899171317965,
            0.08818390840042364,
            0.4150175377870263,
            -0.004287515469713879,
            -0.16740740228356418,
            -0.0433994195003753,
            0.18717127200962377,
            0.277017644507016,
            -0.8396462907506214,
            -0.29480256582684145,
            -0.6196628333870516,
            1.1805787908496652
        ],
        [
            -0.3711846956773919,
            -0.36208342978735625,
            0.6528168940015455,
            -0.7745559704555162,
            0.31807009011165255,
            -0.26541217357996244,
            -0.04911671549516873,
            -0.2789821506696844,
            0.10990520488898081,
            0.2452991827154277,
            0.3485084442394258,
            0.08004566032363067,
            0.04979390406094672,
            0.08104648479782026,
            0.0648803629857064,
            0.04419683256330152,
            -0.048504512189614914,
            -1.3827437311815813,
            -0.04302195503195338,
            0.042303499138452175
        ],
        [
            -0.20299635114902573,
            -0.19973651176430665,
            0.04295700168717691,
            0.35035683648137267,
            -0.101309089946268,
            -0.24524601940654803,
            0.15143077690793216,
            -0.329821227922814,
            -0.11070894772966794,
            0.2885203218241148,
            -0.268516103140118,
            -0.45413251743600813,
            -0.04293299943092324,
            0.30195274134546685,
            0.32760096057748594,
            0.03497499201745743,
            0.8921258296269939,
            -0.16301004921363269,
            0.09997498547560221,
            0.30466716409516026
        ],
        [
            -0.2214829014675735,
            -0.013672601935916814,
            -0.3586654565211841,
            0.27925820646106386,
            -0.225013685614319,
            0.13846572671370241,
            -0.19430157036344128,
            -0.01408944119141605,
            0.3214790902934679,
            0.0264986554716756,
            0.6368315583489198,
            0.22874457721314,
            0.023060074553760274,
            -0.17879147305128723,
            0.2849875199750421,
            0.3494913101538976,
            0.3091547233306787,
            0.4841460296819707,
            0.08805232828195907,
            0.09555942889843723
        ],
        [
            0.026060598578760624,
            -0.21908501878766015,
            -0.45599243714376453,
            0.6377988382310622,
            0.1286382751946945,
            0.15202964468125035,
            -0.14084344595313694,
            -0.38819905181752384,
            0.30328912000339237,
            -0.042809467290468105,
            0.15783372592486228,
            -0.5171047148963774,
            -0.18326975681184152,
            0.10702929951953495,
            -0.041364848748134425,
            0.03541267300128324,
            -1.0383348932130045,
            -0.005283602773634504,
            -0.0077052173056217695,
            0.029633429776959444
        ],
        [
            -0.2737367562101184,
            -0.23403753189822543,
            0.14252433563623276,
            0.582582700231271,
            -0.12722961770123026,
            0.242441272114588,
            -0.12326184585762705,
            0.5424777267781633,
            0.39618216368719994,
            -0.11237256481095063,
            -0.39102531028708243,
            0.3500711775283841,
            0.13739229334947806,
            -0.17024727837508594,
            0.15070382669218743,
            -0.09802338591270136,
            -0.13972982069813863,
            -0.10096175937048073,
            0.9501565941572084,
            0.2949595557216647
        ],
        [
            -0.07707820950258976,
            -0.2544923008280041,
            -0.8640784303958208,
            0.40698916708261484,
            -0.30899835922103885,
            -0.36919625720056576,
            -0.14938031380766129,
            0.4680363266971557,
            -0.10007533061082405,
            0.24547330833581069,
            0.2901279374883128,
            -0.3083648580202886,
            -0.08885452310010347,
            0.015144723430117482,
            0.05024199150157962,
            0.33186268139292396,
            -0.10762774610327797,
            -0.11096010899875604,
            -0.9456009975593773,
            -1.7096846645947945
        ],
        [
            -0.3571773661684601,
            -0.24434127471145592,
            0.08724881850514968,
            -0.5447648835514564,
            0.3057124367205876,
            0.05740490357079817,
            0.15027025908638988,
            -0.2910912571972025,
            0.14167975919346337,
            -0.48855437167647014,
            -0.007583182528560266,
            0.258403639014724,
            -0.07619302100407932,
            0.2787154520261038,
            -0.18569526614569168,
            0.3066618224646219,
            0.016388142504065128,
            -0.16609460832661513,
            -0.0763590432127258,
            1.3962457282575602
        ],
        [
            -0.08246708475864456,
            0.4431038808419826,
            0.4853710972158924,
            -0.11584337931338537,
            0.17952982027341013,
            -0.1545599739899433,
            0.23036684489560919,
            -0.16230144350658707,
            0.12987452180588732,
            -0.4814188810288776,
            0.034817330564320736,
            0.23208020662289996,
            -0.12347002821952041,
            -0.18391857329523836,
            -0.01769051511952688,
            0.4201627264021997,
            0.27888688586425203,
            0.09690264272445334,
            0.9782133486008416,
            -0.18975919919996392
        ],
        [
            0.11468058644313622,
            -0.26068767228469214,
            0.09293548299021183,
            0.040374372093104294,
            -0.06083413194887618,
            0.2085391794639247,
            -0.034222018673470085,
            -0.2878216309010105,
            -0.12259309873720699,
            0.14369944522086697,
            -0.20068980234122108,
            0.6086590268119282,
            -0.015130049122944182,
            0.27982796273739946,
            -0.10332805158955731,
            0.28705477643748534,
            -0.604539784128078,
            -1.3026819929958262,
            -0.4245416513406166,
            0.22083433967634522
        ],
        [
            -0.1023490729512459,
            0.3823227383956492,
            0.1362790725623343,
            -0.3338150614537672,
            -0.0490869443641328,
            -0.2617512447046144,
            -0.13317752909967187,
            0.02879218353383577,
            0.19257207519645844,
            -0.05879285044860216,
            -0.0413497018702136,
            0.6130584194946007,
            -0.3466243190042695,
            0.23280734279129503,
            0.11763787360692485,
            0.26258176592403154,
            -0.5062373888010492,
            -0.8675695099393739,
            -0.014029851956489694,
            -0.017587393280383286
        ],
        [
            0.04241236433302918,
            0.2667372037576146,
            0.20201782107147292,
            -0.5529531745436108,
            0.4971494675334007,
            0.449848032393331,
            0.04746161161454453,
            -0.03300171391779319,
            -0.21124063682605018,
            -0.4000267089325638,
            -0.06990256219809814,
            0.17610405266518545,
            -0.24642745412567527,
            -0.3798651004499858,
            0.12264040045793081,
            0.2603467367076802,
            -0.5321676577563733,
            0.5002284786339481,
            -0.11868482993457705,
            -0.12301555359815422
        ],
        [
            0.2722072473179433,
            -0.28300655133629843,
            0.5734340267440267,
            -0.7295345392347243,
            0.16903203641385856,
            -0.2563568538649019,
            0.10544398678518224,
            0.1456593592778758,
            -0.11314028111033367,
            0.15361373195548145,
            0.05197593129882763,
            0.0966657181978255,
            0.11736376371570516,
            -0.2094461040475346,
            0.18662942963855567,
            -0.17650562325261362,
            1.1347498650873653,
            -0.9946801498357493,
            -0.16117948244517838,
            0.029374470919349006
        ],
        [
            -0.17996437021527115,
            -0.37573115849234856,
            -0.0033190246364677113,
            0.10950277372944496,
            -0.3115924014664822,
            -0.5856957733797028,
            0.1319615741069435,
            0.07521090313386967,
            0.19695137980117977,
            0.5811938383128384,
            0.36921110833588966,
            0.5904492404438554,
            0.19790987431193383,
            0.29080302236456607,
            -0.09531024954226865,
            0.14462226216807417,
            -0.1221498314229712,
            0.02800662610176719,
            0.2676345362744551,
            0.8847308040894997
        ],
        [
            0.0760537444221999,
            0.05866739772730922,
            -0.2626703367175595,
            -0.30782990919978975,
            0.10081205661882466,
            -0.07498883335850975,
            -0.2895741367617806,
            0.1008316139173752,
            0.061505161497346486,
            0.1766940686595485,
            -0.37875958142286237,
            0.08840764847201335,
            0.2736342137082361,
            0.35961844713620766,
            0.19720058441205326,
            -0.3374376578637687,
            -0.0165322395240917,
            0.2631941341661831,
            0.5804219548333754,
            0.415829511096785
        ],
        [
            -0.16879784980744722,
            0.3090898684143559,
            -0.5791873371771613,
            0.12943842294892963,
            0.1962028549682143,
            -0.009372124903264915,
            -0.024619150347819852,
            0.14484330836112405,
            0.19382323660542647,
            -0.04527223393290156,
            0.5254413351099951,
            0.34452431094470504,
            -0.36118423740650973,
            -0.23046065168994148,
            0.18638641918781587,
            -0.19314292831954813,
            -0.3819872861349974,
            0.19521078918781948,
            1.1329950410874225,
            1.7178929693173692
        ],
        [
            -0.378817727809101,
            -0.2387331411469146,
            0.018559435023509464,
            -0.3759738898631278,
            0.37829851149945004,
            0.4486189437688341,
            -0.2796936596772742,
            0.1438822337797277,
            0.07954633363026123,
            0.24517321328522187,
            0.31285629303254997,
            0.1033596717043504,
            0.05652511621440158,
            -0.26909061872924755,
            -0.1535541845142313,
            0.09780128173371609,
            -0.06586377444535002,
            0.07635105757941517,
            0.8116103585958436,
            -0.22159915529214239
        ],
        [
            -0.0018376043489705595,
            0.08013915631559665,
            0.1965126941068413,
            0.08436042393257588,
            -0.017849225650555637,
            -0.06816307936395882,
            -0.08112825706825721,
            0.07745586252437177,
            0.08402889599652473,
            0.4995443874131428,
            0.5289863511283149,
            0.8124603041358244,
            0.12259025946485663,
            0.007987125121594192,
            -0.0731430398629533,
            -0.02735152728769147,
            -0.03365658378476183,
            0.04037565655684208,
            -0.09542684999863964,
            1.6276466619566432
        ],
        [
            -0.09656659719340503,
            0.2563024337204178,
            0.20110399393515516,
            -0.19123029777539255,
            -0.08171814634049805,
            0.26765081555046155,
            -0.1291464936411878,
            -0.03240528465338755,
            -0.24055939629604933,
            -0.1495512449228538,
            -0.23599911585657085,
            -0.6456822650655385,
            0.20161545682348045,
            -0.027784390896991123,
            -0.03669553326466434,
            -0.2837138371502004,
            0.08660316831324982,
            -1.0555401281855041,
            -0.02707570239639227,
            0.04174273616541563
        ],
        [
            0.20041017134804565,
            0.21388263297623325,
            0.513420232303093,
            0.015924551829630647,
            0.035784861601933365,
            -0.025539254401849523,
            -0.005416813165411305,
            0.05602812410374685,
            -0.2777518086013451,
            0.15216576192105824,
            -0.21486291350208672,
            -0.07872839952156209,
            0.09775872592036422,
            0.312410597194222,
            -0.1367264395057748,
            0.007798051925965328,
            -0.4118318278381474,
            -1.0156091615409928,
            -0.06880377632242088,
            -0.02910692751952442
        ],
        [
            0.02048547758910392,
            -0.32126760070699734,
            0.0017705258861210299,
            -0.4471971736527928,
            0.11864769869093976,
            0.2627026710642745,
            0.18045030423352848,
            -0.21561304646757756,
            -0.04155140455634303,
            0.08525604384875785,
            0.6912600129608919,
            0.3477369834947688,
            -0.1441792123058104,
            0.15950069102966763,
            -0.10951478838395141,
            0.2578718491490564,
            0.24614044569054355,
            -0.01183820169712452,
            -0.17882550817375423,
            -2.091718283001327
        ],
        [
            0.5961924830521139,
            0.41687255874924384,
            -0.7356606792690358,
            -0.5359542387052904,
            -0.05779206798495393,
            0.006995984990568573,
            -0.2458274463504407,
            0.03743882290727801,
            0.09149304086531768,
            -0.18287582059154678,
            0.3709129399483529,
            -0.02656720886394325,
            -0.14952679070896827,
            0.13432307774918253,
            -0.038683553106320365,
            0.1881240035946899,
            -0.21238063512464828,
            -1.0201337580893703,
            0.1918389986024513,
            -0.348365339653373
        ],
        [
            0.06260851813373662,
            -0.4933696666988241,
            0.021400473302253486,
            -0.056310270895392374,
            0.34390463169922625,
            -0.11863649414666776,
            0.3303339697584676,
            0.2684853140683889,
            -0.07319706587182204,
            0.07459942814859756,
            -0.3784515607862273,
            -0.11185898867516351,
            -0.31329221884469166,
            -0.16508291843833803,
            0.04044226778692671,
            0.21899082956457785,
            -0.3893760660082448,
            -0.10675245263922484,
            0.07249375977745516,
            0.02081868620873358
        ],
        [
            0.2389839995819775,
            0.06291419626731909,
            0.6601457390108388,
            -0.2143912034646302,
            -0.10889391129191796,
            0.13607928635484948,
            -0.4324811538033189,
            -0.1191393554115559,
            0.1054983230642759,
            -0.449390013074154,
            -0.5152429891927939,
            -0.5001631964023112,
            -0.0591157247344559,
            0.10145886930287519,
            0.0002547008824496745,
            0.05824394324839538,
            0.17243949937683517,
            0.013163839198885858,
            0.45016519414771755,
            1.3147938938127146
        ],
        [
            -0.029609413122518184,
            -0.013044702042367243,
            -0.5901703398123177,
            -0.1832122986100783,
            -0.1309248582705884,
            0.2385093171477269,
            0.29914404474140627,
            0.05279262010845159,
            0.03713002176411185,
            0.1456168416219713,
            -0.07966972643009318,
            -0.05375275557783564,
            0.2484009809860185,
            -0.09508998181356283,
            -0.2131917279993778,
            -0.2326291453098534,
            0.0063985158741537325,
            0.0103185157578359,
            1.3366251665243611,
            -1.3359537155741903
        ],
        [
            0.23688560590064678,
            -0.2658429432782409,
            -0.5858173891465179,
            -0.3793644452813243,
            -0.08238122843865102,
            0.23532349204045075,
            0.055620337864102073,
            0.3837807803678687,
            0.15359057770300097,
            0.0135031708261527,
            0.3633608923753127,
            0.4205574655462644,
            0.16180027965614238,
            0.20826829691434504,
            0.10283077085253628,
            0.18635457622281443,
            -0.5082201895455525,
            -0.34393289153576634,
            -0.45778414817872365,
            0.10221663229291579
        ],
        [
            -0.2049376683465017,
            -0.122372634131353,
            -0.05533420461250522,
            -0.010824496891197327,
            0.03711292476646876,
            0.32790595204139217,
            0.21126513124246962,
            -0.13927967052759835,
            -0.27774569648540126,
            -0.3303757263436965,
            -0.1629972963575426,
            0.22959817057346066,
            0.3820230385959469,
            0.11674695997482587,
            -0.2756765687863666,
            -0.23152040064791107,
            0.43166233111569235,
            0.012987687388584412,
            0.4414923886561658,
            0.04125466359481463
        ],
        [
            -0.2636104617294075,
            0.1023605279945918,
            -0.2657998636071065,
            0.2854547414221613,
            -0.5193942463031141,
            0.2139069249919412,
            -0.09941814951409483,
            0.10603900531962396,
            0.22681731360894095,
            -0.010682350533538575,
            -0.17757483575115782,
            0.6059197657262702,
            0.27077427343274135,
            0.14216945180940213,
            -0.023967600197210163,
            0.07942676474091202,
            -0.24021503131521152,
            -0.4256251053451905,
            0.6290694610677985,
            0.24513811259508572
        ],
        [
            0.32729200556152066,
            -0.0541325705594207,
            0.510752553017723,
            0.08599048682807194,
            -0.24978948344361088,
            0.1338333106057171,
            0.24394040844275006,
            -0.40353906510069193,
            -0.10732337390563636,
            -0.2760490930122585,
            0.5414799996152954,
            0.6936752301477612,
            0.19825237759729253,
            0.014396791963648995,
            -0.0513825938145927,
            -0.15676176973356576,
            0.2773790252845485,
            -0.11993633379574566,
            0.03555199001797998,
            -0.53089187335623
        ],
        [
            -0.09537314207086377,
            0.3034170688798479,
            0.021057664623235394,
            -0.260101577444339,
            -0.03582260241753311,
            0.0088866075582764,
            -0.15664544610001097,
            -0.4111101000451389,
            -0.007329873373958855,
            -0.11068553567607088,
            0.11040488575961878,
            -0.471047948847189,
            -0.027340692941229795,
            0.026715262424999893,
            -0.28506845466035474,
            -0.09975548980741802,
            -0.6502456676598506,
            0.5488736973132117,
            0.11740008902199181,
            0.13271856753221956
        ],
        [
            0.3160234794731754,
            -0.290322649660635,
            -0.17318289376690194,
            -0.02398499491575762,
            0.17864941975964693,
            -0.1716195583417564,
            0.008748461059830199,
            0.12409016440385585,
            -0.24342569712209045,
            0.1510835160232975,
            0.08582119533468346,
            -0.03677948610177978,
            -0.34678596276495727,
            0.34613969958779667,
            -0.25145710517960373,
            -0.04143361878821444,
            -0.39375532372085825,
            -0.3128197261117689,
            -0.02350535054160871,
            -0.012545901830341917
        ],
        [
            0.29684074240947683,
            -0.027764235844369205,
            -0.1662870134599375,
            -0.07427530438524871,
            -0.2116373796364164,
            0.06659986305571053,
            -0.32798506898169527,
            -0.1102245832279673,
            -0.30338490770854076,
            0.1679703249247019,
            0.3914681030035981,
            -0.29371792997283885,
            -0.07993593108194097,
            0.18767261889980907,
            0.15835307558956854,
            -0.09813449926920059,
            1.1106192422828154,
            -0.6605806167360344,
            0.029171117208244626,
            0.28376561196403915
        ],
        [
            -0.05549846433760015,
            0.08768728647234761,
            0.13297706321306338,
            -0.08399900038178348,
            0.2983127270981021,
            -0.38021451410238366,
            -0.3627071929619626,
            -0.1242166228936925,
            0.24876708652146307,
            0.13935171618971973,
            0.12213066849055458,
            -0.09077595351863427,
            -0.11761606425564718,
            -0.12564437402815865,
            -0.002424520168992504,
            0.04599022383296945,
            0.1294580443652127,
            0.915931757619648,
            0.07488547932737975,
            -0.07893923031555589
        ],
        [
            0.05478956584803168,
            -0.08025363843392981,
            -0.4285294705503406,
            0.11872606985943772,
            0.14541405502996546,
            0.026144577186364943,
            -0.21794949385596368,
            -0.22720574902544302,
            -0.05056735296687748,
            0.12966811441843784,
            0.47088140357854014,
            -0.20850948398995617,
            0.047425860894192214,
            0.26552765153764957,
            0.31460541219271804,
            -0.1941696406377526,
            -0.7764566633539911,
            -0.21509684236069943,
            -0.13121347668554134,
            -0.1391606204689791
        ],
        [
            0.3917701464766061,
            -0.12672827373956955,
            0.25729100569506574,
            0.12921280749002564,
            0.3621779204892976,
            -0.07393760613368568,
            -0.07650840479311746,
            -0.05767097820459727,
            -0.5386314379202725,
            -0.10262812461838595,
            0.10055136976921908,
            0.42538656344854103,
            -0.3123768715283102,
            0.009187188771113788,
            0.08754257797826476,
            0.029622196269380837,
            -0.010145407906700156,
            -0.022781167086525063,
            -0.41962479728526664,
            0.4999711636709489
        ],
        [
            -0.19337007790015018,
            0.006508045322674997,
            0.044686415030973745,
            0.3854897463251248,
            -0.1900872159551399,
            0.08943140125293822,
            -0.036919261011089985,
            -0.08787074701544798,
            -0.05402056475964649,
            -0.14450592507323332,
            0.044482261915412796,
            -0.17854231103253046,
            -0.11239788503363818,
            -0.20678728307363622,
            -0.3021878088125321,
            0.3288921767338472,
            0.6821921336616302,
            0.06763621674604876,
            -0.5126532417784797,
            -0.032353816112732865
        ],
        [
            -0.1236548066155898,
            0.1898686294076004,
            -0.3395211489429972,
            -0.4434755709771546,
            -0.3422585829776314,
            -0.15080631449849485,
            -0.16184444898850942,
            -0.008709370123390167,
            0.04258411630548915,
            0.04441796785412037,
            -0.20410665688033197,
            0.42104008138093635,
            0.22124976444349845,
            -0.18491895378228623,
            -0.31620133817493007,
            0.11359523654503341,
            0.09332825139652004,
            -0.6084133265476228,
            -0.5806890661280082,
            0.04643410028856767
        ],
        [
            -0.10696710883145963,
            -0.20583563038825647,
            -0.25785904863611814,
            0.14608599891618132,
            -0.10697494821038064,
            -0.17489067951947992,
            -0.17618814925422285,
            -0.008691208369438524,
            -0.18691400655894783,
            0.18464575443160855,
            -0.14913676646142002,
            -0.07459716215290918,
            0.17185749714739706,
            -0.07838812142100866,
            0.20628663566951042,
            -0.3440617051208646,
            -0.02331212492587854,
            0.0028833994561850993,
            0.5183174307915135,
            -0.38215170672443927
        ],
        [
            0.24715415671979551,
            -0.12523960185479296,
            -0.25416667223014666,
            -0.12154119344467192,
            0.41532971281300907,
            -0.31713160930219425,
            0.07857306622398509,
            0.104287198828404,
            -0.12452435126456908,
            -0.19901164646008557,
            0.3416390331622384,
            0.01823400256074285,
            -0.2754543648218883,
            0.546238413182999,
            0.020049987395274648,
            0.026640356574652153,
            0.8175379361205863,
            1.2553125517560806,
            0.079676859425307,
            0.0015037212419265241
        ],
        [
            -0.16985550297901053,
            0.2800505378695108,
            -0.019132496721253552,
            -0.30952710066361067,
            0.3345645052923239,
            0.0831469295583334,
            0.08222168988226232,
            -0.06791606143768494,
            0.2509426612270325,
            0.03559226261737768,
            0.7471748286201653,
            0.3419216342441733,
            0.3032568125972034,
            -0.09283006826141013,
            -0.03939416519976767,
            0.2719796460618688,
            0.14844021625085796,
            -0.17930379638387323,
            -0.8824998658685039,
            0.21491218622717187
        ],
        [
            -0.012855902347092118,
            0.4504560763662759,
            0.20702141490924694,
            -0.21843578046928738,
            0.14790481558645793,
            0.23571405099887333,
            0.13693564918864679,
            0.1626919246899053,
            0.24186764402662525,
            -0.02964595550701385,
            0.4872456700455279,
            -0.6140087334188589,
            -0.12396154380214874,
            0.06317212287099122,
            -0.14081999727335928,
            -0.1027173344501172,
            0.3811615287149623,
            -0.7258123686171611,
            0.3513222470040338,
            -0.3652768947202713
        ],
        [
            -0.006038896648037955,
            -0.0007659718220170129,
            0.12633618107595695,
            0.36998885640117324,
            -0.21796870502651713,
            0.3559876202215247,
            0.2810593084621618,
            0.12161147727817906,
            0.18488154336930063,
            -0.06014884535124118,
            0.4565241373141072,
            0.007210784929836736,
            -0.02650207461068179,
            -0.4139280417066513,
            0.25651329462360134,
            0.00272519892194621,
            0.17304494179511754,
            -0.3560887184024896,
            -0.043887239040355935,
            -0.20622574381168798
        ],
        [
            0.2988270417331396,
            -0.0718537213025759,
            0.250725421291424,
            0.4623886450255117,
            0.007441437543497498,
            0.2836444742298412,
            0.004106752604876653,
            -0.03364369643848525,
            -0.13812170987619715,
            0.1879982654908769,
            0.3240576926815521,
            -0.12281783119379998,
            -0.08304799268744584,
            -0.1965809997969638,
            0.38123830417157156,
            0.24604899566951582,
            1.4584747046148188,
            -0.03629251001874306,
            -0.018003404410525916,
            -0.0031016736799163564
        ],
        [
            0.13254152265974437,
            -0.059500522912980074,
            0.6877153209510972,
            0.554698947620116,
            -0.14521357423947562,
            0.08626320854712172,
            -0.19078786070206757,
            -0.3340277135810901,
            0.013295934375815074,
            -0.15853175707825573,
            -0.39611287391196004,
            1.0026301017700439,
            -0.10606416393579637,
            -0.2864251181028322,
            -0.0050036601813974015,
            0.06554334518658747,
            1.0749223045377496,
            0.9256346412215614,
            -0.35696085765708435,
            0.4185656078990368
        ],
        [
            -0.40441580016385187,
            0.3950865386837888,
            0.12546532044587247,
            0.12147365904353301,
            0.2337643916066785,
            0.1386730529496127,
            0.36012765602089175,
            -0.07048995775929412,
            0.36651157006463425,
            -0.04788721121522274,
            0.2519549948037175,
            -0.020165760533850764,
            -0.07174164631105684,
            0.17391048854681096,
            0.0922205686649353,
            0.3970193268812,
            0.04669738023503118,
            0.012164244563011423,
            -0.4532478747530556,
            0.31154884646797976
        ],
        [
            0.11488836975170028,
            -0.16446567891133893,
            0.19297019827662978,
            -0.11146989173482687,
            -0.2763274617824259,
            0.10474592135783718,
            -0.06670709561666911,
            0.3662284974974661,
            0.29184937592037524,
            0.020933928422317765,
            -0.1464589644164743,
            0.07697292381131575,
            -0.18569461866370468,
            -0.1533915102721671,
            -0.35663356984646166,
            0.49704566060446725,
            1.060285112426428,
            -0.12523180169414408,
            0.4689938647597439,
            0.009471733411782158
        ],
        [
            -0.2801704540287817,
            0.17623529824014053,
            -0.04261983998107826,
            -0.20128198184332297,
            -0.3744991198860667,
            0.411885476110658,
            -0.2594652951236736,
            0.2959671320685392,
            0.29233076577323835,
            -0.4168674102302135,
            -0.1538155137259479,
            -0.06659314376744284,
            0.3788581677301756,
            -0.1709666436534892,
            -0.049637488305034755,
            -0.051216496145998186,
            0.9343273097109168,
            0.19793385856785495,
            -0.01656276296677368,
            -0.05938254174339375
        ],
        [
            0.2933855165140673,
            0.03034076397655147,
            0.6760816569644669,
            -0.29869226496785495,
            0.24960389221354937,
            -0.059157993173233836,
            -0.051682452830959257,
            -0.05892502717305313,
            0.24631371876374375,
            0.14862879087796246,
            -0.5479667163864674,
            -0.028473040848387764,
            -0.04181010097479319,
            -0.2283260212896019,
            -0.13974723375143192,
            0.2555211232087146,
            0.6465295987622429,
            -0.21120738911236644,
            -0.20599120536476304,
            -0.29363430854262085
        ],
        [
            -0.045384427029936364,
            -0.09190987974174451,
            -0.16799626168957887,
            -0.20618700594560416,
            0.09335064329533815,
            -0.011118011433585644,
            -0.1699191008296687,
            0.16175332477294896,
            -0.10871633034446049,
            -0.27054192601415544,
            0.07871815219491035,
            0.5292152623062066,
            -0.07651845524052668,
            -0.15699306636115853,
            0.2431915531313834,
            0.44592372545991893,
            -0.00040035415024851405,
            0.0940850652557227,
            0.9613938834466624,
            -0.15895531565731374
        ],
        [
            -0.09338004826136406,
            -0.11670677438518627,
            -0.07112959706657249,
            0.20971640411171316,
            0.06669959399246538,
            0.12864385966834582,
            0.0907442452963246,
            -0.01715921150608186,
            0.042269697554980945,
            -0.48936888438185405,
            -0.6236824816498833,
            0.2238284608697342,
            0.26797116292238177,
            0.14750420780046386,
            0.024302728013251246,
            0.011422686466313373,
            0.8884528426293896,
            -0.03203705481534822,
            -0.6082890480189393,
            -0.16642842740191954
        ],
        [
            -0.15140602819154786,
            0.45553052373282865,
            0.23043659320840246,
            0.13048170069850984,
            -0.3587627583563659,
            -0.22260271645584168,
            0.34416749402460023,
            0.023394623111457923,
            -0.04205530877388708,
            0.002736205834088229,
            0.1662006586951673,
            -0.35523471914128524,
            -0.09042607273141706,
            -0.41920882414752486,
            -0.26027718001277506,
            -0.06652587218200948,
            0.20370174716742243,
            -0.8093665415181436,
            0.18202009349627293,
            0.41328095356549316
        ],
        [
            -0.48134783191699476,
            -0.25339518078387296,
            0.673357711657828,
            -0.12542423032440636,
            0.08715611994770316,
            -0.25890198982686674,
            -0.16484742801180277,
            0.08333071278842165,
            -0.13202100365716754,
            0.3025223897813348,
            0.12393758702920495,
            -0.035062365678010576,
            -0.1484764678192118,
            -0.027732735094410967,
            0.09617650806217407,
            -0.2401352632877618,
            0.14397010810820615,
            0.6892574603019332,
            0.12342070012288629,
            -0.46601946684761536
        ],
        [
            -0.026863450329497118,
            0.10014373486463014,
            0.51916242765263,
            0.41639815109196404,
            -0.24421770750214505,
            -0.04344075524221262,
            0.2043037373960238,
            -0.22937344927305237,
            0.28189907945505166,
            0.3540833326912287,
            -0.2678394329498582,
            -0.5222670730433719,
            -0.09576034382816445,
            -0.021417583586809674,
            -0.3026834239174255,
            -0.02294591693985809,
            -0.20433672590737176,
            -0.7212511571027627,
            -0.10929662211921103,
            0.11188424540036669
        ],
        [
            -0.010630353406269036,
            -0.024731707056569702,
            -0.07023529540542532,
            -0.13864910831654545,
            0.0001579059034983669,
            0.023361346858918684,
            0.08152316373212816,
            0.018420245784113578,
            0.44372229501011523,
            0.16129738261681853,
            -0.5705369900083869,
            -0.13339078335573137,
            0.15427965851652253,
            -0.02141606402615669,
            -0.04804921943132192,
            -0.08552857896923785,
            0.03401380773259889,
            -0.05376321462967533,
            -1.363748831653798,
            0.6136356618334732
        ],
        [
            -0.226559009995687,
            0.026799706184796192,
            -0.21627088747997797,
            -0.20875138192795129,
            -0.16470992685329766,
            0.18147236899734395,
            -0.1385239489552021,
            0.10982956391676701,
            -0.018694207973199133,
            0.19872992409032555,
            -0.4964382073357665,
            0.0881965338575271,
            -0.11740341927841853,
            -0.055609744838807,
            0.11595948444499407,
            0.07438652030058018,
            -0.826310672040497,
            0.3165837712639176,
            0.20854821529460268,
            0.03865113744796857
        ],
        [
            -0.056662498776137396,
            0.132644897976533,
            -0.1660159710791176,
            0.5538732760228052,
            -0.2628177997168326,
            0.1283638670410918,
            0.216491458465371,
            0.07307326453485716,
            -0.22435555148780348,
            -0.3817205513149954,
            0.3180033421080761,
            0.2220429688744116,
            0.20640509177185998,
            -0.23028765452326022,
            0.12322335626943592,
            -0.26526864015003054,
            -0.8069022022764444,
            1.3123721981456076,
            0.34819327926011084,
            -0.29958822670096497
        ],
        [
            0.3622835853838203,
            0.2385394590909183,
            0.1663202978172368,
            -0.2713588515636717,
            0.19504167720026702,
            -0.21194325766361166,
            0.11335439128294061,
            -0.35796643110954335,
            -0.17858467656690563,
            0.03698990362185709,
            0.4224653199022663,
            0.11508401759219318,
            -0.15630482731514997,
            -0.10053865732916872,
            -0.40397955976278493,
            0.29060669085664725,
            0.09959427176371081,
            0.019589368658259186,
            -0.5207162388774852,
            -0.22247480335412173
        ],
        [
            -0.228576412396074,
            0.3447318267961445,
            0.050070279374993844,
            0.052444810890362285,
            -0.49417379689274243,
            0.13720981697681478,
            -0.35092253272124796,
            -0.1343293559913044,
            0.4609412041056413,
            -0.1364234334462981,
            0.1929188733911638,
            -0.10410062725995435,
            0.18739047360925615,
            -0.20733258740078614,
            0.13021074905453603,
            0.09753401653947268,
            -1.2323713303615904,
            -0.21863804162073677,
            0.16045561370953973,
            -0.00975136299580267
        ],
        [
            -0.4025095296201624,
            -0.1378114404642658,
            -0.3788718224081403,
            -0.47675892509507,
            0.19975398351024806,
            -0.1154722360526234,
            -0.24115356233621782,
            -0.1567317706590322,
            0.4318380941200736,
            0.19305286277984285,
            0.2182197246283133,
            0.09991410349372251,
            -0.19396385806131475,
            0.15483668200370423,
            0.2367467186283554,
            -0.25487512571046467,
            -0.2681268541370676,
            -0.9406605057065396,
            0.4242292679998332,
            -0.24888406567396765
        ],
        [
            -0.2821950024643232,
            0.35814904373058176,
            -0.024860730362603632,
            0.3319657095603576,
            0.02368854925825628,
            -0.06616462173805045,
            -0.23749337398412837,
            0.1305838028769011,
            0.15446043237751225,
            -0.12514430186550435,
            -0.0405787191358209,
            -0.06354570814217067,
            0.12637553283117545,
            0.13931331498301136,
            -0.2161734565736008,
            0.4063749505261005,
            -0.2294247983701496,
            0.005230325850566327,
            -1.9129623902491266,
            0.21362138410385578
        ],
        [
            -0.04760177299182161,
            -0.1606400541094082,
            -0.08030172306587942,
            0.022721583566705218,
            0.05324348577212839,
            0.1628473770439344,
            -0.1826317301501374,
            0.12642642380809757,
            -0.08319251969159414,
            0.2965320586486345,
            0.08902690927605282,
            0.10854351430990153,
            -0.007444142301747566,
            0.1489341569851566,
            -0.2418460641495544,
            -0.033377904939944136,
            0.26069844382259577,
            -0.03084764713364162,
            -1.737534700642705,
            -0.2482397908722099
        ],
        [
            -0.5198658320801641,
            -0.15026600088887326,
            0.21023573227110068,
            -0.08410238536173255,
            -0.3684195572655522,
            -0.36324653010482516,
            -0.12081671792117395,
            0.19470065383759097,
            0.6590199345328677,
            0.1353387705549217,
            0.25672818946061765,
            0.34953926539877994,
            0.11060120424582132,
            0.3105396542316274,
            -0.06144935177289484,
            -0.026951468365062382,
            -0.0013724842245294714,
            -0.01132072039224951,
            -0.727045809004527,
            0.1454328101215062
        ],
        [
            0.19912685202368438,
            -0.32445673628298705,
            0.41588294465384507,
            -0.28378023534345065,
            -0.19056246902486046,
            -0.024945729062479195,
            -0.1886467963492095,
            0.10796642322837777,
            0.07320963838256042,
            0.1287427182441805,
            -0.07542585932148632,
            -0.3894226510815079,
            -0.23261273950073497,
            0.1554951657879059,
            0.09686595733698901,
            0.25833980548842816,
            0.04108035382993757,
            0.013367692663952335,
            0.4377480189451019,
            -0.3756358142080965
        ],
        [
            -0.24787828812772061,
            0.09671728564793936,
            0.03725903288225423,
            -0.32626531343577747,
            -0.12137502568802111,
            0.3460138237941985,
            0.017679508699408684,
            -0.1204520340051045,
            0.11290110389878305,
            0.30974974011511747,
            -0.0446241762117475,
            0.65744362884981,
            -0.234992461944452,
            -0.2465308914729277,
            -0.13167016643138577,
            0.2702278392012675,
            1.8855233965068228,
            0.10332511332143991,
            -0.23391862664022212,
            -0.05036488093092259
        ],
        [
            -0.07100597534713991,
            -0.09807119752233066,
            -0.3595686655627298,
            -0.12031076603808899,
            0.06094232181483705,
            0.23893282401351307,
            0.24666724725975556,
            0.20380002754035886,
            0.39342313036179694,
            -0.14629423674916903,
            -0.22015595629674395,
            0.41858855872226897,
            0.13692693535844175,
            0.09777150489970218,
            -0.27471432821173447,
            0.21738984940420092,
            0.5918183771469824,
            -0.1646404039783591,
            0.06288571113293584,
            0.018861623832767523
        ],
        [
            0.1728030903866515,
            -0.21855805655467123,
            0.02435696343437704,
            -0.10086348199493661,
            -0.11961228804449593,
            0.2212200028156447,
            -0.08258744714217973,
            0.13929293460227088,
            -0.1314937110615133,
            -0.48043633119783263,
            0.06478309601021488,
            -0.2837632896429291,
            0.1250768003146116,
            -0.3370391708958135,
            -0.0596093510889629,
            -0.1816520967757164,
            -0.35419771337649014,
            -0.6355743275142856,
            0.21491675132674457,
            0.16890968117846397
        ],
        [
            0.41309844159140297,
            -0.12750040160893766,
            -0.303044849437005,
            0.26502702188853744,
            0.48626360566540416,
            0.08406216310619852,
            -0.18886026382367102,
            0.18179746560873145,
            -0.3322144368480933,
            -0.05235649545505972,
            -0.2719930682431238,
            -0.10640061700994004,
            -0.48879248637593325,
            0.1637128817311014,
            -0.04105344839804479,
            -0.09733883204461809,
            0.3666175968860837,
            -0.27896454348717215,
            0.04695004597011462,
            0.042965069328772254
        ],
        [
            0.016790150489025074,
            0.25366063060741084,
            -0.12196956181373449,
            -0.1857880456847609,
            0.022356455213418086,
            0.150223485375442,
            0.24516890820167309,
            0.24741018677341778,
            -0.10089562558155937,
            0.20373667280614757,
            0.3068100615018844,
            0.34757605699398986,
            -0.3366936848877232,
            -0.3276192866327262,
            0.15802579086413826,
            -0.002321230220166904,
            0.16875448256780062,
            0.21286226362243232,
            -0.050687991905538375,
            0.5976816735455099
        ],
        [
            -0.09423964761655262,
            0.09119531571021612,
            -0.21035637757822473,
            0.06215894185022476,
            0.16378962403191766,
            -0.35813829395323926,
            0.17445222039904523,
            -0.2809106558003109,
            0.10157696864606904,
            0.028536977413650542,
            -0.1001406310459152,
            0.42239814427967914,
            0.15201778997210658,
            0.39500563170615827,
            0.1082328242739481,
            0.20464883875885234,
            0.37621159923778336,
            0.30681181501982835,
            0.037674584187167466,
            -0.14612843515038168
        ],
        [
            -0.10564496519867168,
            -0.12806510677672797,
            0.3140339943805754,
            -0.0452994828067224,
            0.3794871000660705,
            -0.0224740578358452,
            0.2347951051852379,
            0.11183371589098368,
            -0.4385612654313401,
            0.10487739386762197,
            0.17604656198846683,
            0.10708224183452471,
            0.18091618229561826,
            -0.024589384512624775,
            -0.144749895216375,
            -0.21540689246900338,
            0.30809983861438356,
            0.17281051100524206,
            0.6790895589490099,
            0.7061547659530956
        ],
        [
            0.26002068026124747,
            -0.07165458385718539,
            0.546691003671556,
            0.37461410034753606,
            0.2581934939424218,
            0.05176509100442636,
            -0.20804010591585936,
            0.25096828575995445,
            -0.09955373070494818,
            -0.13585295897376962,
            0.22681894184123297,
            0.18373482040851444,
            0.2532926951478301,
            0.31208970291537735,
            0.33599237309162977,
            0.24385131153238587,
            0.355436902161346,
            -0.507674051381285,
            -0.7527104063701645,
            0.03229305502626169
        ],
        [
            0.07450810970817867,
            0.11982723123987091,
            -0.10413722433291238,
            0.45789852580002993,
            -0.06379178325446544,
            -0.19679538172820743,
            -0.38100325522013534,
            0.05110846747882246,
            -0.10589038726788087,
            -0.28949161310509536,
            -0.06356498235282071,
            -0.11813797480500969,
            0.026540435660813273,
            0.30570704194776027,
            -0.01116816253666148,
            -0.3815394198379187,
            0.24120300537218375,
            -1.0317512617909914,
            0.14821519214679382,
            0.06315446043537039
        ],
        [
            0.07365819432844697,
            0.40872540733716767,
            0.1583566462863696,
            0.18543674474457728,
            0.08792851836575744,
            0.3034963117429635,
            -0.23040826337640477,
            0.25593985829411503,
            -0.13395974931929575,
            -0.19315829737307702,
            -0.05182220210548181,
            0.46612319025718035,
            0.16354243141076247,
            -0.0626240410299995,
            -0.074377409493064,
            -0.06971142521754692,
            -0.5000639105274093,
            1.1093820485381614,
            -0.440761683976451,
            -0.22798969945635242
        ],
        [
            0.058723738618872375,
            -0.1333724603328295,
            0.39619991548819444,
            0.11014023401626931,
            0.40828459574307546,
            -0.06272163502452192,
            0.17224385045159069,
            -0.20129941960722633,
            0.041435412324627545,
            -0.30672126965531327,
            0.0428370669700421,
            -0.3950138603591111,
            -0.11627552597261581,
            0.022214446636235594,
            0.19874148836430608,
            -0.1777342455086432,
            0.5321882962564926,
            -0.3861385534197469,
            -0.2897601463751708,
            -0.3822804487224836
        ],
        [
            0.12134040064192805,
            -0.3502714115349988,
            0.3627948635406751,
            0.4987106540616491,
            -0.09634983191288007,
            0.0838864687813642,
            0.07987448495117623,
            0.24369704857600893,
            0.07764948220810161,
            -0.009378576618446663,
            -0.2111071458096833,
            0.34341575784578227,
            -0.122494005819142,
            0.2643441133257732,
            0.11205752298815265,
            -0.11620404644202588,
            0.6160095568215049,
            1.0598106956818512,
            -0.04958981531098442,
            0.19622066907833657
        ],
        [
            0.17839630151323177,
            0.11331646442798217,
            -0.31894961063826477,
            0.5275974516275455,
            0.3197050044463089,
            0.3037749647948483,
            0.0005441227913828929,
            -0.24169430741878908,
            -0.17305691225525044,
            -0.10065852901199633,
            -0.22537199607378172,
            0.4097661875685761,
            0.03665490647475297,
            -0.2953201986899956,
            0.08802280716469668,
            0.30714044344519936,
            -0.004668099466131621,
            -0.2918331212483097,
            1.4328081596415785,
            0.35265441486617427
        ],
        [
            -0.19607329653527109,
            0.30807980348368097,
            0.2457579473474257,
            -0.7089378635783902,
            -0.29362004900545574,
            -0.11115419379223365,
            0.23251197550833522,
            0.0953775608875005,
            0.12181931831356818,
            -0.17538882891026933,
            -0.20162234193199038,
            0.0686226373788524,
            -0.07955144632317405,
            0.3376632308947251,
            -0.030162470580373753,
            -0.18254426943027213,
            -0.027035653007321095,
            -0.1124036373699139,
            -0.9067618721652253,
            0.9055157219402136
        ],
        [
            0.015004446380330511,
            0.08039849690348191,
            0.713635082002039,
            -0.9999223832417724,
            -0.16077530354617062,
            -0.10544691417944003,
            -0.2098246952124545,
            0.19641146974762325,
            0.07547748658013397,
            0.012664308428509739,
            0.049896148470456377,
            0.03780039221641881,
            -0.17714382490506692,
            -0.13211750221736104,
            0.12400901271980072,
            0.06919971148710657,
            -0.9521271910935648,
            -0.5574846345130395,
            0.6403576942459598,
            0.1883643429261909
        ],
        [
            -0.16182761995485975,
            0.3711079606904066,
            -0.08221523174769543,
            -0.004631247085691857,
            -0.2787283799950712,
            -0.281656577772972,
            -0.1933037786556917,
            -0.006643907162021572,
            0.3071336010978294,
            -0.3045483385955305,
            0.18043571631841776,
            -0.3608351081616912,
            -0.256926093324279,
            0.11539336337497404,
            0.3393815499443028,
            -0.21908725427409956,
            -0.034992994140366454,
            0.031455258467025904,
            -1.1323749617822543,
            -0.35088610448126983
        ],
        [
            0.256910630156964,
            0.05798797458663136,
            -0.12944044624967863,
            -0.47351020404934535,
            -0.2325393211440935,
            -0.20287062460231417,
            0.42812185472478415,
            0.24723812360194125,
            -0.13459170273686766,
            -0.2557657720418253,
            0.03392349665334412,
            -0.0693072061588317,
            0.16495222064167964,
            -0.005406540416852895,
            0.3220957758800455,
            0.2629644617331639,
            -0.6143312400730988,
            0.6520849162131754,
            0.8455444884530684,
            -0.3772025102570097
        ],
        [
            0.06478388241454676,
            -0.09685060989902702,
            -0.33530818411024066,
            0.45040594205429646,
            -0.37352903416854283,
            -0.2998686476145911,
            -0.24920077423579626,
            0.10274123676078352,
            0.12314238995246998,
            -0.3141477982818513,
            -0.46722743152698637,
            -0.416776351735999,
            0.4319922366405729,
            0.04404197410313048,
            0.10433728172910565,
            -0.0832957445004159,
            -0.042063899788057434,
            0.21335653297180748,
            -0.0486288581787028,
            -0.7980204142177766
        ],
        [
            -0.12792738742945556,
            -0.013045030902154699,
            -0.26722071365239863,
            -0.34920959458384593,
            0.053927117464155024,
            -0.15486146951443583,
            -0.265239511211027,
            -0.0356358644276613,
            0.2821374472223398,
            0.05278173873407095,
            -0.3618118734417896,
            0.3759645957197667,
            -0.2430523432330432,
            -0.23816674446831196,
            -0.15458706247556805,
            -0.2273821373680408,
            -0.4090128461276751,
            -0.13341141019983663,
            0.1163600703272457,
            -0.1964240974299895
        ],
        [
            0.3148623905181025,
            -0.3796377076014066,
            0.33922996232998864,
            -0.6224814952205888,
            0.07526065049014552,
            0.12801882854788257,
            -0.01730842762240768,
            0.014906190585350946,
            0.24213914006379575,
            -0.1533937459271721,
            0.34177551503897186,
            0.36107069574490247,
            -0.3015046051492983,
            0.16984273276145373,
            -0.36642775637369046,
            0.04732329020138416,
            0.24839059032445052,
            -1.8024223466956024,
            -0.01759854024931797,
            0.029743957947320113
        ],
        [
            0.10951021103221652,
            0.17386824741678833,
            -0.37643043400443216,
            0.022711122541356932,
            0.1456268566992873,
            0.10804441768118624,
            0.08640877535026067,
            -0.09658488218602923,
            0.24572594625006802,
            -0.4182182336346332,
            0.2017032557384686,
            0.21606484258313022,
            0.1790079118761106,
            -0.0670682084304347,
            0.005837455116362445,
            -0.246250017538391,
            -0.04347357270728256,
            0.1456181232879814,
            -0.9081060148394091,
            -0.21570390675063272
        ],
        [
            -0.08582577223879449,
            -0.07372457685918732,
            0.22955795192223868,
            -0.563343678268229,
            0.29267977445242377,
            -0.2525894745556181,
            0.22106618635614828,
            0.04820118612728657,
            0.21207141614967173,
            -0.26444700735631993,
            0.14230496169715764,
            -0.0048358173656179735,
            -0.31866498333654103,
            -0.0017461597672675806,
            -0.26286753648475475,
            0.020120726938470203,
            -0.05163531204615997,
            0.1318370164578975,
            0.18529730432560682,
            0.3260059706208388
        ],
        [
            0.1530122211716552,
            -0.27743926383237616,
            -0.238859464391149,
            -0.6611850957894763,
            -0.011854072961659513,
            -0.06952936412581544,
            0.10384627943475151,
            0.32443850770058186,
            0.03936902278842584,
            0.1819134801144623,
            -0.20593205996077418,
            0.43894659166282884,
            -0.05949263847432192,
            -0.19333230585230557,
            0.17060876138422112,
            -0.18087352886689795,
            -0.4230863372767125,
            -0.06709408836948183,
            -0.4625245807736644,
            0.0008842987762388743
        ],
        [
            -0.15945439802040276,
            -0.0655598186733568,
            -0.2643150854907912,
            0.23553831483816748,
            0.14800638834737476,
            0.15013954443846483,
            0.02514495811452621,
            0.0695360496680296,
            -0.14600817440992722,
            0.28469800735624096,
            0.41725961552419,
            -0.5066267134888324,
            -0.0506583662680359,
            0.3044988193045561,
            0.18929730893086213,
            -0.1259102739434843,
            -1.2606587824527637,
            0.931937866797731,
            -0.004004424452549175,
            -0.5977051059509719
        ],
        [
            0.05180989826320105,
            -0.20199431205769527,
            -0.13950415139259337,
            0.11213623749428762,
            0.2937741164536767,
            -0.10215972003613735,
            -0.0716054631157423,
            -0.04931319117126338,
            0.19445255128737582,
            -0.24769110666639893,
            0.1221864136557184,
            -0.05543831591600234,
            -0.3506648099666576,
            -0.11360149750314798,
            -0.3565709648952429,
            -0.23172240229122854,
            0.4945539606303033,
            0.789610541111287,
            -0.44822271203454694,
            0.4192950575178591
        ],
        [
            0.4538379158412654,
            0.08126980287425681,
            -0.8896559598975087,
            -0.13451812268223193,
            0.15705652556778302,
            0.09130742210251504,
            0.2683894547935162,
            0.12312918800360984,
            -0.14785405146191719,
            0.20363637169734575,
            0.03214723212340536,
            0.545415633478085,
            -0.10486714402901003,
            0.0936968860233851,
            -0.06331316358020266,
            0.20627998398119693,
            0.1765757478120235,
            -0.407016140026359,
            -0.3514560357839324,
            -0.23479192622457698
        ],
        [
            -0.045376782855052505,
            -0.2556238166802752,
            -0.16432859308441045,
            0.07530964953962566,
            0.06824226888248494,
            0.18491431196274727,
            0.21836008510360463,
            -0.19246804903515885,
            0.09740505965318794,
            -0.23420904272018134,
            0.25576204658146634,
            0.11628679184103231,
            0.29353925380871526,
            0.14916100883477867,
            -0.2803731047178136,
            0.39364034055161684,
            -0.33262744086569324,
            -0.3534035858460654,
            0.8415512304372228,
            -1.3010299482343635
        ],
        [
            0.26685249922606513,
            -0.491164266813095,
            -0.10807090042473293,
            0.009240798442034827,
            0.0036878189782320586,
            0.05908496557254953,
            0.04532235936193453,
            -0.13754300924592996,
            0.042420838211391435,
            0.238350932444712,
            -0.06985705415614334,
            0.1954183912476023,
            -0.004370655962104288,
            0.2662074439912823,
            -0.27296147528774123,
            -0.2071125213844301,
            0.6710449839927799,
            -1.6511736552374212,
            -0.025782044560070574,
            -0.0005876695113500593
        ],
        [
            -0.2556684892129903,
            -0.16450624089275395,
            -0.9040369476202705,
            -0.36048785072767164,
            -0.2198287408515568,
            -0.30466820614628937,
            0.08829710813073166,
            0.333235863496452,
            0.07271163396673164,
            -0.15707622982195746,
            -0.3205448734807182,
            -0.21156145640722435,
            0.09033584803111538,
            0.4436401899551195,
            -0.21386025256709135,
            0.038826881730197424,
            -0.3478408339127663,
            0.4592895606489214,
            0.28447899245131697,
            -0.15516760482433414
        ],
        [
            -0.014698939698269435,
            0.09087566837166618,
            -0.10061716905985642,
            0.14099069460630845,
            -0.06907997209252961,
            -0.08031324541993946,
            0.18545978868076124,
            0.17049767470797475,
            -0.09052631229534433,
            -0.24912343108319843,
            0.09277369537798444,
            0.21330051960975263,
            -0.04227068429499812,
            0.2908497501295812,
            0.3993026966281566,
            -0.13629184425762736,
            1.8239386915982931,
            -0.44254641522133725,
            -0.03656200422711207,
            0.00978502629099356
        ],
        [
            0.16196246235684986,
            0.293247272928352,
            -0.3959409180957344,
            -0.5826188511156207,
            0.02577659674778684,
            -0.11582674961960714,
            0.0631902293100157,
            -0.15612638786450003,
            -0.1745184961154931,
            0.27132383793388454,
            -0.5422315098947661,
            -0.28860659042542963,
            0.01273930533601361,
            -0.25659329474154013,
            0.08669570949145888,
            0.12537931581627315,
            -0.23383824154410177,
            -0.2438585826795757,
            -0.9679020899471191,
            0.31020204261360096
        ],
        [
            -0.27159255942018085,
            -0.5221134503369939,
            0.21974413009738264,
            0.5282916620350384,
            -0.12339489052529069,
            -0.24445222380975942,
            -0.09392725586984475,
            0.10993813898417229,
            -0.06385245940799016,
            -0.40562434539260595,
            -0.22437735701909997,
            0.06435073601923852,
            0.0014551112980038727,
            0.42024393000055904,
            -0.11619388180011013,
            0.24779217526328084,
            -0.08305499000101477,
            0.25321401242447944,
            -0.535666164454583,
            0.33188330464964594
        ],
        [
            -0.23435851801979515,
            0.053233326471742524,
            -0.03473463619106675,
            0.03667857693258263,
            0.08685985069700614,
            -0.18917535258533713,
            0.23347864421680856,
            0.11175749817748398,
            -0.05670056590727818,
            0.33023322491489565,
            -0.3405950162415422,
            0.04800183289576383,
            0.05531278352881441,
            -0.3099516110425251,
            -0.29096366911597615,
            0.13273040381599988,
            -0.3712312661981878,
            -0.029274834420585854,
            -0.33626162763469636,
            0.5454420234932439
        ],
        [
            -0.15927668458505415,
            0.09581683206087215,
            0.5149512132594379,
            -0.47288766354987016,
            0.01244285587179079,
            0.05928637202495411,
            -0.36809127282321263,
            -0.04701715943848251,
            -0.0312358925594969,
            -0.10097227823258625,
            0.6369163387631007,
            0.11182852675931691,
            -0.0397486877411857,
            -0.19353654742951182,
            -0.21509061946968772,
            -0.10080209587653353,
            -0.09923039603082501,
            0.1359958723160724,
            0.5646345018869067,
            0.9945086977318499
        ],
        [
            -0.08067668654041572,
            -0.0014467473992277374,
            -0.28066771406104957,
            0.12250868521847073,
            -0.08303038069559096,
            0.4157148279698835,
            -0.08019972122953262,
            -0.031175172071313914,
            -0.2228933724623259,
            -0.21159048883664822,
            0.5906954415153756,
            0.13674535573509206,
            0.0595228010081556,
            0.29692697571851673,
            0.013531940583636952,
            -0.23415712768544633,
            -0.5412295960997416,
            -0.5472177291078286,
            -0.009844355381925069,
            -0.033284311800483884
        ]
    ],
    "h0.bias": [
        -0.33199168869158646,
        -0.7070359267135757,
        0.16877229649668501,
        -0.5300531727917093,
        0.0029318870048785505,
        -0.409959691413163,
        0.06059159665509707,
        -0.694759670995758,
        0.2923604056459208,
        0.23391757986519152,
        -0.34099493725495916,
        -0.016869751926985196,
        -0.13620731249920176,
        -0.07598406337011733,
        -0.04711500035505951,
        -0.12408660178457344,
        -0.24407627877494784,
        0.0946262785744595,
        0.3167043239963768,
        0.16562602110133992,
        -0.49862178186663464,
        -0.08967515579780777,
        -0.6582097778977131,
        -0.7666304411287204,
        -0.22677426984147922,
        0.3256738762124105,
        -0.5365971598926926,
        -0.7289213528315518,
        -0.09160367429770833,
        0.22267637805422158,
        0.30589723069454217,
        -0.09830160103068974,
        -0.21391192751873614,
        -0.30457426440260105,
        -0.38603203668841224,
        -0.2878619872920982,
        -0.14903924156423723,
        -0.6795395360245905,
        -0.03210065785782039,
        -0.06144562710519731,
        -0.3047602752005641,
        -0.142925083343387,
        0.2569228526035712,
        0.12587715406956754,
        0.18099412127192835,
        0.016037006903300153,
        -0.23883783445836823,
        0.5949756128260809,
        -0.66360482489199,
        0.039923360432251656,
        -0.06280412122884022,
        -0.7513019426406308,
        0.10772813280121182,
        -0.3600646873218932,
        0.11422079676542282,
        -0.23645695620220514,
        -0.25652201854973405,
        -0.4159625091886461,
        0.32115579708500475,
        -0.08805473738201582,
        0.06373754088012676,
        0.1947168197265351,
        0.2279192811395673,
        -0.625284703641864,
        0.13624881948622775,
        -0.40992523659271557,
        -0.14267671253827927,
        -0.16062516007446204,
        -0.3815817112660615,
        -0.15487680337288595,
        0.08173366230192289,
        0.37922523984566714,
        0.2984810328607857,
        0.4133377665244319,
        -0.014485629041792056,
        0.08688444212874767,
        0.15065719110400877,
        0.2649285848234759,
        0.1866812105209385,
        0.19313046790861116,
        -0.37032254423690525,
        -0.41562284000669164,
        -0.6702185852954712,
        0.4493754841825859,
        -0.5004445148223334,
        0.021543507493443467,
        -0.359963119568525,
        0.504336752824592,
        0.1885793773621516,
        0.35987911020730357,
        -0.09347094833238404,
        0.13792542098817107,
        -0.48526288270882784,
        -0.24604997651402497,
        -0.1204836535280211,
        0.2878666372325473,
        -0.19836671599839972,
        -0.2015760082668157,
        -0.29048782902825704,
        0.34950833178166796
    ],
    "h1.weight": [
        [
            0.00969476152035815,
            -0.060409386620675964,
            0.042603246187404756,
            -0.004554692850978031,
            -0.21093926691205686,
            0.14848408623219544,
            0.05751173003869451,
            -0.1443908747842639,
            -0.22115819868418785,
            0.23785867502772112,
            -0.1631348487219173,
            0.0006939945193017392,
            0.01939460279417232,
            0.09622646121172243,
            0.06785846817064885,
            -0.12442351803986991,
            0.04502997494501453,
            -0.11952349124067921,
            -0.22553682785765314,
            -0.009076937971095492,
            0.1706141433771455,
            -0.04399557094098982,
            -0.10363526478886194,
            -0.09685313450862318,
            0.06876451078470153,
            0.049194548611635545,
            0.0284920561266698,
            -0.048732591404889475,
            -0.024474247147964426,
            -0.1697824125159386,
            0.06144298511074951,
            -0.09364592779668925,
            -0.22458860456559368,
            0.005339874897201012,
            -0.2735879398778503,
            0.23065554346069014,
            0.06163498786200822,
            -0.14948311309733683,
            -0.026679397081319896,
            -0.004345619840895965,
            -0.017414297850254192,
            -0.016887039309946124,
            0.04867039846956871,
            -0.16369176772892888,
            -0.05926316659162857,
            0.15426478343093894,
            -0.1093265752833135,
            0.10813860835302411,
            0.15526304460225288,
            0.09822154066547659,
            0.13064708183898935,
            0.0032971449906475914,
            -0.04284317649516993,
            -0.22900110886994543,
            0.031208496451104253,
            0.1250688512371062,
            -0.2632970815529533,
            -0.18979299062231514,
            0.021802218645681968,
            0.10360797457388458,
            -0.025318528772880773,
            0.013704484025499498,
            -0.06601661234770916,
            0.2348323890079095,
            -0.15907480597771623,
            0.06777051296276561,
            -0.10838533165891362,
            -0.02159477084575652,
            0.015105193981852382,
            -0.21354695424306538,
            0.11160995385532353,
            -0.17697188584354184,
            0.1257474992045594,
            0.08691758300935211,
            -0.20050209489241055,
            0.01704845900594767,
            0.40175885897003716,
            0.0914128393613028,
            0.03712679867985691,
            0.18346785514693748,
            0.0740674535119091,
            0.11390589122274486,
            0.0012055088150436108,
            0.2246811770927861,
            0.09331505331234445,
            0.0036798995630709748,
            0.0248392805313703,
            0.26089943702303425,
            -0.15751195348501942,
            0.03045103351236338,
            -0.251783279290677,
            0.022456355342656904,
            0.055986105067344985,
            -0.041032306086478336,
            -0.008091622486474138,
            -0.15835657881454754,
            0.16397455543956613,
            -0.11569512898050298,
            -0.01539625031995845,
            -0.3463692636269818
        ],
        [
            -0.05072656390943245,
            0.11183146464694209,
            0.2383264267707812,
            0.21822292463370246,
            -0.07822282702381929,
            0.13659872287785269,
            -0.5434054602171416,
            -0.08458272492023831,
            -0.030827479719697137,
            -0.16753321881860822,
            0.03715864148463183,
            0.005259903893904756,
            -0.1309196188624087,
            -0.03913493623019369,
            0.16520179342133012,
            0.0494783516050241,
            -0.009750890916857435,
            -0.10585561763041768,
            0.08180316926878989,
            0.09787818022348026,
            -0.026941853290327375,
            -0.2074849355675144,
            0.2184188354296918,
            0.2062777348892656,
            -0.09995801355081957,
            0.05110559093209125,
            -0.016654238113622554,
            0.027839676269181664,
            0.20485400870547232,
            -0.09882992675502072,
            -0.161627161740043,
            -0.2797680197893711,
            -0.07230490515858616,
            0.11800553942455884,
            -0.1677402395953258,
            0.12423699372867124,
            -0.1761510726462699,
            -0.028360260647053225,
            -0.15295573421718578,
            0.003024248123627573,
            0.08391728595354238,
            -0.020016782709093225,
            -0.1328290892722062,
            0.034885011744353406,
            0.09430327601893486,
            0.03245750699445289,
            0.04509285192330195,
            -0.0032330087899340304,
            -0.029746090368059513,
            0.05549337967169124,
            -0.00958391740697469,
            -0.2715746656251555,
            -0.052159720826216886,
            0.08601915655630647,
            -0.2403470908425531,
            -0.04013543890341561,
            -0.016135398857347327,
            0.11221759809306482,
            -0.0018376029243766638,
            0.04288130282857934,
            -0.12635376447380167,
            -0.01949477627314807,
            0.07125164347983912,
            -0.10544874862284177,
            0.034908819005166535,
            0.310313788691459,
            0.15585084887129333,
            0.10010843722176167,
            -0.09088478085874456,
            0.014811921846122142,
            -0.23440800912789192,
            0.09632814636723436,
            0.03689156476755688,
            0.2631842032425786,
            0.08490755708907231,
            -0.10258760560296268,
            -0.12527618446807381,
            0.07004389333968655,
            -0.015323977270374567,
            0.04287246387497595,
            0.06344750151666954,
            0.11412798001133347,
            0.14691157432267163,
            -0.15123589505401294,
            0.07616442134310125,
            -0.09782557035956874,
            -0.07593269737614901,
            0.09678762539250778,
            -0.020153514223409788,
            -0.09456543908820923,
            0.07218229156757808,
            0.01266381586919256,
            -0.15805140393133774,
            0.12437665615516716,
            0.17614285252389275,
            -0.008504802388251352,
            -0.017098265308018754,
            0.11009024713705448,
            0.18241870850366193,
            -0.07166783964143628
        ],
        [
            -0.26380561985625944,
            0.018408035102458337,
            0.15364631466788295,
            -0.012521375233872424,
            0.08011993807378799,
            0.0973426411480008,
            0.014370300534950958,
            -0.21213171322411334,
            0.15572594508122603,
            -0.23799449725717323,
            -0.798624332514835,
            0.16412438818312566,
            0.15416631406445408,
            -0.09830251081857254,
            0.0381420308063056,
            0.17259415019760058,
            0.22301548747639402,
            -0.252358356141213,
            0.2452461352034525,
            0.0262839178492026,
            0.05416448526608809,
            -0.0015720299581586516,
            0.061375847821385714,
            -0.1450607709801352,
            0.021155382994900152,
            -0.3404318645322692,
            0.08268894966474268,
            0.20404841503517182,
            0.16975908130980621,
            0.08964999542853777,
            -0.057641746383250946,
            0.14941162188890642,
            0.09556637725143127,
            0.03939157410893297,
            0.07017394557109402,
            0.01542860376831128,
            0.052940687873622924,
            -0.21021483134384492,
            -0.22726432558417714,
            0.07434762655275332,
            0.024762163195960495,
            -0.17513479056109313,
            -0.2511418218012124,
            -0.36575646032933457,
            -0.07571205540931265,
            0.2253282261021337,
            -0.10544119194835083,
            0.17390132796636318,
            -0.12850941483580314,
            0.13735592783958703,
            0.0652939915403702,
            -0.1783926801334523,
            -0.17770739008843547,
            0.00696762895367315,
            -0.02876837886455685,
            -0.11855665167921545,
            -0.05340785465759968,
            0.06398433190431894,
            0.11116680832399005,
            -0.17199587158339497,
            0.004944711689351274,
            0.08808768690138759,
            0.11069387603941894,
            0.19128366376230332,
            -0.012878653646716375,
            -0.029676809168152973,
            -0.10210237491079681,
            -0.05366292605218908,
            0.11489388825476733,
            -0.1228481963608677,
            0.012735789400417865,
            -0.06128139473178726,
            0.20048857153131655,
            0.1879561725269082,
            -0.21589717398916297,
            0.03096969720332203,
            0.11506511890857653,
            -0.3553986523628484,
            -0.1664696243381365,
            0.12865079380070793,
            0.17952168488440082,
            -0.09812185929541634,
            0.0017941384643679462,
            0.05141265524351494,
            0.05291049718592288,
            -0.04940037907810746,
            0.14401835482938494,
            0.035928883959880024,
            0.04441864841758018,
            0.06753889796651165,
            -0.033954668643630094,
            0.2415790684562812,
            0.014764300863224993,
            -0.12831536375028155,
            0.014897083247791348,
            -0.01946696279772148,
            -0.2719636145598193,
            -0.19062283127886637,
            -0.055194878023964875,
            -0.20985396668388542
        ],
        [
            0.6365113581681635,
            0.033396771843354184,
            -0.030951105447399926,
            0.25618321593908283,
            -0.049321832167624424,
            -0.05521618812189132,
            -0.20228623309425955,
            0.08323516260977419,
            -0.37217433028450503,
            -0.36745612443971104,
            0.1405820718581368,
            -0.29308773142610484,
            0.0096398476439764,
            0.2639027496320258,
            -0.0040367470752415415,
            -0.3723552385418138,
            0.01035921938302417,
            0.3167708062978176,
            -0.04359087949709589,
            -0.15560887782143992,
            0.09122575485424761,
            0.07606912372529018,
            -0.07719874905345168,
            0.12487551315915488,
            0.14271408737009536,
            -0.07681235667484365,
            -0.025361280756442083,
            0.06430631783552203,
            0.07422621410520729,
            -0.16952205587387023,
            -0.004823325956612324,
            -0.03826912185854199,
            -0.06427161199752858,
            -0.014083014935910533,
            0.0035606168569799687,
            -0.23944858135945468,
            0.17558060212415433,
            0.18299232943833516,
            0.10631428925385529,
            -0.13004536328621738,
            -0.09388226626380236,
            -0.00874334282716316,
            0.2250745357159281,
            0.1621862950002429,
            0.18204567888707163,
            0.05960628943221615,
            0.2237602646608668,
            0.13285979862086097,
            -0.12720040547970393,
            0.036602962190098044,
            -0.1404699914407377,
            0.011318747034945556,
            0.277136693887272,
            -0.061998167921117536,
            -0.08042252322623937,
            0.09456257824965897,
            -0.06808161472815252,
            0.1987098876005696,
            0.08827270242350463,
            0.04182919536181375,
            -0.27652381083344363,
            -0.005284973420931006,
            0.06926604611294747,
            -0.6333401348820566,
            -0.06384253103924467,
            -0.13208016795908073,
            -0.12158881056217664,
            0.17906516009809673,
            0.046911614585536006,
            0.2727771023119927,
            -0.16862523967164988,
            0.04914296671097015,
            0.026237108089545647,
            -0.0981395952126688,
            -0.09568762760271837,
            -0.017784855354370344,
            -0.16157826556338495,
            -0.12409768830539317,
            0.19621062948191487,
            0.03688109285317135,
            0.20687285720963344,
            -0.022294871902031787,
            0.042654409993116434,
            0.13650747358421225,
            -0.07133141767277844,
            0.05306026571109609,
            0.0016195022740080616,
            -0.003610120700718021,
            0.27295949120553953,
            -0.01589832697052589,
            0.09984016149849698,
            0.17683748069629546,
            -0.0646904655095094,
            -0.31577871530084733,
            0.20777494661507634,
            -0.48304406126984795,
            -0.18739267346792604,
            0.21530497777353497,
            0.12070217167890954,
            0.025639240053751264
        ],
        [
            0.1572431224026013,
            -0.07271264021586678,
            -0.3925730290258301,
            -0.13864848894377632,
            -0.014038843128599857,
            -0.3654447877861064,
            -0.194604951104046,
            0.016756438423511745,
            -0.5506468076965542,
            0.12027755043944456,
            0.06363186992694192,
            0.031790407539431666,
            -0.10773071012068469,
            -0.23691742101851018,
            -0.13679503647568103,
            -0.27017876501947863,
            -0.16780767575502262,
            -0.10655034558296363,
            0.2138811375681932,
            -0.21362841451379325,
            0.2223271848857588,
            -0.020382835093054746,
            0.055248895908095716,
            -0.040986982502579726,
            -0.0983622317310013,
            0.23446524079800307,
            -0.08200744209206985,
            -0.03399732704598758,
            -0.07235591099213305,
            0.015658573769375204,
            -0.15261950663627175,
            -0.058052176584134675,
            0.03623856671173689,
            -0.3112907255807091,
            -0.043017425480912044,
            -0.1204371476969444,
            0.07643328632714012,
            0.006430661831834464,
            0.056773211990921384,
            -0.09960858924270147,
            0.2111005957559705,
            0.09127397341129183,
            -0.3053857756302839,
            0.4304796021615052,
            0.25769742260904577,
            0.023211895316861866,
            -0.02335465144984785,
            0.03564354641197958,
            0.08600329001441248,
            -0.03937034557700467,
            -0.03300023568371062,
            0.016694993367552712,
            0.11038758676349635,
            -0.2062153823923501,
            -0.3551739760224828,
            -0.15241240686140733,
            0.17416913479359694,
            0.13492622599162285,
            0.2993979558679671,
            -0.2726965189541341,
            0.06795258280078884,
            0.13734825355738778,
            -0.03219792152663922,
            0.07110592433005393,
            0.10704211365967016,
            0.09666327800614317,
            -0.010956046487258047,
            0.22673296153488334,
            0.24385442852997308,
            0.3921763130747858,
            -0.08321777781483544,
            -0.008817958455994297,
            0.142129197380131,
            -0.06355773625418083,
            0.2941547331727794,
            -0.027364090647397633,
            -0.17138005516572793,
            0.12721211461711793,
            0.019431960480318887,
            0.19013880576556197,
            -0.6875105949591827,
            0.016015022834838778,
            0.05183059876246509,
            0.0428079943370802,
            -0.22442061137374933,
            0.19440315119467663,
            0.16178518972399167,
            0.0920238776019244,
            0.22406933920774866,
            -0.08103878651489978,
            0.17518095717151613,
            0.020853574779885416,
            0.16824090769706113,
            0.021013247143189803,
            0.024576359111137213,
            0.0023272420411677,
            0.20896745392787325,
            -0.27017037312104386,
            0.20152824987423062,
            0.06793319718499276
        ],
        [
            0.08387624108686442,
            -0.08069822535440707,
            -0.03222400223794139,
            0.20288304739504884,
            0.21951715202411665,
            0.20960988002803077,
            -0.1158439632483776,
            -0.08760198551921443,
            -0.052044689815832816,
            -0.1218513085923978,
            0.14248256721147837,
            0.013953915097399537,
            0.022811678041139635,
            0.05548622443036536,
            0.2161958073647377,
            -0.265879041506652,
            -0.07863200946041317,
            0.13705724018930848,
            0.016606907660255604,
            0.21202956818139404,
            0.15702301316364176,
            0.16235415661863906,
            -0.05317207650624133,
            0.21623081436797403,
            0.006344630011669005,
            0.2393260100790092,
            -0.00937064604690433,
            -0.18676950520536942,
            0.12422609989424636,
            -0.07330846464054563,
            -0.22031062362657014,
            -0.1247451854933378,
            -0.016480637613472394,
            -0.12656798132960953,
            -0.1396596081966126,
            -0.09887721132301998,
            0.07031153405777141,
            0.08476827358398487,
            -0.06956004873577336,
            0.07901297666298095,
            -0.12031864994047003,
            0.07262073191200712,
            -0.04879938655458044,
            0.0357366160210251,
            -0.1477163743902513,
            0.02354392900723084,
            -0.16057923627293108,
            -0.04829445675118237,
            0.12054633293842874,
            0.13109158598829612,
            -0.07122844344113088,
            0.11799485263670885,
            0.122216939050617,
            -0.14700741186182756,
            -0.10322848601926311,
            -0.2009938890426579,
            0.02136041394903422,
            0.0636558914467313,
            0.09355806029610587,
            0.024362407326934742,
            -0.09416044039612295,
            -0.03425694032176417,
            -0.021539009048741682,
            0.029075315629676274,
            0.2564623667615191,
            -0.09417699862633622,
            -0.12071877663508501,
            0.02665041928184127,
            0.13432680465888833,
            0.009601082780540223,
            -0.21635280119963227,
            -0.024787802558597537,
            0.026063413069607248,
            0.07109599104310732,
            -0.06763601952575773,
            0.16749759462834357,
            -0.12015978205676572,
            -0.02146987855386935,
            -0.19278535059293964,
            0.026974187068853656,
            0.12396426423763718,
            0.012345745776290511,
            0.1319256268790819,
            -0.17920163150776944,
            -0.025426035028547983,
            -0.13149344516948064,
            -0.17061478867593988,
            -0.010247021086666613,
            -0.14546423822226412,
            0.09919454362277735,
            0.17760454774736653,
            0.09682233938248226,
            -0.09741894019396295,
            0.3140033006692772,
            -0.013306201015850517,
            0.16740507028867324,
            -0.0049551546261005774,
            0.27751911289990894,
            -0.14486449954691147,
            0.03867841439862953
        ],
        [
            0.23385198451851477,
            0.30893494059610427,
            -0.03854943311440284,
            -0.0932115544178176,
            0.07963855822049304,
            0.16727103292982431,
            -0.10222357298141782,
            -0.02130991458307678,
            0.15527256535453468,
            -0.24051357197337778,
            -0.04078483040720614,
            0.1716510670315312,
            0.12283115654856491,
            -0.2718547583188392,
            -0.0013556005247591539,
            -0.04116528512945657,
            0.060354419469208366,
            0.15739866300441138,
            0.025296754558740354,
            -0.24481118950093905,
            0.12169552806590145,
            0.02472668459670891,
            0.010676884466996129,
            -0.026059662765293687,
            0.31617928736334966,
            -0.07634138850582663,
            0.09810829958228492,
            -0.13058185258559726,
            -0.022059271855547014,
            -0.2362231849580288,
            0.23691163487019065,
            0.1827735040116038,
            0.18347317668493388,
            -0.1375756889149488,
            0.030851618511602476,
            0.13928128708716467,
            0.11057747529612451,
            -0.015978991014592908,
            -0.24673250769498453,
            -0.10709934512425089,
            -0.04020325675337033,
            -0.43864591993816704,
            -0.2067257748374732,
            -0.07255942696800591,
            0.028256522441510338,
            0.03591040765111208,
            -0.004621654630509108,
            0.10504108709063958,
            -0.1088402157889082,
            0.023941586519865627,
            0.006105414489332423,
            0.029515692236631558,
            -0.11076662623778533,
            0.21969400125824964,
            0.030543615993475156,
            0.1473319824144677,
            -0.17336293056855723,
            -0.05637107480202796,
            0.0770139530132068,
            -0.04807954357357933,
            0.3294169225249749,
            -0.03964426446938617,
            0.0743549199365619,
            -0.15251813296317077,
            0.24437326794313072,
            -0.06829199745914721,
            0.002576598332914056,
            -0.16569388890033884,
            0.09235552768926017,
            0.13232588525318745,
            0.0037686686003813447,
            -0.029681546474083477,
            0.029018167888121386,
            0.07787663677019938,
            0.016378518143531542,
            0.09218151383689825,
            0.056460166454778984,
            -0.018604200764730378,
            0.12687057868012955,
            0.14934710503603038,
            -0.15364488256592224,
            0.21321534136930004,
            0.07667611151655516,
            0.027574450206907113,
            -0.26438810758637454,
            0.17076115604729547,
            -0.07181001833756231,
            0.0646024948854844,
            0.09545615845875681,
            -0.21550571482920808,
            0.04885946363925016,
            -0.09559254489835584,
            0.18668660362240289,
            0.06194756868352874,
            0.0006544997456133005,
            0.2435364806295449,
            0.056767953006740555,
            -0.1104351900493775,
            0.12045996560131567,
            0.023165621579018834
        ],
        [
            0.13808682593733024,
            0.050561467820857284,
            -0.012911036711936845,
            -0.34040604428050836,
            -0.020447026816574787,
            0.10150186534275213,
            0.09366434227580055,
            0.02321503591522938,
            -0.3256395736319779,
            -0.2820521674145616,
            -0.09471046572520879,
            0.014476351702280146,
            0.047732168536299927,
            0.031929185366605876,
            0.00786608320353662,
            -0.5711663244416626,
            0.17202400026832537,
            -0.11496622200019768,
            0.021250054020134797,
            -0.08786620822711481,
            -0.19477543164997904,
            -0.03690831432885967,
            -0.04417854347773174,
            0.1667173364998898,
            -0.19553907659475353,
            0.13212133238346752,
            0.17394802232617435,
            -0.017647171934540056,
            -0.03783267620216489,
            0.06474997788692458,
            0.12592579647698582,
            0.0016149009884853492,
            -0.11619266375660808,
            0.12051947367797426,
            0.0879194200851354,
            -0.030342725305337475,
            -0.04819986307787441,
            -0.1043726515856435,
            -0.05472234300852987,
            0.09146092950543958,
            0.06910633082046104,
            0.1118688518993396,
            0.07242641848161363,
            0.13173280363244988,
            -0.01994405838449864,
            0.2748193016535697,
            0.04966779174141392,
            -0.10565275003571147,
            -0.06568223026961438,
            0.11111607750079898,
            -0.06783751394389899,
            0.06555465299847653,
            -0.08340200528307863,
            0.15845240415057407,
            -0.03401211407807898,
            -0.1028349291769728,
            0.1957515138595145,
            0.10585104712128712,
            0.07137384802765315,
            0.1711671834984794,
            0.01654500584769388,
            0.14814205693897683,
            -0.04795857293375038,
            -0.2292171555145982,
            0.07041687642265497,
            0.026671474058026695,
            -0.17006146540389866,
            -0.18459649992673682,
            0.22006900481050337,
            -0.018654915313570147,
            0.07078452472661276,
            -0.15513104429268842,
            -0.009724000320135647,
            0.21497634355941012,
            0.08186244318056687,
            0.12489808812973888,
            -0.12719726306015514,
            0.10583019524984616,
            0.013003915300346497,
            -0.12739802656753474,
            0.02699828447392401,
            -0.12961010029320835,
            0.09740855372775153,
            -0.196422693621778,
            -0.12934962379280462,
            -0.009293389493198355,
            -0.11059999942757835,
            -0.04048449965643081,
            0.053131337175154204,
            -0.0042729261641646955,
            -0.24165422538378908,
            0.10951154148011003,
            -0.20805359588976177,
            -0.6346036010144139,
            -0.033681060494548165,
            0.1096382634735258,
            -0.14754977153225862,
            0.05175637177046452,
            -0.01105822745457835,
            -0.020413912550576518
        ],
        [
            -0.15529335639326475,
            0.18157180952891924,
            0.10565412250444901,
            0.16970859156932916,
            -0.32818706584047996,
            0.028543455295693784,
            0.064802870287516,
            0.1036662762576589,
            -0.09986460753673648,
            0.11932532797412401,
            0.016955255517569864,
            -0.18972805789683497,
            0.009623187931919287,
            -0.2917814928658803,
            0.16842213575422194,
            0.1752078104694218,
            -0.18633619879855673,
            0.13986316457745812,
            -0.21642517580183232,
            -0.012164392415031538,
            -0.02823214361919656,
            -1.7265542050023859,
            -0.1234353319422229,
            0.12726568303149416,
            -0.257356825306141,
            -0.1587184376330574,
            0.11960740589009669,
            0.006919975864895235,
            0.0419769631656428,
            -0.33877377401530845,
            0.11206828987191848,
            0.020772584185985588,
            0.02167705470012262,
            0.05956183988585346,
            -0.10042574907631557,
            -0.11680130370666823,
            -0.017699368373879344,
            -0.2684916114660984,
            0.08749306407248586,
            0.1530003891688753,
            0.12881150394638866,
            0.16359434600401285,
            -0.10358714769986474,
            -0.07888246574146611,
            0.13142205497868023,
            -0.02757308275145905,
            -0.29214536860402734,
            -0.06715303489941317,
